{"layer1": {"weights": [0.5283284783363342, 0.7411704063415527, 0.5770853161811829, -0.06292136758565903, 0.7629308700561523, 0.4823848605155945, -0.08940558135509491, 0.15909874439239502, -0.21655458211898804, 0.06335592269897461, -0.21397222578525543, 0.22926874458789825, 0.13389426469802856, 0.005256253760308027, -0.19394108653068542, -0.3068069517612457, 0.041393592953681946, 0.03396398946642876, 0.5118659734725952, -0.3151431679725647, 0.19287486374378204, -0.04357779026031494, 0.37281346321105957, 0.2876048982143402, -0.2901681363582611, -0.06897258013486862, -0.015867585316300392, -0.18111465871334076, 0.06350050121545792, -0.30716878175735474, 0.05060958117246628, -0.36598944664001465, 0.1363588571548462, 0.2318781465291977, -0.1705310046672821, -0.11278190463781357, -0.2372206598520279, 0.1867971420288086, 0.07516966015100479, 0.194337859749794, 0.0027732993476092815, 0.14282110333442688, 0.11662251502275467, 0.05360671877861023, 0.291501522064209, -0.09819631278514862, 0.09491220116615295, 0.1673189103603363, -0.171570286154747, 0.20679621398448944, 0.23110993206501007, 0.1581861525774002, 0.03661153092980385, 0.004885007627308369, -0.027085905894637108, 0.07204852998256683, -0.05456537380814552, 0.0030389195308089256, 0.10126488655805588, 0.07004634290933609, 0.019431088119745255, 0.06666438281536102, 0.022220829501748085, -0.008504388853907585, 0.06401651352643967, 0.10354584455490112, 0.05002512037754059, 0.07707906514406204, 0.039499495178461075, -0.00729040801525116, -0.11581970006227493, 0.15001264214515686, 0.038722481578588486, -0.038603395223617554, -0.019378578290343285, -0.08621206134557724, 0.09244254231452942, 0.10626039654016495, 0.00961359404027462, 0.005798244383186102, -0.08820952475070953, 0.020188983529806137, -0.03195871785283089, 0.07000187039375305, 0.03221696987748146, 0.04848765581846237, -0.027800986543297768, -0.054692450910806656, 0.010952139273285866, -0.06794875115156174, -0.022685032337903976, -0.010093568824231625, 0.02088996022939682, -0.05918910354375839, -0.032442376017570496, -0.04942482337355614, -0.09124648571014404, 0.05493328720331192, -0.0432824045419693, -0.023571284487843513, 0.032736144959926605, -0.11017148196697235, -0.14431656897068024, 0.033958762884140015, -0.1284354031085968, -0.04448477551341057, 0.34226784110069275, 0.020259475335478783, -0.10166426002979279, -0.05757617577910423, 0.1343892514705658, -0.04136857017874718, 0.30016130208969116, 0.07286094129085541, 0.06795496493577957, 0.03300188109278679, -0.0028643240220844746, 0.04313663765788078, 0.031967587769031525, 0.07536893337965012, -0.04242120310664177, -0.025526728481054306, -0.07533126324415207, -0.1570453643798828, -0.18663612008094788, 0.10247177630662918, 0.1295369267463684, -0.01035896223038435, 0.012164164334535599, 0.12016414850950241, 0.02679956704378128, -0.012303539551794529, 0.03962218761444092, -0.013842076994478703, 0.10539920628070831, 0.06676042079925537, 0.13947205245494843, -0.03514061123132706, -0.0032079864758998156, -0.05027369409799576, 0.018246615305542946, -0.0306130051612854, 0.22015661001205444, 0.048575397580862045, 0.009366525337100029, -0.09165433794260025, 0.017824020236730576, -0.022586951032280922, 0.10766001790761948, 0.14042235910892487, -0.07543778419494629, -0.05782146006822586, 0.08079642802476883, -0.02568000555038452, -0.053832050412893295, 0.003323021112009883, 0.01692701131105423, -0.0012127634836360812, 0.004267336335033178, 0.03871392086148262, -0.12645919620990753, -0.0818430483341217, -0.03686734288930893, 0.11793465167284012, 0.02609233930706978, -0.10424424707889557, -0.006047016941010952, -0.021785151213407516, 0.02799839712679386, 0.0754772275686264, 0.03695894405245781, 0.0037632756866514683, -0.10571450740098953, 0.02680315636098385, 0.07199841737747192, -0.02495190128684044, 0.009436413645744324, 0.06970508396625519, 0.05121324583888054, -0.01940922997891903, -0.0783529207110405, -0.06176704168319702, -0.03174075111746788, 0.09368127584457397, -0.14605693519115448, 0.012485220097005367, 0.10094428062438965, 0.008215595968067646, 0.014540798030793667, 0.015016049146652222, 0.04949837550520897, 0.030334068462252617, -4.636139783542603e-05, 0.06693029403686523, 0.004274778068065643, 0.04341178759932518, 0.05028943344950676, 0.06875762343406677, 0.03672781214118004, -0.020528163760900497, 0.01515098474919796, -0.04807719215750694, 0.029383068904280663, 0.04273921251296997, -0.022897792980074883, 0.05200240761041641, -0.17897282540798187, 0.09033210575580597, -0.03768577054142952, 0.0018453036900609732, -0.05311794579029083, -0.024477217346429825, -0.0846584215760231, -0.00010846598888747394, -0.005094403401017189, 0.06741620600223541, 0.00446389289572835, 0.06712596118450165, -0.09568411111831665, -0.17622821033000946, -0.10020200163125992, 0.08076074719429016, 0.0003471396630629897, 0.05194997414946556, 0.008482705801725388, -0.024701735004782677, 0.025963803753256798, 0.01864715665578842, 0.01035394612699747, -0.03405825048685074, -0.00906237494200468, 0.05440603941679001, -0.043001458048820496, -0.03654250502586365, -0.0716579332947731, 0.056873779743909836, 0.04804717376828194, 0.07565078139305115, 0.06635869294404984, -0.02042251080274582, 0.03644545376300812, 0.04971729591488838, 0.07960402965545654, 0.05580894276499748, -0.02620336227118969, 0.009671988897025585, -0.013756411150097847, 0.05577205866575241, 0.017958497628569603, -0.09397957473993301, -0.0011812911834567785, 0.05703311040997505, -0.1696006953716278, 0.20980823040008545, -0.02827027440071106, -0.0006448745843954384, 0.051618173718452454, 0.06721533834934235, -0.08784442394971848, 0.011446062475442886, -0.016171738505363464, -0.049413640052080154, -0.10520509630441666, 0.04385300725698471, 0.12209805101156235, 0.002277281368151307, 0.1292838603258133, 0.0369221493601799, 0.18845102190971375, -0.019523268565535545, -0.6302463412284851, -0.059740714728832245, 0.10421396791934967, 0.03565552458167076, -0.1824589967727661, -0.20961648225784302, -0.3745788633823395, -0.18317143619060516, 0.31433960795402527, 0.006925494410097599, -0.13810381293296814, 0.07649372518062592, -0.09058083593845367, -0.09720774739980698, 0.03950716555118561, 0.13105593621730804, -0.2888558804988861, -0.5269590616226196, -0.3251138925552368, -0.35481497645378113, 0.24419333040714264, 0.09483640640974045, 0.1709904819726944, -0.5742475986480713, -0.16878437995910645, 0.3115043342113495, 0.22015689313411713, 0.03400755301117897, 0.012624943628907204, -0.3544520437717438, 0.15986551344394684, -0.2075454294681549, 0.5666691064834595, 0.06785701215267181, 0.3339556157588959, -0.2331438809633255, 0.26329505443573, 0.3638079762458801, -0.2766988277435303, 0.17513838410377502, -0.40011388063430786, 0.08830317854881287, 0.5530786514282227, 0.37767255306243896, 0.12826520204544067, -0.20299912989139557, -0.06915826350450516, 0.5054123997688293, -0.029204120859503746, 0.5347065925598145, -0.06435994803905487, -0.39071017503738403, 0.0986800342798233, 0.02166730724275112, 0.0342349112033844, 0.09051687270402908, 0.033682696521282196, 0.07794564217329025, 0.11591532826423645, 0.044415149837732315, -0.08202673494815826, 0.021898899227380753, -0.03285250812768936, -0.00903301127254963, -0.08207853138446808, 0.025736257433891296, -0.04159637540578842, 0.03634195774793625, 0.09102780371904373, 0.08689185231924057, 0.016430964693427086, 0.060289252549409866, -0.009202886372804642, 0.08600319176912308, -0.033715736120939255, 0.029774997383356094, 0.05005741864442825, -0.14841878414154053, 0.1028665155172348, 0.049773599952459335, 0.09599051624536514, 0.10102496296167374, 0.0001549912558402866, 0.09023243933916092, -0.07713185995817184, 0.033562321215867996, -0.036861520260572433, 0.034133099019527435, -0.011763229966163635, -0.04698321968317032, -0.035050228238105774, -0.09095372259616852, 0.22008393704891205, -0.006410688161849976, -0.056880008429288864, -0.06893990933895111, -0.002210145117715001, 0.02022993564605713, -0.10366739332675934, -0.0598769411444664, 0.046627361327409744, -0.0904969573020935, -0.008301633410155773, 0.10109817236661911, 0.1431879699230194, 0.1550041139125824, -0.056220415979623795, 0.13635797798633575, 0.09144634008407593, 0.11932890117168427, 0.06587611883878708, 0.1336916834115982, 0.18531830608844757, 0.09347715228796005, 0.06266804784536362, 0.05537639930844307, 0.0552666038274765, 0.008061361499130726, 0.0019520026398822665, -0.07243815064430237, 0.08240397274494171, 0.06767891347408295, 0.04395734518766403, 0.09374918043613434, 0.01720050349831581, -0.024137413129210472, 0.032012760639190674, 0.07514499127864838, -0.03860120102763176, 0.015185119584202766, 0.04044046998023987, -0.029234373942017555, -0.010772083885967731, 0.07805221527814865, -0.043770935386419296, 0.05296263098716736, -0.000499702466186136, 0.016448823735117912, -0.018073122948408127, 0.03987152874469757, 0.06392314285039902, 0.09259125590324402, 0.112373486161232, 0.01842198148369789, 0.07383424788713455, -0.003855361370369792, 0.12092303484678268, 0.027106206864118576, -0.03418869152665138, -0.033311277627944946, 0.06790870428085327, 0.005190510302782059, -0.05333247408270836, 0.011933929286897182, -0.06630005687475204, -0.010259387083351612, -0.028144720941781998, -0.018075836822390556, 0.04091375321149826, 0.019173240289092064, -0.10371927171945572, 0.05685320869088173, 0.07010951638221741, -0.010195937007665634, 0.07131160795688629, 0.012130986899137497, 0.018193412572145462, -0.08352268487215042, 0.06616988033056259, -0.07252851873636246, -0.02880866266787052, -0.0112786078825593, -0.12979821860790253, 0.03347063437104225, 0.0886056199669838, 0.011628568172454834, 0.12767119705677032, 0.1102069765329361, -0.02882416918873787, 0.017993828281760216, 0.03600402921438217, 0.035320185124874115, -0.022951744496822357, 0.15603971481323242, -0.08983878791332245, -0.19260390102863312, 0.055748868733644485, 0.09229065477848053, 0.03935576230287552, 0.052214618772268295, 0.018449248746037483, 0.031975314021110535, -0.07113312184810638, -0.02999207377433777, 0.13454841077327728, -0.011067197658121586, -0.02185659669339657, -0.04626857861876488, 0.11858989298343658, 0.03742273896932602, 0.01416696049273014, 0.07427579164505005, 0.0734519213438034, -0.06633569300174713, 0.026596881449222565, 0.09250563383102417, 0.07268622517585754, -0.06212905794382095, 0.05338513106107712, 0.06257481873035431, 0.02884320728480816, -0.02416939288377762, 0.018767649307847023, 0.006906343623995781, 0.04191621020436287, 0.008896968327462673, 0.04797399044036865, -0.016380909830331802, 0.12895409762859344, 0.07708464562892914, 0.09705980122089386, -0.029437614604830742, 0.03190441429615021, 0.08041439205408096, -0.11951036006212234, -0.010800039395689964, -0.02529071643948555, -0.034991372376680374, 0.11862684786319733, -0.03223457187414169, -0.06114307418465614, 0.0040289354510605335, 0.0330100953578949, 0.0056163109838962555, 0.056428954005241394, 0.0011859560618177056, 0.04334592819213867, 0.053317248821258545, 0.06038549542427063, -0.06370100378990173, 0.03893643245100975, 0.08136800676584244, 0.030421005561947823, 0.032641731202602386, 0.034761007875204086, 0.03867782652378082, 0.1485818326473236, -0.03638562560081482, 0.03751178830862045, -0.0027545345947146416, 0.07467814534902573, 0.0521862655878067, 0.06726635247468948, 0.025378545746207237, 0.05328743904829025, -0.023806586861610413, 0.0827626958489418, 0.06396178156137466, -0.0384819395840168, -0.07597670704126358, 0.008299269713461399, 0.017603984102606773, 0.15082262456417084, -0.0008132148068398237, -0.04731738939881325, -0.05162838473916054, -0.02228197082877159, -0.07572396844625473, -0.10388781130313873, -0.017341790720820427, -0.5408381819725037, 0.11427237838506699, -0.31366509199142456, -0.03419074788689613, 0.06955339759588242, -0.45998334884643555, -0.654423177242279, 0.21054522693157196, -0.1345142424106598, 0.23662561178207397, -0.5808780789375305, 0.2546873688697815, 0.20370495319366455, 0.2111138254404068, 0.1504073441028595, -0.2370024025440216, 0.0702500268816948, -0.20224355161190033, 0.24864551424980164, 0.16232332587242126, 0.4509688913822174, 0.01817820593714714, 0.5551454424858093, 0.03732282668352127, 0.21334291994571686, -0.3607518970966339, -0.2314366102218628, 0.20803457498550415, -0.28430110216140747, 0.09363128244876862, -0.01798289828002453, 0.4876624643802643, -0.14145039021968842, -0.23959238827228546, -0.2137187123298645, 0.06000612676143646, -0.13936886191368103, 0.06740841269493103, 0.03220751881599426, -0.036384496837854385, 0.5729082822799683, 0.09262986481189728, 0.15615606307983398, 0.24659186601638794, -0.12622174620628357, 0.25185513496398926, -0.17068329453468323, 0.08984491974115372, 0.05875500291585922, -0.0667610839009285, 0.3006899058818817, -0.10814956575632095, 0.1169818565249443, 0.08681709319353104, 0.019679540768265724, -0.038299426436424255, 0.0031058897729963064, 0.01756903901696205, 0.2292969673871994, -0.0007190641481429338, 0.03838358446955681, -0.06294850260019302, 0.06689589470624924, -0.07266473770141602, -0.12619717419147491, 0.060203175991773605, 0.11138632893562317, 0.10568185150623322, -0.005477368365973234, 0.11184237897396088, 0.03051927499473095, -0.0809616819024086, -0.07659167796373367, -0.04842177405953407, -0.17192178964614868, 0.1339508444070816, 0.004638713784515858, 0.06175920367240906, 0.06679427623748779, -0.0012056409614160657, 0.08728095889091492, 0.013028903864324093, 0.009101767092943192, -0.18023546040058136, 0.017336755990982056, -0.031114831566810608, 0.1601971685886383, 0.028442395851016045, -0.03602488711476326, -0.12659446895122528, -0.011178437620401382, 0.06286606192588806, -0.08330096304416656, 0.04722290858626366, -0.02912207879126072, -0.07780437916517258, 0.13745859265327454, -0.1852375566959381, -0.052627138793468475, -0.11767037957906723, -0.01133379153907299, 0.06944743543863297, -0.03145275264978409, 0.0876343622803688, 0.03445535898208618, -0.08851989358663559, 0.13549603521823883, -0.03891490399837494, 0.06999935954809189, -0.10806796699762344, 0.1498497873544693, 0.009381975047290325, 0.053380075842142105, 0.05812256783246994, -0.11561319977045059, 0.02686542645096779, 0.09029901027679443, -0.04469441622495651, -0.0357026681303978, -0.09118273854255676, 0.09805189073085785, 0.048156626522541046, 0.03317130357027054, -0.03469160944223404, 0.0750047117471695, 0.056567829102277756, 0.04530177637934685, 0.1202072873711586, 0.07777178287506104, 0.03214344009757042, 0.1441517472267151, -0.052596043795347214, 0.011644159443676472, -0.031207522377371788, 0.004281817935407162, 0.07511722296476364, -0.0925881415605545, -0.08757572621107101, -0.010754170827567577, -0.054617173969745636, 0.04083116725087166, 0.028078584000468254, 0.05149064585566521, -0.027622217312455177, -0.006237775087356567, 0.055360786616802216, -0.040493253618478775, 0.06139330565929413, -0.030497495085000992, -0.03139972314238548, 0.15860028564929962, 0.002906328998506069, 0.04339190572500229, 0.05143922567367554, 0.009935611858963966, 0.04826676473021507, 0.01580270379781723, 0.07787361741065979, -0.04734088480472565, -0.07730785012245178, -0.10513405501842499, -0.0454084686934948, -0.06283056735992432, 0.004937159828841686, 0.03426509350538254, -0.02871621772646904, -0.02843729965388775, 0.10087387263774872, -0.013762518763542175, -0.06441764533519745, 0.06624741852283478, 0.014509960077702999, 0.021438274532556534, -0.023231133818626404, 0.010425352491438389, 0.06897090375423431, 0.054287832230329514, 0.08427457511425018, -0.026931794360280037, -0.028787022456526756, 0.0011420234804973006, 0.0806761160492897, -0.008297048509120941, 0.059334512799978256, 0.0883098766207695, -0.015693608671426773, 0.17085914313793182, 0.09208027273416519, 0.11645122617483139, 0.0487767793238163, 0.051749587059020996, 0.050401680171489716, 0.06253265589475632, -0.1038099154829979, 0.03783610090613365, -0.073802649974823, -0.024385232478380203, -0.07063701748847961, 0.007202812470495701, -0.07366785407066345, -0.007129760924726725, -0.0018026044126600027, 0.028588969260454178, -0.004005943424999714, 0.10415812581777573, 0.10355060547590256, 0.0025873961858451366, -0.01819762773811817, -0.03257540240883827, 0.0509193129837513, -0.042236845940351486, -0.004171604290604591, -0.013187950477004051, 0.0411832369863987, 0.03528807312250137, -0.007027241867035627, 0.038455311208963394, -0.03496324643492699, -0.13580094277858734, 0.08832372725009918, 0.03852903097867966, 0.09826559573411942, 0.07032083719968796, 0.01629699021577835, 0.008242362178862095, 0.03894992545247078, 0.004905278794467449, -0.02359250746667385, 0.026029611006379128, 0.12069449573755264, -0.006341567728668451, 0.03328494355082512, -0.0003388401528354734, 0.02397005632519722, -0.017422674223780632, 0.011371168307960033, 0.08856518566608429, -0.012238544411957264, 0.04151967912912369, 0.03399399667978287, 0.03669074922800064, 0.0010983202373608947, 0.037556711584329605, 0.06978623569011688, -0.08453193306922913, 0.061334602534770966, 0.0641283243894577, -0.018705984577536583, 0.014227977953851223, -0.07166347652673721, 0.02782914787530899, 0.009033076465129852, 0.053918078541755676, -0.010529015213251114, 0.03729991242289543, 0.15490247309207916, 0.06775201112031937, 0.026164837181568146, -0.02890736609697342, 0.06805834919214249, 0.029588131234049797, 0.10942310839891434, 0.008967269212007523, 0.03753389045596123, 0.027702441439032555, 0.027888881042599678, 0.0037480138707906008, 0.0010324760805815458, 0.04638038948178291, 0.08069586753845215, -0.5019232630729675, -0.20330895483493805, -0.10487142205238342, 0.11760257929563522, -0.15411972999572754, -0.1487704962491989, -0.6234573125839233, -0.567923903465271, 0.4551595151424408, 0.3592907190322876, -0.4128497540950775, -0.10258631408214569, 0.2655991017818451, -0.1540214866399765, 0.06088307127356529, 0.04371238127350807, 0.12469038367271423, -0.19502322375774384, -0.45845791697502136, -0.10511139035224915, -0.40462881326675415, -0.14973951876163483, 0.2452859729528427, 0.0415232852101326, -0.02806447260081768, 0.19756518304347992, 0.2911161780357361, -0.01987159624695778, 0.21839569509029388, 0.5277101993560791, 0.10056038200855255, 0.4812014698982239, 0.3071707487106323, 0.031405337154865265, -0.1878061145544052, -0.30351722240448, 0.04490647464990616, -0.15343022346496582, 0.09270308911800385, -0.5514729022979736, 0.008361143991351128, -0.4463702440261841, 0.3895971477031708, 0.28345987200737, 0.08843826502561569, 0.36900168657302856, -0.12275434285402298, -0.033275336027145386, 0.22821949422359467, 0.28537777066230774, 0.23412704467773438, -0.12270817905664444, -0.07784206420183182, 0.06772687286138535, -0.03091798536479473, 0.007377619855105877, 0.01986936293542385, -0.001984156435355544, -0.008102023042738438, 0.04602263867855072, -0.021754859015345573, -0.2010885775089264, 0.06453853845596313, 0.0688408836722374, -0.1257496476173401, 0.07620277255773544, 0.03252486139535904, 0.015468665398657322, -0.04777068644762039, 0.003002813318744302, 0.11558306217193604, -0.034088023006916046, 0.029092611744999886, -0.033674437552690506, -0.13969947397708893, -0.027003517374396324, 0.0561828576028347, 0.0201425738632679, 0.056177444756031036, 0.12185916304588318, 0.005267017986625433, -0.10625585913658142, 0.08074688911437988, -0.025772834196686745, -0.00300243659876287, 0.09906845539808273, 0.12032429128885269, 0.1163242757320404, 0.1395774483680725, 0.02461002953350544, -0.10481563210487366, 0.14804483950138092, -0.06181555613875389, 0.048439398407936096, -0.10401160269975662, -0.03180291876196861, -0.05439762771129608, -0.11163877695798874, -0.006747219245880842, -0.14299650490283966, -0.03500360995531082, -0.06944714486598969, -0.09138581901788712, 0.04247770085930824, 0.17064517736434937, 0.18354631960391998, -0.08533906936645508, 0.1343662142753601, 0.16001993417739868, 0.241559699177742, -0.03513379022479057, 0.1234671026468277, 0.13160641491413116, -0.014800619333982468, 0.04316665232181549, 0.10076464712619781, 0.050037696957588196, 0.05098564922809601, 0.11788052320480347, 0.1421532928943634, 0.03864635154604912, -0.03125784918665886, -0.00843836273998022, -0.022204779088497162, -0.04189354553818703, 0.04706230014562607, 0.055132050067186356, 0.07071320712566376, -0.11796796321868896, -0.13586781919002533, 0.0477912612259388, -0.003586110658943653, 0.04164859279990196, 0.0006724130362272263, 0.0729818046092987, 0.05821443349123001, 0.022380182519555092, -0.004918082617223263, -0.019238565117120743, 0.06761118024587631, 0.09651698917150497, -0.08454301208257675, -0.004196185618638992, 0.07657386362552643, 0.03960881382226944, -0.10593227297067642, 0.017573527991771698, 0.054605331271886826, -0.02927372232079506, 0.062071312218904495, 0.05163528025150299, -0.012354054488241673, 0.0014418684877455235, -0.06662045419216156, 0.03636118769645691, -0.146356463432312, -0.0491907075047493, -0.009019735269248486, 0.13766205310821533, 0.03384309262037277, 0.026981675997376442, 0.05032927170395851, -0.02449129894375801, -0.006631396245211363, -0.10555737465620041, -0.010236713103950024, 0.01802700385451317, 0.050038423389196396, -0.0025798219721764326, -0.09876349568367004, 0.00010080305219162256, -0.011547893285751343, 0.04197103530168533, 0.04751374572515488, -0.029351985082030296, 0.07375258207321167, 0.02223583310842514, 0.14141128957271576, -0.0689520612359047, 0.09602179378271103, 0.040685977786779404, 0.054281339049339294, -0.02254219353199005, 0.1854586899280548, 0.08318235725164413, -0.08605652302503586, 0.10492163151502609, 0.003334027947857976, 0.036085862666368484, 0.11006839573383331, 0.0603676438331604, -0.09679090231657028, 0.07628023624420166, 0.09312035888433456, -0.06747698038816452, -0.034515783190727234, 0.0015125294448807836, -0.06150169298052788, -0.05539574846625328, 0.011396469548344612, -0.0037648705765604973, -0.11735469847917557, 0.11022359877824783, 0.015549476258456707, 0.14874102175235748, -0.0027862286660820246, -0.016708526760339737, 0.06218598783016205, 0.09101243317127228, 0.037627704441547394, -0.07695639133453369, 0.0607648529112339, -0.008648833259940147, 0.07714834064245224, 0.05082806199789047, -0.01238220278173685, -0.027166597545146942, -0.11257657408714294, 0.0462009534239769, 0.03507562726736069, -0.0048049381002783775, 0.11455550044775009, 0.04545725882053375, 0.06796170771121979, 0.018045155331492424, -0.0076251584105193615, 0.015345758758485317, 0.1134558618068695, 0.15786978602409363, 0.036913249641656876, 0.09857702255249023, 0.004363710060715675, 0.08169424533843994, 0.010382900014519691, -0.0042049637995660305, 0.05976516008377075, 0.10880818217992783, -0.008656852878630161, 0.09551466256380081, 0.03889647498726845, 0.02712644822895527, 0.07189570367336273, -0.029090024530887604, 0.17768454551696777, 0.05645359307527542, -0.010231784544885159, -0.035218823701143265, 0.039639223366975784, 0.005041094496846199, -0.0600745752453804, 0.009871171787381172, 0.06005273014307022, 0.04178805649280548, 0.08709178864955902, 0.10656171292066574, -0.07604599744081497, 0.11022106558084488, -0.046955615282058716, 0.051865074783563614, 0.040315091609954834, 0.057439547032117844, -0.030467554926872253, -0.011394175700843334, 0.10155732929706573, -0.007528768852353096, 0.07675749808549881, -0.017565762624144554, 0.0407690666615963, 0.007126144133508205, -0.023984704166650772, 0.06383820623159409, 0.5729255676269531, -0.13715066015720367, -0.4646035432815552, 0.12788134813308716, -0.22018736600875854, -0.312290757894516, 0.1780998557806015, 0.5305091738700867, 0.28206655383110046, 0.15759803354740143, 0.11128844320774078, -0.3929269015789032, 0.4640897214412689, 0.22435273230075836, -0.19900131225585938, -0.05929448455572128, -0.4325272738933563, -0.16097332537174225, 0.05325930193066597, 0.21351413428783417, 0.2081427276134491, 0.07086817920207977, 0.3449648916721344, -0.2967189848423004, 0.01723850518465042, 0.0728699192404747, -0.1920354813337326, 0.1872372329235077, 0.31500402092933655, -0.05200036242604256, 0.3571808338165283, 0.34325599670410156, 0.04878437891602516, -0.3203793168067932, -0.1090661883354187, 0.17594730854034424, 0.1953982561826706, -0.09662695229053497, -0.034877434372901917, 0.10211388766765594, 0.3707121014595032, -0.14002297818660736, 0.02126467227935791, -0.040711354464292526, 0.3259545862674713, 0.10576184093952179, 0.12986786663532257, -0.3768826723098755, -0.2133176177740097, -0.01728050410747528, 0.2560395896434784, 0.03438559174537659, -0.09686177223920822, 0.1444646120071411, 0.058516837656497955, 0.03477983921766281, 0.06090135872364044, 0.175667867064476, -0.024380385875701904, -0.08761966973543167, -0.059960220009088516, -0.07417649775743484, -0.03016042895615101, 0.018872521817684174, -0.0348583348095417, -0.01092649344354868, -0.011936575174331665, -0.025817953050136566, 0.007834570482373238, 0.13057520985603333, 0.1432866007089615, -0.005263858009129763, -0.02656370960175991, -0.023278022184967995, -0.14553426206111908, -0.006598874926567078, 0.09656991809606552, 0.08350212872028351, -0.017948269844055176, 0.045896220952272415, -0.0025347040500491858, 0.07380563020706177, 0.04477526247501373, -0.08254562318325043, 0.07250873744487762, 0.04699251800775528, -0.019941024482250214, 0.07285416126251221, -0.03920963779091835, 0.020072469487786293, -0.05224279686808586, 0.003733187448233366, -0.04025040939450264, -0.006427764892578125, 0.07048584520816803, 0.06370984762907028, -0.02101721428334713, 0.061137836426496506, -0.08014711737632751, 0.12225297838449478, 0.1329449862241745, 0.005170661024749279, -0.0951736718416214, 0.1718864142894745, 0.1020788922905922, -0.16087105870246887, 0.15034769475460052, 0.2381737232208252, 0.05778668820858002, -0.20529305934906006, 0.04025330767035484, 0.1204138696193695, 0.07263372093439102, 0.08089865744113922, 0.026486024260520935, -0.034214697778224945, 0.03675568848848343, 0.030229821801185608, -0.048910073935985565, 0.008402328006923199, 0.07069859653711319, 0.0010765433544293046, -0.09254536777734756, -0.05189679563045502, -0.02453995682299137, 0.0025577181950211525, 0.0035194759257137775, -0.015562288463115692, -0.008229217492043972, 0.05580679699778557, 0.10962691158056259, 0.09791804105043411, 0.06092946603894234, 0.034633610397577286, -0.004279084503650665, 0.007400989532470703, 0.0988302230834961, -0.025525618344545364, -0.056299250572919846, -0.07423808425664902, -0.1059887632727623, -0.04058675840497017, 0.03129805624485016, -0.04104224964976311, -0.004614079371094704, -0.13540171086788177, 0.003961489535868168, -0.02150566317141056, -0.05645018443465233, 0.011070298962295055, 0.04401944950222969, -0.13089250028133392, -0.09917157143354416, 0.03765337914228439, -0.0011890031164512038, -0.03906599432229996, 0.06119643524289131, 0.1727532595396042, 0.004624281078577042, -0.07586197555065155, -0.07221612334251404, 0.0457923486828804, 0.0814247727394104, 0.06377819180488586, -0.02335306629538536, -0.061598703265190125, 0.014526242390275002, 0.02572324313223362, -0.015977390110492706, 0.01154874637722969, 0.03662215173244476, 0.08724845200777054, -0.019430318847298622, 0.0023130406625568867, 0.0947909951210022, 0.0075347754172980785, 0.11666768789291382, -0.027796978130936623, -0.13424211740493774, 0.015179619193077087, 0.07102294266223907, -0.0010644015856087208, 0.08091382682323456, -0.02521338127553463, -0.027453677728772163, 0.06834761798381805, -0.016698187217116356, -0.07417541742324829, 0.033956460654735565, -0.012528927996754646, -0.046325668692588806, -0.05509312450885773, -0.09717749059200287, 0.10830707848072052, -0.09513291716575623, -0.023952996358275414, -0.044678714126348495, -0.002363004256039858, 0.015158740803599358, -0.012321599759161472, -0.08079838752746582, 0.13937388360500336, 0.027929391711950302, 0.05752592906355858, 0.06084872782230377, 0.0813293606042862, 0.1390373408794403, 0.09850656986236572, 0.07247840613126755, 0.1134050190448761, 0.016916731372475624, 0.044157687574625015, 0.06690040975809097, 0.02166343480348587, 0.006400717422366142, -0.0315568633377552, 0.11788273602724075, -0.04618107154965401, 0.05277790129184723, 0.10226469486951828, 0.07075287401676178, 0.06406792998313904, -0.02914334461092949, 0.03473522141575813, -0.05731864646077156, -0.00868456531316042, -0.031932663172483444, -0.05219942331314087, 0.10122773796319962, 0.1156722903251648, 0.13837458193302155, -0.051288556307554245, -0.08893181383609772, -0.002844320610165596, -0.018527913838624954, -0.02081042155623436, -0.01078790333122015, 0.07906445115804672, 0.06140431761741638, -0.014953109435737133, 0.057093191891908646, -0.03099377080798149, 0.08308801054954529, 0.013582593761384487, 0.033900756388902664, 0.02310951240360737, 0.060713279992341995, 0.07190235704183578, 0.1739828735589981, 0.1305547058582306, -0.10179054737091064, -0.0813382938504219, -0.007785344496369362, 0.04317030683159828, -0.06800886988639832, 0.0038079367950558662, 0.018409669399261475, 0.04039658233523369, -0.054605405777692795, -0.026504959911108017, 0.014959707856178284, 0.023785483092069626, 0.008640564046800137, -0.0032745206262916327, 0.012239376083016396, 0.05183672532439232, 0.07465077191591263, -0.01813979633152485, 0.06592543423175812, -0.5799573659896851, -0.03205965831875801, 0.08334613591432571, 0.41552335023880005, 0.5633633136749268, 0.5755915641784668, 0.26968035101890564, 0.3240478038787842, 0.5456539392471313, -0.13147012889385223, 0.28887784481048584, -0.06414652615785599, -0.28005334734916687, 0.5370150804519653, 0.05389593541622162, 0.28159478306770325, -0.2244064062833786, 0.05640983581542969, 0.3397143483161926, -0.12428256869316101, -0.3641396760940552, 0.5324805974960327, 0.22162695229053497, -0.49463650584220886, 0.3311457931995392, -0.1404614895582199, -0.3649955093860626, -0.21520785987377167, -0.044534314423799515, 0.292894184589386, -0.3715776205062866, -0.44784873723983765, -0.18944920599460602, -0.31168031692504883, -0.0001536812778795138, 0.14900904893875122, 0.03284836933016777, 0.1573677361011505, -0.03624989464879036, -0.5138371586799622, 0.25468412041664124, 0.12331457436084747, 0.35374340415000916, 0.44180628657341003, 0.2696070373058319, -0.16400086879730225, 0.2177833616733551, -0.1804032027721405, 0.06898797303438187, 0.24673758447170258, 0.0031893227715045214, -0.04365314543247223, 0.15144146978855133, 0.10400359332561493, -0.045306555926799774, 0.03909454867243767, 0.02491796389222145, -0.04808377847075462, -0.03033268265426159, 0.007340325508266687, -0.0037179049104452133, -0.045293115079402924, 0.01982876844704151, 0.08838828653097153, -0.014513992704451084, -0.03174585476517677, -0.019505690783262253, 0.029177799820899963, 0.02776358090341091, -0.012820271775126457, -0.03431626036763191, 0.06745553016662598, 0.02442755736410618, -0.11256441473960876, -0.04010118916630745, 0.10278987884521484, -0.04995265230536461, -0.09769821166992188, 0.06753411889076233, 0.10667123645544052, 0.06609222292900085, -0.1461227685213089, 0.035492949187755585, 0.0373748242855072, 0.018318090587854385, -0.047260891646146774, -0.054318368434906006, -0.011761663481593132, -0.05676054581999779, 0.02562190778553486, 0.03161885216832161, 0.10362682491540909, -0.10397756844758987, -0.05850202590227127, -0.1382036656141281, 0.01140012126415968, -0.06939013302326202, 0.1388871967792511, -0.1719999462366104, 0.1263820230960846, -0.08892867714166641, 0.03214142099022865, -0.09262619912624359, -0.0011007923167198896, 0.1169685497879982, -0.07480230182409286, 0.10498757660388947, 0.04303615167737007, 0.22289779782295227, 0.0412091463804245, 0.11069631576538086, -0.035334475338459015, 0.27982187271118164, 0.2093217819929123, 0.010018735192716122, -0.018752748146653175, 0.06079705059528351, 0.07536768168210983, -0.015457523055374622, 0.05173078924417496, -0.03762800991535187, 0.01082615740597248, 0.07606582343578339, -0.1516067534685135, 0.03536016121506691, 0.04405084252357483, 0.0457584485411644, -0.026105336844921112, 0.0016824774211272597, 0.018070319667458534, 0.12600447237491608, -0.04901048168540001, -0.012514627538621426, 0.023386958986520767, 0.09252532571554184, 0.05662347003817558, 0.009334328584372997, -0.011792268604040146, 0.0017163594020530581, 0.055682647973299026, -0.09804481267929077, 0.06690086424350739, 0.005844046361744404, 0.0094410115852952, 0.06252878904342651, -0.03617763891816139, -0.17471164464950562, -0.027039581909775734, -0.06045026332139969, -0.04125107824802399, -0.04093584418296814, 0.08308672904968262, -0.07676522433757782, 0.04237014427781105, -0.02718866989016533, 0.08562365919351578, -0.14398983120918274, 0.14128996431827545, 0.10029702633619308, 0.011680975556373596, 0.015614532865583897, 0.07149302214384079, -0.047441888600587845, -0.017838547006249428, -0.050427570939064026, 0.04336134344339371, -0.10296155512332916, -3.450823714956641e-05, 0.03483886271715164, 0.07504083216190338, -0.0036792869213968515, -0.06700436025857925, -0.09246189147233963, 0.005041725933551788, -0.11813545227050781, 0.018680838868021965, 0.07511516660451889, 0.1480713188648224, -0.0024884433951228857, -0.0890287309885025, 0.06184983253479004, -0.12693732976913452, -0.005242869723588228, 0.04004295542836189, 0.07350131869316101, 0.011575315147638321, 0.1203017458319664, 0.09851283580064774, -0.060264844447374344, -0.01819535344839096, 0.004936505574733019, -0.019337283447384834, -0.015397679060697556, -0.12475553154945374, -0.021000677719712257, -0.037388671189546585, 0.032873865216970444, 0.11171383410692215, -0.021991446614265442, -0.04096563532948494, -0.024916434660553932, -0.04494404047727585, 0.03903879225254059, 0.016382982954382896, 0.08017178624868393, 0.06922195851802826, 0.09774109721183777, 0.04319397732615471, 0.1126236692070961, -0.08294355869293213, 0.051014263182878494, -0.07333632558584213, 0.11087652295827866, 0.04539581760764122, -0.05349079146981239, 0.04123624041676521, 0.07171148806810379, -0.04567920044064522, 0.09215513616800308, 0.11966365575790405, 0.06942781805992126, 0.2115427851676941, 0.089727483689785, -0.014509805478155613, 0.04853087663650513, 0.027308285236358643, 0.02742895856499672, 0.017179271206259727, -0.13478659093379974, 0.005244008265435696, -0.007979560643434525, 0.07331667840480804, 0.020319027826189995, -0.00578484870493412, -0.022754421457648277, 0.09810704737901688, -0.009718185290694237, 0.025699812918901443, 0.02084163948893547, 0.007956260815262794, -0.025806108489632607, 0.07354660332202911, 0.02743823640048504, 0.10857674479484558, -0.037437789142131805, -0.010053027421236038, -0.06977389007806778, 0.07060166448354721, 0.055667705833911896, 0.09660132229328156, -0.01012086495757103, 0.002723017008975148, -0.04652223736047745, -0.010267446748912334, 0.05572958290576935, 0.023083141073584557, 0.0689316838979721, 0.1491391509771347, 0.02557503990828991, -0.06666162610054016, 0.08177617192268372, 0.014991733245551586, -0.009240146726369858, 0.050371814519166946, 0.1027476042509079, 0.08979170769453049, 0.0370250940322876, -0.05408060923218727, 0.06493102759122849, 0.005090255755931139, -0.5991976261138916, 0.16201160848140717, 0.42664477229118347, -0.19277800619602203, -0.1488814651966095, -0.3661282956600189, -0.2206217646598816, -0.1616268903017044, 0.31656572222709656, 0.13707882165908813, -0.15197640657424927, -0.14886143803596497, 0.19187462329864502, -0.0704282596707344, -0.1463843733072281, 0.28398916125297546, 0.019448958337306976, -0.13791435956954956, 0.03419707715511322, -0.06911496073007584, 0.33902278542518616, -0.0030545389745384455, -0.5107631683349609, 0.24069616198539734, 0.4536554515361786, -0.14673103392124176, 0.5627732276916504, 0.5501754283905029, -0.17974530160427094, -0.32298633456230164, 0.241064190864563, 0.4888763427734375, 0.027831386774778366, -0.03349551185965538, 0.12132227420806885, -0.16613832116127014, 0.31672585010528564, 0.2515127658843994, 0.1045270711183548, -0.06400009989738464, 0.22714632749557495, 0.18497934937477112, -0.14602172374725342, -0.04851900041103363, -0.2889097332954407, -0.039663173258304596, -0.4998548924922943, 0.446447491645813, -0.222404345870018, 0.08079646527767181, -0.19385650753974915, 0.1303941011428833, 0.036514345556497574, 0.07447577267885208, 0.12501338124275208, 0.059083905071020126, 0.029084762558341026, 0.05830040201544762, 0.03978138417005539, -0.027287695556879044, -0.08233720809221268, -0.06351868808269501, 0.06252351403236389, -0.04823799058794975, 0.03499052673578262, 0.09322482347488403, -0.02046186290681362, 0.06491179764270782, -0.027102753520011902, 0.02694023586809635, -0.05378333106637001, 0.048003628849983215, -0.060496438294649124, 0.04623262956738472, 0.21063017845153809, -0.020907286554574966, -0.02900085411965847, 0.01607014611363411, -0.037514060735702515, 0.010723669081926346, 0.03955942019820213, 0.19006752967834473, -0.06817864626646042, -0.06563735753297806, 0.04915338009595871, 0.023954391479492188, -0.043514400720596313, 0.08417446911334991, 0.07769037783145905, 0.03517891839146614, 0.017504578456282616, 0.09394152462482452, 0.030694691464304924, -0.061017051339149475, 0.16576264798641205, 0.08175015449523926, 0.02637569233775139, -0.035677582025527954, 0.0919540748000145, -0.07696380466222763, 0.006469394080340862, 0.023717040196061134, 0.007366988807916641, -0.04315829649567604, 0.07695505023002625, 0.09610731154680252, 0.2385501265525818, 0.08161649107933044, 0.12745362520217896, -0.0023450988810509443, 0.21166139841079712, 0.19211384654045105, 0.2892942726612091, -0.05478820949792862, 0.1305675208568573, 0.14760127663612366, -0.0330277718603611, 0.034301601350307465, -0.005175161175429821, 0.03006056323647499, -0.08190249651670456, -0.021298428997397423, 0.12190475314855576, -0.0961223766207695, -0.031507283449172974, 0.05651738867163658, 0.019619306549429893, 0.02349482662975788, -0.0033291748259216547, 0.07838930934667587, 0.12245996296405792, 0.018659479916095734, 0.08813994377851486, 0.07691428065299988, 0.04993963614106178, -0.07470931857824326, -0.021451277658343315, -0.038482196629047394, -0.011292274110019207, 0.05709182098507881, 0.03540284186601639, -0.03352899104356766, -0.07555335760116577, -0.06902828812599182, -0.08462800830602646, -0.0380474217236042, 0.08741956204175949, 0.11243865638971329, -0.03730055317282677, 0.13636714220046997, 0.0507185272872448, -0.02965838834643364, 0.10762371867895126, -0.09804647415876389, -0.06682270020246506, -0.02183401770889759, -0.013014186173677444, -0.0019346594344824553, -0.15119892358779907, -0.08217962086200714, -0.09363219141960144, 0.07174400985240936, 0.09053576737642288, 0.04730729013681412, -0.020632943138480186, -0.022467058151960373, -0.017387935891747475, 0.05177735909819603, 0.018989937379956245, -0.030090048909187317, -0.06700189411640167, 0.11112824827432632, -0.07559329271316528, 0.026306305080652237, -0.0795367956161499, -0.06336396932601929, 0.14039991796016693, 0.22251346707344055, 0.005196559242904186, 0.027867985889315605, 0.07673172652721405, 0.026280585676431656, -0.02404838427901268, -0.1336168497800827, 0.035722121596336365, -0.04441312327980995, -0.01464903261512518, 0.015375565737485886, 0.02751465141773224, -0.04823833331465721, -0.014559128321707249, 0.01703767292201519, 0.0315849743783474, -0.12731893360614777, -0.07386300712823868, 0.003980286419391632, -0.15078775584697723, -0.00852105300873518, -0.09703856706619263, -0.061731819063425064, 0.11453796923160553, -0.07894845306873322, 0.004782647360116243, 0.002710415981709957, -0.07925679534673691, 0.010218433104455471, -0.012863545678555965, 0.10703589022159576, -0.04253656044602394, -0.004333451855927706, 0.0034074163995683193, -0.022916432470083237, 0.03058641217648983, -0.030224250629544258, -0.04403744265437126, -0.01478332094848156, -0.003509378293529153, -0.040038786828517914, -0.008676504716277122, 0.1018354743719101, 0.06382898986339569, -0.020343009382486343, 0.04377391189336777, -0.0582742765545845, -0.043015800416469574, 0.03304123878479004, 0.09899633377790451, 0.033288922160863876, 0.039945486932992935, -0.08969945460557938, 0.07514841854572296, -0.03770986944437027, -0.07571141421794891, 0.019558550789952278, 0.09572672843933105, 0.17200715839862823, 0.017289213836193085, 0.03324783593416214, 0.003686258802190423, -0.019173068925738335, 0.0837487280368805, -0.028094157576560974, 0.08489658683538437, -0.048938021063804626, 0.053484104573726654, 0.0720071941614151, -0.06042657420039177, 0.05589250475168228, 0.09463100880384445, 0.004263215698301792, 0.10433603823184967, 0.02395373210310936, -0.018226487562060356, 0.0028792195953428745, 0.011723143979907036, -0.03069181554019451, 0.026646403595805168, 0.12899839878082275, 0.047096285969018936, 0.0646023377776146, -0.024995893239974976, -0.11650170385837555, 0.011441843584179878, -0.09593794494867325, -0.03348982706665993, 0.007316900417208672, -0.014141957275569439, -0.0032271917443722486, -0.025351621210575104, -0.022642530500888824, -0.5931420922279358, 0.2766570448875427, 0.37161946296691895, 0.31818634271621704, 0.2624807059764862, 0.38273197412490845, 0.41230079531669617, 0.31630465388298035, 0.042467277497053146, -0.1670295000076294, 0.19266103208065033, 0.3822680413722992, -0.1404486894607544, -0.07145123928785324, -0.17689628899097443, -0.15034358203411102, 0.14640165865421295, -0.44832390546798706, -0.008387213572859764, -0.4223434329032898, -0.28965431451797485, 0.19796255230903625, -0.3884961009025574, 0.4055939316749573, -0.189418226480484, 0.15047654509544373, 0.3524835407733917, 0.09743188321590424, 0.5766153931617737, 0.15597456693649292, -0.10708249360322952, 0.045445024967193604, 0.36189040541648865, -0.1176859438419342, 0.5201596021652222, 0.21339452266693115, -0.2794733941555023, -0.13022203743457794, -0.26593220233917236, -0.013822770677506924, 0.44141215085983276, -0.2786308825016022, 0.25509899854660034, 0.015855224803090096, -0.4024542570114136, 0.44825097918510437, 0.0004940028302371502, 0.13207536935806274, -0.5778629779815674, 0.4079204201698303, 0.2157341092824936, 0.01910298690199852, 0.0249501783400774, 0.08677767217159271, 0.07998570799827576, 0.05154707282781601, -0.06193516403436661, 0.024453531950712204, 0.04855474457144737, 0.03343617543578148, -0.03657319024205208, 0.07064308971166611, 0.010469652712345123, -0.025854038074612617, 0.08180733025074005, 0.11426623910665512, 0.020693114027380943, 0.03536088764667511, -0.01762121543288231, 0.05374934896826744, -0.030425863340497017, 0.023520885035395622, 0.09533694386482239, -0.1367034763097763, 0.0699603259563446, -0.12693238258361816, -0.07505160570144653, -0.06179407984018326, -0.0017650873633101583, 0.035947948694229126, -0.02138081192970276, 0.01008546631783247, 0.13111770153045654, 0.02707233652472496, 0.028360769152641296, 0.022447487339377403, -0.05257309600710869, -0.013326067477464676, 0.059068258851766586, 0.12059302628040314, 0.10439315438270569, -0.05605262517929077, -0.03562464192509651, 0.10656024515628815, -0.03201116994023323, -0.03329620510339737, 0.025583233684301376, -0.1504548192024231, 0.06681765615940094, 0.024067234247922897, 0.06984993070363998, -0.02401203289628029, 0.07212327420711517, -0.06323332339525223, 0.022329231724143028, 0.186598539352417, -0.0721471905708313, 0.09948193281888962, 0.08729283511638641, 0.21716824173927307, -0.18903446197509766, 0.05385913327336311, 0.21073102951049805, -0.0761885941028595, -0.02735363319516182, 0.008922314271330833, 0.05783167481422424, -0.03428151085972786, 0.0008990174392238259, -0.013390070758759975, 0.03895191103219986, 0.11722290515899658, -0.007063984405249357, -0.0712890774011612, -0.0468951053917408, 0.06405119597911835, -0.04115400090813637, 0.026342231780290604, 0.04553816467523575, 0.142072394490242, -0.0032661466393619776, 0.08602830767631531, 0.10731559246778488, 0.09766937047243118, 0.03415721654891968, 0.01671181619167328, -0.09415136277675629, 0.03883012384176254, 0.05615997686982155, -0.0011271248804405332, -0.08697327226400375, -0.09569289535284042, 0.059040870517492294, -0.1324591189622879, 0.033667098730802536, -0.015330178663134575, 0.049077216535806656, 0.02183341607451439, 0.08625862002372742, 0.1478281468153, 0.0882091149687767, 0.04156046733260155, 0.07791237533092499, 0.1259213536977768, -0.009699421934783459, 0.024585174396634102, -0.0072899023070931435, 0.08421257883310318, -0.02475525066256523, -0.005387770477682352, -0.03756935894489288, -0.020563215017318726, 0.015551733784377575, -0.0764051154255867, 0.01290902215987444, 0.09408341348171234, 0.018915904685854912, 0.03725346177816391, -0.011632074601948261, 0.07333162426948547, 0.10348882526159286, -0.04479293152689934, -0.04203778877854347, 0.10446067154407501, -0.13455356657505035, 0.005671241320669651, 0.1062309518456459, 0.03045707754790783, 0.030082693323493004, -0.01169366855174303, 0.05348087102174759, 0.038758378475904465, 0.0794781744480133, 0.10144124925136566, -0.07092291861772537, -0.04992195591330528, 0.09382075816392899, -0.09780170023441315, -0.09234216064214706, -0.009947202168405056, 0.018813958391547203, 0.02908633090555668, 0.02395595982670784, 0.03180622309446335, 0.04218534007668495, -0.014920871704816818, -0.03628639876842499, 0.05491770803928375, 0.0817473754286766, 0.042125966399908066, -0.06557593494653702, 0.08033648133277893, 0.06886053830385208, -0.03562656790018082, 0.057523347437381744, 0.04396740719676018, 0.08290255814790726, 0.15031374990940094, 0.11123828589916229, 0.01289471797645092, 0.08581765741109848, 0.04529701545834541, 0.06994276493787766, 0.043938226997852325, -0.021192969754338264, -0.10368183255195618, 0.11490809172391891, 0.11129579693078995, 0.05674240365624428, 0.010534163564443588, 0.061545662581920624, 0.06492294371128082, 0.06677377223968506, -0.003868281841278076, 0.05156596750020981, 0.00593179976567626, 0.09817970544099808, -0.016443276777863503, -0.004134459886699915, 0.010425331071019173, -0.029603099450469017, 0.08359771221876144, 0.11386048048734665, 0.01917906664311886, -0.017598940059542656, 0.06583451479673386, 0.10663880407810211, 0.02560262754559517, 0.09870465844869614, 0.02021375671029091, 0.01877804845571518, -0.022988421842455864, 0.01439807377755642, 0.006145029328763485, 0.05483206734061241, -0.03515632078051567, 0.06260917335748672, -0.03488529473543167, 0.012276223860681057, 0.04425688832998276, 0.07728958874940872, -0.022081498056650162, 0.04463654011487961, 0.2259843945503235, -0.0071831983514130116, 0.11417397111654282, -0.009243014268577099, 0.047789428383111954, 0.004572991747409105, 0.039497386664152145, 0.11100808531045914, 0.02800038829445839, 0.06838774681091309, 0.027413424104452133, 0.029373446479439735, -0.012549007311463356, 0.05141986906528473, 0.04083595797419548, 0.030130917206406593, 0.06670109182596207, 0.416351854801178, 0.13272008299827576, 0.29649949073791504, -0.25588807463645935, 0.37196221947669983, -0.30087804794311523, -0.15475994348526, 0.013463662937283516, 0.506295382976532, 0.037718672305345535, 0.4125209450721741, 0.20100510120391846, -0.37052294611930847, 0.3179093301296234, -0.2427498996257782, -0.37947940826416016, 0.013992516323924065, -0.011804084293544292, 0.21012555062770844, 0.10053244233131409, 0.1829996109008789, -0.12055131793022156, -0.3770506978034973, 0.38534173369407654, -0.09651878476142883, -0.0198550783097744, 0.15193726122379303, -0.11427712440490723, 0.34570157527923584, 0.06348762661218643, -0.35940587520599365, 0.3271719217300415, -0.33505454659461975, -0.3371305465698242, 0.02749844454228878, -0.17840464413166046, 0.21931876242160797, 0.3229977488517761, 0.024175507947802544, 0.24815072119235992, -0.08546289056539536, 0.3940369486808777, -0.03624729812145233, 0.38314589858055115, 0.3771301805973053, 0.10625350475311279, 0.3586134910583496, -0.19850777089595795, -0.039753444492816925, -0.09642010927200317, 0.035942841321229935, 0.22286877036094666, 0.06333717703819275, -0.02796649932861328, 0.01898091472685337, 0.18127715587615967, -0.08283554017543793, 0.06420411169528961, -0.07873078435659409, 0.0294928140938282, -0.006580129265785217, -0.0131823206320405, -0.05187124386429787, 0.005047420039772987, 0.11424850672483444, -0.10047342628240585, 0.00822423491626978, 0.07908548414707184, -0.05017080530524254, -0.018222693353891373, 0.007533137686550617, -0.017181428149342537, 0.0763656497001648, 0.08432639390230179, 0.12149964272975922, -0.022457940503954887, 0.005545877385884523, -0.04644008353352547, 0.053787585347890854, 0.040640395134687424, -0.10006128251552582, -0.053097933530807495, 0.08899606764316559, -0.005498984828591347, 0.0534236803650856, 0.06687662750482559, 0.03880571201443672, -0.04743722453713417, 0.023110676556825638, -0.08240416646003723, 0.02828231081366539, -0.025612473487854004, 0.1027761846780777, -0.11549762636423111, 0.029949011281132698, -0.14025120437145233, -0.01585272140800953, -0.040372032672166824, -0.06684321910142899, 0.02261074259877205, 0.07800260186195374, 0.06679673492908478, -0.02023507095873356, -0.05670040100812912, -0.1660938858985901, 0.03436748683452606, 0.2374313324689865, -0.03782080113887787, -0.15218257904052734, 0.08682508766651154, 0.2654276490211487, 0.06684665381908417, 0.1775008589029312, 0.045786935836076736, 0.001216244651004672, 0.0718793123960495, -0.010134274140000343, 0.05122615024447441, 0.07400587946176529, -0.029326701536774635, 0.1416850984096527, 0.03576378896832466, 0.01183305960148573, 0.0035112062469124794, -0.0226154662668705, 0.08306095749139786, 0.08331906050443649, 0.13609012961387634, -0.016782846301794052, 0.03749317303299904, 0.06767679005861282, 0.021586382761597633, 0.0671500563621521, -0.006987593602389097, 0.04228484258055687, 0.03936950862407684, 0.04925110563635826, -0.009307456202805042, -0.018109871074557304, 0.060453157871961594, 0.02964954636991024, 0.032351527363061905, 0.06933829188346863, 0.013398915529251099, -0.0032364754006266594, -0.019673818722367287, -0.08233316987752914, 0.15171222388744354, 0.20031151175498962, -0.0028387249913066626, 0.05302197113633156, 0.01170080341398716, -0.005371938459575176, 0.07867243885993958, -0.08534910529851913, -0.07668491452932358, 0.03109212964773178, -0.04340140148997307, -0.017252689227461815, 0.07324854284524918, 0.07168394327163696, -0.04491620138287544, -0.13432449102401733, 0.13421998918056488, 0.008069980889558792, 0.09378989785909653, 0.028800176456570625, 0.09769149124622345, 0.06776002794504166, -0.07179801911115646, -0.0207191351801157, -0.03519057109951973, -0.024266500025987625, -0.055198147892951965, -0.09139201790094376, 0.05303371325135231, 0.0352231003344059, 0.12298902869224548, 0.009140226058661938, 0.0007853404968045652, 0.07479078322649002, 0.0769796147942543, 0.0371401347219944, 0.1429065763950348, -0.06350784748792648, -0.02541675791144371, 0.1374998688697815, -0.0609322190284729, 0.05296947434544563, -0.03338649868965149, -0.035135746002197266, 0.016534466296434402, 0.09106124937534332, -0.01589728146791458, -0.031162170693278313, -0.010435642674565315, -0.03955383226275444, 0.016293643042445183, -0.09745433926582336, 0.017724337056279182, 0.04583457484841347, -0.05617859959602356, -0.041567470878362656, -0.07039947807788849, 0.07719136774539948, 0.07546992599964142, -0.03814952075481415, 0.004225725308060646, 0.01978471502661705, -0.0024067929480224848, 0.012367743998765945, 0.018796617165207863, -0.048752523958683014, -0.04875333607196808, 0.0009708504076115787, 0.0189092718064785, -0.0661124587059021, 0.05682722479104996, 0.017889998853206635, -0.013456135056912899, 0.10106828063726425, 0.13718555867671967, 0.08470431715250015, 0.09627797454595566, -0.10986125469207764, 0.008645637892186642, -0.02140171080827713, 0.08621235936880112, 0.07666096836328506, 0.10177657008171082, 0.010331479832530022, 0.02410813421010971, -0.06834578514099121, 0.09263508021831512, 0.08201190084218979, 0.04313424602150917, 0.008101878687739372, 0.16823135316371918, 0.0004892630968242884, 0.12543031573295593, 0.043650854378938675, 0.0787077397108078, 0.07414842396974564, -0.0520642027258873, 0.03005252592265606, -0.028807878494262695, 0.07160146534442902, -0.04104338586330414, 0.08005058765411377, 0.009734303690493107, 0.17310695350170135, 0.010531810112297535, -0.013082864694297314, 0.13957272469997406, -0.06637146323919296, -0.011413763277232647, 0.031217850744724274, 0.06224197521805763, 0.14858007431030273, -0.01674889586865902, -0.06415500491857529, -0.021844912320375443, -0.014948928728699684, 0.0323399193584919, -0.021980125457048416, -0.009590902365744114, -0.07042669504880905, 0.03911162540316582, 0.012251511216163635, 0.08510322123765945, -0.5730525255203247, -0.4326285421848297, -0.5366401076316833, -0.6138619780540466, 0.28571397066116333, -0.3130132853984833, -0.09177599847316742, 0.4000782370567322, 0.3149527609348297, -0.02028251625597477, -0.345946729183197, -0.29850003123283386, 0.15567001700401306, 0.026546483859419823, -0.2601388990879059, 0.013697925955057144, 0.4029361307621002, 0.013165118172764778, -0.27732527256011963, -0.2999124526977539, -0.12181030958890915, 0.13716265559196472, -0.36741602420806885, 0.21229013800621033, 0.03945024684071541, 0.06611182540655136, 0.002910173963755369, 0.3166640102863312, 0.23349668085575104, 0.2095130831003189, 0.10273274034261703, 0.07091955095529556, 0.13812050223350525, 0.21855953335762024, -0.13215214014053345, 0.29847800731658936, 0.26241323351860046, 0.2900128960609436, -0.5623164176940918, 0.3203900158405304, -0.10113420337438583, 0.31372591853141785, -0.1615866869688034, -0.087776780128479, 0.5144220590591431, -0.2302144467830658, -0.23574429750442505, 0.13103054463863373, 0.16382849216461182, -0.11808164417743683, -0.08541341871023178, 0.029815688729286194, 0.03936370462179184, 0.05755619332194328, 0.0872374102473259, 0.141603484749794, 0.0011727592209354043, 0.1183624193072319, 0.049445752054452896, -0.09788505733013153, -0.053807273507118225, 0.015608472749590874, 0.04200984165072441, -0.012435960583388805, -0.12289129942655563, 0.13377735018730164, 0.13360947370529175, -0.011843587271869183, -0.06912566721439362, -0.10126251727342606, 0.08377008885145187, 0.007116136606782675, -0.02684355340898037, 0.10862917453050613, 0.07827004045248032, 0.015060391277074814, 0.045195646584033966, -0.01776938885450363, 0.1918003112077713, -0.017963942140340805, 0.04847462847828865, -0.013449256308376789, -0.03674127161502838, -0.011782458983361721, -0.01302693784236908, -0.02171967923641205, 0.15311484038829803, 0.06664866954088211, -0.14454343914985657, 0.022203592583537102, 0.14193663001060486, -0.07254428416490555, 0.009629928506910801, -0.0503108873963356, -0.002913377247750759, -0.06818657368421555, -0.25931084156036377, 0.10963860899209976, 0.03500507026910782, -0.04793309047818184, -0.09847038984298706, 0.012327601201832294, -0.039936333894729614, -0.020788012072443962, 0.24199257791042328, 0.0010825712233781815, 0.045840341597795486, 0.07798250764608383, 0.1926330327987671, -0.09131030738353729, -0.05341034755110741, 0.02785598114132881, -0.017313610762357712, 0.2181461751461029, 0.08388340473175049, 0.1903989166021347, 0.021656028926372528, 0.15735368430614471, 0.12104053050279617, 0.09954109787940979, 0.09332114458084106, 0.09607139974832535, 0.17061182856559753, 0.12817299365997314, 0.03855867683887482, 0.018753644078969955, 0.06276530772447586, 0.15784014761447906, 0.08055195957422256, -0.01457943581044674, -0.028373930603265762, 0.06438028812408447, -0.006084295455366373, -0.06008463725447655, 0.1283591240644455, -0.018449030816555023, -0.0026001122314482927, -0.012167609296739101, -0.021298032253980637, 0.11868014931678772, 0.10986027121543884, -0.04533439874649048, -0.02544103004038334, 0.021483879536390305, 0.09184931218624115, 0.06600065529346466, 0.016206271946430206, -0.05881394073367119, -0.03272975608706474, 0.08804778009653091, 0.08370427042245865, -0.006555185653269291, -0.1732913702726364, -0.06621792167425156, 0.00677625834941864, 0.04946787282824516, 0.08606616407632828, 0.16095365583896637, 0.09190389513969421, -0.018634719774127007, 0.015514450147747993, 0.052619609981775284, -0.04382786899805069, 0.0988442674279213, 0.008973108604550362, 0.03322567045688629, 0.017318880185484886, -0.004045655019581318, -0.033340007066726685, 0.13009792566299438, 0.04559178650379181, -0.02373025193810463, 0.004044294357299805, -0.03655547648668289, -0.0784885436296463, -0.022137168794870377, 0.02499423176050186, 0.04139440879225731, -0.10802353918552399, -0.05483916401863098, -0.03180744871497154, 0.0019388208165764809, -0.04297252744436264, 0.09478592872619629, -0.08906073123216629, -0.039347756654024124, 0.09733028709888458, 0.015300601720809937, 0.014348190277814865, -0.047033924609422684, 0.01827692613005638, 0.06545678526163101, 0.043158531188964844, -0.03495201840996742, -0.046605534851551056, -0.09521367400884628, 0.023150602355599403, -0.02427949570119381, 0.019639914855360985, 0.05483587458729744, -0.08248814195394516, 0.038191523402929306, 0.07801388204097748, 0.06248388811945915, -0.024967335164546967, -0.1334354132413864, 0.02306981384754181, 0.09919775277376175, -0.01876303367316723, 0.10749546438455582, -0.005583250429481268, -0.04360632598400116, 0.06441868841648102, -0.04923670366406441, -0.011952181346714497, 0.005525014828890562, 0.03663626313209534, 0.04969707503914833, 0.0032146195881068707, 0.03962503746151924, 0.05643358454108238, -0.08212676644325256, 0.12042120099067688, 0.02950127422809601, 0.03459298610687256, 0.11916084587574005, 0.057052794843912125, 0.005041163880378008, 0.09018848091363907, 0.062324266880750656, 0.06856758147478104, 0.050229933112859726, 0.1328400820493698, 0.033266689628362656, 0.10665200650691986, 0.07760436087846756, 0.10887079685926437, 0.06959114968776703, 0.09546114504337311, 0.1234997883439064, 0.020665893331170082, -0.008406379260122776, 0.06954926997423172, 0.085163414478302, 0.07006147503852844, 0.18164367973804474, 0.04802912101149559, 0.06380556523799896, 0.07650924474000931, 0.01756225898861885, 0.07806815952062607, -0.024700075387954712, 0.05446728691458702, 0.09064826369285583, 0.0864935964345932, 0.042478471994400024, 0.07840876281261444, 0.06921257823705673, 0.17866165935993195, 0.028171362355351448, 0.0389191173017025, 0.12580960988998413, 0.016413874924182892, 0.08786708116531372, 0.05775616690516472, 0.1223665252327919, 0.06980463117361069, 0.05844884365797043, 0.14046309888362885, 0.0396784245967865, 0.25993841886520386, -0.1234612911939621, -0.05724675580859184, 0.08881770074367523, 0.08558961004018784, 0.35062459111213684, -0.1914546936750412, -0.3514224886894226, 0.16276216506958008, 0.1294597089290619, 0.007252281531691551, 0.023862387984991074, 0.12681563198566437, 0.6068267822265625, -0.29904964566230774, 0.2235458940267563, -0.08549223840236664, -0.1835346221923828, 0.34975117444992065, -0.09596022218465805, -0.26735976338386536, -0.3245469033718109, 0.030634736642241478, -0.11149520426988602, 0.21725371479988098, 0.005802747793495655, 0.4837813675403595, -0.15085141360759735, -0.06066752225160599, -0.030314410105347633, -0.03890722990036011, 0.11565973609685898, 0.4069173336029053, 0.2086653709411621, 0.12208470702171326, -0.38095664978027344, -0.26017701625823975, -0.15226209163665771, 0.29869407415390015, 0.4295092225074768, 0.4604761004447937, 0.4059179425239563, 0.01394808478653431, 0.2744784653186798, 0.008391016162931919, 0.08293057978153229, 0.08204870671033859, 0.1792691946029663, -0.15499821305274963, -0.13076022267341614, 0.15738844871520996, 0.16403383016586304, 0.051231566816568375, 0.031388889998197556, 0.10655009001493454, 0.09696382284164429, 0.10038860887289047, -0.02010437101125717, 0.08339887857437134, 0.30403193831443787, 0.10632513463497162, -0.01857994683086872, -0.05137619003653526, -0.03465539216995239, -0.0165270809084177, -0.10152170807123184, 0.061190925538539886, -0.0453118197619915, 0.06331361085176468, 0.0627618134021759, -0.10065561532974243, 0.0752389207482338, -0.07419177144765854, -0.013914474286139011, -0.07591374963521957, 0.04244654253125191, -0.050377484411001205, -0.016292503103613853, -0.02778271585702896, 0.12770801782608032, -0.03279059752821922, 0.060565780848264694, 0.0418388806283474, 0.024659335613250732, -0.15009263157844543, 0.013379232957959175, -0.1394772082567215, -0.031418994069099426, 0.11625996977090836, 0.023805035278201103, -0.0848991647362709, -0.19542831182479858, -0.003951967693865299, -0.1745782047510147, 0.09937895834445953, -0.034838441759347916, 0.12853288650512695, -0.022856684401631355, -0.05272930860519409, -0.10697194188833237, -0.01483357883989811, 0.04441767930984497, 0.006642636843025684, 0.02343824692070484, 0.09391172230243683, -0.06661767512559891, -0.07781217992305756, 0.06492406129837036, 0.03729977086186409, 0.034160301089286804, -0.0300996582955122, 0.0050375014543533325, 0.0074756876565515995, 0.061002589762210846, 0.07245433330535889, -0.0798407793045044, 0.06761068105697632, -0.03808976709842682, 0.08975698798894882, -0.01485524047166109, -0.10114912688732147, 0.03226574510335922, -0.040698546916246414, -0.02746238186955452, -0.054934062063694, 0.10237307846546173, 0.0032772147096693516, 0.049164120107889175, 0.01914367638528347, -0.0186575036495924, 0.06993083655834198, 0.07903124392032623, -0.010857735760509968, 0.09824119508266449, 0.0285372044891119, -0.006218086462467909, 0.010068630799651146, 0.057447947561740875, -0.04209441691637039, -0.017932776361703873, -0.10864736884832382, 0.16454964876174927, -0.02260345034301281, -0.018935203552246094, 0.065220907330513, 0.07619546353816986, 0.06496916711330414, 0.06933821737766266, 0.05623232200741768, -0.01793513633310795, 0.05859830603003502, 0.02438633143901825, -0.039784763008356094, -0.014237991534173489, 0.02672179974615574, 0.018140610307455063, -0.09465062618255615, -0.1317339539527893, 0.01186683215200901, -0.03664223104715347, 0.04219154641032219, -0.06022072210907936, -0.03397061675786972, -0.04027795419096947, -0.15444688498973846, -0.06802958995103836, -0.050970569252967834, 0.0034898160956799984, -0.02964576706290245, 0.05162142217159271, 0.09342404454946518, -0.024765338748693466, 0.10369274765253067, 0.058243706822395325, -0.049490947276353836, 0.003934888634830713, 0.030548427253961563, -0.0052183037623763084, -0.019727010279893875, -0.028454948216676712, 0.10981010645627975, -0.026766613125801086, 0.010799214243888855, 0.07738706469535828, -0.039069853723049164, -0.030505884438753128, 0.028303636237978935, 0.12997005879878998, 0.09353648871183395, -0.015897763893008232, 0.01792597584426403, -0.03166917338967323, 0.03533610329031944, 0.008561333641409874, 0.13716784119606018, -0.058837320655584335, 0.11391197890043259, -0.05545804649591446, -1.6185360436793417e-05, -0.0877043753862381, 0.1308683156967163, 0.02777046151459217, -0.06799706071615219, 0.0394991971552372, -0.04244602471590042, 0.019205698743462563, 0.027170060202479362, 0.09980904310941696, 0.15032300353050232, 0.016061972826719284, 0.09437824785709381, 0.011545964516699314, 0.019152933731675148, 0.02885059081017971, 0.05203891918063164, -0.036089420318603516, -0.014023635536432266, -0.014948566444218159, 0.008197623305022717, 0.068280890583992, 0.014502676203846931, 0.040727946907281876, 0.1550184190273285, 0.13881628215312958, 0.10235060751438141, 0.07542205601930618, -0.013232309371232986, -0.028265943750739098, 0.04847629368305206, -0.020711593329906464, 0.13164658844470978, 0.0029274174012243748, -0.06818751245737076, 0.027030715718865395, 0.07466582208871841, 0.04272276163101196, -0.04327636957168579, 0.045439206063747406, 0.04774804413318634, -0.019078053534030914, 0.06837108731269836, 0.09558374434709549, -0.0136979715898633, -0.012365305796265602, 0.05695630609989166, 0.052001893520355225, 0.03711830452084541, 0.05190897360444069, -0.06954225897789001, 0.01644773967564106, -0.04823559895157814, -0.017923258244991302, 0.05342959612607956, 0.1969970166683197, 0.09671389311552048, 0.03090730309486389, -0.10253243893384933, 0.10511083900928497, 0.009390049614012241, -0.013502025045454502, -0.008625549264252186, -0.003237527795135975, 0.01180860586464405, -0.06987954676151276, -0.030832095071673393, 0.05117519572377205, -0.004035876598209143, 0.09280376881361008, -0.08068680018186569, 0.14447064697742462, -0.1967376321554184, -0.7047166228294373, 0.2912377715110779, 0.07937007397413254, -0.6243473291397095, 0.27289146184921265, -0.003914158791303635, -0.013764633797109127, -0.3122336268424988, 0.1010044738650322, 0.21821898221969604, -0.1678827404975891, 0.12880432605743408, 0.18205341696739197, -0.15817290544509888, 0.24426378309726715, 0.22427047789096832, 0.24824638664722443, -0.06209420785307884, 0.44903528690338135, 0.26893046498298645, 0.12837913632392883, -0.3009594976902008, 0.21938341856002808, 0.20289628207683563, 0.030788306146860123, -0.13881133496761322, 0.348209410905838, 0.2847498655319214, 0.4313102066516876, 0.3854835331439972, 0.25867027044296265, 0.07035420835018158, -0.13931645452976227, 0.2334146350622177, -0.098262257874012, -0.3752467930316925, 0.31833845376968384, -0.24371299147605896, 0.3384510278701782, 0.1972782164812088, 0.21195118129253387, 0.1601559817790985, 0.051778845489025116, 0.36368170380592346, 0.1065254732966423, -0.1903243362903595, 0.42520156502723694, 0.07710903137922287, -0.3576070964336395, -0.318321168422699, 0.09832291305065155, 0.1088421419262886, 0.11448261886835098, -0.038720257580280304, 0.09057974070310593, 0.1447286158800125, -0.09939093887805939, -0.07260451465845108, -0.01839829608798027, -0.0002560587308835238, -0.06848448514938354, -0.08630300313234329, 0.04866335541009903, -0.01046066265553236, -0.041802141815423965, 0.07207994163036346, -0.07245244830846786, -0.016096115112304688, 0.019136805087327957, 0.09807772189378738, -0.1016998142004013, -0.03639902547001839, -0.055122554302215576, 0.1020975410938263, -0.028646579012274742, 0.058992255479097366, 0.08200962841510773, 0.09796875715255737, -0.08926613628864288, 0.001612664433196187, -0.11339321732521057, -0.11585299670696259, -0.057212330400943756, 0.07163773477077484, 0.048309631645679474, -0.013783569447696209, -0.12588609755039215, 0.12697802484035492, -0.06300123780965805, 0.0790528729557991, 0.027165619656443596, -0.08647081255912781, 0.01400519534945488, 0.00615497725084424, 0.06748066842556, -0.10498917102813721, -0.023025572299957275, 0.011494883336126804, -0.0480620414018631, -0.026806700974702835, 0.09737178683280945, 0.09157691150903702, -0.045670103281736374, 0.12163205444812775, 0.02245999127626419, -0.0704372301697731, -0.02403033711016178, 0.09941932559013367, 0.03940144553780556, -0.09926547855138779, -0.08144716918468475, 0.08702001720666885, 0.008199320174753666, 0.046491459012031555, -0.00897713378071785, 0.020712533965706825, -0.0011235777055844665, -0.07826092094182968, -0.03392709791660309, -0.013525223359465599, -0.023959748446941376, -0.016815612092614174, -0.07477676123380661, -0.21352101862430573, 0.0851786732673645, 0.07093605399131775, 0.0868230015039444, -0.057621605694293976, 0.09042773395776749, 0.10972518473863602, 0.1583610326051712, 0.07911383360624313, 0.04683804512023926, 0.011477057822048664, -0.040576525032520294, 0.07335188239812851, 0.012813828885555267, 0.042311184108257294, -0.07566458731889725, -0.014412777498364449, 0.02121330425143242, 0.00582377053797245, -0.044262003153562546, 0.06941460072994232, 0.04213399812579155, 0.12470780313014984, 0.12404035031795502, 0.08433560281991959, -0.014658746309578419, 0.11878617852926254, 0.10073257982730865, 0.22620874643325806, 0.0836474671959877, 0.10681916773319244, 0.17849121987819672, 0.030828289687633514, 0.015453142113983631, -0.021755032241344452, 0.05720129236578941, 0.070756696164608, -0.08117115497589111, -0.11519846320152283, 0.02440030314028263, -0.044779084622859955, -0.05756351724267006, 0.029671309515833855, -0.05567405745387077, 0.035162702202796936, -0.15477222204208374, 0.02715633064508438, 0.030604315921664238, 0.0032950646709650755, 0.11587507277727127, 0.059297483414411545, -0.01351828221231699, 0.04947610944509506, 0.03209349140524864, -0.008466790430247784, -0.028426310047507286, -0.03140682354569435, 0.0871453583240509, 0.012727780267596245, 0.08044490218162537, 0.11380799114704132, 0.10000941902399063, 0.13251666724681854, 0.002728388411924243, -0.003518227953463793, 0.027918895706534386, 0.04385821521282196, -0.04995964094996452, -0.03273164480924606, -0.022334912791848183, -0.04333359748125076, -0.0660703107714653, 0.020857544615864754, -0.011428778059780598, -0.059006888419389725, 0.0463411919772625, 0.08945701271295547, -0.023265384137630463, -0.023343924432992935, -0.017821310088038445, 0.03846762701869011, 0.07031721621751785, 0.07936101406812668, -0.008814969100058079, 0.12349844723939896, -0.006621647626161575, 0.0964515283703804, 0.037135690450668335, -0.049160078167915344, 0.026772374287247658, 0.021964600309729576, 0.04218272864818573, 0.0888434424996376, 0.09327556192874908, -0.03098476678133011, -0.023343509063124657, -0.08680703490972519, 0.02052118256688118, 0.02564946748316288, -0.020968478173017502, 0.028723202645778656, -0.1281697005033493, 0.0061480700969696045, -0.014822856523096561, 0.014361814595758915, -0.008149906061589718, 0.08535580337047577, -0.02310374565422535, -0.025477111339569092, 0.0408283956348896, 0.028524816036224365, 0.09349316358566284, 0.13439376652240753, 0.02681669220328331, 0.0639844760298729, 0.028424043208360672, 0.05245104059576988, 0.02862306870520115, 0.005456657614558935, 0.13114094734191895, 0.009481683373451233, 0.1039918065071106, -0.05652089789509773, 0.021508021280169487, 0.01312344241887331, -0.08583961427211761, -0.01777302287518978, 0.06949743628501892, -0.04773566871881485, 0.04133516177535057, 0.12581664323806763, 0.05475437268614769, -0.004641663748770952, -0.007225207518786192, 0.07941009104251862, -0.03791129216551781, 0.01814684271812439, 0.06577078253030777, -0.07425405830144882, 0.04215383902192116, 0.04261227697134018, 0.04343461990356445, 0.031500544399023056, -0.1026093065738678, 0.026249537244439125, 0.10983908921480179, 0.1750560849905014, 0.0040528965182602406, 0.3348934054374695, 0.1513020545244217, 0.0347253754734993, 0.5168843865394592, 0.36830028891563416, 0.19384558498859406, 0.07441940158605576, -0.039596788585186005, -0.021059460937976837, -0.0013319323770701885, -0.13323970139026642, 0.20340262353420258, 0.15363021194934845, -0.11764685809612274, -0.26495984196662903, -0.34370213747024536, 0.04973257705569267, -0.225737065076828, -0.10058753192424774, 0.3256511092185974, -0.09175417572259903, -0.2948915958404541, -0.2815898656845093, 0.48249387741088867, 0.07126931101083755, -0.011862535960972309, 0.5364486575126648, 0.648249089717865, 0.16007547080516815, -0.30641767382621765, 0.06670509278774261, -0.1045134887099266, -0.03362684324383736, -0.20345070958137512, 0.3393177092075348, -0.3995458781719208, 0.4034494459629059, -0.05682825669646263, -0.0065766507759690285, 0.11159239709377289, 0.13164281845092773, -0.3363463282585144, -0.21989524364471436, 0.09562785923480988, 0.20714369416236877, 0.16838960349559784, 0.3132331669330597, -0.38159117102622986, 0.2788892090320587, 0.18557202816009521, -0.011684120632708073, 0.08235952258110046, 0.028536343947052956, 0.04586100950837135, 0.08505084365606308, 0.026635782793164253, 0.05373787879943848, 0.09817256033420563, 0.01408388651907444, -0.030636362731456757, -0.02088831551373005, 0.11410091072320938, -0.006274016108363867, -0.01275802031159401, -0.03463408350944519, 0.006696765776723623, 0.12448220700025558, 0.037617553025484085, -0.07409154623746872, -0.008912285789847374, -0.008475970476865768, -0.07601138949394226, 0.03759300336241722, -0.04311828687787056, -0.024533988907933235, -0.10869709402322769, 0.15660659968852997, 0.10173219442367554, -0.07103537768125534, -0.15676984190940857, 0.0632365494966507, 0.12603528797626495, 0.022397153079509735, 0.12220198661088943, 0.06045510247349739, -0.05745653808116913, 0.010548892430961132, 0.006780412048101425, -0.10506996512413025, 0.004603430163115263, -0.018600674346089363, 0.05078901723027229, 0.02243574894964695, 0.0271871667355299, 0.012716599740087986, -0.08726350218057632, 0.04108109697699547, 0.00999382697045803, 0.03178320452570915, 0.09841759502887726, -0.1394103616476059, -0.13336588442325592, -0.10359285771846771, 0.2497919648885727, 0.06727660447359085, 0.16216586530208588, -0.06280785799026489, 0.20899495482444763, -0.005542329978197813, 0.1649733930826187, 0.27096283435821533, 0.17440544068813324, 0.038119837641716, 0.12143944203853607, 0.045439645648002625, 0.00830692145973444, 0.04673759266734123, 0.10231076180934906, 0.029311593621969223, 0.09475196897983551, 0.050351861864328384, 0.0757628083229065, 0.1377200037240982, -0.1824556589126587, -0.10879837721586227, -0.019141526892781258, 0.0036792110186070204, -0.0053145550191402435, -0.012654414400458336, -0.07138684391975403, -0.13633550703525543, 0.04149740934371948, 0.05763085186481476, -0.046292271465063095, -0.057840168476104736, 0.10890964418649673, 0.015090569853782654, -0.1138739138841629, 0.12364829331636429, -0.01144314929842949, 0.01768522523343563, -0.0054204147309064865, -0.11539744585752487, -0.040977489203214645, -0.07677264511585236, -0.05072189122438431, 0.06317082047462463, 0.034417059272527695, 0.025413932278752327, -0.0034030494280159473, 0.05374422296881676, -0.017685184255242348, -0.005432597827166319, -0.07168468832969666, -0.09875524789094925, 0.12362849712371826, 0.10987187922000885, 0.09075343608856201, -0.13330522179603577, 0.0031488630920648575, -0.08479733020067215, -0.04463789239525795, -0.04082827642560005, 0.015570567920804024, 0.09597376734018326, 0.04244491085410118, 0.0905761569738388, 0.004320213105529547, -0.04037715494632721, 0.020861370489001274, -0.0020436907652765512, 0.11283686012029648, 0.044384922832250595, 0.018967466428875923, 0.13132914900779724, 0.14761045575141907, -0.01446918398141861, -0.0810052901506424, 0.05067034065723419, 0.07276226580142975, 0.03628286346793175, 0.07602304965257645, 0.025591762736439705, -0.08680008351802826, 0.10917185246944427, 0.022893739864230156, -0.02368805557489395, -0.0826520025730133, 0.02274208515882492, 0.003989570774137974, -0.17567887902259827, -0.09334926307201385, -0.08815809339284897, 0.053062766790390015, -0.06608957052230835, -0.03635047748684883, -0.12981171905994415, -0.11001553386449814, -0.017754601314663887, -0.09136151522397995, 0.010569709353148937, 0.05092845857143402, 0.027097664773464203, -0.029854826629161835, -0.011120517738163471, 0.016885235905647278, -0.00314374640583992, 0.046383969485759735, 0.051871806383132935, 0.02806037664413452, 0.06664983183145523, 0.12061833590269089, 0.07124368846416473, 0.012172874994575977, 0.07605956494808197, -0.04430117830634117, -0.1150176078081131, 0.08045143634080887, 0.01797736994922161, -0.06902682036161423, 0.046372443437576294, 0.06955649703741074, 0.040623988956213, 0.13539272546768188, -0.06713572144508362, 0.06515318900346756, 0.051522474735975266, 0.01673494093120098, 0.09951049834489822, -0.03199280798435211, -0.008109462447464466, 0.004055551718920469, -0.07622643560171127, -0.14398904144763947, -0.031865015625953674, -0.00033935197279788554, -0.03806406259536743, 0.024032514542341232, 0.051447492092847824, 0.11908353865146637, 0.10253150761127472, 0.05084535852074623, -0.040259383618831635, 0.1413322389125824, -0.051568612456321716, 0.007318342570215464, -0.04886038973927498, -0.027827110141515732, 0.05828357860445976, 0.003069237107411027, 0.014674275182187557, 0.08366414159536362, 0.08326877653598785, 0.018241066485643387, 0.05005956441164017, 0.04004623740911484, 0.04960019141435623, -0.01322858314961195, -0.02154299058020115, 0.03897792845964432, 0.05031749978661537, 0.005415435414761305, 0.0279128048568964, 0.013575267046689987, 0.045586973428726196, -0.0016499996418133378, 0.06120247021317482, -0.02662821300327778, -0.04553046450018883, -0.10972330719232559, -0.09645255655050278, -0.15289421379566193, -0.20189788937568665, -0.19236034154891968, -0.27104562520980835, -0.25318223237991333, -0.07798812538385391, 0.3993455767631531, 0.05416366457939148, -0.13640762865543365, 0.275037944316864, 0.1636953502893448, 0.34152597188949585, -0.06496017426252365, -0.2877965569496155, 0.0053102606907486916, -0.27941441535949707, 0.17421284317970276, -0.20609483122825623, 0.008583015762269497, 0.5571883916854858, -0.13268883526325226, -0.09845822304487228, 0.20736713707447052, 0.2880372107028961, -0.13401123881340027, 0.09403657913208008, -0.3514096438884735, 0.2640179693698883, -0.23705005645751953, 0.35810619592666626, 0.006106410175561905, -0.0901554524898529, 0.2706296741962433, -0.24149730801582336, 0.3222254514694214, -0.20108656585216522, -0.07503741979598999, -0.3090621829032898, 0.3957767188549042, -0.18769383430480957, -0.24055229127407074, 0.26616114377975464, 0.3201218545436859, 0.48017942905426025, 0.5525599122047424, -0.3372119665145874, -0.3081305921077728, 0.33069825172424316, 0.034272532910108566, 0.048062440007925034, 0.0265883207321167, 0.1297437697649002, 0.01985372044146061, -0.029076525941491127, 0.06849639862775803, 0.0699392706155777, 0.021965326741337776, -0.023522118106484413, -0.06777186691761017, 0.01770111732184887, 0.03421279415488243, -0.025164255872368813, -0.003751469077542424, -0.06055848300457001, 0.10639172047376633, 0.1647820770740509, 0.008912695571780205, 0.04391686990857124, -0.09835448116064072, 0.0932098850607872, -0.05838536471128464, -0.026658637449145317, 0.10560398548841476, 0.04849250987172127, -0.040521278977394104, -0.022354306653141975, 0.09369916468858719, 0.09647262841463089, 0.11764853447675705, 0.029888194054365158, 0.06821250170469284, -0.07130848616361618, -0.032647617161273956, -0.01685531623661518, -0.06041284650564194, 0.006593948695808649, 0.045892778784036636, 0.1328558772802353, 0.06196467950940132, 0.12313129752874374, 0.03250705450773239, 0.13096095621585846, 0.041197504848241806, -0.13022366166114807, 0.05585035681724548, -0.03586561605334282, -0.20707842707633972, 0.023121580481529236, 0.09744235128164291, -0.12075832486152649, 0.012778700329363346, 0.03208201006054878, 0.14624707400798798, -0.10871053487062454, 0.12906089425086975, 0.12594671547412872, 0.1672850400209427, -0.04866744205355644, 0.1266179233789444, 0.16312319040298462, 0.07751535624265671, 0.05162721127271652, 0.011731826700270176, -0.0016789756482467055, 0.037759196013212204, 0.06223001703619957, 0.0835239589214325, -0.012868699617683887, -0.004755446221679449, 0.03026714362204075, -0.06779675930738449, 0.003597554285079241, -0.07548438012599945, 0.03397481516003609, 0.048447925597429276, -0.046038687229156494, 0.11383616179227829, 0.045814309269189835, 0.015655064955353737, 0.1139000654220581, -0.034699149429798126, 0.016676373779773712, -0.0704270526766777, 0.09512226283550262, -0.04202073812484741, 0.10889206826686859, 0.01290714181959629, -0.03568749502301216, -0.10649855434894562, 0.05976157635450363, 0.02977927401661873, 0.06698008626699448, 0.09241069108247757, -0.18349334597587585, 0.017827246338129044, 0.0720481276512146, -0.10649917274713516, -0.09039182960987091, 0.002053371397778392, -0.06756064295768738, -0.14245207607746124, -0.0820036381483078, -0.0005624931654892862, 0.01787979155778885, 0.1134943813085556, -0.017688488587737083, -0.09053096920251846, 0.16278593242168427, 0.02374129742383957, -0.02641461044549942, 0.07650422304868698, 0.021640503779053688, 0.011411411687731743, -0.014969774521887302, 0.021018510684370995, -0.020125867798924446, 0.030053500086069107, 0.042245686054229736, -0.1082795113325119, -0.05634550377726555, 0.030655071139335632, 0.07175798714160919, -0.06908903270959854, -0.07412301748991013, 0.09869744628667831, -0.03189542144536972, 0.04179629683494568, 0.01739458180963993, 0.11539643257856369, 0.00791880302131176, -0.009458760730922222, 0.11036732792854309, -0.10719361901283264, 0.029994117096066475, -0.08479679375886917, 0.04966982454061508, 0.07341542094945908, 0.05500439181923866, -0.0368192084133625, -0.028491370379924774, -0.11219451576471329, 0.0177536029368639, 0.1259295493364334, -0.0398576445877552, 0.0007982783718034625, -0.045277707278728485, -0.14201413094997406, -0.023018432781100273, -0.07326553016901016, 0.057506151497364044, -0.0042305258102715015, 8.545414311811328e-05, 0.031712934374809265, 0.012634473852813244, -0.001689052558504045, 0.05330885574221611, 0.05618943274021149, -0.01575184240937233, 0.07958423346281052, 0.07289828360080719, 0.07126140594482422, -0.03473680838942528, 0.05653020367026329, -0.0023055369965732098, 0.13418252766132355, -0.02394346334040165, 0.03863316401839256, 0.011469261720776558, 0.03974274918437004, -0.05293666571378708, 0.04416962340474129, 0.02561836503446102, -0.042364977300167084, 0.06125927343964577, 0.07119999080896378, 0.060858119279146194, -0.05198170617222786, -0.03156407177448273, 0.19134920835494995, 0.04585804045200348, -0.009092370048165321, 0.02872214838862419, -0.073533795773983, 0.023902416229248047, -0.06122731789946556, 0.0287893395870924, 0.038968153297901154, 0.03943102806806564, -0.040251586586236954, -0.07037109136581421, 0.04391539841890335, 0.10475998371839523, 0.0055084628984332085, 0.011406248435378075, -0.0340188704431057, 0.030558142811059952, 0.0684247612953186, -0.06060460954904556, 0.0027898980770260096, 0.02026049979031086, 0.027638759464025497, 0.007124561350792646, -0.06653036922216415, -0.06564401835203171, 0.04015449434518814, 0.07378038763999939, -0.11775853484869003, -0.03754609450697899, -0.0409199520945549, 0.10892650485038757, -0.0006387894973158836, -0.015669668093323708, -0.008862541057169437, 0.0227653868496418, -0.052412282675504684, -0.0627545416355133, 0.11728347837924957, -0.40898922085762024, -0.07256581634283066, -0.33845552802085876, 0.26965972781181335, 0.23053784668445587, -0.18197007477283478, -0.17031671106815338, 0.5441308617591858, -0.24208000302314758, -0.012432021088898182, -0.05285046994686127, -0.26582080125808716, 0.24966631829738617, -0.026171041652560234, -0.38387957215309143, -0.03487455099821091, -0.5942533016204834, 0.3823072612285614, -0.03432319685816765, -0.052332695573568344, -0.3264429271221161, 0.34669721126556396, -0.5707845687866211, 0.14781436324119568, 0.05955543741583824, 0.07955679297447205, -0.1056949719786644, 0.007664055097848177, -0.14086709916591644, 0.4729408025741577, -0.34452253580093384, 0.16656088829040527, 0.13888424634933472, -0.022348327562212944, -0.4022681713104248, -0.1270895004272461, -0.013019794598221779, 0.400774210691452, -0.1337917000055313, -0.06257546693086624, 0.2547377049922943, -0.039671655744314194, -0.08939860761165619, 0.027812976390123367, 0.285933256149292, 0.22406673431396484, -0.3260733485221863, 0.21641181409358978, 0.3075733780860901, 0.021514892578125, 0.10683675855398178, -0.036918215453624725, 0.13268443942070007, 0.07684691250324249, 0.11307750642299652, -0.0825166255235672, -0.04887210205197334, 0.09715446829795837, 0.0177361611276865, -0.11354970932006836, 0.06493192166090012, 0.010001623071730137, 0.08520951867103577, 0.11280308663845062, -0.07306618988513947, 0.10595925897359848, 0.18109266459941864, -0.020394962280988693, 0.05878029391169548, -0.12575137615203857, -0.1268007457256317, 0.029265794903039932, 0.09748148173093796, -0.05852670222520828, 0.10695458203554153, -0.005376961547881365, -0.0678216814994812, -0.04178304970264435, 0.18167704343795776, 0.005220877006649971, 0.032112006098032, -0.045204535126686096, 0.016201864928007126, 0.01195952296257019, 0.025447959080338478, 0.003967691212892532, 0.1405770629644394, 0.0076033975929021835, 0.0325387679040432, 0.01132639404386282, -0.057717371731996536, 0.04230521246790886, -0.09975700825452805, 0.02762080356478691, 0.022104132920503616, -0.042357996106147766, -0.06801976263523102, 0.01200784370303154, -0.020754357799887657, 0.04044351354241371, -0.027417758479714394, -0.05314768850803375, -0.0694558322429657, -0.015127340331673622, 0.050061699002981186, 0.2284833788871765, 0.03302929922938347, 0.08907650411128998, 0.11746327579021454, 0.14040839672088623, -0.04806039109826088, 0.12187880277633667, 0.06862995028495789, 0.027866341173648834, 0.1039520651102066, 0.01228706631809473, 0.05940748751163483, 0.027358170598745346, 0.016576899215579033, 0.0123134795576334, 0.09972915053367615, 0.002148447325453162, -0.058245159685611725, -0.011511344462633133, 0.020116643980145454, 0.17187124490737915, -0.015824630856513977, -0.033050183206796646, 0.11917734891176224, -0.0056487261317670345, 0.0737590566277504, 0.01838637702167034, 0.09434349834918976, 0.04846580699086189, -0.07171551138162613, -0.03865085914731026, 0.018908726051449776, 0.08675438165664673, 0.08538799732923508, -0.004418668802827597, 0.018716324120759964, 0.04412660002708435, 0.06034742668271065, 0.043274953961372375, 0.0850457176566124, -0.013450310565531254, 0.006426183972507715, 0.024523688480257988, 0.029270648956298828, 0.03635647892951965, 0.05242316797375679, 0.03174549341201782, 0.04121797904372215, 0.0283894594758749, 0.0622364841401577, -0.031493958085775375, 0.040426142513751984, -0.0033778196666389704, -0.037785932421684265, 0.03890737146139145, 0.07713393121957779, 0.09925024211406708, 0.04528161883354187, -0.012868828140199184, -0.10569629818201065, -0.06582164019346237, 0.010500689037144184, 0.04189082607626915, -0.15279872715473175, 0.015050612390041351, -0.03287394344806671, -0.05711918696761131, 0.05693015456199646, 0.0192258283495903, -0.014457277953624725, -0.015268310904502869, 0.10945834219455719, 0.0935477465391159, -0.04087819904088974, 0.07889663428068161, 0.08536898344755173, -0.02362845465540886, 0.02228260226547718, 0.08023473620414734, 0.00914829783141613, 0.011254928074777126, 0.13608776032924652, 0.025877101346850395, -0.023850733414292336, 0.07219948619604111, -0.05555013567209244, 0.054264675825834274, -0.07233940809965134, -0.062245603650808334, 0.0287955179810524, 0.06589388847351074, -0.08887749910354614, -0.0351937860250473, -0.005667286459356546, 0.07361607998609543, -0.02651885524392128, -0.013248578645288944, 0.0755014568567276, 0.030442919582128525, -0.011531860567629337, 0.0461803674697876, 0.08296440541744232, 0.19393078982830048, 0.06299029290676117, 0.009071405045688152, -0.035641107708215714, 0.01889120042324066, 0.031703751534223557, -0.0375707782804966, 0.12211165577173233, -0.06709704548120499, -0.05219306796789169, -0.05759304761886597, 0.06195098161697388, -0.050207145512104034, 0.0686727911233902, 0.005694543477147818, 0.04695533588528633, 0.046512898057699203, -0.008629522286355495, -0.12306377291679382, -0.06185257062315941, 0.10389477759599686, 0.04018939286470413, -0.04874406382441521, 0.06768745929002762, 0.08186858892440796, -0.008048317395150661, -0.028449270874261856, 0.000568981165997684, 0.0738011971116066, 0.058042071759700775, 0.08753129839897156, -0.02845870703458786, -0.11750973016023636, -0.02897917665541172, -0.04246211424469948, 0.2088760882616043, 0.15181201696395874, -0.008821025490760803, 0.07152844965457916, 0.0673971027135849, -0.03192136064171791, 0.008045144379138947, -0.021253107115626335, 0.011124974116683006, -0.03538071736693382, 0.04498804733157158, 0.062257375568151474, 0.05025317147374153, 0.01753852888941765, -0.016010897234082222, 0.013418426737189293, -0.08219186216592789, 0.026718704029917717, -0.03554437309503555, 0.03250407427549362, 0.04468882456421852, -0.0900818258523941, 0.016020601615309715, 0.0629819706082344, 0.042645759880542755, 0.06679215282201767, 0.030340926721692085, -0.055766511708498, 0.18028979003429413, 0.4732618033885956, -0.13417400419712067, -0.30078738927841187, 0.37205398082733154, 0.023776547983288765, -0.17319682240486145, -0.04764939099550247, -0.16433711349964142, 0.05317557230591774, -0.12969352304935455, 0.3620540499687195, -0.1626308560371399, 0.38399940729141235, 0.1750432401895523, 0.1984930783510208, -0.308122456073761, 0.07225390523672104, 0.44633373618125916, 0.0359870009124279, 0.2442300170660019, 0.5875003933906555, 0.17053842544555664, 0.10519225150346756, -0.3444972634315491, 0.07438737899065018, 0.45604807138442993, 0.1348126381635666, 0.24147355556488037, 0.3608737885951996, 0.20549927651882172, 0.18389204144477844, 0.21952036023139954, -0.20673492550849915, 0.47896847128868103, 0.12656556069850922, -0.15011627972126007, -0.13017161190509796, -0.01849883422255516, -0.1095525398850441, -0.11196824908256531, 0.14630068838596344, -0.338491827249527, 0.04483218491077423, -0.1952957808971405, -0.40985026955604553, -0.025305286049842834, -0.08358624577522278, -0.11296539008617401, 0.0017282752087339759, 0.13973455131053925, 0.04337935149669647, 0.07811661809682846, -0.04810666665434837, -0.026361925527453423, 0.017464004456996918, -0.04247872531414032, 0.003128616837784648, 0.0474030040204525, 0.011595808900892735, 0.010613877326250076, -0.011104602366685867, 0.09983229637145996, 0.0035713401157408953, -0.00012789542961400002, -0.06449911743402481, 0.021148502826690674, 0.06238862872123718, 0.14305078983306885, 0.002492503495886922, 0.016840964555740356, 0.018736952915787697, -0.07860169559717178, -0.17763641476631165, 0.037903737276792526, -0.03309682011604309, 0.020721975713968277, -0.10894288122653961, -0.04570011422038078, 0.09239515662193298, -0.11140663921833038, 0.012572256848216057, -0.08381746709346771, -0.03800317645072937, -0.05902252718806267, 0.04550332948565483, -0.02847510762512684, -0.07449933886528015, 0.05957356095314026, 0.08330417424440384, -0.02528928406536579, 0.1459096223115921, 0.09592505544424057, -0.23109419643878937, 0.01008522231131792, 0.06554517149925232, 0.004607160110026598, 0.0935344323515892, 0.056337520480155945, 0.08017998188734055, 0.059503838419914246, -0.023714331910014153, 0.05562111735343933, -0.0580768808722496, -0.2599163353443146, 0.011712777428328991, 0.12226345390081406, -0.09821067750453949, -0.21735236048698425, 0.00804806873202324, 0.11813751608133316, -0.022767264395952225, 0.07188794761896133, 0.03401913121342659, -0.014134874567389488, 0.04945667088031769, -0.009660476818680763, -0.05424584448337555, -0.04803069680929184, -0.012103166431188583, -0.023103442043066025, -0.09201978892087936, -0.018203886225819588, -0.11334450542926788, -0.02989698201417923, -0.1439342051744461, 0.09389449656009674, 0.0572260282933712, -0.009478209540247917, 0.06819432973861694, 0.012935426086187363, -0.003621426410973072, 0.1361248791217804, -0.04909275099635124, 0.18642903864383698, 0.018404275178909302, 0.06246083974838257, -0.00011645402992144227, -0.009539947845041752, 0.0018976068822667003, -0.04567670077085495, -0.0937400534749031, -0.09266617149114609, 0.036170266568660736, -0.01615382544696331, 0.11207512766122818, 0.04140344262123108, 0.03979524224996567, 0.09400153160095215, 0.15765658020973206, -0.007058512419462204, -0.021124791353940964, 0.008906891569495201, 0.09773664176464081, 0.032754432410001755, -0.039557650685310364, -0.1113329604268074, -0.09992566704750061, -0.11939606070518494, 0.005510231480002403, 0.07893282175064087, -0.06332086771726608, -0.06587584316730499, 0.056014977395534515, 0.05450272932648659, 0.018821898847818375, -0.034415364265441895, -0.022763840854167938, 0.02009052038192749, -0.10555385798215866, 0.07281706482172012, -0.17423589527606964, 0.07246459275484085, -0.04512704536318779, 0.014528176747262478, -0.04079731926321983, 0.03634372726082802, -0.013828041031956673, 0.008549715392291546, 0.05154052749276161, -0.03257022798061371, 0.05295364931225777, -0.12811611592769623, -0.14990490674972534, 0.06411276757717133, 0.09788669645786285, 0.09565563499927521, 0.029978357255458832, -0.0166323222219944, 0.04359964281320572, -0.060049183666706085, 0.07342765480279922, 0.001517454395070672, 0.01704026386141777, -0.04392148554325104, -0.03875031694769859, 0.016520097851753235, -0.06528741121292114, 0.0225142203271389, -0.033771779388189316, 0.040521394461393356, 0.05146244540810585, 0.06281991302967072, 0.031963832676410675, 0.08309248089790344, -0.012321562506258488, 0.046063996851444244, 0.030940471217036247, 0.011325792409479618, 0.07371408492326736, 0.023780982941389084, -0.0833503007888794, -0.011476081795990467, 0.14367061853408813, 0.018074585124850273, 0.06880778074264526, -0.07752812653779984, -0.094594307243824, 0.0020308797247707844, 0.1422521024942398, 0.17758160829544067, -0.034902121871709824, 0.04074201360344887, 0.05733747407793999, 0.05909792333841324, 0.05835819989442825, 0.1525890827178955, -0.04871385917067528, 0.036993809044361115, 0.0355001762509346, -0.004607296083122492, 0.07794900983572006, 0.023043235763907433, 0.06710827350616455, 0.12199679762125015, -0.08940636366605759, 0.10436683893203735, 0.04990293085575104, 0.07137841731309891, 0.07211890071630478, -0.1440442055463791, -0.05059254169464111, 0.0043387035839259624, 0.11607044190168381, -0.0012245357502251863, 0.05338270589709282, 0.015444628894329071, 0.0829833447933197, -0.005807411856949329, 0.08975756168365479, -0.014480890706181526, -0.07933077961206436, -0.033212680369615555, 0.05537964403629303, 0.054986778646707535, 0.06459663808345795, 0.06040557101368904, 0.11434764415025711, -0.04484250396490097, 0.008608636446297169, -0.043100833892822266, 0.09038738161325455, -0.013335171155631542, -0.04710259661078453, 0.024546395987272263, 0.007064272649586201, 0.08868066221475601, 0.07024691253900528, 0.0123435128480196, 0.0849103331565857, 0.18322977423667908, 0.45707404613494873, 0.45908263325691223, 0.08895380795001984, -0.14373672008514404, -0.06248776242136955, 0.14873641729354858, 0.3979939818382263, -0.22201675176620483, 7.091824227245525e-05, 0.5771385431289673, 0.09988592565059662, -0.22947461903095245, 0.20105688273906708, 0.09387937933206558, -0.2772371470928192, 0.01720179244875908, 0.09861909598112106, 0.21212631464004517, -0.1309250295162201, 0.08250955492258072, 0.3511838912963867, -0.06678881496191025, -0.31597039103507996, 0.30233582854270935, 0.016699515283107758, 0.011918718926608562, 0.4106033146381378, -0.4036342203617096, -0.15892407298088074, 0.04847702756524086, -0.36572274565696716, -0.09064958244562149, -0.0420001856982708, 0.4492137134075165, -0.272920161485672, -0.10337281972169876, -0.40193048119544983, 0.4330574572086334, -0.2964572012424469, 0.12215827405452728, -0.21965716779232025, 0.03763483092188835, 0.17134535312652588, 0.4696388840675354, -0.18074558675289154, -0.12703830003738403, 0.24855051934719086, 0.19116689264774323, 0.1146831065416336, -0.07949801534414291, 0.2580944895744324, 0.012369747273623943, 0.05908164381980896, -0.01909196935594082, 0.14767448604106903, 0.0993243157863617, 0.09295320510864258, 0.10799911618232727, 0.011352283880114555, 0.05812196806073189, 0.0012899230932816863, -0.06793689727783203, -0.04480597376823425, -0.007004488259553909, 0.03569329157471657, 0.0895986407995224, 0.12272386997938156, 0.01773919351398945, -0.03780452162027359, -0.09163378179073334, 0.05336301028728485, -0.04231438785791397, -0.0004142190737184137, 0.11464016139507294, 0.060196034610271454, 0.015369035303592682, -0.015146741643548012, 0.029050027951598167, -0.0016725908499211073, 0.17191168665885925, 0.037429627031087875, -0.058342915028333664, 0.07266547530889511, 0.005720757879316807, -0.03336965665221214, -0.03934382647275925, 0.0058465939946472645, 0.04432325437664986, -0.10029509663581848, -0.21431080996990204, -0.01732957363128662, -0.06965669244527817, 0.07412650436162949, 0.12128765881061554, -0.08175384998321533, 0.011141015216708183, 0.04274202510714531, 0.020318137481808662, -0.1517242044210434, -0.05580461397767067, -0.12133925408124924, 0.06781747192144394, -0.07349943369626999, -0.20759697258472443, 0.09484325349330902, 0.02075297199189663, 0.12078523635864258, -0.12524868547916412, 0.09913761913776398, 0.15422376990318298, 0.10088225454092026, 0.08475450426340103, -0.014105348847806454, 0.08888372033834457, 0.05355440452694893, 0.04060417786240578, -0.03463518247008324, -0.02898920513689518, 0.046130504459142685, -0.0011742045171558857, 0.043669238686561584, 0.0026440450455993414, -0.05936538800597191, 0.10708536952733994, 0.0514412485063076, 0.03117598034441471, -0.04505489394068718, -0.02769671380519867, 0.11303696036338806, -0.04153237119317055, 0.0030191668774932623, 0.13553085923194885, -0.0844617635011673, 0.05069082975387573, -0.05492493137717247, 0.04426273703575134, -0.06059243157505989, -0.01756678707897663, 0.07111206650733948, -0.061515357345342636, -0.07624448835849762, 0.07143042236566544, 0.10508944094181061, 0.07496609538793564, 0.0858064666390419, -0.04668724536895752, 0.08170679956674576, -0.04005216807126999, -0.05202728882431984, -0.03018697164952755, 0.003905629040673375, -0.04268401861190796, 0.08572598546743393, -0.044149529188871384, 0.05653717368841171, 0.03277209773659706, -0.038027793169021606, -0.0397590696811676, -0.06702753901481628, -0.03059261105954647, 0.021902261301875114, 0.008554872125387192, -0.0584818497300148, -0.001848173444159329, 0.05488801375031471, 0.056561581790447235, 0.003456441918388009, -0.1283772885799408, 0.026531033217906952, 0.018711550161242485, 0.012288771569728851, -0.1363259106874466, 0.05242197960615158, 0.04756055399775505, -0.09897182136774063, 0.0008305242517963052, 0.008889538235962391, 0.04516562819480896, 0.014232249930500984, 0.013909829780459404, 0.037476617842912674, -0.0652245432138443, -0.06485560536384583, 0.08598922938108444, 0.008172386325895786, 0.02612832933664322, 0.01330527663230896, 0.0669778361916542, -0.08426053076982498, 0.043502163141965866, -0.04740063473582268, -0.17644363641738892, 0.04848053306341171, 0.07436636090278625, -0.02789149433374405, -0.0014415404293686152, -0.04292678460478783, -0.022143414244055748, -0.012840447016060352, -0.00936165638267994, -0.010053751990199089, 0.10642595589160919, 0.1429062932729721, 0.05723351612687111, 0.0030614903662353754, 0.12760794162750244, -0.014262443408370018, 0.03271459415555, -0.012547578662633896, -0.02515592612326145, 0.07051179558038712, 0.07653911411762238, -0.05969391018152237, 0.04971503093838692, -0.1352434903383255, -0.15251296758651733, -0.0022807945497334003, 0.07400493323802948, -0.06313718110322952, 0.009446447715163231, -0.1257452517747879, -0.025290414690971375, 0.06571470201015472, -0.0051087066531181335, 0.030695902183651924, 0.013307994231581688, 0.050085071474313736, -0.03991437703371048, 0.08088809996843338, 0.05961919575929642, 0.06758769601583481, -0.00019922642968595028, 0.07612743228673935, -0.04591812193393707, 0.059952862560749054, 0.03236958384513855, 0.06220730021595955, 0.032550688832998276, 0.02940879762172699, 0.01893961802124977, -0.024522321298718452, 0.01992981694638729, 0.06978628039360046, -0.09604083001613617, 0.036528199911117554, 0.09816006571054459, -0.008810889907181263, 0.029698258265852928, 0.0480215847492218, 0.08400387316942215, 0.07219674438238144, -0.07230577617883682, 0.04041498154401779, -0.006880433764308691, 0.08705311268568039, 0.046578940004110336, 0.037372887134552, 0.08226624131202698, 0.016639158129692078, -0.07419713586568832, -0.05026838928461075, -0.07535767555236816, 0.07292843610048294, -0.027592768892645836, -0.07109539210796356, 0.05571557953953743, 0.028206169605255127, -0.06749191880226135, 0.06715763360261917, -0.503998339176178, -0.13826975226402283, 0.46267813444137573, -0.09542669355869293, 0.35802119970321655, 0.23176461458206177, 0.13021785020828247, 0.010382541455328465, -0.2227756828069687, 0.3589411973953247, 0.10941187292337418, 0.01627342961728573, -0.10760582983493805, -0.10334708541631699, -0.09597788751125336, 0.13593630492687225, 0.26227647066116333, 0.12459166347980499, 0.09853768348693848, 0.39335742592811584, 0.12753251194953918, 0.4806721806526184, 0.016599886119365692, -0.1287931203842163, -0.0642605647444725, -0.20694194734096527, -0.31198811531066895, 0.0035804372746497393, -0.07965726405382156, 0.3994414806365967, -0.22073034942150116, -0.020449751988053322, 0.3643244206905365, 0.2250204086303711, 0.07878311723470688, 0.25899648666381836, 0.06053474172949791, -0.0033992405515164137, -0.1422252506017685, 0.2626834213733673, -0.07504696398973465, 0.07046782970428467, -0.3079816997051239, -0.516287088394165, -0.28142082691192627, 