{"layer1": {"weights": [0.1345224678516388, -0.25939106941223145, 0.7784203886985779, -0.6724969744682312, 0.44025856256484985, -0.06382739543914795, 0.2915128469467163, 0.9548625946044922, -0.4044358730316162, 0.6691383719444275, -0.17165397107601166, 0.2591342628002167, -0.617689847946167, -0.30014464259147644, -0.3655241131782532, -0.19185759127140045, 1.0562641620635986, -0.265267938375473, 0.6150514483451843, -0.050305601209402084, 0.03467895835638046, 0.14210623502731323, 0.6324878334999084, 0.18024323880672455, 0.2732856571674347, -0.7417513132095337, 0.5642120838165283, -0.1588386744260788, -0.3697398900985718, 0.11094912886619568, 0.34386327862739563, -0.07361825555562973, 0.5900902152061462, 0.5079941153526306, 0.15506020188331604, -0.19800995290279388, 0.09833933413028717, -0.6992381811141968, -0.15973873436450958, 0.4746847450733185, 0.0387984961271286, 0.21291100978851318, -0.04947347193956375, -0.5593569278717041, -0.9647546410560608, 0.6559188365936279, 0.7036985158920288, -0.31853288412094116, -0.435355544090271, -0.48977723717689514, -0.23770715296268463, 0.24242696166038513, -0.023723071441054344, 0.37182876467704773, -0.35884276032447815, 0.19877111911773682, 0.11871562153100967, -0.09064356237649918, -0.10911782085895538, 0.40155839920043945, 0.10582882165908813, -0.37062200903892517, -0.330930233001709, -0.27335110306739807, -0.1329059898853302, 0.05797632038593292, 0.21255843341350555, -0.28304702043533325, -0.5275380611419678, 0.3997468054294586, 0.5172001123428345, 0.05303878337144852, 0.07752753794193268, -0.1445620208978653, 0.02546619437634945, 0.062295228242874146, -0.24475862085819244, 0.03716021031141281, -0.2619635760784149, 0.5382376909255981, 0.13244479894638062, -0.06966905295848846, -0.02967197820544243, 0.2843535244464874, 0.000387347157811746, 0.12956933677196503, -0.0021150014363229275, 0.01993471570312977, -0.14589643478393555, -0.02636934258043766, -0.040994103997945786, 0.19649219512939453, 0.09757602959871292, -0.07445116341114044, -0.6445464491844177, 0.06116460636258125, 0.22077175974845886, 0.16066159307956696, -0.21541836857795715, 0.28017523884773254, 0.2917540371417999, 0.031041085720062256, 0.5743935704231262, -0.11004963517189026, 0.5206731557846069, 0.07706371694803238, 0.20923110842704773, 0.32670095562934875, 0.5605208873748779, -0.08040367811918259, 0.14621354639530182, 0.33046481013298035, -0.4953327178955078, 0.3588203489780426, 0.3179113268852234, 0.49583426117897034, -0.46366068720817566, 0.5041047930717468, 0.07783884555101395, 0.671519935131073, 0.2587784230709076, 0.2476283311843872, 0.5803561806678772, -0.2394886612892151, -0.041711173951625824, -0.6491921544075012, -0.1620614230632782, 0.5059542059898376, -0.007518324535340071, -0.3520793318748474, 0.25584715604782104, 0.028477532789111137, 0.1748960167169571, -0.07320703566074371, 0.12423983216285706, 0.2218812257051468, -0.4023689925670624, -0.4394744336605072, -0.14419572055339813, 0.716908872127533, 0.28152167797088623, -0.7657607197761536, -0.0688251182436943, -0.2509952485561371, -0.4205244183540344, -0.0626276507973671, -0.07731401920318604, 0.3752644956111908, 0.6142582893371582, -0.3643627464771271, -0.4606214761734009, 0.4259268045425415, 0.018388809636235237, 0.05199550837278366, 0.14414262771606445, -0.8419210910797119, 0.3462759256362915, -0.7891561388969421, 0.1162692978978157, 0.042231108993291855, 0.10664880275726318, -0.09288471937179565, -0.03653976693749428, -0.047085098922252655, 0.014480317942798138, -0.03510796278715134, -0.06514962017536163, -0.031031396239995956, -0.030318884178996086, -0.05798913165926933, -0.02069958485662937, -0.027072492986917496, 0.06346698105335236, -0.029701925814151764, -0.11490382254123688, -0.07715871930122375, 0.032568804919719696, 0.06684689968824387, -0.019531426951289177, 0.08384972810745239, -0.061319056898355484, 0.022837050259113312, -0.0008329824777320027, 0.44364088773727417, 0.07631698250770569, 0.08764530718326569, -0.02254633791744709, 0.046443693339824677, -0.04796614870429039, -0.014879087917506695, 0.07578656077384949, -0.05530159920454025, -0.3065198063850403, 0.0062878429889678955, -0.1088891327381134, 0.08282748609781265, -0.6404126286506653, -0.8380447626113892, 0.02854810282588005, -0.4380573332309723, -0.14466272294521332, -0.4325711727142334, -0.2140817791223526, -0.5418907999992371, -0.11117317527532578, -0.0212260689586401, 0.1041228175163269, 0.09899022430181503, -0.13881738483905792, 0.4360267221927643, -0.6561191082000732, -0.6957572102546692, 0.2949076294898987, 0.5769269466400146, -0.0018461371073499322, -0.4439305067062378, 0.19724272191524506, -0.009696168825030327, -0.5380322933197021, -0.4539915919303894, 0.2117723971605301, -0.15806354582309723, -0.21774369478225708, -0.4354232847690582, 0.07912519574165344, -0.2277841418981552, -0.29507747292518616, -0.12817049026489258, -0.13536928594112396, -0.2831660807132721, 0.3772490918636322, -0.5274693369865417, 0.18657642602920532, 0.13570521771907806, -0.015556994825601578, 0.11806130409240723, -0.1948268562555313, -0.13322538137435913, -0.12644581496715546, -0.3588372766971588, -0.31380850076675415, -0.8579787611961365, 0.6611499190330505, -0.09756353497505188, -0.08114562183618546, 0.3547273278236389, -0.9823383688926697, -0.34766364097595215, 0.045737601816654205, 0.15267029404640198, 0.21375678479671478, 0.411956787109375, -0.4348413348197937, 0.12335249781608582, -0.53589928150177, -0.15600761771202087, 0.01438298262655735, -0.11166702955961227, -0.0063725668005645275, -0.14576029777526855, -0.0055215368047356606, -0.13751663267612457, -0.37136906385421753, 0.13959850370883942, 0.2789760231971741, -0.6933698058128357, 0.4134931266307831, -0.2692834734916687, -0.04131659120321274, -0.1323767900466919, -0.560234546661377, 0.7886233925819397, 0.0899902954697609, 0.2504202425479889, -0.5111483931541443, 0.6814885139465332, -0.12696442008018494, 0.9085347056388855, -1.0378673076629639, 0.3203335404396057, -0.14159327745437622, -0.5060190558433533, 1.2400556802749634, -0.9228012561798096, 0.3683340847492218, 0.049002505838871, 0.5880195498466492, -0.23179210722446442, -0.27335599064826965, -0.035535573959350586, -0.05777301266789436, -0.08633257448673248, 0.23104672133922577, 0.3873100280761719, 0.06095299497246742, -0.6644672155380249, 0.17155098915100098, -0.04088417813181877, 0.19846872985363007, -0.03825956955552101, 0.3714395761489868, -0.07880589365959167, 0.5069375038146973, 0.2953275144100189, -0.4246894419193268, -0.39340439438819885, 0.1479898989200592, -0.41293907165527344, -0.26624083518981934, 0.6346732378005981, 0.5457363128662109, -0.13797833025455475, -0.7787489891052246, -0.826650083065033, -0.16933463513851166, 0.033378709107637405, -0.3002264201641083, -1.1476495265960693, -0.22009988129138947, 1.3994343280792236, -0.0853462666273117, -0.26443833112716675, 0.00800009723752737, 0.25206679105758667, -0.33536216616630554, -0.4327961504459381, 0.033549074083566666, -0.414376825094223, 0.08919497579336166, -0.16205710172653198, -0.3699389696121216, -0.20380811393260956, 0.5407629013061523, 0.0004694128583651036, -0.11973215639591217, -0.44355443120002747, 0.04861070588231087, -0.16192226111888885, -0.03666991367936134, 0.12583792209625244, 0.47399643063545227, 0.09343451261520386, 0.10430002957582474, 0.20444215834140778, 0.036479681730270386, -0.12149444967508316, 0.3009410798549652, 0.14468224346637726, -0.04434361681342125, -0.22556455433368683, 0.024184759706258774, 0.16819725930690765, 0.18756428360939026, 0.15793855488300323, -0.026844827458262444, 0.2033165842294693, -0.05924874171614647, 0.3215932250022888, 0.21464142203330994, 0.1778336614370346, -0.04961428791284561, -0.04322131723165512, -0.43441060185432434, 0.2448694109916687, 0.25196751952171326, 0.2341460883617401, -0.11621028184890747, -0.16380906105041504, 0.4821147620677948, 0.36595049500465393, 0.29569652676582336, -0.2854234278202057, 0.21707968413829803, 0.10087235271930695, 0.546413004398346, -0.25495508313179016, -0.628207266330719, 0.16571107506752014, 0.7427852749824524, -0.1651095747947693, -0.550182044506073, 0.0714118555188179, 0.2932679057121277, -0.5934768915176392, 0.20334918797016144, -0.4629001319408417, 0.16801248490810394, 0.6235060095787048, -0.2966861426830292, -0.13825690746307373, 0.10619069635868073, 0.4267049729824066, -0.0036751420702785254, 0.09695050120353699, 0.2239157259464264, 0.20488481223583221, -0.7808653116226196, 0.8166316151618958, -0.032358285039663315, 0.5526272654533386, -0.11221980303525925, 0.35201337933540344, 0.834261417388916, -0.15574218332767487, 0.07109133154153824, -0.7787526249885559, -0.24536027014255524, 0.6045231819152832, -0.046071767807006836, -0.18603280186653137, -0.25423505902290344, 0.298867404460907, 0.713492214679718, 0.6464318037033081, -0.5629246830940247, -0.2945221960544586, 0.48142316937446594, 0.045650847256183624, -0.07180596143007278, -0.11345576494932175, -1.1317683458328247, 1.1420797109603882, -1.063988447189331, -0.05235527083277702, -0.017423514276742935, 0.6910632848739624, 0.4240471422672272, 0.22225244343280792, -0.7132959961891174, 0.1297706812620163, -0.0058374288491904736, -0.1566496342420578, 0.017976470291614532, -0.030503714457154274, -0.0010927305556833744, 0.034047745168209076, -0.05530698224902153, -0.039288152009248734, 0.04587971419095993, -0.066564179956913, 0.04169585928320885, 0.027914242818951607, 0.024411704391241074, -0.05898171663284302, 0.015479998663067818, -0.08288496732711792, 0.06442638486623764, 0.06899642199277878, -0.015997769311070442, 0.003079293528571725, -0.021364109590649605, -0.0015808920143172145, -0.014267642050981522, -0.23459865152835846, 0.08233034610748291, 0.0258326418697834, -0.051791660487651825, -0.07873140275478363, -0.04101261496543884, 0.10683636367321014, -0.06914205849170685, -0.08765042573213577, 0.09800116717815399, 0.20104891061782837, 0.04318946972489357, -0.23173125088214874, -0.2954142987728119, 0.04710172489285469, 0.08582993596792221, 0.06510993093252182, 0.18485012650489807, -0.0689912959933281, -0.35679563879966736, -0.10885068029165268, -0.32189226150512695, 0.18873676657676697, 0.34248965978622437, 0.4267860949039459, -0.0869046226143837, -0.2728162109851837, 0.19222328066825867, 0.1090351864695549, -0.022488800808787346, -0.333212673664093, -0.2205859124660492, -0.46696361899375916, 0.37831395864486694, -0.38496077060699463, -0.05160434916615486, -0.2623191773891449, 0.08752436190843582, -0.2342088371515274, -0.02152196131646633, -0.3564727306365967, 0.15900124609470367, -0.13426004350185394, 0.0016976917395368218, 0.12476079910993576, 0.2833990156650543, -0.1843138188123703, 0.25618988275527954, -0.430324912071228, -0.1426570862531662, 0.09479274600744247, -0.3633543848991394, 0.06392722576856613, -0.2582000494003296, -0.11913581937551498, -0.2087286412715912, -0.10145541280508041, -0.5654782056808472, -0.4078303873538971, -0.289394348859787, -0.02815314009785652, -0.23032508790493011, 0.08554418385028839, 0.10626107454299927, 0.17310220003128052, 0.08725869655609131, -0.3499824106693268, -0.2934595048427582, 0.8892367482185364, 0.3642388880252838, -0.055863626301288605, -0.07723990082740784, 0.27926895022392273, -0.6208419799804688, -0.07803238928318024, 0.502685546875, 0.11473927646875381, -0.2904747724533081, 0.18623346090316772, 0.11246349662542343, -0.42259353399276733, -0.12889161705970764, -0.06508602946996689, 0.23839502036571503, -0.1958102285861969, -0.36425653100013733, 0.14562931656837463, -2.145669460296631, 0.11498484015464783, -0.24931499361991882, -0.6353433728218079, -0.25351497530937195, 0.019822994247078896, 0.7409901022911072, 0.44460874795913696, -0.3490128517150879, -0.18152543902397156, 0.8330171704292297, -0.913708508014679, 0.4639741778373718, -0.33825886249542236, 0.4619966745376587, -2.0613532066345215, -0.34665733575820923, 0.24692144989967346, 0.5291156768798828, 0.3429133892059326, -0.7419981956481934, -1.8053419589996338, -1.9987136125564575, -1.9578845500946045, -0.8450808525085449, -0.5452315211296082, -0.19043496251106262, 0.21438299119472504, -0.8454424738883972, -0.33906668424606323, 0.8394835591316223, -0.05517662316560745, -0.11527249962091446, -0.2939167320728302, 0.7972337007522583, -0.44990822672843933, 0.06275825947523117, 0.17442990839481354, 0.35223934054374695, 0.4761132299900055, -0.34168604016304016, 0.8988708257675171, -0.18910962343215942, -0.18447433412075043, -0.465167760848999, 0.21861635148525238, 0.3772835433483124, 0.4775659739971161, -0.02114683762192726, 0.31255432963371277, -0.4395960569381714, 0.13983570039272308, -0.2066800445318222, -0.330522745847702, -0.531027615070343, 0.10180435329675674, -0.2294258326292038, 0.18223543465137482, -0.16750451922416687, -0.03200751915574074, 0.19435523450374603, 0.18581876158714294, 0.09237143397331238, 0.07470341771841049, 0.343096524477005, 0.0787137895822525, -0.038962360471487045, 0.09626132249832153, -0.32442742586135864, 0.15134477615356445, -0.04142122343182564, 0.14474497735500336, -0.03153883293271065, 0.1065322756767273, 0.3211270570755005, -0.014314625412225723, 0.7040768265724182, -0.009258471429347992, 0.3883553147315979, -0.05683092400431633, -0.1622207909822464, 0.06205061823129654, -0.22506335377693176, 0.3045996129512787, -0.07398984581232071, 0.6082005500793457, 0.16467468440532684, 0.04399575665593147, -0.49229052662849426, 0.25205662846565247, 0.14675204455852509, -0.16225439310073853, 0.6100360751152039, -0.16139881312847137, 0.18212968111038208, 0.07359595596790314, 0.41080617904663086, -0.15632681548595428, -0.36367151141166687, 0.011912561021745205, -0.19005601108074188, 0.19497215747833252, -0.22681841254234314, -0.0010846820659935474, 0.21202798187732697, 0.44518133997917175, -0.13121211528778076, 0.20912399888038635, 0.1584901362657547, 0.5990301370620728, -0.22738435864448547, 0.17145055532455444, 0.14673790335655212, 0.6170147657394409, 0.4154652953147888, 0.22303083539009094, 0.8468671441078186, -0.16165484488010406, -0.8688772916793823, -0.4118996858596802, -0.4539836645126343, -0.018719442188739777, 0.6795158386230469, -0.13671275973320007, 0.3850442171096802, -0.5055410265922546, 0.0017021234380081296, -0.11260896921157837, 0.5302248597145081, -0.12414827197790146, 0.26931655406951904, -0.7770723700523376, 0.0651736855506897, 0.37390753626823425, -0.4165133237838745, -0.2513010501861572, -0.14971330761909485, 0.4233458340167999, -0.062146034091711044, 0.07635892182588577, 0.2396937608718872, 0.4549935460090637, 0.1424482762813568, 0.01689651608467102, 0.23241664469242096, -0.10747233778238297, 0.35099300742149353, -0.13336865603923798, -0.22714565694332123, 0.3777415454387665, 0.14739373326301575, 0.017968133091926575, 0.23489148914813995, -0.525864839553833, 0.49002736806869507, -0.013485315255820751, 0.4242982864379883, -0.29465141892433167, -0.8937127590179443, 0.021760080009698868, 0.006121205631643534, 0.016985008493065834, 0.025188008323311806, 0.13939917087554932, 0.06686040759086609, 0.015436060726642609, 0.023819483816623688, -0.03786609694361687, 0.04516354203224182, 0.006954425945878029, 0.08847113698720932, -0.025859974324703217, -0.0915631353855133, 0.056783277541399, 0.06370963901281357, 0.0879966989159584, 0.23747596144676208, 0.05416698008775711, -0.0066907950676977634, -0.07903289794921875, 0.05422200262546539, 0.010738595388829708, 0.033975403755903244, 0.33593693375587463, 0.10129691660404205, -0.03730690851807594, -0.09215035289525986, 0.04534737020730972, 0.07990524917840958, -0.11509459465742111, 0.17704305052757263, -0.32563772797584534, 0.09209034591913223, -0.5076481699943542, -0.3267935514450073, 0.3127534091472626, -0.20595519244670868, 0.23465211689472198, 0.12217994779348373, 0.20133928954601288, 0.004029865842312574, -0.3985103368759155, -0.41644126176834106, -0.16114561259746552, -0.27361860871315, 0.039678048342466354, 0.13217662274837494, -0.3532271087169647, 0.09297187626361847, -0.05688287690281868, -0.8320063352584839, 0.24590983986854553, -0.053891394287347794, 0.09406527131795883, 0.14640876650810242, -0.4687782824039459, 0.22946998476982117, -0.1180795282125473, -0.2634076178073883, -0.25333189964294434, -0.07346413284540176, -0.23980291187763214, -0.1854446828365326, 0.03840315341949463, -0.2221512347459793, 0.03089289180934429, -0.18169642984867096, -0.5110191106796265, -0.1286507248878479, -0.3444410562515259, 0.35075294971466064, -0.12062860280275345, -0.9661616086959839, 0.1125178411602974, 0.18190598487854004, 0.3795973062515259, -0.04244859889149666, 0.14737164974212646, -0.10910068452358246, -0.6867167353630066, 0.20562151074409485, -0.2635153830051422, -0.1420227587223053, -0.15109451115131378, -0.5343292355537415, -0.3831764757633209, 0.24028201401233673, -0.31986162066459656, -0.5949881076812744, -0.20661279559135437, 0.3592692017555237, -0.5122798681259155, 0.48190662264823914, 0.19732576608657837, -1.0163447856903076, -0.35739392042160034, 0.26353228092193604, -0.46653711795806885, -0.4669232666492462, -0.26120349764823914, -0.08628833293914795, -0.40494436025619507, 0.20093393325805664, 0.40904274582862854, -0.16344548761844635, -0.021155094727873802, -0.3340054154396057, 0.19376325607299805, 0.20661026239395142, -0.17517529428005219, -1.7740206718444824, -0.5635740160942078, 0.2532305121421814, 0.09872987866401672, 0.22658637166023254, 0.7633234858512878, -0.06474703550338745, -0.5054277777671814, 0.347275048494339, -0.9403842687606812, 1.001055121421814, -0.14503155648708344, 0.2331848293542862, 0.09134809672832489, -0.5364706516265869, 0.2777637839317322, 0.17582561075687408, 0.3736184239387512, 0.8156188130378723, -0.3053825795650482, 0.1623324602842331, 0.32520148158073425, 0.11615341901779175, 0.716244637966156, -0.35884442925453186, 0.3056078255176544, -0.26040878891944885, -0.7201229929924011, 0.5258815884590149, 0.3085724413394928, 0.3770520091056824, 0.2950603663921356, 0.188639298081398, 0.011165596544742584, 0.13913662731647491, -0.04346007481217384, -0.26346710324287415, -0.0247581135481596, -0.2518194317817688, 0.12835340201854706, -0.5924378037452698, -0.3479304909706116, -0.42907220125198364, -0.5610678195953369, 0.4065384268760681, -0.4016992449760437, 0.10337647795677185, -0.14679516851902008, -0.16918297111988068, -0.5388022065162659, -0.1485540270805359, -0.3533799946308136, 0.06692676246166229, -0.3738347291946411, 0.15492628514766693, 0.017699042335152626, 0.029958250001072884, -0.1014995351433754, 0.01471390575170517, -0.18611638247966766, -0.10332349687814713, 0.014558765105903149, 0.03920355811715126, 0.15206009149551392, 0.31561005115509033, -0.4120230972766876, 0.1427302062511444, 0.1685313731431961, -0.20287750661373138, -0.559191882610321, 0.09455371648073196, -0.3016203045845032, -0.16426916420459747, -0.10439608991146088, -0.21030564606189728, 0.4899759292602539, 0.11119011789560318, 0.13471245765686035, -0.22014443576335907, 0.04947039112448692, 0.3618852496147156, -0.051172394305467606, -0.2718084752559662, -0.04108364135026932, 0.14487844705581665, -0.35601457953453064, -0.04403113201260567, 0.027382569387555122, -0.0676155835390091, -0.04067229852080345, 0.05668504536151886, -0.3733060359954834, 0.6532692909240723, -0.04025447368621826, 0.3341026306152344, 0.08507904410362244, -0.08776676654815674, -0.06116795539855957, -0.6074826121330261, -0.29133784770965576, 0.2180647850036621, -0.2689293920993805, 0.3399527072906494, -0.14699314534664154, -0.10573966056108475, 1.0367127656936646, -1.1838427782058716, -0.38868990540504456, 0.012184054590761662, 1.0091500282287598, -1.1051596403121948, -0.47625526785850525, -0.15189139544963837, -0.004815677646547556, -0.04208292439579964, -0.019656891003251076, 0.06828112155199051, 0.05660869553685188, 0.34557902812957764, -0.29101383686065674, 0.3982425034046173, 0.06276959180831909, 0.1905934363603592, -0.6260636448860168, 0.41922610998153687, 0.055583689361810684, 0.3292343020439148, -0.10866484045982361, 0.08452381193637848, -0.11139252036809921, 0.17999504506587982, -0.7731699347496033, 0.5394672155380249, -0.23203754425048828, 0.00024682568619027734, 0.33104947209358215, 0.5628706812858582, 0.2659500241279602, -0.19115085899829865, -0.7611081600189209, 0.7482414841651917, 0.005614091642200947, -0.1802060902118683, 0.4851295053958893, -0.351728618144989, -0.24839572608470917, 0.6863941550254822, -0.44994425773620605, -0.8001892566680908, -0.1391754001379013, 0.8351525068283081, -0.19584353268146515, -0.3414197862148285, 0.8169330954551697, -0.014379866421222687, -0.7080265283584595, -0.2079334855079651, 0.08675384521484375, 0.040717173367738724, 0.04436033219099045, -0.11227300018072128, -0.004005598835647106, 0.06077476963400841, 0.04428492859005928, 0.005586215760558844, -0.016695763915777206, -0.0010733624221757054, 0.07098489999771118, -0.11353877186775208, 0.07601320743560791, 0.019670704379677773, -0.09948085248470306, -0.019009236246347427, 0.10346841812133789, -0.03896171227097511, 0.05472206324338913, 0.0002662079350557178, 0.049218177795410156, -0.02801257185637951, 0.04745088890194893, 0.04891767352819443, -0.0064655872993171215, 0.05291746184229851, 0.07311712205410004, -0.0006195584428496659, 0.03784956783056259, -0.08217088133096695, -0.043196093291044235, -0.007438319269567728, -0.039690952748060226, 0.15817460417747498, -0.11975082010030746, 0.10363724827766418, -0.05910787731409073, 0.027801934629678726, 0.2664111256599426, -0.09717452526092529, -0.3594554662704468, 0.23226585984230042, 0.08476428687572479, -0.11124458909034729, -0.8704034090042114, 0.22967693209648132, 0.013765274547040462, 0.18736447393894196, 0.07585496455430984, -0.4550599157810211, 0.15452514588832855, 0.1840861439704895, 0.2996472716331482, -0.27625909447669983, -0.11893762648105621, 0.1640825718641281, 0.16897627711296082, 0.2507835626602173, 0.2634846270084381, -0.36161601543426514, -0.2362372726202011, 0.08753444254398346, -0.04232143238186836, 0.10031682252883911, 0.39126870036125183, 0.23397202789783478, -0.0777495950460434, 0.1337677389383316, 0.22485606372356415, -0.15310627222061157, 0.215467169880867, -0.10118379443883896, -0.48957425355911255, -0.2668331265449524, 0.5533649921417236, 0.5909378528594971, -0.045157864689826965, -0.028380312025547028, -0.012617199681699276, 0.09763084352016449, 0.19440485537052155, 0.21615810692310333, 0.08123213052749634, 0.685257613658905, 0.2647027373313904, 0.2552240788936615, -0.26488232612609863, -0.3369910418987274, -0.000768270343542099, 0.10779082030057907, 0.054479166865348816, -0.10887415707111359, -0.26509228348731995, 0.10540692508220673, 0.058798473328351974, 0.28559237718582153, 0.3945084512233734, 0.11333423852920532, -0.07144637405872345, 0.3933340311050415, 0.21411815285682678, 0.35531720519065857, 0.0657568946480751, 0.15873666107654572, 0.10947495698928833, -0.007325912360101938, 0.050712890923023224, 0.423263818025589, -0.020146546885371208, -0.18090000748634338, 0.1832694411277771, -0.2476705014705658, -0.432564377784729, -0.9858195185661316, 0.9675080180168152, -0.3196786642074585, -0.0979636088013649, 0.05036095529794693, -0.05603717640042305, 0.25554388761520386, 0.4511381685733795, 0.1547132432460785, 0.08287348598241806, 0.468544065952301, -0.18265780806541443, -2.0328049659729004, -0.007090799044817686, -0.9879066348075867, 0.9285387396812439, -0.0988670215010643, 0.6290923357009888, 0.41224923729896545, 0.1294201910495758, 0.020235706120729446, -0.0985654965043068, -0.8218700289726257, 0.0030330971349030733, 0.2482096403837204, -0.03226815536618233, 0.57915860414505, -0.2517639994621277, 0.605110228061676, 0.6050689220428467, -0.22121983766555786, -0.3511883020401001, -0.2172415405511856, -0.5796141028404236, 0.4512547552585602, -0.5065004825592041, -0.0788770318031311, -0.48168468475341797, -0.5973780751228333, 0.7608165144920349, -0.3158630430698395, 0.3036520779132843, 0.5770406126976013, 0.5917218327522278, -0.5642840266227722, -0.2959573268890381, -0.29551073908805847, 0.816123902797699, -0.2702158987522125, 0.5058416724205017, -0.36352044343948364, -0.14661149680614471, 0.09369691461324692, -0.02758845128118992, -0.141390860080719, -0.15929390490055084, 0.14894850552082062, 0.09849736094474792, -0.1301233470439911, 0.1085151731967926, 0.005880611017346382, -0.2743729054927826, -0.027199551463127136, 0.2624019384384155, -0.23923222720623016, 0.10076030343770981, -0.20179088413715363, 0.1894536167383194, -0.1842268854379654, 0.23544451594352722, -0.1878405511379242, -0.061739061027765274, 0.4997704029083252, 0.15160128474235535, 0.07344105839729309, 0.14013296365737915, 0.23762379586696625, 0.08263485878705978, -0.01768597587943077, 0.1468323916196823, -0.14218279719352722, 0.08183050900697708, 0.26557132601737976, 0.20332883298397064, 0.06824815273284912, 0.005381634924560785, 0.0675249993801117, 0.2539660334587097, -0.21926775574684143, -0.07114920020103455, -0.1784118115901947, -0.34610530734062195, -0.35768643021583557, -0.4390637278556824, 0.5116392374038696, -0.6614294052124023, -0.2759150266647339, 0.06395256519317627, 0.19756658375263214, 0.1943475604057312, -0.3746263384819031, 0.26555225253105164, -0.33438023924827576, 0.5513945817947388, 0.49714985489845276, 0.03815381973981857, -0.28846991062164307, 0.42321258783340454, 0.3587021231651306, 0.03035077452659607, -0.13593390583992004, 0.32683366537094116, -0.4401235580444336, 0.40882834792137146, 0.014719542115926743, 0.6425248384475708, 0.13527940213680267, -0.19374530017375946, 0.12537817656993866, 0.15156297385692596, 0.0595516599714756, 0.19193007051944733, 0.5005965232849121, 0.22476516664028168, 0.11215119063854218, 0.0837935283780098, 0.19001644849777222, -0.5001010894775391, -0.07401406019926071, -0.0022780627477914095, 0.22948122024536133, -0.10373006761074066, 0.06635693460702896, 0.14277617633342743, 0.6877476572990417, -0.06053231284022331, 0.8736441135406494, -0.09344704449176788, -0.4331376254558563, -0.038308579474687576, -0.1275738924741745, -1.181169867515564, -0.25805413722991943, 0.41125839948654175, -0.44263404607772827, -0.07426916807889938, 0.6558466553688049, -0.3100722134113312, 0.1570114940404892, -0.5509423017501831, 0.048695072531700134, 0.2131621241569519, 0.015425997786223888, 0.00881789531558752, 0.35013246536254883, 0.18628954887390137, 0.4255222976207733, -0.5726498365402222, -0.2678047716617584, -0.08484669029712677, -0.0020275164861232042, 0.011619783006608486, 0.06278169900178909, -0.1467985361814499, -0.12519441545009613, -0.0023234484251588583, 0.05174729973077774, -0.015094032511115074, 0.018436767160892487, 0.06626195460557938, 0.003619263879954815, -0.03190663456916809, 0.0808495283126831, -0.004032721742987633, 0.05150662362575531, 0.05525383725762367, 0.03575317561626434, 0.08572125434875488, 0.03101378306746483, -0.03245013207197189, -0.002910010516643524, 0.03227115422487259, -0.09145989269018173, 0.2300472855567932, -0.0038145461585372686, 0.031380195170640945, 0.010776129551231861, 0.04347756877541542, -0.027421530336141586, -0.07758759707212448, 0.2059791535139084, -0.04760001599788666, 0.27943482995033264, -0.0299272108823061, 0.2838762700557709, -0.2229790836572647, -0.0423879399895668, -0.11189287155866623, 0.10527685284614563, -0.10599071532487869, 0.043443191796541214, -0.2844277620315552, 0.010686760768294334, -0.5111421942710876, -0.014650528319180012, 0.06907449662685394, 0.06861621141433716, -0.0598311685025692, 0.20967824757099152, 0.0728999450802803, -0.2247406542301178, -0.04143247753381729, -0.20336776971817017, -0.14294858276844025, -0.3546874225139618, -0.09373610466718674, -0.09619920700788498, 0.05086027830839157, 0.10023418813943863, -0.11759224534034729, -0.18899370729923248, -0.036475930362939835, -0.13780376315116882, -0.2993878126144409, -0.22538360953330994, 0.6021331548690796, -0.3079579770565033, -0.03738943859934807, -0.004818350076675415, 0.049769267439842224, -0.05806367099285126, -0.0157278124243021, 0.0046483054757118225, -0.46274903416633606, -0.053101371973752975, 0.14503149688243866, -0.32378560304641724, 0.3511349856853485, -0.1307884156703949, -0.28682494163513184, 0.0069929794408380985, -0.13629867136478424, -0.20346735417842865, -0.5708761811256409, -0.054887931793928146, 0.2085537612438202, -0.04747174307703972, -0.5959230661392212, 0.4163864552974701, -0.23749202489852905, 0.02017795667052269, 0.37571167945861816, 0.3531557619571686, 0.04630724713206291, -0.16645345091819763, -0.5262507796287537, 0.0881790816783905, 0.028924530372023582, -0.16046659648418427, 0.3769017457962036, 0.018136346712708473, -0.09719479829072952, 0.10097523033618927, -0.4374140799045563, 0.4657973051071167, -0.5690738558769226, -0.3676176965236664, 0.17433138191699982, -0.09664055705070496, -0.07176929712295532, -0.6929542422294617, 0.22305269539356232, 0.5955404043197632, -1.1047898530960083, 0.2454875409603119, 0.18236857652664185, 0.6006455421447754, -0.5744348764419556, -0.007777573075145483, -0.47168102860450745, 0.0891980230808258, 0.45009082555770874, 0.5110009908676147, -0.1320648491382599, 0.5256250500679016, -1.0095442533493042, -0.7136011719703674, 0.1381836235523224, -1.2377076148986816, -0.6054167151451111, -0.6380456686019897, 0.14561529457569122, -0.18067315220832825, 0.1090107336640358, -0.5073570609092712, -0.9628427624702454, -1.4521256685256958, -2.157799243927002, 0.16937123239040375, -0.22914308309555054, -0.25672590732574463, -0.7623864412307739, -1.4392248392105103, 0.38494229316711426, 1.134272813796997, 0.13673809170722961, 0.0471174530684948, 0.27145513892173767, 1.3065621852874756, -0.07753051072359085, -0.6458129286766052, 0.5561325550079346, -0.7130593657493591, -0.4004206359386444, -0.4502723813056946, 0.19947099685668945, 0.34510141611099243, 1.030932903289795, -0.02518690563738346, -0.8489720821380615, -0.23018258810043335, -0.8214237689971924, -0.18969818949699402, 0.21675190329551697, 0.051271431148052216, 0.08390693366527557, 0.23708000779151917, 0.324740469455719, -0.2291143536567688, 0.05207308009266853, -0.2797437012195587, 0.3254912197589874, -0.0031554715242236853, -0.040153637528419495, 0.12944157421588898, 0.2164795696735382, 0.2676112651824951, -0.4068869352340698, -0.21803703904151917, -0.5690412521362305, 0.08953120559453964, -0.4593208432197571, -0.12246459722518921, -0.11760014295578003, 0.16557015478610992, -0.4404222369194031, -0.0807870477437973, 0.49722039699554443, -0.25631722807884216, -0.17832237482070923, 0.33574745059013367, 0.3055891990661621, -0.16225996613502502, 0.47996777296066284, -0.051448192447423935, -0.08982466161251068, 0.4110509753227234, 0.21687725186347961, 0.23019814491271973, 0.37524259090423584, -0.7123619318008423, 0.0694752186536789, 0.39889004826545715, 0.07007922232151031, -0.2206782102584839, 0.1077132523059845, 0.3497536778450012, 0.21764178574085236, 0.041670382022857666, -0.008999279700219631, -0.05520974472165108, 0.41773051023483276, 0.4518181383609772, -0.16451486945152283, -0.5377442836761475, -0.074334517121315, 0.570794403553009, 0.023078138008713722, -0.5979233980178833, 0.004359408747404814, 0.5521324276924133, 0.1615631878376007, 0.5770776867866516, 0.08329106122255325, -0.17711469531059265, -0.1617792397737503, 0.9060675501823425, -0.21953994035720825, 0.07143055647611618, -0.6561082601547241, 0.5762640237808228, -0.2956976890563965, 0.1800059974193573, -0.2731183171272278, -0.11807126551866531, 0.07205488532781601, 0.01097240298986435, 0.294865220785141, 0.1648532748222351, 0.5442237854003906, 0.3019777238368988, 0.8723928332328796, 0.7615531086921692, 0.5420027375221252, -0.5684608817100525, 0.6216381192207336, -0.3834119737148285, -0.8533914089202881, -1.0602850914001465, -0.635407030582428, 0.17291852831840515, -0.4843454360961914, -0.16123157739639282, 0.09781575947999954, -0.3164645731449127, 0.1235998198390007, -1.0512181520462036, 0.31008461117744446, 0.4000820815563202, -0.5762802958488464, -0.33124032616615295, 1.030191421508789, -0.18409812450408936, 0.15137137472629547, 0.1586041897535324, -1.3183356523513794, -0.2785775363445282, -0.07438132911920547, -0.7687984704971313, 0.04874306544661522, 0.007374728564172983, 0.11344478279352188, 0.0400267019867897, -0.08140160888433456, -0.05328421667218208, 0.057839177548885345, 0.014552677050232887, 0.04553992301225662, 0.053116075694561005, 0.04335964098572731, -0.05337797477841377, -0.007365501020103693, 0.0014056971995159984, 0.03656400740146637, -0.027440346777439117, 0.12386606633663177, -0.020122941583395004, 0.0928882509469986, 0.08615642040967941, -0.04378717020153999, -0.04455902427434921, 0.05146205797791481, 0.08052516728639603, -0.5868616104125977, 0.07835496217012405, -0.04807490110397339, -0.07760301232337952, 0.08430736511945724, 0.015584415756165981, -0.0360102578997612, 0.0749385803937912, 0.19061872363090515, 0.21302589774131775, -0.454076886177063, 0.1962166428565979, 0.09493932873010635, -0.10880890488624573, -0.10153371840715408, -0.16555608808994293, 0.4886382222175598, -0.27949684858322144, 0.2756143808364868, 0.10261711478233337, 0.06998105347156525, -0.12374593317508698, -0.12484817951917648, -1.4403225183486938, -0.3286959230899811, 0.13201656937599182, 0.07383113354444504, 0.37250542640686035, 0.34956854581832886, 0.18489722907543182, -0.18610811233520508, -0.6902539134025574, -0.2816535234451294, -0.3596469461917877, 0.6392862796783447, -0.314331591129303, -0.3942173719406128, -0.08035862445831299, 0.13152030110359192, 0.25754472613334656, -0.17565110325813293, -0.1731589436531067, -0.10849720239639282, 0.1532757431268692, -0.10736525803804398, 0.6185843348503113, -0.12534813582897186, -0.35485801100730896, 0.03340126946568489, 0.08562527596950531, -0.4030446410179138, 0.2052847295999527, -0.7550615668296814, -0.062041278928518295, -0.12836623191833496, -0.05110006406903267, 0.05838833376765251, 0.033697132021188736, -0.0600830540060997, 0.3542289435863495, -0.023715367540717125, 0.1576806604862213, -0.6654630899429321, -0.7464896440505981, 0.35146620869636536, -0.5577258467674255, 0.2943178415298462, 0.3985724449157715, -0.06442565470933914, -0.07944963127374649, 0.1631450057029724, -0.05193154886364937, 0.3634701371192932, -0.625825822353363, -0.23624750971794128, 0.22532539069652557, 0.32824501395225525, -0.30735594034194946, 0.1965307891368866, -0.13973495364189148, 0.7389748096466064, 0.47532668709754944, -0.38607966899871826, -0.43852758407592773, -0.49803629517555237, -0.49688634276390076, -0.7825102210044861, -0.809861958026886, 1.106687068939209, -0.6865302324295044, -1.105558156967163, -0.061068981885910034, 0.10927175730466843, 0.33971714973449707, -0.4043349027633667, 1.02751886844635, -0.1682761013507843, -0.09409446269273758, -0.55796879529953, 0.7561182975769043, 0.7391595840454102, 0.190363347530365, 0.5389394164085388, 0.4358712434768677, -0.31034260988235474, 0.48587122559547424, 0.12740404903888702, -0.4751831591129303, -0.24550558626651764, 0.03150627017021179, 0.009184910915791988, -0.21354934573173523, -0.010506936348974705, -0.1552320271730423, 0.6739279627799988, -0.3909495174884796, -0.5242741107940674, -0.16597236692905426, -0.2828787565231323, -0.17530687153339386, 0.09610050916671753, 0.2168220430612564, 0.5465695858001709, 0.580208957195282, -0.49472683668136597, 0.03850103169679642, -0.06170663237571716, -0.2756979763507843, 0.20734792947769165, 0.5005882382392883, 0.012239491567015648, 0.19883275032043457, 0.2589809000492096, -0.6985494494438171, 0.16519759595394135, 0.3941492438316345, -0.09714368730783463, -0.025230368599295616, -0.1925564557313919, -0.2505975067615509, -0.3816511631011963, -0.4398297965526581, -0.021432582288980484, 0.4350602924823761, 0.17212194204330444, 0.0474061444401741, 0.044454801827669144, -0.20395562052726746, 0.14004698395729065, -0.0695253387093544, 0.07875050604343414, -0.4073914885520935, -0.04256889969110489, -0.37201470136642456, -0.09848696738481522, 0.08136645704507828, -0.04948142170906067, 0.3346254229545593, -0.1652919054031372, 0.2873747944831848, -0.31107601523399353, -0.03614002838730812, 0.05109530687332153, 0.07215797156095505, 0.15868721902370453, 0.8089951872825623, 0.15621815621852875, 0.1749531775712967, -0.01145586185157299, -0.026963604614138603, 0.4967196583747864, -0.32199352979660034, -0.7274617552757263, -0.05473838746547699, -0.3826436400413513, -0.26689085364341736, 0.37914571166038513, 0.05658165365457535, -0.19739481806755066, 0.1066296175122261, 0.48513010144233704, 0.08789527416229248, -0.44559720158576965, 0.44804707169532776, 0.5483157634735107, 0.05446787551045418, -0.2642345428466797, -0.10612919181585312, 0.09432534128427505, 0.3403564691543579, 0.05292348191142082, 0.512090802192688, -0.12725630402565002, -0.1871396154165268, -0.48786360025405884, 0.5116481781005859, -0.0863320454955101, -0.1656619757413864, -0.6204261779785156, 0.15782447159290314, -0.025974847376346588, -0.10525710880756378, 0.8179994225502014, 0.153610959649086, 0.021045390516519547, -0.4846072494983673, -0.8188528418540955, 0.05918600782752037, 0.11758027225732803, 0.07645971328020096, 0.6421747207641602, 0.607598602771759, -0.011723428964614868, -1.0713032484054565, -0.08989988267421722, 0.6630960702896118, 0.8299036622047424, -0.4973400831222534, 0.039844296872615814, 0.5428857803344727, 0.05912550166249275, -0.39256125688552856, -0.5266152620315552, -0.17107628285884857, 0.09706410765647888, 0.8432698249816895, -0.4355093836784363, -0.2319449931383133, -0.25005394220352173, -0.19206370413303375, 0.7290537357330322, -0.1309339851140976, 0.0247731264680624, 0.01050141453742981, 0.14156511425971985, 0.5038642287254333, -0.8052608370780945, -0.12081212550401688, -0.2989846169948578, 0.7400222420692444, 0.07077252864837646, -3.5769119262695312, 1.1557570695877075, 1.0556069612503052, 0.4872678816318512, 0.008401165716350079, -0.036829523742198944, 0.02751191519200802, 0.018493108451366425, -0.09021048247814178, 0.03678898513317108, 0.05205399915575981, 0.04731452092528343, 0.07507821917533875, -0.01460376475006342, 0.0744403675198555, 0.083193339407444, -0.03909514099359512, 0.003906852565705776, 0.003577118506655097, -0.09502139687538147, 0.018221888691186905, -0.04916529729962349, -0.19916492700576782, -0.1887129545211792, 0.022182291373610497, 0.10210981965065002, 0.031197726726531982, 0.02246573194861412, -0.11206958442926407, -0.18268175423145294, -0.049002617597579956, 0.029549023136496544, -0.16534002125263214, -0.05697273463010788, 0.0038205869495868683, 0.01129805389791727, 0.007256018463522196, 0.4804754853248596, -0.17812246084213257, 0.6946415901184082, -0.09195911139249802, -0.8863881230354309, -1.002152442932129, -0.7089865207672119, -0.07970941066741943, 0.08523936569690704, 0.2701100707054138, -0.38700366020202637, -0.11323290318250656, -0.018810080364346504, 0.06791403889656067, -0.24379228055477142, -0.023827990517020226, 0.5882514715194702, 0.3826695680618286, 0.09434965252876282, 0.36198192834854126, 0.4552188813686371, -0.8022462725639343, 0.6005107760429382, -0.2634761333465576, 0.02785247005522251, 0.12551867961883545, 0.035741884261369705, 0.20296017825603485, -0.009646305814385414, 0.037211302667856216, -0.8899880647659302, 0.6279178857803345, 0.39631909132003784, 0.31332218647003174, -0.38587406277656555, 0.16433174908161163, -0.9337619543075562, 0.25955531001091003, 0.38405483961105347, 0.20913264155387878, 0.33927255868911743, 0.27642202377319336, -0.2973228096961975, 0.2703405022621155, 0.5594716668128967, -0.3579927086830139, 0.45777627825737, 0.1682461053133011, -0.10356252640485764, -0.3232372999191284, -0.41274669766426086, 0.3291073143482208, 0.5049446821212769, -0.24849647283554077, -0.15373536944389343, -0.11470049619674683, 0.10756179690361023, 0.24206461012363434, 0.5825208425521851, 0.6135956645011902, -0.0038275839760899544, 0.5299217700958252, 0.43067410588264465, -0.7635080218315125, 0.5409768223762512, -0.4103606939315796, 0.11407092213630676, -0.023563001304864883, -0.1887740194797516, 0.2844800353050232, 0.2956720292568207, 0.16322208940982819, -0.8029528260231018, -0.03943943977355957, -0.3293023109436035, 0.7186429500579834, 0.9259677529335022, 0.7067850232124329, -0.24105766415596008, -0.08929551392793655, 0.2587827146053314, -0.2167627513408661, -0.291365385055542, -0.13494117558002472, 0.44476833939552307, -0.3453361392021179, -0.5280712842941284, 0.9735798835754395, 0.0371149480342865, -0.7864393591880798, -0.13562621176242828, -0.40006256103515625, 0.9501662254333496, -0.076223224401474, -0.30309465527534485, -0.38501787185668945, 0.9882040023803711, 0.3414565622806549, -0.6212344765663147, -0.2122953087091446, -0.0009820169070735574, -0.12302237004041672, 0.8940568566322327, -0.2753387689590454, 0.497248113155365, -0.018481576815247536, 0.6941909193992615, 0.577083170413971, 0.32927536964416504, -0.2491779625415802, -0.055729493498802185, 0.11672448366880417, 1.4767214059829712, -0.8322914838790894, -0.002863937057554722, 0.5096019506454468, -0.3798161745071411, -0.8327699899673462, -0.5845991969108582, -0.6412410140037537, -0.0837879553437233, 0.4443819224834442, -0.2644387185573578, 0.19364644587039948, 0.6602568626403809, -0.11452286690473557, -0.27544280886650085, 0.04559694975614548, 0.13798148930072784, -0.8247747421264648, -0.1907520592212677, 0.03584042191505432, -0.09654273092746735, 0.21934819221496582, 0.13173452019691467, -0.2792746424674988, -0.045114390552043915, 0.41540902853012085, -0.005724949296563864, -0.06032831594347954, 0.11445507407188416, -0.3905123174190521, -0.27545875310897827, 0.2873836159706116, 0.043127428740262985, -0.23910795152187347, -0.16621039807796478, 0.028615808114409447, -0.31057798862457275, 0.10263098031282425, -0.137795090675354, 0.09440475702285767, 0.14037467539310455, 0.06992609798908234, -0.15121717751026154, 0.07264550030231476, 0.05751919001340866, -0.14111147820949554, 0.16673526167869568, 0.36271363496780396, -0.08989939838647842, -0.5277908444404602, -0.010259327478706837, 0.08761125802993774, -0.22192393243312836, 0.10167079418897629, 0.2485802322626114, -0.026398099958896637, -0.022040007635951042, -0.029245272278785706, -0.011919616721570492, 0.2641450762748718, 0.4332822263240814, 0.22270984947681427, -0.19615203142166138, -0.5411542057991028, 0.429862916469574, 0.14544305205345154, -0.31797635555267334, 0.2344604879617691, 0.03597472235560417, -0.036039553582668304, 0.1748669296503067, -0.4728832542896271, 0.1405235081911087, 0.8005213141441345, 0.369766503572464, -0.3898153603076935, 0.10877634584903717, 0.6562961935997009, 0.44333305954933167, 0.264894038438797, 0.010355068370699883, -0.33349138498306274, 0.07606925070285797, 0.3853335380554199, -0.1875772625207901, 0.3670825958251953, 0.5616332292556763, -0.030424268916249275, 0.1450364887714386, 0.3562406897544861, -0.12986212968826294, 0.18722060322761536, -0.21321234107017517, -0.06372831761837006, -0.021733008325099945, -0.42795005440711975, -0.07020077109336853, -0.6024645566940308, 0.456499308347702, 0.08988411724567413, 0.26465967297554016, 0.1164516732096672, -0.3409670889377594, -0.4276029169559479, -0.3988480865955353, -0.20049649477005005, 0.479480504989624, -0.2792740762233734, -0.43509984016418457, -0.10172363370656967, 0.09076593816280365, -0.2654273211956024, -0.2680618166923523, 0.0249132439494133, -0.20343609154224396, -0.7752155661582947, 0.6384687423706055, 0.19156306982040405, 0.13818591833114624, -0.12606212496757507, 0.38842105865478516, -0.6340523958206177, -0.41838937997817993, 0.5250021815299988, -0.1261061578989029, 0.48322805762290955, -0.01586293987929821, 0.04728231206536293, 0.11377356201410294, -0.017803221940994263, -0.022287799045443535, 0.12125177681446075, -0.047411903738975525, 0.13561856746673584, -0.02975117228925228, 0.03233528137207031, -0.03141308203339577, 0.013164625503122807, 0.06978663057088852, -0.06722467392683029, -0.0774206593632698, -0.003231580602005124, -0.08966430276632309, -0.2095835953950882, -0.022181538864970207, 0.033030178397893906, -0.046345263719558716, -0.12651154398918152, -0.008157369680702686, -0.029810255393385887, 0.0010646022856235504, 0.10424311459064484, -0.028427230194211006, -0.1333571821451187, -0.02518140897154808, 0.03307966887950897, 0.011352053843438625, 0.2206101417541504, -0.013121782802045345, -0.10288558155298233, -0.06936471164226532, -0.21496163308620453, 0.5819261074066162, 0.49730184674263, -0.011309459805488586, 0.29218563437461853, 0.1685294657945633, -0.08302923291921616, 0.5487297773361206, -0.5968294143676758, -0.08642040193080902, 0.15243330597877502, 0.31383195519447327, 0.1315942108631134, -0.20253247022628784, -0.07211273163557053, -0.2138303816318512, -0.16371159255504608, 0.5181187987327576, -0.2092358022928238, -0.3390249013900757, -0.28967612981796265, -0.21499934792518616, 0.46594172716140747, -0.16201607882976532, -0.11758910864591599, -0.22491617500782013, -0.03689868748188019, -0.07967975735664368, 0.32062241435050964, 0.38746264576911926, 0.1696159839630127, 0.1780993789434433, -0.1437898725271225, 0.3321550786495209, -0.20079313218593597, -0.017920346930623055, -0.25364115834236145, -0.35313501954078674, -0.3690747916698456, 0.02642890438437462, -0.022152477875351906, -0.132295623421669, -0.029129784554243088, -0.1003553718328476, 0.3081248700618744, -0.33390700817108154, -0.3621058464050293, -0.06667186319828033, -0.10796861350536346, 0.45398077368736267, 0.4645823836326599, -0.4098550081253052, -0.5779013633728027, -0.35105568170547485, 0.03086289018392563, 0.10963073372840881, 0.104913130402565, 0.04675573855638504, 0.2224293202161789, 0.3448013663291931, 0.17772744596004486, -0.254638135433197, -0.3454558253288269, 0.44207948446273804, 0.2223949432373047, -0.5947958827018738, 0.09684562683105469, -0.2638576626777649, 0.22951693832874298, -0.5582340359687805, -0.19104702770709991, -0.018495114520192146, 0.11283791810274124, 0.12489385157823563, 0.25593945384025574, -0.08979105204343796, 0.9536579251289368, -1.0969127416610718, -0.6039647459983826, 0.4725342094898224, -0.19478802382946014, 0.5723341107368469, 0.8256461024284363, -0.4149239659309387, -0.17260399460792542, -0.7563601732254028, 0.04595618322491646, 0.08272067457437515, 0.1351834535598755, 0.10371460020542145, 0.325461745262146, -0.5452205538749695, -0.06340733170509338, 0.03409409150481224, -0.32812562584877014, -0.5498833060264587, 0.4673346281051636, 0.1625334471464157, -0.30167239904403687, -0.04499798268079758, 0.10851764678955078, -0.19503581523895264, -1.4258270263671875, 0.7183024883270264, 0.8852624297142029, -1.129062294960022, 1.2097787857055664, -1.4564614295959473, -1.6112747192382812, 0.5896050930023193, 0.5033503174781799, -0.807185173034668, 0.9764874577522278, 0.010160666890442371, -0.13084086775779724, -0.12581484019756317, 0.3215765655040741, 0.16354377567768097, -0.24560344219207764, -0.262906551361084, 0.5572197437286377, -0.2807425260543823, 0.15482543408870697, 0.2745351791381836, -0.542781412601471, -0.4288981854915619, 0.008717927150428295, 0.09296495467424393, -0.07127992808818817, 0.439091295003891, 0.030456671491265297, -0.09599150717258453, 0.15029780566692352, 0.0020343204960227013, -0.5595535039901733, 0.11003698408603668, 0.34046676754951477, -0.06840497255325317, 0.006114448420703411, -0.32385197281837463, 0.3000275194644928, -0.0026137491222471, 0.32179388403892517, 0.1364937722682953, -0.10796381533145905, -0.09294532239437103, 0.1982133686542511, -0.27949947118759155, -0.18628667294979095, 0.20914189517498016, 0.31742990016937256, 0.03461131826043129, 0.32156988978385925, -0.0023910796735435724, -0.04722335934638977, -0.5489537119865417, -0.14473110437393188, -0.413630872964859, 0.07989662885665894, 0.026598528027534485, -0.19257135689258575, -0.16092120110988617, 0.1501060426235199, -0.06970028579235077, -0.009834548458456993, 0.127524733543396, 0.04905802384018898, -0.07054050266742706, 0.05531441420316696, 0.45517274737358093, 0.001755811390466988, 0.21234141290187836, -0.13870196044445038, -0.4263106882572174, 0.05818454548716545, -0.03226194530725479, -0.8769917488098145, -0.07660359889268875, -0.04879825562238693, 0.014912005513906479, -0.07126333564519882, -1.0525505542755127, 0.4919954538345337, -0.6192176342010498, -0.04070952162146568, -1.0282208919525146, 0.5921838879585266, -0.519008994102478, -0.045434415340423584, -0.18533620238304138, -0.504719614982605, -0.12690751254558563, -0.6028679013252258, 0.17671428620815277, -0.41689401865005493, 0.050790511071681976, 0.021332979202270508, 0.2560079097747803, 0.3268427550792694, -0.09801308810710907, 0.2880935072898865, 0.01313320454210043, 0.023141225799918175, 0.4939405620098114, -0.8416741490364075, -0.6333016157150269, -0.21858558058738708, 0.04246259108185768, 0.5124835968017578, 0.047032542526721954, 0.06255485117435455, 0.1459348201751709, -0.9063222408294678, 0.1834900975227356, 0.13233835995197296, -0.5229844450950623, 0.7004565596580505, 0.3275548219680786, -0.24074403941631317, -0.32780200242996216, 0.8260608315467834, 0.7606430053710938, -0.04737856611609459, 1.8161247968673706, 0.46547484397888184, -0.9488350749015808, -0.3901881277561188, 0.9510185122489929, 0.8395406603813171, 0.5728820562362671, 0.11259177327156067, -1.3994214534759521, -1.6203566789627075, 0.4825887978076935, 0.04200758785009384, 0.004221043083816767, 0.062386877834796906, 0.03621421381831169, -0.031162293627858162, -0.0015910674119368196, 0.06448204815387726, -0.06599528342485428, -0.03893335536122322, -0.15649695694446564, -0.05133169889450073, 0.08095532655715942, -0.045474421232938766, -0.07704783976078033, 0.021526740863919258, 0.05003516748547554, -0.019053161144256592, -0.03917718678712845, 0.025147365406155586, 0.031551543623209, 0.027281442657113075, 0.07719962298870087, -0.005097705405205488, -0.017330201342701912, 0.038755085319280624, 0.5290758013725281, 0.15790174901485443, -0.015310454182326794, -0.00550936721265316, 0.03461255133152008, -0.03132868930697441, -0.060402777045965195, 0.3821195065975189, 0.5708386898040771, 0.6513891816139221, -0.42197421193122864, 0.018999211490154266, -0.5227712988853455, 0.3578515648841858, -1.6593215465545654, 0.14073283970355988, -0.22890996932983398, 0.3335956335067749, 0.12486474961042404, 0.26086679100990295, -0.14651550352573395, 0.00405213562771678, -0.19422811269760132, -0.08628193289041519, -0.23218366503715515, -0.7503421902656555, 0.4540291428565979, -0.08930058032274246, -0.2278028130531311, 0.11918333172798157, 0.6499232053756714, -0.11442352831363678, -0.3771848976612091, -0.26707878708839417, -0.19569049775600433, 0.41966691613197327, 0.1355702131986618, 0.3609280586242676, -0.38442111015319824, -0.30512380599975586, -0.8902646899223328, -0.3102530241012573, 0.15825212001800537, 0.5603995323181152, 0.4989425837993622, 0.05237820744514465, 0.11752750724554062, -0.2882132828235626, -0.15825960040092468, -0.7367550730705261, 0.8759316802024841, -0.7322812676429749, -0.2513526678085327, -0.3548312485218048, -0.02198551967740059, 0.17852039635181427, 0.22291429340839386, 0.080215223133564, -0.14536869525909424, -0.4249141216278076, 0.03154119476675987, -0.39480671286582947, 0.030034173280000687, 0.3634207844734192, -0.19657428562641144, 0.3839711546897888, 0.10770950466394424, -0.08718043565750122, -0.19377575814723969, 0.050444237887859344, -0.14147555828094482, -0.17597396671772003, 0.16991432011127472, 0.25678732991218567, -0.6056935787200928, -0.3192467987537384, 0.1207713931798935, -0.22955989837646484, 0.09289118647575378, -0.4784364700317383, 0.38992688059806824, 0.9049991965293884, 0.11625166237354279, -0.43835368752479553, 0.2304442673921585, -0.3532557189464569, -0.06782559305429459, -2.9248580932617188, -0.691007673740387, -0.22093817591667175, 0.10454228520393372, 0.49597904086112976, -0.12178417295217514, -0.5925716757774353, -0.17102675139904022, -0.5896061658859253, -0.4033101499080658, 0.8643301129341125, -0.051027797162532806, -0.6806766986846924, 0.3278158903121948, 0.1590120494365692, -0.21883077919483185, -0.20287927985191345, -0.31292733550071716, -0.1877293735742569, 0.13847243785858154, -0.14269064366817474, 0.17174039781093597, 0.3319852948188782, -0.3167857825756073, -0.3960731029510498, -0.4209319055080414, 0.07860629260540009, 0.05968505144119263, 0.12964275479316711, 0.5403468012809753, -0.4474981725215912, 0.017921127378940582, 0.25794434547424316, -0.007533104158937931, 0.2267557680606842, -0.7276700735092163, 0.20338201522827148, -0.03910749778151512, -1.1511814594268799, 0.42209064960479736, -0.0671573057770729, 0.35919904708862305, -0.7208702564239502, -0.5884178876876831, -0.7137026786804199, -0.9477323889732361, 0.09000790864229202, -1.5852464437484741, 1.0738097429275513, 0.08355498313903809, -0.6619576811790466, 0.5999289155006409, -0.250283807516098, 0.32548588514328003, -0.1324472576379776, -0.2957744002342224, -0.5159171223640442, -0.37844258546829224, 0.28731200098991394, -0.43694111704826355, 0.031044742092490196, 0.40931496024131775, -0.15402372181415558, -0.30521079897880554, 0.24537970125675201, -0.019611191004514694, 0.44146329164505005, -0.45283034443855286, -0.4387718141078949, -0.6908242702484131, 0.05089456960558891, -0.32939478754997253, 0.49152010679244995, 0.3709188401699066, 0.42703813314437866, 0.19368425011634827, 0.23934844136238098, -0.2168583869934082, 0.12552472949028015, 0.1033749207854271, -0.18366985023021698, 0.015885453671216965, -0.15293075144290924, -0.0600857213139534, -0.0710076168179512, 0.21854425966739655, 0.06605573743581772, -0.2910236716270447, 0.06162576004862785, 0.35149693489074707, 0.10435876250267029, -0.32681864500045776, -0.1580151915550232, -0.3027421236038208, -0.03344397246837616, 0.2571452856063843, 0.4143097698688507, -0.06257161498069763, -0.174473375082016, -0.05797389894723892, -0.38306307792663574, 0.2291203737258911, 0.19635340571403503, 0.17517471313476562, 0.17899203300476074, -0.10589557141065598, 0.03724665939807892, 0.3071916103363037, 0.11745475232601166, 0.008016884326934814, 0.0680219754576683, 0.22682712972164154, -0.2749718427658081, 0.8427156209945679, -0.024426955729722977, -0.4942278265953064, 0.4862678349018097, 0.18057413399219513, -0.023118358105421066, 0.22395117580890656, -0.4066618084907532, -0.08587411791086197, 0.04621013253927231, 0.5379557609558105, 0.3048802614212036, 0.18408861756324768, -0.5251317024230957, 0.3392183184623718, 0.07202272862195969, 0.250224232673645, -0.7093419432640076, 0.4431307911872864, 0.6778497099876404, 0.5399135947227478, -1.1705440282821655, -0.20271410048007965, -0.3641863763332367, 0.2438681721687317, 0.6345101594924927, -0.5612049102783203, -0.21205586194992065, 0.599245548248291, -0.2760985791683197, 0.34195470809936523, 0.023454241454601288, -0.19284594058990479, -0.918865978717804, -0.4484764635562897, 0.6897145509719849, -0.7267636060714722, 0.6762309670448303, 0.01926678791642189, 1.3509325981140137, -0.17221222817897797, -0.35884055495262146, 0.08936294913291931, 0.28370538353919983, 0.1622137874364853, -0.5706988573074341, 0.1077117845416069, -0.0679982602596283, 0.022854236885905266, -0.022636497393250465, 0.015445049852132797, 0.014235171489417553, -0.039830997586250305, -0.0958591029047966, 0.06936468183994293, -0.08879514038562775, 0.038793887943029404, -0.056828614324331284, 0.10240231454372406, 0.08867022395133972, -0.10467526316642761, -0.009325934574007988, 0.04868882894515991, -0.057648204267024994, -0.09420595318078995, -0.033212821930646896, 0.01519821397960186, 0.09025312960147858, 0.008664511144161224, -0.018431084230542183, 0.23662887513637543, -0.1004297062754631, 0.06475946307182312, -0.23837149143218994, 0.06756369024515152, -0.05094084516167641, 0.10412057489156723, 0.17868855595588684, 0.19336658716201782, -0.15178608894348145, 0.26193931698799133, 0.20499683916568756, -0.42762506008148193, -0.07509005069732666, -0.7469844222068787, -0.0966186597943306, 0.17258304357528687, -0.34849923849105835, 0.30861780047416687, 0.3841642737388611, 0.21877838671207428, 0.49392393231391907, 0.05404637008905411, -0.2857852876186371, 0.06351415812969208, 0.02750789374113083, -0.015068584121763706, 0.44011831283569336, 0.1548638939857483, 0.4814486801624298, 0.9756115674972534, 0.2482016384601593, 0.09812990576028824, 0.010358868166804314, 0.3081637918949127, -0.49410519003868103, 0.17362472414970398, 0.5665946006774902, -0.2283371388912201, 0.3493659794330597, 0.6234691143035889, 0.21016043424606323, 0.18597163259983063, 0.31227487325668335, -0.4847690761089325, 0.13828344643115997, -0.23383693397045135, -0.4742908477783203, 0.31443825364112854, 0.33601877093315125, 0.09920008480548859, 0.5093315839767456, -0.026638412848114967, 0.20889370143413544, 0.15092185139656067, -0.05167180299758911, 0.6795982122421265, -0.03968523070216179, -0.003223916282877326, -0.29262304306030273, 0.03563220426440239, 0.26089921593666077, 0.06646350026130676, 0.3461082875728607, 0.2855164706707001, 0.2593327462673187, 0.23788078129291534, 0.10959652066230774, 0.7248567938804626, 0.1239333376288414, 0.17238140106201172, 0.34882280230522156, 0.2636687457561493, 0.013101381249725819, 0.49088749289512634, -0.5238386392593384, 0.08270500600337982, 0.18110094964504242, 0.1323624849319458, 0.3304891586303711, 0.10548008978366852, 0.34724539518356323, 0.5902257561683655, 0.045582570135593414, -0.49360305070877075, 0.5989172458648682, -0.139720618724823, -1.600711464881897, 0.618905246257782, -0.7598285675048828, 0.8516847491264343, 0.020056020468473434, 0.03402332961559296, -0.902553141117096, -0.022037623450160027, -0.9162397980690002, 0.1763029396533966, -0.08209820836782455, 0.038103751838207245, -0.7019689083099365, -0.4451722800731659, -0.5515218377113342, 0.3122415542602539, -0.5229040384292603, -0.05821268633008003, 0.31555095314979553, 0.7493588924407959, 0.08684443682432175, 0.3294515609741211, -0.24461151659488678, -0.18383187055587769, 0.12834568321704865, -0.35551103949546814, 0.2574405074119568, -0.23925264179706573, 1.0374164581298828, -0.3714205324649811, -0.5079880356788635, -0.09369663149118423, 0.3874290883541107, -0.3690226674079895, 0.24056972563266754, -0.7113346457481384, -0.4318333864212036, 0.15445753931999207, -0.24385423958301544, -0.26036036014556885, 0.5574394464492798, -0.8190001249313354, -0.47565487027168274, 0.4883388876914978, -0.7200794816017151, 0.07414482533931732, 0.6988097429275513, -0.09935810416936874, -0.03782019019126892, -0.5744476914405823, 0.7999371886253357, -0.5839155316352844, -0.1446249783039093, 0.12441970407962799, 0.4144897162914276, 0.28246185183525085, 0.14358492195606232, -0.3546921908855438, 0.05144035816192627, 0.34536805748939514, 0.32216498255729675, -0.220266655087471, -0.3080825209617615, 0.16193242371082306, 0.168796107172966, -0.032957494258880615, -0.3794630169868469, 0.534538209438324, 0.279514342546463, 0.23191124200820923, -0.3065427541732788, -0.3682098984718323, -0.12241832911968231, 0.07141801714897156, 0.013050038367509842, 0.36556193232536316, -0.0026769021060317755, -0.7971293330192566, -0.16477957367897034, -0.5582295060157776, 0.06490685790777206, -0.03584477677941322, 0.32217615842819214, -0.287814199924469, -0.5350132584571838, -0.09308913350105286, -0.35745760798454285, 0.06726343184709549, 0.06284765899181366, -0.11904557794332504, 0.23063772916793823, -0.43693259358406067, -0.08911795914173126, -0.4075143337249756, 0.3529590964317322, -0.42253348231315613, 0.5655347108840942, -0.13245870172977448, 0.08608216792345047, 0.24364535510540009, 0.012048565782606602, -0.024415260180830956, 0.512127161026001, -0.07078559696674347, -0.31531041860580444, -0.2842099666595459, 0.25134792923927307, 0.3262444734573364, -0.27725130319595337, -0.34913551807403564, 0.27494877576828003, 0.39481472969055176, -0.06982965022325516, 1.005407452583313, 0.35880428552627563, -0.18878629803657532, 0.3503192067146301, -0.1260853260755539, 0.15608568489551544, 0.2731423079967499, -0.32035353779792786, -0.36359089612960815, -0.18829095363616943, -0.3040967881679535, -0.03268333896994591, -0.4027779996395111, 0.4085269868373871, 0.7639337778091431, 0.7924247980117798, 0.3633355498313904, 0.7929452657699585, 0.4099873900413513, 0.9286415576934814, -0.5020120143890381, -0.16299264132976532, -0.49275875091552734, -0.15316368639469147, 0.4945239722728729, -0.45363983511924744, 1.4118285179138184, 0.07990908622741699, 0.03520902246236801, -0.2924911379814148, -0.6767632961273193, -0.18399681150913239, 0.10623851418495178, -1.3125965595245361, -1.2145503759384155, 0.35104894638061523, -0.5909481048583984, -0.48320597410202026, 0.44902917742729187, -1.4809490442276, 1.128054141998291, 0.8480024337768555, 0.040787648409605026, -0.8863062858581543, 0.018712211400270462, 0.2727908492088318, 0.01512475311756134, 0.045250434428453445, -0.0022159472573548555, 0.020926134660840034, 0.022864889353513718, -0.05481577292084694, -0.06643538922071457, 0.041951801627874374, 0.004506836645305157, -0.007768935523927212, -0.03155859559774399, -0.02067115157842636, -0.043969642370939255, 0.06772998720407486, 0.07014461606740952, -0.009754142723977566, 0.12356849014759064, 0.2203577160835266, 0.14994952082633972, 0.06627315282821655, 0.021433651447296143, 0.01089388970285654, 0.09806806594133377, 0.1216268315911293, 0.26884204149246216, 0.008147765882313251, 0.10901705920696259, -0.0901581421494484, -0.08296933025121689, 0.061418600380420685, 0.05020461976528168, -0.6710250973701477, -0.05283915996551514, -0.011652843095362186, -0.008700665086507797, 0.18810275197029114, -0.17455624043941498, 0.4352175295352936, -1.432634949684143, -0.6498410701751709, -0.29116153717041016, -0.11350112408399582, 0.25635090470314026, -0.1996663212776184, 0.21942923963069916, -0.3547571897506714, 0.39752790331840515, -0.35415780544281006, 0.1579028218984604, 0.15970616042613983, -0.2568880021572113, 0.20788860321044922, -0.21279467642307281, 0.18068009614944458, 0.6929687261581421, 0.6970470547676086, -0.7125704288482666, 0.3313521146774292, -0.051551736891269684, -0.6434751749038696, -0.40414953231811523, -0.18035615980625153, 0.7933511734008789, 0.02052796259522438, -0.40734541416168213, 0.22586029767990112, -0.2493426352739334, 0.16685903072357178, -0.3747343420982361, 0.5380954146385193, 0.0006074892589822412, -0.10554298013448715, 0.3402058184146881, -0.19953380525112152, 0.22207491099834442, -0.018286623060703278, -0.6919208765029907, -0.16812032461166382, 0.02029561996459961, 0.32538798451423645, 0.10240505635738373, -0.6690433025360107, 0.6990491151809692, -0.08511630445718765, 0.3289749324321747, 0.12883290648460388, 0.18833379447460175, 0.034027498215436935, 0.23624643683433533, -0.011335443705320358, -0.0831441730260849, -0.10130129009485245, -0.01424655131995678, -0.21805459260940552, 0.3603757917881012, 0.2982141971588135, -0.32395288348197937, -0.2118230164051056, -0.02757064811885357, 0.5149374008178711, 0.2755025327205658, -0.19862523674964905, 0.7466511130332947, -0.13097667694091797, 0.3371303677558899, -0.5917004942893982, -0.113191619515419, -0.46455320715904236, -0.14707165956497192, -0.16410963237285614, 0.36207252740859985, -2.4951536655426025, 0.2610038220882416, 0.8536272048950195, 0.07132405042648315, -0.13331271708011627, 0.671263575553894, -0.5157582759857178, -1.0974555015563965, -1.20330810546875, 0.7251521348953247, -0.8397669792175293, 1.033288598060608, 0.31989485025405884, -0.031413063406944275, 0.020320359617471695, 0.40308678150177, -0.10657145828008652, -0.08451641350984573, 0.2669837176799774, 0.30471763014793396, -0.4199788570404053, 0.5624522566795349, 0.15014202892780304, -0.17917485535144806, -0.30451881885528564, -0.4790453016757965, 0.7349491119384766, 0.054464031010866165, -0.4963405728340149, 0.3635766804218292, -0.03081366792321205, -0.20516429841518402, -0.07824552804231644, 0.27547332644462585, 0.3878619074821472, -0.12390901148319244, 0.5035009980201721, 0.49010342359542847, -0.028113169595599174, -0.20567552745342255, 0.0889420285820961, -0.36933082342147827, -0.07175223529338837, -0.8729043006896973, -0.5136687755584717, -0.18003517389297485, -0.09434907883405685, 0.2382126897573471, 0.5972045063972473, -0.1429002285003662, 0.3457981050014496, -0.19878919422626495, 0.026951013132929802, 0.036047495901584625, 0.039164524525403976, -0.17473159730434418, 0.1549195647239685, -0.12851883471012115, 0.18495647609233856, 0.17653262615203857, 0.5048785209655762, 0.22808071970939636, 0.10268470644950867, -0.016293689608573914, -0.787361741065979, 0.06809588521718979, 0.2495436817407608, 0.24011564254760742, 0.002283059060573578, 0.08899566531181335, -0.4387989938259125, 0.35730448365211487, 0.16533643007278442, 0.043213676661252975, 0.3182503581047058, -0.28547146916389465, -0.09356439113616943, 0.25550368428230286, 0.12967434525489807, -0.04799235984683037, -0.2254650890827179, -0.20761094987392426, -1.004717469215393, 0.5510439872741699, 0.11013787984848022, 0.4443691372871399, -0.06076150760054588, -0.09312115609645844, -0.21987557411193848, 0.7207260131835938, -0.22025595605373383, -0.03531644493341446, 0.26697981357574463, 0.183073028922081, -0.11589503288269043, -0.20865970849990845, 0.2925992012023926, -0.35921183228492737, -0.5781872272491455, -0.31204038858413696, -0.362885445356369, -0.056765053421258926, 0.10738526284694672, -0.6030944585800171, 0.684010922908783, 0.04527650773525238, 0.06928779184818268, 0.18787644803524017, 0.6526371836662292, 0.08931437879800797, 0.0628068596124649, 0.12014547735452652, 0.1575489044189453, 0.6597896218299866, 0.4010266065597534, -0.021685341373085976, 0.3225034177303314, -0.020024074241518974, 0.09114915877580643, -0.623756468296051, 0.4509347975254059, -0.0018814278300851583, 0.4367099404335022, -0.02644333243370056, 0.02941739372909069, -0.14251616597175598, -0.9896062016487122, -0.2930384576320648, 0.4701918959617615, 0.13246025145053864, -0.1377566009759903, 0.0526716373860836, 0.21797721087932587, -1.0378800630569458, 0.3513789176940918, -0.4069986939430237, 0.44967034459114075, 0.03040054440498352, 0.0416250117123127, 0.43492963910102844, -1.6797056198120117, -0.0005751668941229582, 0.0017788083059713244, 0.5812366008758545, -0.7053254246711731, -0.08714129775762558, 0.5458714365959167, 0.7613416314125061, -0.09829618781805038, -0.6257609724998474, -0.2062080055475235, 0.20648913085460663, -0.871709406375885, 0.02777431532740593, 0.5089181065559387, -0.2282763421535492, -1.3532676696777344, 1.5933173894882202, -0.5068471431732178, -0.02454693242907524, -0.022319724783301353, -0.022181682288646698, 0.040222421288490295, -0.06055347993969917, 0.16752870380878448, 0.11769460886716843, -0.014950140379369259, -0.024880196899175644, 0.03245708346366882, 0.01149376854300499, -0.08763096481561661, 0.01316317729651928, 0.0284412894397974, -0.09214241057634354, 0.0277309138327837, -0.05075759440660477, 0.01707984134554863, -0.059182338416576385, -0.036568257957696915, -0.10801704972982407, -0.023775847628712654, 0.061708349734544754, -0.051573995500802994, 0.05654064938426018, -0.019150180742144585, 0.045576922595500946, -0.10907156020402908, 0.07271990925073624, -0.0066643524914979935, -0.008932328782975674, -0.05070960894227028, -0.01659824512898922, -0.28527116775512695, -1.5466994047164917, -0.37961816787719727, -0.7893781661987305, 0.5410140156745911, 0.08973431587219238, 0.39757320284843445, -0.17006950080394745, 0.4176432192325592, -0.36834314465522766, -0.49445846676826477, 0.25936928391456604, -0.21937589347362518, 0.341957151889801, -0.5708509683609009, 0.12806996703147888, -0.00525398924946785, -0.07045332342386246, -0.1344212144613266, 0.33051034808158875, 0.2988274395465851, 0.13878139853477478, -0.18283741176128387, 0.07752540707588196, -0.10741060227155685, -0.6725348830223083, 0.06265494972467422, -0.2199341356754303, -0.23295286297798157, 0.020822342485189438, 0.03290894627571106, 0.44123587012290955, -0.07097840309143066, 0.19030418992042542, -0.2293025106191635, 0.06454286724328995, -0.5393891930580139, -0.10464431345462799, -0.16401617228984833, 0.3528185486793518, 0.1677541732788086, -0.48971810936927795, -0.46793100237846375, 0.35517388582229614, -0.32166361808776855, -0.4047859311103821, 0.010927063412964344, 0.3730287253856659, 0.21904313564300537, -0.07919398695230484, -0.17287033796310425, -0.3184562623500824, 0.4316706955432892, -0.545396089553833, 0.5882467031478882, -0.43101462721824646, 0.3424873650074005, 0.10236025601625443, -0.4028226435184479, 0.15826299786567688, -0.4497133791446686, 0.12249673902988434, -0.11085611581802368, -0.10901113599538803, -0.37323734164237976, 0.20489124953746796, -0.36543768644332886, -0.6474044322967529, -0.38021379709243774, 0.4956037402153015, -0.9464085698127747, 0.06563650071620941, 0.2953625023365021, 0.4440959393978119, 0.35855287313461304, 0.4122684895992279, -0.1270441859960556, -0.4178623557090759, -1.4259164333343506, -1.0036044120788574, -0.36782336235046387, -0.4783608615398407, -1.5036555528640747, 0.7722285389900208, 0.04975089803338051, 0.9131030440330505, 1.386304259300232, -0.4053570032119751, 1.720892071723938, -2.036975622177124, -0.2904248535633087, -0.12230182439088821, 0.052529141306877136, 0.18268652260303497, 0.5274073481559753, 0.33582547307014465, 0.25938111543655396, -0.14138449728488922, -0.12621931731700897, -0.01318786945194006, 0.15058499574661255, 0.22969567775726318, 0.1750536412000656, 0.11346105486154556, 0.22058580815792084, -0.4069046974182129, -0.10334400832653046, 0.11155165731906891, -0.32271608710289, 0.19997155666351318, 0.38157567381858826, -0.06404074281454086, -0.1316908597946167, -0.10777634382247925, -0.23562142252922058, -0.10576055943965912, -0.2178034633398056, 0.10755801945924759, -0.3790018856525421, -0.30520039796829224, -0.17649558186531067, 0.5225678086280823, 0.050429847091436386, -0.3333739638328552, -0.07375943660736084, 0.38461554050445557, 0.22492709755897522, -0.3809548616409302, 0.17079541087150574, -0.11230349540710449, 0.01687568612396717, 0.02807333879172802, -0.0638737753033638, -0.26932039856910706, 0.12826676666736603, -0.09554000198841095, 0.13466840982437134, -0.037670720368623734, 0.0840022936463356, 0.29532602429389954, -0.4075421988964081, 0.3914104700088501, -0.212169349193573, 0.1755356788635254, 0.14988785982131958, 0.40623021125793457, 0.19154313206672668, 0.1951378434896469, -0.7303281426429749, 0.32233926653862, -0.01979776658117771, 0.13150089979171753, 0.1576186716556549, -0.03835012763738632, 0.1333238035440445, 0.1460050493478775, -0.1346806287765503, 0.36687877774238586, -0.18304826319217682, -0.14213688671588898, -0.041553400456905365, -0.2167043834924698, -0.32692950963974, 0.3839609920978546, 0.05244894325733185, -0.14037568867206573, -0.24722960591316223, -0.12309545278549194, -0.02710091695189476, 0.35541436076164246, 0.1497260332107544, -0.08195334672927856, -0.21849632263183594, 0.17235851287841797, -0.36701512336730957, -0.1495032012462616, -0.04615096375346184, -0.05037330090999603, -0.14196258783340454, 0.2206253856420517, -0.23992379009723663, -0.13398072123527527, 0.9057665467262268, -1.1162110567092896, -0.6892985701560974, -0.1655108630657196, 0.9822633862495422, -1.120266318321228, -0.8132594227790833, -0.2706812620162964, -0.4482095241546631, 0.13175058364868164, 0.17161640524864197, 0.776134192943573, 0.14909788966178894, -0.33915990591049194, 0.3484472632408142, -0.04693247377872467, -0.16252681612968445, 0.7755587100982666, -0.55463707447052, 0.15461498498916626, 0.0357045941054821, -0.5162771344184875, -0.14227916300296783, 0.5619763135910034, 0.08738472312688828, 0.9034782648086548, -0.5081737041473389, -0.6816139817237854, -0.34858080744743347, -0.3214173913002014, 0.23687218129634857, 0.3089744746685028, 0.556800127029419, -0.06726593524217606, -0.6705045104026794, 0.3497151732444763, -0.20933426916599274, 0.4190930426120758, 0.0035566692240536213, 0.7213165163993835, -0.5198761224746704, 0.42433544993400574, 1.3183289766311646, -0.07424715161323547, 0.4572977125644684, 0.4377095699310303, 0.01806456781923771, -0.1469481885433197, -0.6682032346725464, -0.3865138292312622, 0.5452181100845337, -0.6018826365470886, 0.08463434129953384, -0.11008761078119278, 0.5745888352394104, 0.014950347132980824, 0.057298824191093445, 0.03406037017703056, -0.05319357290863991, 0.040952228009700775, 0.052885059267282486, -0.008569817058742046, 0.0003846015897579491, -0.015078064985573292, 0.07074043154716492, 0.08241827040910721, -0.1403813362121582, 0.06600402295589447, 0.039072852581739426, -0.06703855097293854, -0.05868818610906601, 0.04829633980989456, 0.04091978818178177, 0.050452619791030884, -0.06015904247760773, -0.06680107116699219, -0.0683923214673996, -0.004830937832593918, 0.015227128751575947, 0.26223549246788025, -0.06613664329051971, -0.06564368307590485, -0.19968917965888977, 0.04876863583922386, -0.011593524366617203, 0.009295444004237652, 0.621949315071106, -0.15401028096675873, 0.05100063979625702, -0.23906570672988892, -0.1444614976644516, -0.08387377113103867, 0.19355611503124237, 0.46357011795043945, -0.4009157121181488, -0.09601201117038727, 0.17778371274471283, -0.20874816179275513, 0.004838539753109217, 0.04951684549450874, -0.39763057231903076, -0.3931514024734497, -0.34104907512664795, -0.4570997357368469, 0.1983163058757782, 0.3330193758010864, 0.4828093945980072, -0.05535454303026199, 0.07148850709199905, 0.07959769666194916, 0.15029387176036835, 0.0860057920217514, -0.15460743010044098, -0.5279279351234436, -0.020880749449133873, -0.20938722789287567, -0.01822136901319027, 0.11382460594177246, -0.34249064326286316, -0.22502678632736206, 0.007772763725370169, -0.13767409324645996, 0.0028956409078091383, -0.253579318523407, 0.25796014070510864, 0.6406209468841553, -0.378362774848938, 0.23928385972976685, -0.27066290378570557, -0.3972299098968506, -0.05975254625082016, 0.30048513412475586, -0.10553915053606033, -0.44574856758117676, -0.13953332602977753, 0.12231706827878952, 0.14965932071208954, -0.17955000698566437, 0.16069704294204712, 0.2001868188381195, -0.4671227037906647, -0.46925827860832214, 0.06564033776521683, -0.009952591732144356, 0.3410736322402954, 0.4910392761230469, -0.6825131773948669, -0.03282570466399193, -0.14189085364341736, -0.4453166425228119, 0.17755340039730072, -0.15153267979621887, -0.24859696626663208, -0.6441729664802551, 0.3794156610965729, -0.43119949102401733, 0.11072210222482681, 0.2526533901691437, 0.45150282979011536, 0.5192505717277527, -0.799056887626648, 0.4165017306804657, 0.14920036494731903, -0.19084489345550537, 0.02322469837963581, -0.35434815287590027, -1.133257269859314, -0.13970500230789185, 0.01681371033191681, 0.48259034752845764, -0.8454086780548096, -0.4791907072067261, -0.6878466010093689, -0.423986554145813, -0.08365188539028168, -0.23692305386066437, -0.5024266839027405, -0.3136705458164215, 0.39229100942611694, 0.3104255795478821, -0.3003547787666321, 0.424776166677475, -0.6651679277420044, -0.31210148334503174, -0.6685395836830139, -0.7247000336647034, 0.33088186383247375, -0.3515331447124481, -0.13626112043857574, -0.15663374960422516, 0.5543385148048401, 0.10747360438108444, 0.07030218094587326, -0.9925861358642578, -0.30232352018356323, 0.09729814529418945, 0.5478529334068298, 0.6490076184272766, -0.33982712030410767, -0.17330817878246307, -0.03492553159594536, 0.12313629686832428, 0.7801514863967896, -0.14058354496955872, 0.6808677315711975, 0.35923588275909424, 0.03734545037150383, -0.13289012014865875, -0.6731356978416443, 0.6164367198944092, -0.13204360008239746, 0.39498937129974365, -0.3901476263999939, 0.4883469045162201, 0.17074620723724365, -0.0650332048535347, 0.53415846824646, 0.8816541433334351, -0.19255270063877106, -0.10853110998868942, 0.422904908657074, -0.18768171966075897, 0.20174439251422882, 0.23983526229858398, -0.08143038302659988, -0.2325613796710968, 0.10502837598323822, 0.10030762851238251, 0.07508163154125214, -0.008236215449869633, 0.10250413417816162, -0.2517818808555603, 0.3846783936023712, 0.11413197964429855, -0.2354559749364853, -0.23992328345775604, -0.14169006049633026, 0.06728146225214005, -0.0885215774178505, -0.3707263469696045, -0.05579064041376114, 0.01903798244893551, -0.08254420757293701, 0.03493322432041168, 0.32391852140426636, 0.09262708574533463, 0.5237678289413452, -0.40867459774017334, -0.40463903546333313, -0.039630863815546036, -0.0882490947842598, 0.016797466203570366, 0.2224031239748001, -0.14503826200962067, -0.36838778853416443, 0.32082250714302063, 0.08308239281177521, 0.029207123443484306, 0.015157485380768776, -0.339154988527298, -0.07150054723024368, 0.06471479684114456, 0.7025477290153503, -0.042442090809345245, 0.08542806655168533, 0.038156282156705856, 0.12419110536575317, 0.08547592163085938, -0.5816078782081604, 0.0723733901977539, -0.15947717428207397, 0.15671049058437347, 0.31405916810035706, 0.2659614682197571, -0.03238715976476669, 0.27232807874679565, 0.34113481640815735, 0.1789824664592743, 0.18181653320789337, -0.26770445704460144, 0.35908615589141846, -0.3528081476688385, 0.14158131182193756, 0.3439553380012512, 0.13638772070407867, 0.1507212519645691, 0.6789119243621826, 0.3132263422012329, 0.6219285726547241, -0.32723361253738403, 0.12858770787715912, 0.41151493787765503, 0.3698982000350952, 0.19808711111545563, -0.4333937466144562, 0.9408125877380371, 0.1928706020116806, -0.27350088953971863, -0.06740827858448029, 0.28333234786987305, 0.4582624137401581, 0.925495982170105, -0.01643047109246254, 0.3211992681026459, 0.048445750027894974, -0.27814778685569763, 0.2579592764377594, -0.1429060846567154, -0.23106525838375092, -0.46691325306892395, 0.4670529067516327, 0.5062544941902161, -0.15022899210453033, 1.223840355873108, 0.06274234503507614, 0.5159375071525574, 0.35300102829933167, -0.3073710501194, -0.058499179780483246, 1.0053143501281738, -0.5203145146369934, 0.2955789566040039, -0.4475671052932739, 0.21779845654964447, 0.4615820646286011, -0.04340794309973717, 0.08369594067335129, 0.007079729810357094, -0.0261195357888937, 0.0018955726409330964, -0.07746493071317673, -0.055660247802734375, 0.06088799983263016, 0.05820811167359352, 0.013447888195514679, 0.01824813149869442, -0.06433846056461334, -0.042440686374902725, 0.10033449530601501, -0.07307949662208557, 0.025092270225286484, -0.013629406690597534, 0.08871585130691528, 0.09688453376293182, -0.11274266242980957, -0.035239893943071365, -0.02439764142036438, 0.045933835208415985, -0.02058146893978119, -0.0032288592774420977, 0.047639768570661545, -0.0019620319362729788, -0.1509963572025299, 0.06394443660974503, -0.023163078352808952, -0.04883020371198654, 0.3342396914958954, 0.2652061879634857, -0.40719711780548096, -0.2988007068634033, -0.16904880106449127, 0.04477375000715256, -0.9300769567489624, -0.979871928691864, -0.08482620120048523, -0.5944581627845764, 0.3278593122959137, -1.1195484399795532, 0.11961618065834045, 0.4817773997783661, -0.4082210659980774, -0.34203821420669556, 0.23790805041790009, -0.18068255484104156, -0.19079367816448212, 0.07151276618242264, 0.08736789226531982, 0.07063987851142883, -0.13463571667671204, 0.6636064052581787, 0.02042141743004322, 0.13895975053310394, 0.00909421406686306, -0.00038424815284088254, -0.24044860899448395, -0.22055821120738983, -0.13619500398635864, -0.031484801322221756, 0.37266501784324646, 0.24198246002197266, 0.13696980476379395, -0.10855093598365784, -0.22378726303577423, 0.7345014810562134, -0.1027301624417305, 0.07152162492275238, 0.3032695949077606, 0.03355428948998451, -0.1906450241804123, -0.17221419513225555, -0.13107050955295563, 0.14601187407970428, 0.03085309825837612, -0.186046302318573, 0.19174520671367645, -0.08592552691698074, 0.5152651071548462, -0.009479619562625885, -0.4493313133716583, 0.21581512689590454, 0.08524557948112488, -0.08895199000835419, 0.2166314423084259, 0.48144224286079407, -0.4417029023170471, 0.26167750358581543, 0.09761075675487518, -0.21785517036914825, 0.029254227876663208, -0.20355507731437683, 0.27451661229133606, -0.1609210968017578, 0.02185322530567646, -0.5241700410842896, -0.564440906047821, -0.21247349679470062, -0.47389307618141174, 0.5376284718513489, 0.5613371729850769, -0.25290489196777344, -0.09276625514030457, 0.10196873545646667, 0.7121850252151489, 0.38722115755081177, 0.0402214415371418, 0.13888363540172577, -4.141172409057617, 0.7835239768028259, 0.2427099347114563, 0.8990399837493896, 0.6837847232818604, 0.05955667793750763, 0.5756711959838867, 0.34326571226119995, 0.6105183362960815, 0.8686398267745972, 0.8016642332077026, 0.793187141418457, 0.4589523673057556, -0.10410456359386444, -0.2511155903339386, -0.16030371189117432, -0.1094433069229126, -0.029015805572271347, -0.20735511183738708, -0.24867725372314453, -0.09301812201738358, 0.1766766607761383, 0.38689732551574707, 0.05827685445547104, 0.002999962540343404, -0.2782402038574219, -0.2488023340702057, -0.36406609416007996, -0.2073967009782791, 0.1894233673810959, -0.24318325519561768, 0.20427945256233215, -0.32391121983528137, 0.3428332507610321, -0.17312465608119965, 0.33165040612220764, 0.05498923733830452, 0.08435449749231339, 0.21149006485939026, 0.37949463725090027, 0.23982252180576324, -0.15990658104419708, 0.011158720590174198, -0.04653649777173996, 0.1265370100736618, 0.041367772966623306, 0.10381000488996506, 0.2180940955877304, -0.15272367000579834, 0.23291756212711334, 0.20791709423065186, 0.21177171170711517, 0.003693490754812956, -0.14051440358161926, 0.057021886110305786, 0.1060526892542839, 0.166778564453125, -0.12398875504732132, -0.2841457724571228, -0.17248167097568512, -0.12657135725021362, -0.04679874703288078, -0.14756163954734802, -0.004135191906243563, -0.0315263457596302, 0.129159078001976, -0.0900018960237503, -0.3085935413837433, 0.07535810023546219, 0.05679478123784065, -0.16474856436252594, 0.004978070966899395, -0.1354672759771347, 0.08269660919904709, 0.006307580973953009, 0.2523787021636963, -0.000600729021243751, -0.0031739973928779364, -0.26944634318351746, -0.14111745357513428, -0.14344775676727295, 0.10981187224388123, 0.11115023493766785, -0.048137202858924866, -0.061012331396341324, 0.20346692204475403, -0.09783587604761124, -0.16177138686180115, 0.023322589695453644, 0.1532658338546753, 0.044693659991025925, -0.27745676040649414, -0.005219797138124704, 0.15767331421375275, 0.006971814204007387, -0.4913465678691864, -0.07405222207307816, -0.08689364045858383, -0.20828461647033691, -0.1392953097820282, -0.08112798631191254, -0.32439425587654114, -0.0403318926692009, -0.21725983917713165, 1.8278700113296509, -1.0823795795440674, -1.0708001852035522, -1.475106954574585, 1.7924672365188599, -1.0998914241790771, -1.1098743677139282, -1.4910283088684082, -0.6659930348396301, 0.15720804035663605, 0.005970254074782133, -0.2378101348876953, 0.12166550010442734, 0.20312152802944183, -0.08946170657873154, 0.30503877997398376, -0.012627159245312214, 0.046456459909677505, 0.3319259583950043, 0.14287681877613068, 0.44863736629486084, -0.05613208934664726, 0.026453962549567223, -0.18592791259288788, 0.04973285272717476, 0.10264074802398682, 0.11828867346048355, -0.020692450925707817, -0.2326521873474121, -0.02228834107518196, -0.15159274637699127, -0.37701666355133057, -0.1515149027109146, 0.07160453498363495, -0.24600684642791748, 0.057914406061172485, -0.12816886603832245, 0.121820367872715, 0.1398613303899765, 0.049719855189323425, 0.29183489084243774, 0.2947302758693695, 0.49479004740715027, -0.1003388836979866, -0.3511178493499756, -0.0767686665058136, -0.00770352128893137, -0.001100829686038196, 0.3752322793006897, -0.3603087365627289, -0.10993465781211853, -0.33015573024749756, -0.3090609014034271, -0.1960168331861496, -0.3453027904033661, 0.007504958659410477, 0.08986280113458633, 0.06481881439685822, -0.05061396583914757, -0.026661213487386703, 0.03320520743727684, -0.06283574551343918, -0.010947931557893753, 0.008786197751760483, 0.06258793920278549, -0.021089036017656326, 0.13425125181674957, -0.12767766416072845, 0.0329703614115715, 0.08996088802814484, 0.10680679231882095, 0.06105770915746689, 0.3469163179397583, 0.40302038192749023, 0.1174926832318306, 0.08768410235643387, 0.07271168380975723, 0.025634396821260452, -0.09633935987949371, 0.04843037202954292, -0.1244228258728981, 0.06829487532377243, -0.006833482999354601, 0.024305805563926697, 0.10234915465116501, -0.004145152401179075, 0.1287359893321991, -0.07012105733156204, 0.025319011881947517, -0.20571160316467285, 0.33582597970962524, 0.05310466140508652, -0.0060460446402430534, -0.03265579789876938, -0.06288331747055054, -0.3522755801677704, 0.19211772084236145, -0.07400646805763245, 0.0008233366534113884, -0.1555297076702118, -0.49102774262428284, -0.24102182686328888, 0.463105171918869, 0.3713439106941223, -0.1405000239610672, 0.10725806653499603, 0.008768214844167233, -0.07071475684642792, 0.4115378260612488, -0.29025998711586, -0.037233006209135056, 0.06879498064517975, 0.15695853531360626, -0.08580727130174637, -0.2734745144844055, 0.024093421176075935, -0.4327714443206787, -0.2032180279493332, -0.27135398983955383, 0.1935807317495346, 0.19396854937076569, 0.10301590710878372, 0.057895589619874954, -0.24845357239246368, 0.16805706918239594, -0.1518820822238922, 0.30334046483039856, -0.04552793875336647, 0.1945839673280716, 0.23711438477039337, 0.10716719925403595, -0.0690300464630127, -0.10275118798017502, -0.35172560811042786, -0.1157839298248291, -0.33505484461784363, -0.21751049160957336, -0.046302732080221176, -0.0912448912858963, 0.09678767621517181, 0.03508021682500839, 0.08686051517724991, -0.1736360490322113, 0.34647655487060547, -0.1167604997754097, -0.20864680409431458, 0.31948554515838623, 0.1962481290102005, 0.05029252916574478, -0.6559144854545593, 0.014249223284423351, -0.27827945351600647, 0.2138456106185913, -0.18899884819984436, -0.04853873327374458, 0.21146686375141144, 0.0077638826332986355, 0.17085577547550201, 0.21726129949092865, -0.0624462254345417, 0.29770541191101074, -0.19996805489063263, 0.3210471272468567, 0.17709212005138397, -0.0914461687207222, 0.08027201890945435, 0.2433079481124878, 0.5409554839134216, -1.722049593925476, -0.6139483451843262, 0.1040104553103447, -0.15896451473236084, 0.8574643731117249, -0.7235838770866394, -0.39186564087867737, -0.0130417849868536, -0.4422895908355713, 0.392174631357193, -0.05879932641983032, -0.04123091697692871, 0.4325714409351349, -0.18055880069732666, -0.058144427835941315, 0.0540458969771862, 0.44250962138175964, -0.033833879977464676, 0.3957189917564392, 0.26132097840309143, -0.08287440985441208, -0.33075594902038574, 0.052943821996450424, 0.15232348442077637, -0.11922258138656616, -0.23731344938278198, 0.5785596370697021, 0.4857734441757202, -0.3939443826675415, -0.15895046293735504, -0.06668788194656372, 0.07148873060941696, -0.25334200263023376, -0.7698654532432556, 0.7384634017944336, 0.5920946002006531, 0.11906154453754425, -0.11411217600107193, -0.15325862169265747, 0.0940452441573143, -0.01539068203419447, 0.37990373373031616, 0.25857463479042053, -0.13186030089855194, 0.3487958610057831, 0.5819719433784485, -0.4759521186351776, 0.06837089359760284, 0.5462027788162231, 0.3843664824962616, -0.014485632069408894, 0.24235272407531738, -0.06238304823637009, 0.4877943992614746, -0.00014534722140524536, -0.0742262750864029, -0.2309282273054123, 0.10871550440788269, -0.22117654979228973, 0.3341321051120758, 0.03409847244620323, -0.006875714287161827, -0.25602656602859497, -0.23562787473201752, -0.29019230604171753, -0.003409972880035639, -0.21618418395519257, 0.11619266122579575, -0.16845960915088654, 0.13328003883361816, 0.582409143447876, 0.18000297248363495, 0.15747839212417603, 0.1895419806241989, 0.11856353282928467, -0.6368229389190674, 0.5339252352714539, -0.1497965008020401, 0.08172536641359329, 0.2502664625644684, -0.15822705626487732, -0.30003994703292847, 0.07793554663658142, -0.2811602056026459, -0.173710435628891, 0.21021094918251038, -0.05941152572631836, -0.12606480717658997, 0.1108439713716507, -0.1718037873506546, 0.6437076926231384, 0.5404883623123169, 0.01669802889227867, 0.6341850757598877, -0.24250374734401703, -0.07302804291248322, 0.5082747936248779, -0.05944442376494408, 0.733691930770874, -0.20578575134277344, 0.430582731962204, -0.1374431848526001, 0.5575953125953674, -0.5579365491867065, 0.016395382583141327, -0.2757807672023773, 0.6017233729362488, -0.5825151205062866, -0.08143056184053421, -0.30689868330955505, 0.43889468908309937, 0.014518463984131813, -0.019735177978873253, -0.24695807695388794, 0.14964783191680908, -0.09055519104003906, -0.03290899097919464, -0.38026824593544006, -0.19584190845489502, -0.4181828796863556, -0.004204300232231617, 0.3541318476200104, -0.6427611112594604, -0.14743776619434357, 0.41184529662132263, 0.2263486534357071, 0.3849174678325653, -0.4369664490222931, -0.02105560153722763, -0.16065801680088043, 0.9254738092422485, 0.44660714268684387, 0.1229531317949295, -0.4958055913448334, 0.8990383148193359, 0.019337529316544533, -0.44189998507499695, -0.8184412717819214, 0.09161193668842316, 0.046752363443374634, -0.3601422905921936, 0.004750044550746679, -0.5243216156959534, -0.899269700050354, -0.33009395003318787, -1.1192344427108765, -0.2512076795101166, -0.17315198481082916, 0.1358034759759903, -0.7123387455940247, 0.5768894553184509, -0.9816359877586365, 0.5625637173652649, -1.1657531261444092, 0.18347452580928802, -0.3330717384815216, -0.058883652091026306, 0.05555831268429756, 0.02223828248679638, -0.029313979670405388, -0.003988255746662617, 0.0024285183753818274, 0.04896486550569534, 0.03783237934112549, 0.06401277333498001, -0.14850492775440216, 0.06768255680799484, 0.10291602462530136, 0.014724132604897022, -0.010752283036708832, 0.03909599781036377, -0.15923379361629486, 0.12100197374820709, -0.023594118654727936, -0.17407900094985962, -0.18102288246154785, -0.009898370131850243, -0.04692568629980087, -0.03126400709152222, 0.006117015145719051, 0.002887462032958865, -0.11769101768732071, 0.0331084206700325, -0.04660330340266228, 0.11364677548408508, 0.07812324166297913, -0.02883865125477314, -0.10783059149980545, 0.5101029276847839, -0.48718664050102234, 0.006673750467598438, -0.7413331866264343, -0.18696650862693787, 0.3389524519443512, -0.5414422750473022, -0.07376378774642944, 0.2280416190624237, -0.11525882035493851, 0.04007333517074585, 0.09589926153421402, 0.10859965533018112, 0.1917227953672409, -0.2796480357646942, -0.34107205271720886, 0.062072526663541794, -0.21240374445915222, -0.21692593395709991, -0.011941100470721722, -0.5165997743606567, -0.045645322650671005, 0.20456463098526, -0.2874220609664917, 0.051336269825696945, -0.5188988447189331, 0.016529658809304237, 0.07253394275903702, 0.17855679988861084, 0.42985567450523376, -0.1398380994796753, 0.14725932478904724, -0.4648708999156952, 0.008506935089826584, 0.2489110827445984, -0.19531814754009247, -0.14801889657974243, 0.3463459610939026, -0.17546434700489044, -0.30990517139434814, -0.2587234377861023, -0.5898688435554504, -0.5466079115867615, 0.3331119418144226, 0.07770853489637375, 0.4101027548313141, -0.3233798146247864, 0.3233000338077545, -0.5223283171653748, 0.2601325809955597, 0.21422311663627625, -0.5278322100639343, 0.048244819045066833, -0.2523825466632843, -0.2616595923900604, -0.02760307677090168, 0.08031031489372253, -0.09510151296854019, 0.1015947088599205, -0.3127916157245636, -0.3070344030857086, 0.23109091818332672, 0.38918349146842957, -0.3180566132068634, -0.1622331440448761, 0.5653594732284546, 0.05419257655739784, -0.09635383635759354, 0.17969933152198792, 0.5236890316009521, -0.7283540964126587, 0.09517721831798553, -0.04743494093418121, -0.141184464097023, -0.08512371778488159, 0.21607689559459686, -0.05218881741166115, -0.08523380756378174, -0.3444967567920685, -0.3881843388080597, 0.3281943202018738, -0.24214965105056763, -0.7939695119857788, 0.30332228541374207, 0.11959031969308853, 0.10123418271541595, 1.3418432474136353, -0.5489667057991028, -0.6401978731155396, 0.33886781334877014, -0.27941450476646423, 0.2548256516456604, -0.06930837780237198, 1.5171500444412231, -0.6810844540596008, -0.0480632483959198, -0.18458376824855804, -0.028985582292079926, 0.34294089674949646, 0.12119811028242111, 0.3346291184425354, 0.624532163143158, -0.25318002700805664, -0.07546798884868622, -0.11661641299724579, 0.03396523371338844, -0.3154115080833435, 0.6160176396369934, 0.23916135728359222, 0.08766578882932663, -0.7435815930366516, 0.34779152274131775, 0.0759170725941658, -0.6471750140190125, 0.2791118323802948, 0.2740037441253662, 0.16465559601783752, 0.019164234399795532, 0.44122108817100525, -0.18173746764659882, -0.21471592783927917, -0.10115165263414383, 0.30371955037117004, -0.07877915352582932, -0.5085222721099854, 0.061496175825595856, -0.8195623755455017, -0.2083616852760315, -0.10950867086648941, 0.08713609725236893, -0.3986360728740692, 0.26226311922073364, -0.02912682667374611, 0.1511385440826416, 0.008514468558132648, 0.22939550876617432, -0.3115018904209137, -0.3256341814994812, 0.180134579539299, -0.21514014899730682, 0.0035950413439422846, -0.06200537830591202, -0.4193476438522339, -0.11708343029022217, -0.37198978662490845, -0.051554661244153976, -0.6067748665809631, -0.3407314419746399, 0.40811964869499207, 0.36159032583236694, -0.2902206480503082, 0.24800294637680054, -0.6922330856323242, -0.0016342747258022428, 0.5559149384498596, 0.38639217615127563, 0.14566035568714142, 0.19625091552734375, -0.28140988945961, 0.3379213213920593, 0.20256836712360382, -0.5513132214546204, 0.2014133483171463, 0.036092761904001236, -0.14786064624786377, 0.19999366998672485, 0.13343797624111176, -0.003551189322024584, -0.017769796773791313, 0.0647500678896904, -0.1074032336473465, -0.07934364676475525, -0.4292794167995453, 0.5243871808052063, 0.17656683921813965, 0.3255491554737091, -0.2726316452026367, 0.07293954491615295, -0.5491339564323425, 0.3140346109867096, -0.8252055048942566, 0.1902851164340973, 0.07626764476299286, 0.6251301169395447, 0.20178982615470886, -0.0017475466011092067, -0.008547436445951462, -0.05605730041861534, 0.01910310424864292, 0.07303594052791595, 0.1270824372768402, -0.16943655908107758, 0.18753927946090698, 0.25181064009666443, -1.199566125869751, 0.32480546832084656, -0.448032021522522, 0.09715782850980759, -0.7233482599258423, -0.44016897678375244, -0.2289968580007553, 0.3041415214538574, 0.12648102641105652, 0.9518088102340698, 0.061326634138822556, -0.3739541471004486, 0.559753954410553, -0.4308071434497833, 0.3366156220436096, 0.21185235679149628, 0.19801899790763855, 0.06025169789791107, 0.09788631647825241, -0.1195141077041626, 0.39616134762763977, -0.11047820001840591, -0.588523268699646, -0.884459912776947, -0.8720985651016235, 0.1452561467885971, 0.7178270816802979, 0.5454033017158508, 0.3983401358127594, -0.7908322811126709, -0.06145453453063965, 0.37219318747520447, 0.97819584608078, -0.4200811982154846, 0.21729713678359985, 0.4873151183128357, -0.46259257197380066, -0.34072768688201904, -0.1822393238544464, -0.4472070634365082, 0.6204364895820618, 0.554705023765564, -0.646184504032135, -0.5435464382171631, -0.3963545262813568, 0.07826780527830124, 0.12694521248340607, -0.13559043407440186, 0.03884654492139816, 0.044192954897880554, 0.05781073868274689, 0.10603848099708557, -0.018865076825022697, -0.021372800692915916, 0.01982976123690605, -0.10499660670757294, -0.15886333584785461, -0.08032811433076859, 0.13590271770954132, 0.004073990974575281, -0.05034889653325081, -0.020847199484705925, -0.04178105667233467, -0.02265269309282303, -0.01951678842306137, 0.09379856288433075, 0.050751231610774994, -0.0962667465209961, 0.026005763560533524, -0.6585766077041626, 0.04931478202342987, 0.005434168968349695, 0.004270742181688547, -0.11051071435213089, 0.0051717013120651245, -0.00896009523421526, 0.06151537969708443, -0.0011573375668376684, -0.36381933093070984, -0.11422557383775711, 0.5817203521728516, 0.12973962724208832, 0.03285866230726242, 0.8038144111633301, -0.053497765213251114, 0.38429516553878784, -0.2394869476556778, 0.1373448520898819, 0.029879532754421234, 0.03633648157119751, 0.3239634931087494, 0.03417635336518288, -0.15216118097305298, 0.3477678894996643, -0.12614166736602783, -0.45020169019699097, 0.35877910256385803, 0.0989604964852333, -0.28045812249183655, 0.632248044013977, 0.17475594580173492, 0.5203919410705566, -1.4546986818313599, -0.5643038153648376, 0.6612029075622559, -0.1477527767419815, 0.3425202965736389, 0.125613734126091, -0.11938803642988205, -0.18297725915908813, -0.0467282272875309, 0.03529566153883934, 0.44455522298812866, -0.4387078583240509, 0.2519990801811218, -0.26332950592041016, 0.5174062252044678, -0.15675723552703857, -0.2832147777080536, 0.04634832963347435, 0.39086565375328064, -0.1336936354637146, 0.2970143258571625, -0.0492389015853405, -0.03630996495485306, 0.0053496710024774075, 0.06450051814317703, 1.1865612268447876, 0.20669199526309967, 0.16760586202144623, -0.8693986535072327, -0.0494006872177124, -0.06250900030136108, -0.35903266072273254, -0.7108985781669617, 0.11946921050548553, -0.578008770942688, 0.17711152136325836, 0.3662309944629669, 0.34486162662506104, -0.16181644797325134, -0.15455079078674316, 0.1928398311138153, -1.0358561277389526, -0.38674196600914, -0.010957501828670502, 0.2402375489473343, 0.25630125403404236, 0.3775542676448822, 0.872568666934967, 0.20896582305431366, -0.00882011093199253, -0.2555166780948639, 0.07949575781822205, 0.5511206388473511, -0.17068441212177277, -1.8462095260620117, 0.36365899443626404, 0.6136806607246399, 0.38633570075035095, 0.2663540840148926, -0.10507432371377945, 0.3944666385650635, 0.199639230966568, -0.14093901216983795, -0.4557018578052521, -0.326517254114151, 1.7278926372528076, -0.43262621760368347, 0.15946699678897858, 0.1394711285829544, -0.47597160935401917, -0.3087141513824463, 0.19485290348529816, -0.02743668481707573, 0.13748560845851898, 0.4148764908313751, 0.05597785487771034, -0.13496586680412292, -0.6245313286781311, 0.6112533807754517, -0.27727964520454407, -0.8172781467437744, -0.08498973399400711, -0.47143563628196716, 0.07663986086845398, 0.39217838644981384, 0.4583413004875183, 0.6892880797386169, -0.6137140989303589, -0.707216739654541, 0.2596312463283539, 0.2101806402206421, 0.5896978974342346, 0.29106903076171875, -0.3548731505870819, 0.429318904876709, 0.5790373086929321, -0.37252768874168396, -0.2999577820301056, -0.12173552066087723, 0.03706684708595276, -0.05798768624663353, -0.16552598774433136, -0.37792739272117615, 0.42578428983688354, -0.17056623101234436, -0.2121071070432663, 0.04403229057788849, -0.18952201306819916, -0.046717479825019836, 0.0377870574593544, 0.2886364758014679, 0.0380975641310215, 0.1849053055047989, -0.08818819373846054, -0.44350045919418335, 0.07869497686624527, -0.24893949925899506, -0.02952919900417328, 0.36885568499565125, 0.04583139345049858, -0.02530134655535221, -0.14681456983089447, -0.2290564477443695, 0.285400927066803, 0.1436936855316162, 0.4777684509754181, 0.1808166801929474, 0.5404753088951111, 0.2784198522567749, -0.11759968101978302, -0.233256533741951, 0.006984820123761892, 0.3495192229747772, 0.13100960850715637, 0.38626009225845337, 0.31067079305648804, 0.1470949947834015, -0.3020018935203552, -0.18763066828250885, 0.14113210141658783, 0.4645373523235321, -0.2935248911380768, -0.4830619692802429, 0.19681161642074585, -0.15923690795898438, 0.3507727384567261, 0.16006478667259216, -0.2976575791835785, -0.4367640018463135, 0.6599828600883484, -0.44923022389411926, -0.057074714452028275, 0.4457106292247772, -0.5657305717468262, -0.007122768089175224, -0.18686175346374512, -0.3136087954044342, 0.2529624402523041, 0.2517129182815552, -0.40635913610458374, 0.18431876599788666, 0.03110218234360218, 0.3151417076587677, -0.40689224004745483, 0.18652687966823578, -0.02030417136847973, -0.24411195516586304, -0.31598010659217834, 0.12687590718269348, 0.12809045612812042, -0.31988075375556946, 0.24920159578323364, 0.04372909665107727, -0.4132929742336273, 0.6125149726867676, 0.1391761153936386, 0.857262134552002, -0.16759978234767914, -0.008640131913125515, 0.016063805669546127, 0.1634996086359024, 0.5180734395980835, -0.6235406398773193, -1.202926516532898, 1.2278943061828613, 0.6409652233123779, 