{"layer1": {"weights": [-5.69012451171875, 0.9169290661811829, 0.9659127593040466, -0.3489495813846588, 0.8679291009902954, 0.5198872685432434, 0.13866771757602692, 0.18336628377437592, -0.01134029682725668, 0.8730897307395935, -0.4223826825618744, 0.14332431554794312, 0.048165999352931976, 0.38612663745880127, -0.458391398191452, -0.6649984121322632, 0.34527847170829773, -0.4081643521785736, 0.4879995882511139, -0.6537526249885559, 0.199519082903862, -0.3459652364253998, 0.6074241995811462, 0.14572706818580627, -0.14390158653259277, -0.14791026711463928, -0.12608255445957184, -0.1058569997549057, 0.19814543426036835, -1.1477930545806885, -0.14782314002513885, -0.7603839635848999, 0.11616140604019165, 0.7482314109802246, -0.6210771203041077, -0.3605940639972687, 0.05201895162463188, -0.08682014793157578, 0.3997659385204315, 0.298357754945755, -0.3764224648475647, 0.21040943264961243, 0.38148003816604614, 0.4798228144645691, 0.3750804364681244, 0.2505495846271515, -0.04417715221643448, -0.03830277919769287, -0.2893522381782532, 0.07968432456254959, 0.5142716765403748, 0.3425644636154175, 0.023039983585476875, 0.03197142481803894, -0.28280505537986755, 0.3081766366958618, -0.1294868439435959, 0.09014800935983658, 0.1444111168384552, 0.049734342843294144, -0.07259946316480637, 0.2603984475135803, -0.007237625773996115, 0.0014848688151687384, 0.4071218967437744, 0.12279276549816132, 0.005619543604552746, -0.24108965694904327, 0.38646015524864197, 0.024503614753484726, -0.1868164986371994, 0.13107503950595856, 0.3537588119506836, -0.18164277076721191, -0.17739741504192352, -0.0634707510471344, -0.41379958391189575, -0.10917585343122482, -0.30836915969848633, 0.16606205701828003, 0.010186943225562572, 0.17926077544689178, -0.10595695674419403, 0.26843878626823425, -0.19835862517356873, -0.1455199122428894, -0.10344378650188446, -0.20209738612174988, 0.17867450416088104, 0.3100448548793793, -0.03173043578863144, 0.15227028727531433, -0.27322670817375183, -0.2182786464691162, -0.0907968059182167, 0.1461341679096222, -0.09767312556505203, 0.25611671805381775, -0.0672655701637268, 0.44295522570610046, -0.23748424649238586, 0.00786361563950777, -0.3318991959095001, -0.04502208158373833, -0.2850869596004486, 0.20934101939201355, 0.3336302936077118, 0.0974290519952774, -0.2583165466785431, 0.1962498426437378, 0.12575344741344452, 0.03580360487103462, 1.4233460426330566, 0.05787881836295128, -0.22065123915672302, 0.6280605792999268, 0.23893490433692932, -0.01353670284152031, -0.03833668678998947, 0.18864905834197998, -0.3038000166416168, -0.06722036004066467, -0.6362026333808899, 0.16955533623695374, -0.4316929876804352, 0.04317186400294304, -0.3533344268798828, -0.1057172566652298, 0.00500711752101779, -0.34623900055885315, -0.30816683173179626, -0.22563536465168, 0.37687355279922485, -0.1304112672805786, -1.0049126148223877, 0.10953272134065628, 0.4891386330127716, 0.23303340375423431, 0.11886122822761536, -0.5012521147727966, 0.21657079458236694, -0.0045861308462917805, 0.5541979074478149, 0.23162132501602173, -0.7145941257476807, 0.2430945783853531, 0.0378342904150486, -0.5983263850212097, -0.11339728534221649, -0.459502249956131, 0.2924423813819885, 0.027034571394324303, 0.027651187032461166, 0.10366520285606384, -0.7587509155273438, 0.5633133053779602, 0.12984244525432587, -0.03975449129939079, 0.4183551073074341, 0.03871392086148262, -0.12645919620990753, -0.0818430483341217, -0.03686734288930893, 0.11793465167284012, 0.02609233930706978, -0.10424424707889557, -0.006047016941010952, -0.021785151213407516, 0.02799839712679386, 0.0754772275686264, 0.03695894405245781, 0.0037632756866514683, -0.10571450740098953, 0.02680315636098385, 0.07199841737747192, -0.02495190128684044, -0.09244054555892944, -0.03217074275016785, 0.05121324583888054, -0.01940922997891903, -0.0783529207110405, -0.06176704168319702, -0.03174075111746788, 0.10257720947265625, -0.12658682465553284, 0.012485220097005367, 0.08653390407562256, 0.008215595968067646, 0.014540798030793667, 0.015016049146652222, -0.02251220867037773, -0.12350013852119446, -0.13098648190498352, 0.21329793334007263, -0.32059717178344727, -0.4225972294807434, 0.18192848563194275, -0.05789430812001228, 0.2817811667919159, -0.02241593226790428, 0.2675725221633911, 0.13534052670001984, -0.2057500183582306, 0.08101069927215576, -0.2593648135662079, 0.020876111462712288, -0.4830770194530487, 0.32647624611854553, -0.37073642015457153, 0.2757633328437805, -0.26797357201576233, -0.06639093905687332, -0.05700552836060524, -0.052545107901096344, -0.22919370234012604, -0.1870754361152649, -0.11932728439569473, -0.0664382055401802, 0.2129572033882141, -0.07560597360134125, -0.6203089356422424, -0.26555928587913513, 0.3302040100097656, 0.261018842458725, 0.33994415402412415, -0.03212722763419151, 0.3628242015838623, -0.3046306371688843, -0.2972797453403473, -0.39067959785461426, -0.33781948685646057, 0.18445560336112976, -0.18264904618263245, 0.0970945954322815, -0.456669420003891, -0.2781193256378174, -0.03340035304427147, 0.13262739777565002, 0.0019709724001586437, -0.4083530008792877, -0.25413283705711365, 0.3488348722457886, -0.057062819600105286, -0.1754813939332962, 0.22479218244552612, -0.28014707565307617, 0.018877839669585228, -0.062130577862262726, -0.4244478642940521, -0.07341203093528748, -0.299186646938324, 0.355959951877594, -0.10921351611614227, 0.16016742587089539, 0.05023835226893425, -0.058989595621824265, -0.40245017409324646, 0.4629858434200287, 0.42774057388305664, 0.7711893320083618, -0.15656769275665283, -0.06298848241567612, -0.746488630771637, -0.6892275810241699, -0.03709536790847778, -0.2903922200202942, -0.17517369985580444, -0.14108696579933167, -0.32364019751548767, -0.47970113158226013, -3.492827892303467, -1.2495094537734985, -0.3813968300819397, -0.15767957270145416, -0.07341720163822174, -0.2384902834892273, -0.6460248827934265, 0.16788718104362488, 0.4050246775150299, -0.005236844066530466, -0.11912906169891357, 0.24434822797775269, -0.1423356682062149, 0.12195369601249695, 0.10004949569702148, -0.04640486463904381, -0.6706998348236084, -1.3591315746307373, -0.39251428842544556, -1.0626641511917114, 0.06814856082201004, 0.08239462226629257, 0.6291574835777283, -0.6090270280838013, -0.18460598587989807, 1.0371651649475098, 0.5004689693450928, -0.007911688648164272, -0.027972636744379997, -0.368359237909317, -0.37452617287635803, -0.3842241168022156, 0.6733962893486023, 0.043060872703790665, 0.1189558357000351, -0.23800645768642426, 0.29007843136787415, 0.7699108719825745, -0.47297462821006775, 0.796035885810852, -0.9136472344398499, -0.17665468156337738, 0.8637374043464661, 0.4805854856967926, -0.0631483793258667, -0.25495830178260803, -0.4602346122264862, 0.4465383291244507, -0.08222857117652893, 0.6966193914413452, -0.4812610447406769, -0.6390880942344666, 0.024049587547779083, -0.11460812389850616, 0.1171666756272316, 0.15279607474803925, -0.11570071429014206, -0.03267675265669823, 0.13410893082618713, 0.14526468515396118, -0.11671219021081924, -0.22654680907726288, 0.05449482053518295, 0.2248193770647049, 0.151234969496727, 0.047506123781204224, 0.062381815165281296, 0.035325728356838226, 0.30882149934768677, -0.1302710324525833, -0.2001897096633911, 0.22242191433906555, -0.01251264475286007, -0.04731123894453049, -0.029802996665239334, -0.093508280813694, 0.04161766543984413, 0.09304161369800568, 0.1814311295747757, 0.009483380243182182, -0.0459517166018486, 0.15825073421001434, -0.2225736677646637, 0.19441048800945282, -0.1520157754421234, 0.07759875804185867, -0.2358177751302719, 0.11284729838371277, -0.13298603892326355, 0.10506531596183777, 0.1236419826745987, 0.1544196754693985, 0.4228786528110504, -0.28754982352256775, -0.4737572968006134, 0.14100562036037445, 0.23442308604717255, -0.25600120425224304, -0.2481001913547516, -0.34313538670539856, -0.009552249684929848, -0.220734104514122, -0.003193245269358158, 0.2793866693973541, 0.6466143131256104, 0.07123787701129913, 0.06348339468240738, -0.05626075342297554, 0.5948796272277832, 0.035563018172979355, 0.18556879460811615, -0.058927398175001144, 0.12881210446357727, 0.5844799280166626, 0.23816783726215363, 0.17039908468723297, 0.07007519900798798, -0.22120819985866547, 0.29933667182922363, -0.36147454380989075, 0.3957643210887909, 0.17062954604625702, 0.42505699396133423, -0.32848238945007324, -0.1707724630832672, 0.00023196625988930464, 0.03735648840665817, -0.15850785374641418, -0.14035266637802124, -0.354751318693161, -0.1596495360136032, 0.20745129883289337, 0.061842143535614014, -0.3677339255809784, -0.2757251560688019, 0.14763173460960388, -0.18596263229846954, 0.18772271275520325, 0.1516200751066208, 0.03216790407896042, -0.23086176812648773, 0.23089498281478882, 0.6260790228843689, -0.5345565676689148, -0.014164770022034645, 0.228831946849823, 0.8069255352020264, 0.09333612024784088, -0.15441344678401947, 0.19992832839488983, 0.05917278304696083, 0.3673882782459259, 0.1288374960422516, 0.04069294035434723, -0.3423978388309479, -0.1660212129354477, -0.12373164296150208, -0.3270827829837799, -0.09841736406087875, 0.019173240289092064, -0.10371927171945572, 0.05685320869088173, 0.07010951638221741, -0.010195937007665634, 0.07131160795688629, 0.012130986899137497, 0.018193412572145462, -0.08352268487215042, 0.06616988033056259, -0.07252851873636246, -0.02880866266787052, -0.0112786078825593, -0.12979821860790253, 0.03347063437104225, 0.0886056199669838, 0.011628568172454834, 0.12227563560009003, 0.10481171309947968, -0.02882416918873787, 0.017993828281760216, 0.03600402921438217, 0.035320185124874115, -0.022951744496822357, 0.4526689350605011, -0.10952625423669815, -0.19260390102863312, -0.019258031621575356, 0.09229065477848053, 0.03935576230287552, 0.052214618772268295, -0.22902165353298187, -0.06297770142555237, 0.08483009040355682, -0.012056192383170128, -0.09439844638109207, 0.0551866814494133, 0.33771079778671265, -0.11000716686248779, 0.10584811121225357, -0.3291475772857666, -0.03621962293982506, 0.21608033776283264, 0.47395065426826477, -0.20750975608825684, 0.18609000742435455, -0.19096679985523224, 0.25200173258781433, -0.2708207368850708, 0.3387581706047058, -0.275907963514328, -0.3134181797504425, 0.2800261378288269, 0.25907662510871887, -0.2550026476383209, 0.25328341126441956, 0.01308129820972681, 0.3782631754875183, -0.10477995127439499, -0.13337208330631256, -0.12537868320941925, 0.18690332770347595, -0.2034437358379364, 0.29928916692733765, -0.1999678760766983, 0.24053624272346497, -0.25990137457847595, 0.01863928511738777, 0.027653366327285767, -0.004969126544892788, -0.2926909923553467, 0.21126358211040497, 0.2586500644683838, -0.005306078586727381, 0.35754868388175964, -0.28332802653312683, 0.05865783616900444, -0.152354434132576, 0.16026385128498077, 0.22296112775802612, -0.10294134169816971, 0.22091062366962433, 0.18515339493751526, -0.15913251042366028, 0.45090049505233765, -0.1594032347202301, 0.10814303904771805, 0.28194183111190796, -0.3267330527305603, -0.010981075465679169, -0.22163286805152893, 0.31163015961647034, -0.031200380995869637, 0.08858762681484222, 0.023459207266569138, -0.04873248562216759, -0.029093986377120018, 0.2763669788837433, 0.0824395939707756, -0.10106556862592697, 0.2180016189813614, 0.23575712740421295, -0.2771884799003601, -0.06816921383142471, -0.23358005285263062, -0.3274819254875183, 0.1169632226228714, 0.46013087034225464, 0.0012939989101141691, 0.11269747465848923, -0.16333946585655212, -2.738463878631592, -0.48739543557167053, -0.24825839698314667, -0.2865053713321686, 0.4570072293281555, -1.1629724502563477, -1.2696495056152344, 0.7825273871421814, -0.39156174659729004, 0.0971190556883812, -1.086896300315857, 0.3074531555175781, 0.28729215264320374, -0.39397144317626953, 0.7457383871078491, 0.03129227086901665, 0.6302134394645691, -0.48321107029914856, 0.3412591218948364, 0.03718205913901329, 0.5358361005783081, -0.05396948382258415, 0.679888129234314, 0.02404210902750492, 0.7298718690872192, -0.5408226847648621, -0.22172947227954865, -0.058433424681425095, -0.31226497888565063, -0.07005768269300461, 0.21052680909633636, 0.35313135385513306, -0.4427432417869568, -0.16310450434684753, -0.7934784889221191, 0.1429472267627716, -0.38251766562461853, 0.3646213412284851, 0.43982940912246704, -0.1543031632900238, 0.9201623797416687, -0.13019658625125885, 0.6407239437103271, -0.048647984862327576, -0.06547605991363525, 0.2627391219139099, -0.21411465108394623, 0.27975982427597046, -0.0026288856752216816, 0.3190077543258667, 0.4930962026119232, -0.163979172706604, 0.10983464121818542, 0.02053997293114662, 0.10577605664730072, -0.008908910676836967, 0.10553958266973495, -0.010397952049970627, -0.33791083097457886, 0.13993844389915466, -0.019907068461179733, -0.1529759019613266, -0.14583536982536316, -0.26451778411865234, -0.30508068203926086, 0.00823887623846531, 0.33069565892219543, 0.44598695635795593, -0.11221806704998016, 0.00750313326716423, 0.16715885698795319, 0.022799717262387276, -0.2824748456478119, -0.3059021830558777, -0.21445049345493317, 0.30603358149528503, 0.07355357706546783, 0.279617577791214, 0.25537848472595215, 0.2239343822002411, -0.029083915054798126, 0.10262230783700943, 0.18975235521793365, -0.10327043384313583, -0.2357635647058487, -0.2918400466442108, 0.11407706886529922, -0.04565923660993576, -0.023756833747029305, -0.5523579120635986, -0.173609659075737, 0.3662997782230377, -0.21514107286930084, -0.26321226358413696, -0.17847265303134918, -0.10825302451848984, 0.2181837111711502, -0.23032449185848236, -0.05701195076107979, -0.11669453233480453, 0.02465643547475338, 0.25095850229263306, -0.06501345336437225, 0.11873254925012589, -0.049452051520347595, 0.014048603363335133, 0.31948569416999817, -0.19514240324497223, -0.01390483696013689, -0.005500263534486294, 0.3338339626789093, -0.1468491405248642, -0.37806373834609985, 0.2600191533565521, 0.05804256722331047, 0.49037331342697144, -0.5572015047073364, -0.28070181608200073, 0.3983309864997864, -0.8483828902244568, 0.24725884199142456, 0.04207299277186394, 0.4129503667354584, 0.27574917674064636, 0.19329288601875305, 0.42442458868026733, -0.040962785482406616, 0.09622543305158615, -0.15865930914878845, -0.8717092871665955, 0.5202423334121704, 0.37404024600982666, -0.40454450249671936, 0.541576087474823, -0.4693000316619873, 0.9149085283279419, -0.3979181945323944, 0.2212502807378769, 0.0448392890393734, -0.019901828840374947, -0.22291341423988342, -0.11169888824224472, 0.0969536229968071, 0.11709289997816086, 0.026258423924446106, 0.1107032373547554, -0.3684372007846832, 0.5037820935249329, 0.20116186141967773, -0.08672302216291428, -0.07899856567382812, -0.7467480897903442, 0.4260663688182831, 0.21212686598300934, -0.11501897871494293, -0.004618625622242689, 0.2596292793750763, 0.2863726317882538, 0.5396677851676941, -0.07730785012245178, -0.10513405501842499, -0.0454084686934948, -0.06283056735992432, 0.004937159828841686, 0.03426509350538254, -0.02871621772646904, -0.02843729965388775, 0.10087387263774872, -0.013762518763542175, -0.06441764533519745, 0.06624741852283478, 0.014509960077702999, 0.021438274532556534, -0.023231133818626404, 0.010425352491438389, 0.06897090375423431, 0.02250639721751213, 0.05249497666954994, -0.026931794360280037, -0.028787022456526756, 0.0011420234804973006, 0.0806761160492897, -0.008297048509120941, -0.06402696669101715, 0.08038537204265594, -0.015693608671426773, 0.16039279103279114, 0.09208027273416519, 0.11645122617483139, 0.0487767793238163, -0.08951044827699661, -0.056640688329935074, 0.08599945902824402, -0.11410965770483017, 0.2112518846988678, -0.07528144121170044, 0.14970825612545013, -0.18461334705352783, 0.11567046493291855, -0.25149738788604736, 0.2534444034099579, 0.20930303633213043, -0.1859033703804016, -0.031335026025772095, 0.02707798033952713, 0.1372186690568924, -0.4588998556137085, 0.15025368332862854, -0.2871108055114746, -0.22551065683364868, -0.23415151238441467, -0.20792609453201294, -0.19703491032123566, 0.24147120118141174, 0.2696475684642792, 0.26094669103622437, -0.018825901672244072, -0.186600461602211, 0.17167119681835175, 0.3003202974796295, -0.1426870971918106, 0.05285612866282463, -0.20256416499614716, -0.8441441059112549, 0.030343418940901756, 0.19476552307605743, -0.37808483839035034, 0.06165463849902153, 0.2694809138774872, 0.2104114592075348, -0.03627631068229675, 0.12282343208789825, -0.06907651573419571, 0.32302096486091614, -0.38986867666244507, -0.27869901061058044, 0.06202596798539162, -0.1603708118200302, 0.014698680490255356, -0.07225020974874496, -0.5688567757606506, 0.2537565529346466, 0.004273924045264721, 0.0905948206782341, 0.03592902794480324, 0.23044191300868988, 0.05740923061966896, -0.06062270328402519, 0.06355269998311996, -0.2101188749074936, -0.10426849126815796, -0.2941325008869171, -0.12760427594184875, -0.1088227853178978, -0.15528708696365356, -0.063312828540802, 0.31279706954956055, -0.506575345993042, -0.17119286954402924, 0.023090612143278122, -0.2928662896156311, 0.29963740706443787, 0.07596689462661743, 0.3323463201522827, 0.2988634705543518, -0.027476606890559196, 0.32232269644737244, -0.3176140785217285, -0.31815075874328613, 0.3628890812397003, -3.514482259750366, -0.3422355055809021, -0.5519556999206543, -0.11859209835529327, 0.041577789932489395, -0.7686418294906616, -0.9785172343254089, -1.4404659271240234, 1.6296398639678955, 0.7612733840942383, -0.7217791080474854, 0.035439833998680115, 0.5398613810539246, -0.21222904324531555, -0.12053679674863815, 0.06121794134378433, 0.012060520239174366, -0.227176234126091, -0.733647346496582, -0.4942854642868042, -0.7363385558128357, -0.28687551617622375, -0.03263554349541664, 0.15100325644016266, 0.1594526320695877, -0.013967151753604412, 0.41718733310699463, -0.15428079664707184, 0.4080471098423004, 0.43391722440719604, 0.3943723440170288, 1.084983229637146, 0.3089714050292969, -0.27971410751342773, -0.2726585566997528, -0.5748852491378784, -0.3326050341129303, -0.47451111674308777, 0.13858608901500702, -1.0838767290115356, 0.003962457180023193, -0.9000568985939026, 0.9319084286689758, 0.40637511014938354, 0.44714513421058655, 0.3144340217113495, 0.26057562232017517, -0.2513185739517212, 0.18904109299182892, 0.5181816220283508, 0.4117072820663452, -0.11167574673891068, -0.10333812236785889, 0.1713547706604004, -0.16350054740905762, 0.24605770409107208, 0.22198724746704102, 0.22545813024044037, 0.1722743958234787, -0.16225101053714752, -0.17805244028568268, -0.22135846316814423, -0.06933016330003738, 0.36661481857299805, 0.14951230585575104, 0.10140317678451538, -0.037079472094774246, -0.07613972574472427, 0.09965114295482635, -0.017837941646575928, 0.2520570456981659, -0.038603607565164566, -0.13794539868831635, -0.4059981107711792, 0.0602271631360054, -0.03512891009449959, 0.09242063760757446, -0.15726962685585022, -0.2607744634151459, 0.15489068627357483, -0.06532078236341476, -0.15291713178157806, 0.2678978741168976, 0.1499527543783188, 0.06954441219568253, -0.028857797384262085, 0.12410430610179901, -0.2422812283039093, 0.01992686092853546, -0.2817801535129547, 0.03661671653389931, -0.09473920613527298, -0.27392953634262085, 0.2481878697872162, -0.2939789295196533, 0.17708592116832733, -0.16043239831924438, 0.1089053750038147, -0.017620015889406204, 0.047221388667821884, -0.3355187177658081, -0.09013128280639648, 0.2346474826335907, 0.03948964551091194, 0.47081491351127625, 0.20367000997066498, -0.0319746658205986, 0.3859784007072449, 0.4601910412311554, 0.2616729140281677, 0.01823064498603344, 0.3750799298286438, 0.2316354215145111, -0.3079273998737335, -0.015113642439246178, 0.473447322845459, 0.1633712649345398, -0.48592469096183777, 0.46491682529449463, 0.404884397983551, 0.24904443323612213, -0.10660131275653839, 0.42807960510253906, 0.1454796940088272, -0.1374683380126953, 0.16283443570137024, -0.06470577418804169, 0.0812150314450264, -0.1301054209470749, -1.2265512943267822, 0.4994397759437561, 0.2995412051677704, 0.5113467574119568, 0.0037067264784127474, 0.14504404366016388, -0.08282473683357239, 0.7303199768066406, -0.2896379232406616, -0.41590073704719543, 0.007191454526036978, -0.2199651449918747, -0.23818720877170563, -0.0002523061993997544, 0.05053769052028656, 0.15087278187274933, 0.34652918577194214, 0.5971148014068604, -0.825133740901947, -0.6714766621589661, 0.7773500084877014, 0.32753708958625793, 0.6026453971862793, 0.5987590551376343, 0.08590947836637497, -0.30004772543907166, -0.9077021479606628, 0.576655387878418, -0.2057708352804184, 0.041211243718862534, 0.03384309262037277, 0.026981675997376442, 0.05032927170395851, -0.02449129894375801, -0.006631396245211363, -0.10555737465620041, -0.010236713103950024, 0.01802700385451317, 0.050038423389196396, -0.0025798219721764326, -0.09876349568367004, 0.00010080305219162256, -0.011547893285751343, 0.04197103530168533, 0.04751374572515488, -0.029351985082030296, 0.07375258207321167, 0.2527656555175781, 0.37194013595581055, -0.0689520612359047, 0.09602179378271103, 0.040685977786779404, 0.054281339049339294, -0.02254219353199005, 0.09602817893028259, 0.07081414014101028, -0.08605652302503586, 0.0771055668592453, 0.003334027947857976, 0.036085862666368484, 0.11006839573383331, 0.2097111940383911, 0.11546336114406586, -0.11731482297182083, -0.18365496397018433, -0.2604719400405884, -0.19314372539520264, 0.2043280303478241, 0.009494522586464882, 0.07080542296171188, 0.1485700011253357, -0.1549350917339325, 0.133431538939476, 0.1125083789229393, -0.0868150144815445, 0.17227914929389954, 0.0363888144493103, -0.023413920775055885, 0.3537484407424927, -0.04058587923645973, 0.031205838546156883, -0.30910712480545044, 0.4102240800857544, -0.2265239953994751, -0.35415664315223694, 0.1195494681596756, 0.04601390287280083, -0.0036276199389249086, -0.21604201197624207, 0.38105788826942444, 0.0703887939453125, -0.07342314720153809, -0.010527294129133224, 0.1629328429698944, 0.05205103009939194, -0.04642436280846596, 0.3804968297481537, 0.5129613876342773, 0.025714579969644547, 0.11240119487047195, -0.26370665431022644, 0.1868293136358261, 0.1287848800420761, 0.41696345806121826, -0.4455221891403198, -0.12275809049606323, -0.2932242155075073, 0.1856183558702469, 0.025306833907961845, -0.06702013313770294, 0.05666321516036987, -0.03140326961874962, 0.36537793278694153, -0.14317858219146729, 0.40385696291923523, 0.20644092559814453, -0.19322945177555084, -0.2232477068901062, 0.26987865567207336, -0.048820123076438904, 0.1765524446964264, -0.3151955008506775, 0.012773454189300537, -0.11894386261701584, -0.015690773725509644, 0.17436590790748596, 0.06090245023369789, -0.031924691051244736, -0.21101149916648865, -0.2500430941581726, 0.08255938440561295, 0.32387474179267883, -0.3099610209465027, 0.4343758225440979, -0.1734408140182495, 0.11623071879148483, -0.06606488674879074, 0.4989590346813202, 0.2295902520418167, -0.2450704425573349, -0.07826808840036392, 1.1429064273834229, 0.7006372809410095, -0.004534117877483368, 0.07133475691080093, 0.7046698331832886, -0.4791017174720764, -0.8626680374145508, 0.2550777196884155, 1.3817354440689087, -0.07085975259542465, 0.0036501178983598948, -0.10871143639087677, -0.84840989112854, 0.7632752656936646, 0.3403332233428955, -0.3601558208465576, -0.09298063069581985, -0.3975845277309418, -0.49708858132362366, 0.07545669376850128, 0.4193663001060486, -0.2937118411064148, 0.06355570256710052, 0.6846359372138977, -0.6823530197143555, -0.11633210629224777, -0.17638477683067322, -0.19533085823059082, -0.14247870445251465, 1.1665877103805542, 0.11321906000375748, 0.307280570268631, -0.15278509259223938, 0.05707843601703644, -0.20350123941898346, 0.02980530448257923, 0.12609373033046722, 0.2501477003097534, -0.26689985394477844, -0.16432011127471924, 0.013002991676330566, 1.0598660707473755, -0.5315312147140503, 0.0343889519572258, -0.4392048120498657, 0.1892896443605423, 0.3873979151248932, 0.28780972957611084, -0.16238364577293396, -0.1773555874824524, -0.2451784908771515, 0.3551828861236572, 0.02545188181102276, -0.2909044325351715, 0.5603797435760498, 0.1274522840976715, -0.20230527222156525, 0.04931754991412163, -0.06039728596806526, 0.13813546299934387, -0.14841659367084503, -0.1860109269618988, 0.1703704595565796, 0.0688716471195221, 0.017176466062664986, 0.21515703201293945, 0.012586111202836037, -0.24759666621685028, -0.18364255130290985, 0.21086485683918, 0.09165497869253159, 0.125560462474823, 0.1527356654405594, 0.18089210987091064, 0.12143038958311081, -0.22039717435836792, 0.0855240672826767, -0.13734720647335052, -0.1304122507572174, 0.19788536429405212, 0.5326704382896423, -0.2281554937362671, -0.1478249728679657, 0.030803419649600983, -0.25657352805137634, -0.10061884671449661, 0.06366272270679474, -0.07313400506973267, 0.00974764209240675, 0.23781688511371613, -0.17537681758403778, -0.016747111454606056, -0.13096290826797485, -0.046553049236536026, -0.8035208582878113, -0.1060735434293747, 0.36245298385620117, -0.40764090418815613, 0.21522711217403412, 0.42497700452804565, 0.03903363272547722, 0.37675192952156067, -0.20356637239456177, -0.247669517993927, 0.548919677734375, -0.19534197449684143, -0.7685651183128357, -0.0660281628370285, 0.6152184009552002, -0.2396373450756073, -0.8129779696464539, -0.1761232316493988, 0.08001494407653809, 0.02384139597415924, 0.1210239976644516, 0.3720795810222626, 0.11339262872934341, 0.005492034368216991, -0.05569060519337654, -0.03357464447617531, -0.5633479952812195, -0.008386476896703243, -0.5126340985298157, -0.30985820293426514, 0.027338236570358276, -0.24091684818267822, 0.37930357456207275, 0.24062541127204895, 0.514587938785553, -0.32362985610961914, 0.579026460647583, -0.5273564457893372, 0.773043692111969, 0.27514785528182983, -0.1757514923810959, 0.3737016022205353, 0.41406798362731934, 0.26210179924964905, 0.539261519908905, -0.18045753240585327, -0.2329854965209961, -0.12322356551885605, 0.05928448587656021, -0.32093346118927, -0.7379188537597656, -0.19034332036972046, -0.022679343819618225, -0.6943274140357971, -0.9380373954772949, 0.49297118186950684, 0.14598119258880615, -0.5156615972518921, 0.09003407508134842, -0.7019121646881104, -0.7181285619735718, 0.6309944987297058, -0.12229842692613602, 0.06380428373813629, -0.17191940546035767, 0.004624281078577042, -0.07586197555065155, -0.07221612334251404, 0.0457923486828804, 0.0814247727394104, 0.06377819180488586, -0.02335306629538536, -0.061598703265190125, 0.014526242390275002, 0.02572324313223362, -0.015977390110492706, 0.01154874637722969, 0.03662215173244476, 0.08724845200777054, -0.019430318847298622, 0.0023130406625568867, 0.0947909951210022, -0.11419057846069336, -0.0050659095868468285, -0.027796978130936623, -0.13424211740493774, 0.015179619193077087, 0.07102294266223907, -0.0010644015856087208, -0.26557594537734985, -0.025575827807188034, -0.027453677728772163, 0.04245694726705551, -0.016698187217116356, -0.07417541742324829, 0.033956460654735565, 0.085401751101017, 0.16173096001148224, -0.06880666315555573, 0.17452694475650787, 0.6071382761001587, 0.44956517219543457, 0.0022107320837676525, 0.2332790642976761, 0.10956002026796341, 0.12771451473236084, 0.4296140968799591, -0.13289925456047058, 0.26459628343582153, -0.021301547065377235, -0.24566784501075745, -0.011638571508228779, 0.49357056617736816, -0.02047128416597843, 0.050125207751989365, 0.34684884548187256, -0.28879815340042114, -0.34246477484703064, -0.5722122192382812, 0.22517186403274536, -0.0458717867732048, 0.12282256036996841, -0.0720767006278038, 0.24132689833641052, -0.09041961282491684, 0.06064939871430397, -0.006548963021486998, 0.05978085845708847, -0.09940432012081146, 0.03169970586895943, 0.039230894297361374, -0.7484268546104431, 0.18790385127067566, -0.08631490916013718, -0.07245852798223495, 0.13399533927440643, -0.26485419273376465, 0.2519907057285309, -0.14904281497001648, -0.03419889509677887, 0.07525983452796936, 0.033675212413072586, -0.19264039397239685, 0.10177777707576752, -0.04572980850934982, -0.05929837003350258, -0.029005026444792747, -0.02048397623002529, -0.3722989857196808, 0.28370481729507446, 0.342600554227829, 0.08713889867067337, 0.29655393958091736, -0.06910881400108337, -0.27256470918655396, 0.3157142698764801, -0.482093870639801, -0.6108236312866211, 0.142926424741745, -0.19225558638572693, -0.3628745675086975, 0.23642779886722565, 0.03150292858481407, -0.02343645878136158, 0.2627306878566742, -0.5829211473464966, 0.04267183318734169, -0.3245142102241516, -0.19310347735881805, -0.20183609426021576, -0.15704558789730072, -0.07269754260778427, 0.4822392761707306, -0.13609124720096588, -0.030788348987698555, 0.8344465494155884, -1.6529923677444458, -0.30803024768829346, 0.5346446633338928, 0.11727084219455719, 1.601682424545288, 0.5770458579063416, 0.701432466506958, 0.9409523010253906, 0.8307873606681824, -0.10028012841939926, 0.3504355847835541, -0.31153276562690735, -0.4898143708705902, 0.9673610925674438, -0.31369879841804504, 0.2951892912387848, -0.3100953996181488, -0.10116459429264069, 0.08990568667650223, -0.5591566562652588, -0.6914160847663879, 0.7415279746055603, 0.661021888256073, -0.7700332403182983, 0.3160690367221832, -0.1888301521539688, -0.3512175381183624, -0.27909040451049805, -0.3644934892654419, 0.3812846541404724, 0.004256643354892731, -0.47099819779396057, -0.4086220860481262, -0.48529520630836487, 0.060965459793806076, 0.3142481744289398, -0.25793328881263733, 0.47205841541290283, -0.1906154900789261, -0.4610120952129364, 0.21778862178325653, 0.03381948545575142, 0.8673072457313538, 0.0948120728135109, 0.1624542623758316, -0.22282704710960388, 0.45865875482559204, -0.2676754295825958, -0.21112209558486938, 0.26707321405410767, 0.3303013741970062, -0.22168348729610443, 0.11792441457509995, 0.23118279874324799, -0.13294902443885803, -0.341366171836853, -0.011552275158464909, 0.3919643759727478, 0.16215719282627106, -0.06815677136182785, -0.026415584608912468, -0.281002938747406, -0.07096324861049652, 0.05606890469789505, -0.06572069227695465, 0.11069491505622864, 0.046063777059316635, 0.009502530097961426, -0.1412719041109085, 0.24310728907585144, -0.24771611392498016, 0.08513448387384415, -0.1794566512107849, -0.24354183673858643, 0.05079182982444763, -0.43652600049972534, -0.18882961571216583, -0.24925224483013153, 0.2570023238658905, 0.2654862105846405, 0.019275514408946037, -0.3304048776626587, 0.26480185985565186, -0.061046235263347626, 0.07451478391885757, 0.05487958714365959, -0.07552506774663925, 0.08581420034170151, 0.21273259818553925, 0.11576948314905167, 0.26964330673217773, 0.3282696604728699, -0.07971630245447159, 0.007197171915322542, -0.3143378794193268, -0.030943159013986588, -0.2546798884868622, 0.37101301550865173, -0.5644205808639526, 0.277816504240036, -0.16810449957847595, -0.255248486995697, -0.09486784040927887, 0.32593730092048645, 0.2659075856208801, 0.027815254405140877, -0.10292281955480576, 0.16377629339694977, 0.37184619903564453, 0.14381922781467438, -0.09721585363149643, 0.08540839701890945, 0.6790850758552551, -0.44043540954589844, 0.0026786532253026962, 0.3388001322746277, 0.5481071472167969, 0.05533021315932274, 0.07500886917114258, 0.4342312514781952, -0.024469653144478798, 0.4865182042121887, -0.18567818403244019, -0.5249980688095093, -0.04500449448823929, -0.5378056168556213, 0.16712623834609985, 0.2477346807718277, -0.10773264616727829, 0.3249954283237457, 0.3764335811138153, 0.3982815146446228, 0.37833231687545776, -0.41651245951652527, -0.3064456284046173, -0.2960920035839081, 0.5176899433135986, -0.5468547940254211, -0.11681000143289566, -0.025632107630372047, 0.5950850248336792, -0.24330765008926392, 0.19042597711086273, -0.00740104541182518, -0.24107271432876587, 0.3911134600639343, 0.07436245679855347, -0.5779151916503906, 1.013676643371582, 0.09066739678382874, -0.22366860508918762, 0.21753229200839996, 0.4646351635456085, 0.42657896876335144, 0.2528168559074402, -0.35798388719558716, -0.3373667895793915, 0.41876691579818726, -0.47537413239479065, 0.011680975556373596, 0.015614532865583897, 0.07149302214384079, -0.047441888600587845, -0.017838547006249428, -0.050427570939064026, 0.04336134344339371, -0.10296155512332916, -3.450823714956641e-05, 0.03483886271715164, 0.07504083216190338, -0.0036792869213968515, -0.06700436025857925, -0.09246189147233963, 0.005041725933551788, -0.11813545227050781, 0.018680838868021965, 0.009625598788261414, 0.08257989585399628, -0.0024884433951228857, -0.0890287309885025, 0.06184983253479004, -0.12693732976913452, -0.005242869723588228, 0.10586132854223251, 0.08262287080287933, 0.011575315147638321, 0.09330607205629349, 0.09851283580064774, -0.060264844447374344, -0.01819535344839096, 0.1308741420507431, 0.11627981811761856, -0.17958897352218628, 0.12975968420505524, 0.002806498669087887, -0.0042941574938595295, 0.2694849371910095, 0.4914054870605469, -0.04951237887144089, 0.10796256363391876, 0.13177521526813507, -0.16794626414775848, -0.1190718337893486, 0.022963518276810646, -0.1471693068742752, -0.049766164273023605, 0.3996802270412445, 0.13156872987747192, -0.3290573060512543, -0.06589023768901825, 0.040166255086660385, -0.3042754828929901, 0.22448475658893585, 0.0756339281797409, -0.1533486694097519, -0.39149239659309387, 0.16481226682662964, -0.005653264466673136, 0.056425344198942184, -0.05698547884821892, -0.09545337408781052, 0.2682455778121948, -0.12334743142127991, -0.05472642928361893, 0.5863825678825378, -0.9297068119049072, 0.05432332307100296, -0.29190242290496826, 0.1467054933309555, 7.849589019315317e-05, -0.11917764693498611, 0.08295567333698273, -0.10055259615182877, 0.11771140992641449, -0.21611179411411285, 0.11144772171974182, 0.012717431411147118, -0.2223401963710785, -0.17447856068611145, -0.04955762252211571, -0.16595087945461273, -0.04727035015821457, -0.47017380595207214, 0.19832812249660492, 0.13538683950901031, 0.12385021895170212, -0.2177843451499939, 0.004030501935631037, 0.04909692704677582, -0.30179303884506226, 0.24366900324821472, -0.05972515046596527, 0.03201749175786972, 0.3211940824985504, -0.23120494186878204, -0.3908277451992035, -0.03790581598877907, 0.028509661555290222, 0.2671044170856476, -0.3055746257305145, -0.08995944261550903, -0.5168972015380859, 0.007090155966579914, 0.15314939618110657, 0.19304259121418, 0.0019876675214618444, 0.22550661861896515, -0.27019524574279785, 0.0564921610057354, 0.30515119433403015, -2.7112932205200195, -0.8508565425872803, 0.3054167628288269, -0.027429232373833656, -0.3389386236667633, -0.6941331624984741, -0.8021454811096191, -0.11817783117294312, 0.5548658967018127, 0.2769984006881714, -0.05830622464418411, -0.1085253581404686, 0.5954480171203613, 0.06422223895788193, -0.12891672551631927, 0.14740674197673798, 0.05469248816370964, -0.48322683572769165, 0.005987417418509722, -0.2158532738685608, 0.17722295224666595, -0.08326830714941025, -0.7360334992408752, 0.4796069860458374, 0.9082238078117371, -0.5849356651306152, 0.8874039649963379, 0.5909591913223267, -0.31038784980773926, -0.6054311394691467, 0.817397952079773, 0.9254118800163269, -0.31540778279304504, 0.054503969848155975, 0.22378075122833252, -0.36101722717285156, 0.38867413997650146, 0.679577648639679, -0.04250054433941841, 0.17918813228607178, 0.42806094884872437, 0.227443128824234, -0.366066575050354, 0.2896272540092468, -0.6190493106842041, -0.5091312527656555, -0.9172754287719727, 0.883316695690155, -0.32476434111595154, 0.5684624314308167, 0.08644960820674896, 0.23002591729164124, 0.04170987755060196, -0.38492757081985474, 0.4666318893432617, 0.0509212464094162, -0.05537363141775131, -0.008969753049314022, -0.06435079872608185, -0.09420815110206604, -0.24397927522659302, -0.14085020124912262, 0.07185550779104233, -0.21327997744083405, 0.037208735942840576, -0.1451793909072876, -0.20229026675224304, -0.03259653598070145, -0.31536900997161865, 0.013845806010067463, 0.13936038315296173, 0.11434564739465714, 0.25783777236938477, 0.2281089574098587, -0.18907630443572998, 0.07347960770130157, -0.016618512570858, -0.39757591485977173, 0.09149189293384552, -0.05853373184800148, 0.24275530874729156, 0.11978660523891449, -0.052188992500305176, -0.22304725646972656, -0.03348633646965027, -0.12974750995635986, -0.2597512900829315, -0.22088778018951416, 0.2539314329624176, -0.0672944188117981, 0.02717854268848896, 0.1198575496673584, 0.33637160062789917, 0.2330179363489151, 0.18789412081241608, 0.22520345449447632, 0.08987611532211304, 0.10986027866601944, 0.4719114601612091, -0.21295320987701416, -0.1710079312324524, -0.12612806260585785, 0.05156773701310158, -0.09263264387845993, 0.03922627121210098, 0.0012104612542316318, 0.3010728061199188, 0.3414839804172516, 0.08972729742527008, -0.09723606705665588, 0.2741880714893341, 0.45197394490242004, 0.06184382736682892, 0.8634932041168213, 0.286077618598938, -0.016203681007027626, 0.33321383595466614, -0.20887193083763123, 0.17929033935070038, 0.06973379105329514, -0.06500629335641861, -0.3128148019313812, 0.02759591117501259, 0.36543530225753784, -0.0942917987704277, 0.10508765280246735, 0.11476603895425797, 0.07910928875207901, -0.4381072223186493, -0.15014638006687164, 0.22260382771492004, -0.11270538717508316, -0.32422491908073425, 0.5734604597091675, -0.4025489091873169, 0.30453282594680786, -0.35129693150520325, 0.11153064668178558, 0.31583812832832336, -0.3230801820755005, 0.4193185269832611, -0.01693553291261196, -0.35176974534988403, -0.3153548538684845, -0.16557323932647705, -0.3666103184223175, -0.5908592343330383, -0.05613739788532257, -0.37025123834609985, 0.3529147207736969, -0.19640184938907623, -0.6570020914077759, 0.9364826679229736, 0.15869463980197906, 0.11051017791032791, -0.04656973481178284, -0.21441961824893951, -0.014833030290901661, -0.10308997333049774, -0.08217962086200714, -0.09363219141960144, 0.07174400985240936, 0.09053576737642288, 0.04730729013681412, -0.020632943138480186, -0.022467058151960373, -0.017387935891747475, 0.05177735909819603, 0.018989937379956245, -0.030090048909187317, -0.06700189411640167, 0.11112824827432632, -0.07559329271316528, 0.026306305080652237, -0.0795367956161499, -0.06336396932601929, -0.10897659510374069, -0.02686131000518799, 0.005196559242904186, 0.027867985889315605, 0.07673172652721405, 0.026280585676431656, -0.02404838427901268, -0.31805363297462463, 0.022353846579790115, -0.04441312327980995, -0.014433267526328564, 0.015375565737485886, 0.02751465141773224, -0.04823833331465721, 0.19546645879745483, -0.31405630707740784, 0.05757799744606018, -0.3504645526409149, 0.11266428977251053, -0.07728597521781921, -0.027325252071022987, 0.20529140532016754, -0.04153473675251007, 0.27756643295288086, 0.13793422281742096, -0.34298259019851685, 0.15135379135608673, 0.33060571551322937, -0.4388490617275238, -0.2675064504146576, 0.4557778239250183, 0.089882992208004, -0.11752968281507492, 0.019574135541915894, 0.13582758605480194, 0.0952104777097702, 0.2918255925178528, -0.639549195766449, -0.023762298747897148, -0.21767444908618927, 0.47015488147735596, -0.30952608585357666, -0.44751423597335815, 0.06762883812189102, 0.09390489757061005, -0.09574607014656067, 0.04776468127965927, 0.2023567110300064, -0.19780004024505615, -0.17636528611183167, -0.06102997809648514, 0.23352210223674774, 0.36682868003845215, -0.40258362889289856, 0.07482820749282837, 0.1103939563035965, 0.022152530029416084, -0.19802922010421753, 0.37427037954330444, -0.0023996196687221527, -0.18903221189975739, 0.06355385482311249, 0.3929027020931244, -0.2507386803627014, 0.11700166016817093, -0.026989437639713287, 0.4484695792198181, -0.45045018196105957, 0.260070264339447, 0.1889457404613495, -0.25434809923171997, -0.063010573387146, 0.37598857283592224, -0.1724018156528473, -0.12835845351219177, 0.18440519273281097, 0.01376468874514103, 0.20707844197750092, -0.0436982661485672, -0.1983099728822708, -0.0415126271545887, 0.24340221285820007, 0.20400899648666382, 0.024134201928973198, 0.2501528561115265, -0.15428009629249573, -0.023370826616883278, -0.3556646704673767, -0.24516700208187103, -0.3795308768749237, 0.2467500865459442, 0.012747499160468578, -0.09004978835582733, 0.38623732328414917, 3.134126663208008, -0.49275562167167664, -0.13209958374500275, 0.5755736827850342, 0.6494162678718567, 0.4926738739013672, 0.3301573693752289, 0.25074970722198486, 0.24997876584529877, -0.06557929515838623, -0.071039117872715, 0.42552998661994934, -0.38736647367477417, -0.03495242819190025, -0.22245186567306519, -0.07477964460849762, 0.181244358420372, -0.850999116897583, -0.005599301308393478, -0.6838297843933105, -0.3202875256538391, 0.3403145670890808, -0.6475726962089539, 0.6350140571594238, 0.04472725838422775, 0.4245510697364807, 0.0853094533085823, 0.6843299269676208, 1.1034080982208252, 0.10975591838359833, 0.18967603147029877, -0.23533369600772858, 0.2919500768184662, -0.3677714169025421, -0.041050851345062256, -0.01654796488583088, -0.9522560238838196, -0.35196980834007263, -0.5503702163696289, -0.6072815656661987, 1.0696762800216675, -0.576045572757721, 1.1205896139144897, -0.28248319029808044, -0.7833859324455261, 0.7584349513053894, -0.036927301436662674, 0.27674075961112976, -1.1485075950622559, 0.6476300954818726, 0.2781534194946289, -0.2328256517648697, -0.038282185792922974, -0.22209718823432922, -0.004481718875467777, -0.0676673948764801, -0.3920654356479645, 0.25847452878952026, -0.09865687787532806, -0.20422452688217163, 0.24695880711078644, 0.36915117502212524, 0.21022149920463562, 0.3289269208908081, 0.13874368369579315, 0.3987569510936737, -0.17903484404087067, 0.16319210827350616, -0.09224292635917664, 0.016456464305520058, 0.17326875030994415, 0.02516230195760727, 0.20061278343200684, 0.08596336841583252, -0.17611463367938995, -0.29674404859542847, -0.09259182959794998, 0.0039760577492415905, 0.044366106390953064, -0.14620301127433777, -0.05072915926575661, -0.13874894380569458, 0.1881091296672821, -0.016864050179719925, 0.14846670627593994, 0.2621280550956726, 0.037535738199949265, 0.10970661044120789, 0.10112560540437698, 0.16151560842990875, 0.31159737706184387, 0.06559673696756363, -0.09182832390069962, 0.4804494082927704, -0.2136850506067276, -0.07023850083351135, -0.16925768554210663, -0.18014971911907196, -0.10432177037000656, 0.01362569723278284, 0.04735046997666359, -0.0789652168750763, -0.21112293004989624, -0.2053397297859192, 0.21191467344760895, -0.11665672063827515, -0.10502183437347412, 0.05746893957257271, 0.2768781781196594, -0.08608956634998322, -0.22190725803375244, 0.011847059242427349, -0.45455262064933777, 0.31406325101852417, -0.06748904287815094, 0.3651965260505676, 0.2882698178291321, -0.8371723294258118, 0.34425821900367737, 0.3181813955307007, 0.2042331099510193, -0.02834639884531498, -0.03412216901779175, -0.0668911263346672, -0.2876674234867096, 0.40205666422843933, -0.2150438278913498, 0.18939438462257385, -0.062018223106861115, 1.203930377960205, 0.31903499364852905, 0.4493263363838196, -0.6963281631469727, -0.2607369124889374, 0.42012882232666016, 0.1298040747642517, -0.3159308433532715, 0.5584242939949036, 0.3019736111164093, -0.45315876603126526, -0.08423560112714767, -0.38732418417930603, -0.009081539697945118, -0.34855958819389343, -0.040264029055833817, 0.2605997323989868, -0.2925848662853241, -0.16023443639278412, 0.03371724486351013, 0.5026140809059143, 0.20856401324272156, 0.12602145969867706, 0.3402397334575653, 0.29002606868743896, -0.20306560397148132, 0.1013159304857254, 0.2381415069103241, -0.11198128014802933, 0.21936585009098053, -0.005387770477682352, -0.03756935894489288, -0.020563215017318726, 0.015551733784377575, -0.0764051154255867, 0.01290902215987444, 0.09408341348171234, 0.018915904685854912, 0.03725346177816391, -0.011632074601948261, 0.07333162426948547, 0.10348882526159286, -0.04479293152689934, -0.04203778877854347, 0.10446067154407501, -0.13455356657505035, 0.005671241320669651, 0.011820651590824127, -0.0639537051320076, 0.030082693323493004, -0.01169366855174303, 0.05348087102174759, 0.038758378475904465, 0.0794781744480133, 0.012539113871753216, -0.06777789443731308, -0.04992195591330528, 0.030237654224038124, -0.09780170023441315, -0.09234216064214706, -0.009947202168405056, 0.05786100775003433, -0.1555294543504715, 0.2264176458120346, -0.026151832193136215, -0.0638527050614357, -0.15911288559436798, -0.02227654680609703, -0.25837111473083496, 0.03193973749876022, 0.10521392524242401, -0.19216306507587433, 0.07407260686159134, -0.10494819283485413, 0.09454675763845444, 0.004383489489555359, -0.013570377603173256, -0.6015883088111877, 0.014603551477193832, 0.70908123254776, -0.22688420116901398, 0.03357464820146561, 0.1042603924870491, 0.10473678261041641, 0.2025439292192459, 0.08220350742340088, 0.13003115355968475, 0.11683154106140137, 0.034932639449834824, -0.07520487159490585, -0.1803169846534729, 0.0009312544716522098, 0.1772967278957367, 0.08594059199094772, -0.3728640675544739, 0.2752560079097748, -0.08763102442026138, -0.25828251242637634, -0.12322055548429489, 0.2108345329761505, 0.11814428865909576, 0.33270859718322754, 0.02074306458234787, 0.36530762910842896, 0.07451269030570984, -0.3177698254585266, 0.06916189193725586, 0.19524189829826355, 0.0524388924241066, -0.062149982899427414, -0.03327539935708046, 0.022462671622633934, 0.21335886418819427, -0.10206905752420425, -0.3396226465702057, 0.25849345326423645, -0.2294193059206009, 0.2481706440448761, 0.2811346650123596, -0.08033296465873718, 0.012979256920516491, -0.1705353558063507, 0.0845184177160263, 0.07833044975996017, 0.20217475295066833, -0.24667637050151825, -0.12001471221446991, 0.40771397948265076, -0.20900915563106537, -0.6215025782585144, -0.20473435521125793, 0.22043487429618835, 0.257202684879303, 0.2862183749675751, -0.010928798466920853, 0.2998802065849304, 0.2557894289493561, 0.11366678774356842, 0.290249764919281, -0.24610130488872528, 0.011246797628700733, -4.4684343338012695, -0.3325040936470032, 0.3793227970600128, -0.6664391160011292, 0.700717031955719, -0.7469789385795593, 0.07122388482093811, -0.11435763537883759, 0.39410123229026794, -0.2891804575920105, -0.01978354901075363, 0.3898561894893646, -0.6242034435272217, 0.2985904812812805, -0.1325765699148178, -0.32638680934906006, -0.004819369874894619, -0.6743083596229553, 0.7078855037689209, -0.34122881293296814, 0.20625250041484833, -0.27333423495292664, -0.8808208107948303, 0.6327498555183411, -0.11248929053544998, -0.26143941283226013, -0.14709950983524323, 0.33414486050605774, 0.34893521666526794, 0.02626311220228672, -0.6276215314865112, 0.8008047342300415, -0.62157142162323, -0.7852782011032104, -0.2878054976463318, -0.1332370787858963, 0.09099637717008591, 0.5100686550140381, -0.06692579388618469, 0.4360370635986328, -0.250957190990448, 0.5094746947288513, -0.012442843988537788, 0.9926895499229431, 0.6553480625152588, 0.14680109918117523, 0.3867775499820709, -0.37599170207977295, 0.4436453878879547, -0.2978096008300781, 0.16834235191345215, -0.07422760874032974, -0.018802544102072716, -0.08801669627428055, 0.13686658442020416, 0.025188084691762924, 0.1607314944267273, -0.11013355851173401, 0.10862816125154495, -0.11744915693998337, -0.03149066120386124, 0.18907637894153595, 0.18506428599357605, 0.09778911620378494, 0.18011142313480377, -0.32386112213134766, 0.12662509083747864, 0.5051356554031372, -0.2245439887046814, -0.0425652340054512, 0.11050727218389511, -0.2929367125034332, -0.029245547950267792, 0.430437833070755, -0.002511332044377923, -0.09061427414417267, -0.1202162578701973, -0.1929447203874588, 0.21892233192920685, 0.2816697061061859, -0.37595483660697937, 0.005043724551796913, 0.03963366895914078, -0.08135554939508438, -0.39550143480300903, -0.06804215908050537, -0.007218393962830305, -0.16203522682189941, 0.18573826551437378, -0.0985618606209755, -0.000664628460071981, -0.24327178299427032, 0.17512786388397217, -0.2293887883424759, 0.15928824245929718, -0.28142139315605164, -0.20212076604366302, 0.06307332217693329, 0.3293420374393463, -0.4265766143798828, 0.12899158895015717, 0.07302507013082504, -0.1643894761800766, -0.07398803532123566, -0.056216489523649216, 0.018347766250371933, 0.4845808744430542, -0.14763113856315613, -0.04230558127164841, 0.0708061009645462, 0.5125899314880371, -0.04296975955367088, 0.792448103427887, -0.649821937084198, 0.6570155024528503, -0.24178211390972137, 0.3399445414543152, -0.1775541752576828, 0.311455637216568, 0.3660961985588074, 0.008066481910645962, 0.2146504819393158, 0.5348390340805054, -0.7413355112075806, -0.43204465508461, 0.15562868118286133, -0.24335424602031708, 0.17026206851005554, -0.1782453954219818, -0.06219444051384926, -1.186730146408081, -0.0199668500572443, -0.2231733649969101, 0.2904202938079834, -0.16858485341072083, 0.09460718929767609, 0.06075696647167206, -0.6413534879684448, 0.2583636939525604, 0.37821778655052185, 0.04961598664522171, 0.23700520396232605, 0.2671620845794678, 0.14489412307739258, -0.3025149405002594, -0.16849805414676666, 0.12940613925457, 0.5211290717124939, -0.08668001741170883, 0.2162766456604004, -0.38378605246543884, -0.4981781840324402, 0.8200445175170898, -0.004139485768973827, -0.03994745761156082, -0.7403960824012756, 0.607995331287384, 0.05334276705980301, -0.6725906729698181, 0.07324854284524918, 0.07168394327163696, -0.04491620138287544, -0.13432449102401733, 0.13421998918056488, 0.008069980889558792, 0.09378989785909653, 0.028800176456570625, 0.09769149124622345, 0.06776002794504166, -0.07179801911115646, -0.0207191351801157, -0.03519057109951973, -0.024266500025987625, -0.055198147892951965, -0.09139201790094376, 0.05303371325135231, -0.01946958154439926, 0.06829161942005157, 0.009140226058661938, 0.0007853404968045652, 0.07479078322649002, 0.0769796147942543, 0.0371401347219944, 0.4214498698711395, -0.07185916602611542, -0.02541675791144371, 0.05176746845245361, -0.0609322190284729, 0.05296947434544563, -0.03338649868965149, 0.2027595043182373, 0.08043714612722397, -0.10558347404003143, -0.1793527603149414, -0.005885339342057705, 0.461455762386322, -0.3673783540725708, 0.38343748450279236, -0.27317842841148376, -0.02055247500538826, 0.11836638301610947, 0.11176805943250656, -0.13960079848766327, -0.2258666753768921, 0.04192066565155983, 0.31430426239967346, 0.0958322137594223, 0.11861199140548706, 0.027932636439800262, -0.06428797543048859, 0.40303370356559753, -0.10640355944633484, -0.23363110423088074, -0.10651754587888718, -0.04799985513091087, -0.03606690838932991, 0.14322929084300995, -0.07699636369943619, -0.2254941761493683, 0.0754716768860817, 0.08177939057350159, 0.040964044630527496, 0.1386968493461609, 0.09383171796798706, -0.083091139793396, 0.25668907165527344, -0.2895895540714264, 0.13776983320713043, -0.06316317617893219, -0.06981371343135834, 0.36242789030075073, 0.01594819501042366, -0.09951534122228622, 0.12440481036901474, 0.01444545853883028, 0.08402523398399353, -0.04607950896024704, -0.07249501347541809, -0.13305440545082092, 0.49855074286460876, -0.46653133630752563, -0.33976614475250244, 0.525397777557373, -0.3791355490684509, 0.11414794623851776, -0.5793895125389099, 0.3497862219810486, 0.6494330167770386, -0.06590445339679718, -0.19558554887771606, 0.3285788893699646, 0.36029914021492004, -0.17069463431835175, -0.018813902512192726, 0.168880894780159, -0.00036950584035366774, -0.04838653281331062, -0.03922365605831146, 0.10366614907979965, 0.03663744404911995, -0.20213481783866882, -0.13843458890914917, 0.06361240148544312, 0.22762440145015717, 0.4301283657550812, -0.08124038577079773, 0.26747971773147583, 0.07582935690879822, -0.3524096608161926, -0.3530081510543823, -3.9329137802124023, -0.8610361218452454, -0.7670286297798157, -0.7732739448547363, 0.5456624627113342, -0.3610561192035675, -0.9477866888046265, 0.664234459400177, 0.5892282128334045, 0.1524539440870285, -0.47326770424842834, -0.6132744550704956, 0.4402972459793091, 0.16203707456588745, -0.815268337726593, 0.170749232172966, 0.34851089119911194, 0.40902969241142273, -0.48107579350471497, -0.8269305229187012, -0.31469491124153137, -0.19762824475765228, -0.698922872543335, 0.22108381986618042, 0.35923707485198975, -0.1963038593530655, -0.0804138332605362, 0.8191340565681458, 0.6292194724082947, 0.10365678369998932, -0.022865012288093567, 0.2617547810077667, -0.24103812873363495, 0.6945845484733582, -0.31912487745285034, -0.1310587376356125, 1.0296894311904907, -0.06616805493831635, -0.9374675750732422, 0.3779345452785492, -0.013919900171458721, 0.14281518757343292, 0.0119902603328228, -0.01558904629200697, 0.9977967143058777, -0.5043593645095825, -0.4712868928909302, 0.10452612489461899, 0.03099074959754944, -0.6524584293365479, -0.5774414539337158, -0.0017357267206534743, -0.05102551355957985, 0.24718911945819855, 0.041673168540000916, 0.15188919007778168, -0.425470769405365, 0.3049132227897644, 0.20880170166492462, -0.01576000452041626, -0.30072420835494995, 0.0006220434443093836, 0.09305392950773239, -0.1431901752948761, -0.15112505853176117, 0.5849563479423523, 0.3451319932937622, 0.03926289081573486, -0.1877473145723343, -0.249272882938385, -0.026110857725143433, -0.26569727063179016, -0.04077589884400368, -0.18487447500228882, 0.0376984179019928, 0.11758802831172943, 0.20751038193702698, 0.19598492980003357, 0.22395823895931244, -0.2641453444957733, 0.006984008941799402, -0.002238641260191798, 0.21216249465942383, -0.049847401678562164, 0.00018356057989876717, 0.095897376537323, 0.2389371544122696, -0.03608712926506996, -0.2730467617511749, -0.12580575048923492, -0.28905025124549866, -0.18158340454101562, 0.3506440222263336, 0.04544493928551674, 0.1530405730009079, -0.1636185199022293, -0.35930830240249634, 0.31949251890182495, -0.2263166755437851, -0.12064548581838608, 0.1196218878030777, -0.040375202894210815, -0.29985472559928894, 0.0410943478345871, 0.2662365436553955, -0.036932315677404404, 0.21443943679332733, -0.0748407244682312, 0.21686381101608276, -0.12933678925037384, 0.11517764627933502, -0.12496843934059143, 0.9501192569732666, 0.2360006868839264, 0.20012618601322174, 0.279493123292923, 0.0833238959312439, 0.1969056874513626, -0.09950920194387436, 0.3511049449443817, 0.1787910908460617, 0.15228261053562164, -0.013929138891398907, -0.04103856906294823, -0.3749693036079407, -0.2621312737464905, 0.1655394285917282, 0.17301033437252045, 0.36403509974479675, 0.44247007369995117, 0.18765302002429962, 0.7636340260505676, -0.4941057562828064, 0.3808381259441376, -0.04471364617347717, 0.5245742201805115, 0.7041946649551392, -0.32753878831863403, -0.4518548250198364, 0.26516300439834595, -0.2916317880153656, -0.104801245033741, -0.3566020131111145, -0.20183756947517395, 0.1734185367822647, 0.6924727559089661, -0.688322126865387, 0.07068956643342972, -0.04718955606222153, 0.5086766481399536, -0.018149813637137413, 0.5798750519752502, -1.2906460762023926, 0.7692355513572693, 0.2710378170013428, -0.16929233074188232, 0.6439575552940369, 0.22623169422149658, 0.17389079928398132, -0.018634719774127007, 0.015514450147747993, 0.052619609981775284, -0.04382786899805069, 0.0988442674279213, 0.008973108604550362, 0.03322567045688629, 0.017318880185484886, -0.004045655019581318, -0.033340007066726685, 0.13009792566299438, 0.04559178650379181, -0.02373025193810463, 0.004044294357299805, -0.03655547648668289, -0.0784885436296463, -0.022137168794870377, 0.07794197648763657, 0.09434377402067184, -0.10802353918552399, -0.05483916401863098, -0.03180744871497154, 0.0019388208165764809, -0.04297252744436264, 0.18346503376960754, -0.09229819476604462, -0.039347756654024124, 0.005756857339292765, 0.015300601720809937, 0.014348190277814865, -0.047033924609422684, -0.06608866155147552, 0.05627472698688507, 0.1898529827594757, -0.03428031504154205, -0.16512352228164673, -0.20212681591510773, -0.10072960704565048, 0.055285122245550156, -0.13519184291362762, 0.08715751767158508, -0.23099181056022644, 0.34741950035095215, 0.1451527327299118, 0.15105627477169037, 0.19490313529968262, -0.3460484743118286, -0.20381973683834076, 0.27481457591056824, -0.1532011479139328, -0.046384528279304504, 0.31059324741363525, 0.1200890988111496, 0.24831543862819672, -0.18603730201721191, 0.20492100715637207, -0.06555946171283722, -0.402434766292572, 0.2227933257818222, 0.12189473956823349, -0.10922806710004807, 0.08550863713026047, 0.01108152512460947, 0.26068833470344543, -0.3478521406650543, -0.1679937243461609, -0.022075548768043518, -0.28778472542762756, 0.25144362449645996, 0.33780279755592346, 0.08259698748588562, 0.049144577234983444, 0.10496076941490173, 0.5587743520736694, 0.037481337785720825, 0.18070709705352783, 0.2116578072309494, 0.22182610630989075, -0.07770178467035294, 0.18149523437023163, 0.23039621114730835, 0.4182583689689636, -0.02083568274974823, -0.028850451111793518, 0.11873570829629898, -0.1607542186975479, 0.3256220519542694, 0.323834091424942, -0.0920550599694252, -0.14693176746368408, -0.13385067880153656, 0.29602867364883423, 0.048437874764204025, 0.10828863084316254, -0.012473924085497856, 0.0623667910695076, 0.02502998150885105, 0.3910922110080719, -0.18942388892173767, 0.10477834939956665, -0.020818552002310753, -0.13860365748405457, 0.19190379977226257, 0.2437102347612381, 0.3944016993045807, -0.19629013538360596, -0.07377606630325317, 0.38349902629852295, 0.35092446208000183, 0.24380992352962494, 0.2659130096435547, -4.803544044494629, 0.033940911293029785, -0.8295736908912659, 0.07999235391616821, 0.44082337617874146, 0.8017045259475708, -0.41797202825546265, -0.5771964192390442, 0.1068873181939125, 0.3264811336994171, 0.04508286714553833, -0.13760967552661896, 0.1557030826807022, 0.8957288265228271, -0.6527125835418701, -0.11958590894937515, 0.1177307739853859, -0.3424886465072632, 0.8491537570953369, 0.09168848395347595, -0.750217616558075, -0.7761327028274536, 0.07414133101701736, -0.2065340280532837, -0.06998386234045029, 0.371462881565094, 0.757046639919281, -0.3034273087978363, -0.2514936029911041, -0.19804082810878754, -0.151757150888443, -0.31220459938049316, 0.5371415019035339, -0.14610183238983154, 0.6454635858535767, -0.4965439736843109, -0.3853594958782196, -0.655745804309845, 0.5842349529266357, 0.4593506157398224, 0.5410402417182922, 0.3296268582344055, -0.15661019086837769, 0.20334316790103912, -0.33671340346336365, 0.18011163175106049, -0.01090613380074501, -0.33462589979171753, -0.04142170771956444, -0.10327969491481781, 0.31314557790756226, 0.2415083646774292, -0.056734148412942886, -0.006178673356771469, 0.6147125363349915, -0.13667188584804535, 0.3065589964389801, -0.1727709025144577, 0.09753517061471939, 0.3640410304069519, 0.08239007741212845, 0.04468363896012306, 0.061698317527770996, -0.2626087963581085, -0.29483747482299805, -0.7637209296226501, 0.2973385751247406, -0.026445163413882256, -0.2467324584722519, -0.014275135472416878, -0.08334806561470032, 0.10667716711759567, 0.14349432289600372, -0.19258226454257965, -0.4311579167842865, 0.05014107748866081, 0.2736281156539917, 0.14016200602054596, -0.1833946257829666, 0.3875530958175659, 0.037960197776556015, 0.015300421044230461, 0.30967211723327637, -0.2839716970920563, 0.02070998027920723, -0.04236854985356331, -0.3576866686344147, -0.15194468200206757, -0.13137149810791016, 0.20887869596481323, 0.40469834208488464, -0.20763330161571503, -0.2548835575580597, -0.17797285318374634, 0.10386033356189728, 0.13599979877471924, 0.49885058403015137, -0.20360559225082397, -0.5669475197792053, -0.15899160504341125, 0.21682633459568024, -0.010795260779559612, 0.014185166917741299, -0.3228311240673065, 0.0928526371717453, -0.08117388188838959, -0.21560907363891602, -0.41921067237854004, 0.0362430140376091, 0.01959764026105404, -0.16790130734443665, -0.4790945053100586, -0.2738879323005676, 1.0542343854904175, -0.13753624260425568, -0.08639900386333466, 0.27404409646987915, -0.13995513319969177, -0.11697808653116226, 0.03524038568139076, -0.16084928810596466, -0.6077929735183716, -0.35856229066848755, 0.1338837444782257, -0.25263696908950806, -0.3575557768344879, 0.23390008509159088, -0.019161762669682503, 0.07954355329275131, -0.18825040757656097, 0.1872720569372177, 0.28028690814971924, 0.05451325699687004, -0.224319726228714, 0.05601581558585167, 0.050435107201337814, -0.7529627084732056, 0.4247414767742157, 0.11492732167243958, -0.37403225898742676, -0.31473612785339355, 0.5157489776611328, 0.4933670461177826, 0.08791489899158478, -0.413337379693985, 0.3967437148094177, -0.4866369068622589, -0.05580317601561546, 0.009842131286859512, 1.166426181793213, 0.726385772228241, -0.37482884526252747, -0.35473668575286865, -0.10549706965684891, 0.5667818188667297, -0.11081945896148682, -0.3364468514919281, -0.6076148748397827, 0.601229727268219, -0.03664223104715347, 0.04219154641032219, -0.06022072210907936, -0.03397061675786972, -0.04027795419096947, -0.15444688498973846, -0.06802958995103836, -0.050970569252967834, 0.0034898160956799984, -0.02964576706290245, 0.05162142217159271, 0.09342404454946518, -0.024765338748693466, 0.10369274765253067, 0.058243706822395325, -0.049490947276353836, 0.003934888634830713, -0.1377444714307785, -0.17351655662059784, -0.019727010279893875, -0.028454948216676712, 0.10981010645627975, -0.026766613125801086, 0.010799214243888855, 0.4148760139942169, -0.05345945432782173, -0.030505884438753128, -0.08002626150846481, 0.12997005879878998, 0.09353648871183395, -0.015897763893008232, 0.1153046116232872, 0.3010736107826233, 0.21264766156673431, 0.18931438028812408, 0.37721624970436096, 0.32300326228141785, 0.41809961199760437, -0.23161713778972626, -0.01589760184288025, 0.00928819552063942, -0.09887958317995071, -0.37172654271125793, -0.4049403667449951, 0.3030810058116913, -0.2610807716846466, 0.27507326006889343, -0.006364286877214909, 0.46608322858810425, 0.2475900501012802, 0.029088065028190613, -0.12363620102405548, -0.563383936882019, -0.32767921686172485, 0.6174822449684143, -0.13062041997909546, 0.2229284793138504, 0.07197422534227371, 0.05014605447649956, 0.13889703154563904, 0.020526869222521782, -0.04526200890541077, 0.4336359202861786, -0.11821417510509491, -0.18229956924915314, 0.37923097610473633, -0.08506607264280319, 0.26201924681663513, -0.05500940978527069, -0.21526098251342773, -0.13878774642944336, 0.04378773272037506, 0.10985962301492691, 0.07665436714887619, 0.5930849313735962, -0.04803968966007233, -0.15049871802330017, -0.46638357639312744, 0.024503245949745178, 0.32175081968307495, 0.09724798053503036, -0.040326815098524094, 0.4255402982234955, -0.10699253529310226, 0.10053762048482895, -0.152970090508461, 0.23167355358600616, -0.20499683916568756, 0.5674309134483337, -0.26109737157821655, -0.26566746830940247, 0.10339205712080002, 0.0966661125421524, -0.2378695011138916, 0.44385457038879395, 0.07510128617286682, -0.03539752587676048, -0.2349163293838501, 0.2958591878414154, -0.03377387300133705, 0.05276495963335037, -0.11450948566198349, 0.04722175747156143, -0.4522930085659027, -0.016741495579481125, 0.10844510048627853, 0.14661745727062225, 0.3201563358306885, -0.2293044775724411, -0.151264488697052, 0.4780712127685547, -5.094457626342773, -1.3804484605789185, 0.005922919604927301, 0.43896016478538513, -0.7374270558357239, 0.557390034198761, 0.19559161365032196, 0.028752533718943596, -0.27500617504119873, 0.5738818645477295, 0.21341782808303833, -0.028380712494254112, -0.06911486387252808, 0.2239888310432434, -0.424102246761322, 0.3497532606124878, 0.10857975482940674, 0.562228798866272, -0.27725422382354736, 0.9324555397033691, 0.5052661895751953, -0.21598415076732635, -0.42617154121398926, 0.6388739943504333, 0.12685923278331757, -0.15370234847068787, 0.02144409716129303, 0.6087382435798645, 0.5036026835441589, 0.7860600352287292, 0.247494176030159, 0.18600167334079742, -0.31694740056991577, -0.5339233875274658, 0.537086009979248, -0.3742922246456146, -0.7874323129653931, 0.5935244560241699, -0.5573763251304626, 0.46719837188720703, 0.027525829151272774, 0.2279883474111557, -0.14896313846111298, 0.29928672313690186, 0.37135595083236694, 0.24732273817062378, 0.09292538464069366, -0.09657455235719681, -0.3072354197502136, -0.33965811133384705, -0.2919403910636902, -0.3979139029979706, 0.05242721363902092, 0.005233177449554205, -0.19132772088050842, 0.41049209237098694, 0.4844788908958435, -0.196055069565773, -0.2920629382133484, 0.22066494822502136, -0.0026413179002702236, 0.04469004273414612, -0.2921217978000641, 0.25129061937332153, -0.06713986396789551, 0.18333783745765686, 0.1404457539319992, -0.21318699419498444, 0.11789083480834961, -0.09979380667209625, 0.15292400121688843, -0.19832086563110352, -0.31714892387390137, -0.40201684832572937, 0.31353554129600525, 0.002713221125304699, -0.03160155192017555, -0.2817629277706146, 0.24767296016216278, -0.23143932223320007, -0.08429703116416931, -0.3395099639892578, -0.2057771384716034, -0.12003106623888016, 0.34372225403785706, -0.14623041450977325, -0.19537758827209473, 0.1263122856616974, 0.37934792041778564, -0.016353894025087357, -0.10304781049489975, -0.07215780019760132, -0.21029742062091827, -0.1909516453742981, -0.18515345454216003, -0.07838155329227448, -0.16269145905971527, -0.061463091522455215, 0.2639384865760803, -0.25383806228637695, -0.060929346829652786, 0.1458325982093811, 0.2630235552787781, 0.1488349884748459, 0.20619477331638336, 0.1707066297531128, 0.2445811927318573, 0.016354579478502274, 0.18397988379001617, 0.18764933943748474, 0.21573594212532043, -0.04106137901544571, 0.7533422112464905, -0.2703591585159302, 0.2719067931175232, 0.2576282024383545, 0.25673818588256836, 0.261943519115448, -0.15884803235530853, -0.18520110845565796, -0.0132422661408782, 0.3637477159500122, 0.044237829744815826, -0.12456418573856354, -0.7206913232803345, -0.8210711479187012, -0.1884375959634781, 0.30413877964019775, -0.48050424456596375, -0.29204225540161133, 0.5077024698257446, -0.4831756353378296, 0.717663586139679, -0.5563393235206604, -1.20448899269104, 0.6628520488739014, -0.269736111164093, -0.12137755006551743, 0.28217563033103943, -0.7126134037971497, 0.49222317337989807, -0.8448693752288818, -0.024982208386063576, 0.09647823870182037, 0.09503442049026489, 0.33606818318367004, -0.5693172812461853, 0.26190638542175293, 0.5701442360877991, 1.1795322895050049, -0.29204627871513367, 0.7267703413963318, 0.4533509612083435, -0.21783903241157532, 0.7841765284538269, -0.5920103192329407, 0.6497593522071838, -0.581951379776001, -0.20645742118358612, 0.05720129236578941, 0.070756696164608, -0.08117115497589111, -0.11519846320152283, 0.02440030314028263, -0.044779084622859955, -0.05756351724267006, 0.029671309515833855, -0.05567405745387077, 0.035162702202796936, -0.15477222204208374, 0.02715633064508438, 0.030604315921664238, 0.0032950646709650755, 0.11587507277727127, 0.059297483414411545, -0.01351828221231699, 0.01043916679918766, -0.006942993029952049, -0.008466790430247784, -0.028426310047507286, -0.03140682354569435, 0.0871453583240509, 0.012727780267596245, 0.12881231307983398, 0.10916774719953537, 0.10000941902399063, 0.0758025050163269, 0.002728388411924243, -0.003518227953463793, 0.027918895706534386, -0.06330806016921997, 0.11311157792806625, -0.2130490392446518, 0.16261202096939087, -0.008582111448049545, 0.08970826864242554, 0.055792465806007385, 0.1492450088262558, -0.17779742181301117, 0.4501320719718933, 0.4582131505012512, 0.1657043844461441, -0.13608857989311218, 0.08844983577728271, 0.001345757395029068, 0.02411532588303089, 0.3450479507446289, 0.03264585882425308, -0.14740756154060364, 0.21575205028057098, 0.4979577660560608, -0.13864591717720032, 0.08810673654079437, -0.06655212491750717, -0.2298111468553543, 0.013173595070838928, 0.06620343029499054, 0.03958483040332794, -0.5642820000648499, -0.017369907349348068, 0.002382558071985841, 0.10061847418546677, -0.2518005073070526, -0.120899997651577, -0.12394195050001144, -0.6343601942062378, 0.013541446067392826, 0.23071034252643585, 0.06872794032096863, 0.12355174124240875, -0.005303483922034502, 0.09198763221502304, -0.3438745141029358, 0.19189326465129852, 0.21942993998527527, 0.23217159509658813, 0.15591636300086975, 0.13673147559165955, -0.19887521862983704, 0.05767841264605522, -0.23606808483600616, -0.23437312245368958, 0.2247609943151474, 0.19989004731178284, 0.05412879213690758, 0.321636438369751, -0.22196123003959656, -0.04123006761074066, -0.31926512718200684, -0.04438277333974838, -0.2266479879617691, 0.20285706222057343, 0.3728789985179901, 0.23497506976127625, -0.10363703221082687, -0.07635177671909332, 0.10159222036600113, -0.1654772013425827, -0.08151601254940033, -0.740165114402771, -0.4358402490615845, 0.1696418672800064, 0.221096470952034, -0.028762565925717354, 0.022228950634598732, 0.2900354862213135, 0.3627236485481262, -0.07918896526098251, 0.475625604391098, 0.49288761615753174, -5.009950160980225, -0.07434917986392975, 0.8026248812675476, 0.507150411605835, -0.3158038556575775, 0.34638193249702454, 0.4134675860404968, 0.4917013645172119, 0.04565794765949249, 0.19652782380580902, -0.3997707962989807, 0.1659948080778122, 0.17346860468387604, 0.8566852807998657, 0.3502041697502136, -0.029520001262426376, -0.5510567426681519, -0.49623778462409973, -0.7736889719963074, -0.303536593914032, -0.3498333990573883, 0.4112415313720703, -0.7037153244018555, -0.8872607946395874, -1.0351706743240356, 0.8813703656196594, 0.7339012026786804, -0.7637733817100525, 0.2809164524078369, 1.1162066459655762, 0.27185648679733276, -0.05890259891748428, -0.6762304902076721, -0.3232024610042572, -0.4360138773918152, -0.7030617594718933, 0.6580346822738647, -0.7939441800117493, 0.5768601894378662, -0.488969624042511, 0.049007054418325424, 0.16233046352863312, 0.18092775344848633, -0.429714560508728, -0.27958574891090393, -0.03623580560088158, 0.8145655989646912, 0.7908452153205872, 0.3639674782752991, 0.1313289850950241, 0.6448244452476501, 0.22545315325260162, -0.05127986893057823, 0.11280342936515808, 0.08585183322429657, 0.051607005298137665, -0.0030644843354821205, 0.10588958114385605, -0.00016239860269706696, -0.07030825316905975, 0.11405635625123978, 0.1268317699432373, 0.05124024674296379, 0.1468948870897293, 0.24195361137390137, -0.11497416347265244, -0.21850749850273132, -0.10076768696308136, -0.23272930085659027, 0.10986652970314026, -0.07045743614435196, 0.10833188891410828, -0.03232400119304657, 0.08824408799409866, 0.10678361356258392, 0.09964880347251892, 0.04827293008565903, -0.20317524671554565, 0.42968520522117615, 0.2959625720977783, -0.4977555572986603, -0.1884147971868515, -0.17910204827785492, -0.27873632311820984, -0.2899656593799591, 0.058197323232889175, 0.13635073602199554, -0.3564055562019348, -0.04565062373876572, -0.015447827987372875, -0.42266422510147095, -0.2979988157749176, 0.2603893280029297, 0.03957434743642807, 0.054038383066654205, 0.004296386614441872, 0.41291284561157227, -0.04383338987827301, 0.03174789994955063, 0.009544766508042812, -0.25470682978630066, 0.28021493554115295, 0.10986396670341492, -0.24376145005226135, -0.2676496207714081, 0.5315685868263245, 0.3468669056892395, 0.5454922318458557, -0.22686156630516052, 0.49078434705734253, 0.2740371823310852, 0.5483058094978333, 1.0381094217300415, -0.1186741515994072, 0.43597084283828735, -0.5497101545333862, 0.03473387286067009, 0.4471096694469452, 0.3736601769924164, 0.6285494565963745, 0.07623959332704544, 0.13606509566307068, 0.10981865972280502, -0.002702738158404827, 0.06391426920890808, 0.21380488574504852, -0.16555874049663544, -0.2741401493549347, -0.09793218970298767, 0.25326213240623474, 0.14830282330513, -0.39197295904159546, 0.4308387339115143, -0.021525753661990166, -0.3125855326652527, 0.46324893832206726, -0.11974728107452393, -0.07604021579027176, -0.5730672478675842, -0.5040033459663391, 0.40794166922569275, -0.04160161316394806, -0.14438626170158386, -0.07852351665496826, -0.2552335560321808, 0.2086024284362793, -0.9354763627052307, -0.5008426904678345, 0.49484720826148987, -0.5881052613258362, 0.5946793556213379, 0.20640829205513, 0.40926873683929443, 0.13797777891159058, -0.027616268023848534, -0.3072259724140167, 0.09595206379890442, -0.2838708460330963, -0.16312788426876068, 0.09075343608856201, -0.13330522179603577, 0.0031488630920648575, -0.08479733020067215, -0.04463789239525795, -0.04082827642560005, 0.015570567920804024, 0.09597376734018326, 0.04244491085410118, 0.0905761569738388, 0.004320213105529547, -0.04037715494632721, 0.020861370489001274, -0.0020436907652765512, 0.11283686012029648, 0.044384922832250595, 0.018967466428875923, 0.30549880862236023, 0.32177820801734924, -0.01446918398141861, -0.0810052901506424, 0.05067034065723419, 0.07276226580142975, 0.03628286346793175, -0.4122507870197296, -0.005231837276369333, -0.08680008351802826, 0.06857908517122269, 0.022893739864230156, -0.02368805557489395, -0.0826520025730133, 0.1955297291278839, 0.09763117134571075, 0.055201657116413116, 0.1510450392961502, 0.13016904890537262, 0.0030860051047056913, 0.18846136331558228, -0.14359785616397858, -0.1655418425798416, -0.22933416068553925, -0.06616716831922531, 0.30946531891822815, -0.12231694161891937, 0.11753793805837631, 0.20424915850162506, 0.05213319882750511, -0.47495952248573303, -0.14414888620376587, -0.25129982829093933, -0.389340877532959, 0.28973841667175293, 0.3658261299133301, 0.4729825556278229, -0.1470966339111328, 0.14932210743427277, 0.0009948896476998925, 0.48311010003089905, 0.1486220806837082, -0.0646599605679512, -0.04772648960351944, 0.32195183634757996, 0.1052618995308876, -0.11473894119262695, -0.12352465838193893, 0.1982136368751526, 0.34040123224258423, -0.25140854716300964, -0.016253279522061348, -0.012640423141419888, 0.015388790518045425, 0.0689464807510376, 0.06950422376394272, 0.06519292294979095, 0.033623673021793365, -0.06176700070500374, 0.16614684462547302, 0.3144543766975403, -0.21307168900966644, -0.11297444254159927, 0.17763766646385193, -0.07225166261196136, 0.3872263431549072, 0.4660179913043976, 0.021669764071702957, 0.29913029074668884, 0.11382696777582169, 0.22906950116157532, -0.06925555318593979, -0.21157206594944, -0.12459367513656616, -0.44754892587661743, -0.040849145501852036, 0.09660972654819489, 0.17785270512104034, 0.06584141403436661, 0.0049605462700128555, 0.20495615899562836, -0.42279931902885437, 0.15582743287086487, -0.107661172747612, -0.1494453251361847, -0.171289324760437, 0.17673762142658234, 0.24336327612400055, 0.2784682512283325, 0.21832802891731262, 0.40169379115104675, -0.3409281373023987, 0.37844210863113403, 0.23127906024456024, -1.0624854564666748, 0.7731771469116211, -0.050772447139024734, -0.6995660662651062, -0.14768511056900024, -0.8058039546012878, -0.747427761554718, -0.0222932081669569, -0.3257075846195221, 0.7108485698699951, -0.25042328238487244, -0.3319835960865021, 0.30344849824905396, 0.7973355650901794, 0.27240025997161865, -0.8078591823577881, -0.5547420382499695, 0.0918285995721817, -0.2507615089416504, 0.9275098443031311, -0.42608535289764404, 0.050573885440826416, 0.731835126876831, -0.5646975040435791, -0.5074657797813416, 0.3278912603855133, 0.1626708209514618, -0.0032915049232542515, 0.021665452048182487, -0.7392676472663879, 0.2843008041381836, -0.3017973005771637, 0.814928412437439, 0.15038426220417023, -0.4892612099647522, 0.15242336690425873, -0.5424058437347412, 0.1661098301410675, -0.04015050083398819, -0.3521156907081604, -0.12522085011005402, 0.5922980904579163, -0.09005279839038849, -0.21852745115756989, 0.5286274552345276, -0.03991489112377167, 0.16096340119838715, 1.0215349197387695, -0.9630808234214783, -0.5433562994003296, 0.1573418229818344, 0.057487763464450836, -0.03794705122709274, 0.19692173600196838, 0.1554660201072693, 0.14369437098503113, 0.09596932679414749, 0.1449926346540451, -0.18505430221557617, 0.04270391911268234, 0.022308802232146263, -0.04913327097892761, 0.02367519959807396, 0.032340746372938156, -0.09983739256858826, -0.20699702203273773, -0.2051643431186676, 0.05747409909963608, 0.12459827214479446, -0.1511416882276535, 0.05942942202091217, 0.1945374757051468, 0.2813261151313782, 0.13645127415657043, 0.14687077701091766, -0.28354793787002563, -0.025226393714547157, -0.037830036133527756, 0.06022188067436218, 0.7326083183288574, 0.21582822501659393, -0.32740119099617004, 0.1857430338859558, -0.37228521704673767, -0.38646936416625977, 0.036855004727840424, -0.034893762320280075, -0.0005878022639080882, 0.029969148337841034, -0.04515187814831734, -0.07556197792291641, 0.14658528566360474, 0.4260390102863312, 0.331113338470459, 0.4368382394313812, 0.1452271193265915, -0.42173370718955994, -0.4085445702075958, 0.183804452419281, -0.24418197572231293, -0.24982745945453644, 0.10406732559204102, -0.2926630675792694, -0.14050889015197754, 0.2015044242143631, 0.01030710805207491, -0.37501683831214905, 0.15860050916671753, 0.2953702211380005, 0.03134218230843544, -0.3149692118167877, 0.15615764260292053, -0.3417416214942932, 0.1242300420999527, -0.12333948910236359, 0.0476875826716423, -0.22087790071964264, 0.4021281599998474, 0.2780156135559082, 0.08978638797998428, 0.14920209348201752, 0.01731865666806698, -0.45528361201286316, -0.013861086219549179, -0.001530458452180028, 0.01802687533199787, 0.005668350495398045, -0.3711896538734436, -0.015828276053071022, 0.7073742151260376, 0.8094663619995117, 0.25090599060058594, -0.3272186815738678, 0.28446006774902344, 0.4340960681438446, -0.19008025527000427, -0.9429211616516113, -0.49197566509246826, 0.27363845705986023, 0.3610844910144806, -0.2886011600494385, -0.6857438683509827, 0.40033191442489624, -0.16900935769081116, 0.4910629391670227, 0.3887489140033722, 0.4284900724887848, -0.6784442067146301, 0.1386207640171051, -0.3561451733112335, -0.10619650781154633, 0.43266963958740234, 0.5356781482696533, 0.15296252071857452, -0.036410972476005554, -0.38268551230430603, 0.037491969764232635, 0.5892029404640198, 0.11346393078565598, -0.09053096920251846, 0.16278593242168427, 0.02374129742383957, -0.02641461044549942, 0.07650422304868698, 0.021640503779053688, 0.011411411687731743, -0.014969774521887302, 0.021018510684370995, -0.020125867798924446, 0.030053500086069107, 0.042245686054229736, -0.1082795113325119, -0.05634550377726555, 0.030655071139335632, 0.07175798714160919, -0.06908903270959854, -0.12169378250837326, 0.05112209916114807, -0.03189542144536972, 0.04179629683494568, 0.01739458180963993, 0.11539643257856369, 0.00791880302131176, -0.11764950305223465, 0.11362631618976593, -0.10719361901283264, -0.054458409547805786, -0.08479679375886917, 0.04966982454061508, 0.07341542094945908, 0.4738909900188446, 0.5808004140853882, -0.06114646792411804, 0.058873407542705536, 0.20574858784675598, 0.11900310218334198, 0.14207449555397034, 0.2326033115386963, -0.02861490473151207, -0.08215682208538055, 0.2530766725540161, 0.06029820814728737, 0.03592408448457718, -0.22631670534610748, -0.3309284448623657, 0.14671237766742706, -0.07033830881118774, -0.09881465137004852, 0.25594744086265564, 0.4786257743835449, -0.3222303092479706, 0.017313724383711815, -0.31434229016304016, -0.17503052949905396, -0.015064556151628494, -0.3124580383300781, 0.11041038483381271, 0.04174173250794411, 0.16615869104862213, 0.07693997025489807, -0.24656249582767487, -0.3114439845085144, 0.07161295413970947, 0.642501950263977, 0.05550876632332802, -0.31427982449531555, -0.3073112666606903, 0.6182385683059692, -0.14324446022510529, 0.19533713161945343, -0.03157777339220047, 0.2894476056098938, -0.08609636127948761, -0.6733431816101074, -0.33963578939437866, -0.5050777792930603, -0.28198501467704773, -0.05098320543766022, -0.11443577706813812, 0.03643256425857544, 0.19178621470928192, -0.3731328845024109, 0.2860388457775116, 0.3277209997177124, -0.06556106358766556, 0.1657072752714157, -0.4516464173793793, -0.05213524401187897, -0.17133456468582153, -0.08125730603933334, -0.7832410335540771, 0.35930243134498596, 0.011740721762180328, 0.0676887258887291, 0.059327080845832825, -0.08387209475040436, -0.5308877825737, 0.15444119274616241, -0.07092303037643433, 0.011199110187590122, -0.16274258494377136, -0.36353641748428345, 0.1571616530418396, 0.18835259974002838, -0.10464116185903549, -0.38791757822036743, 0.11231465637683868, -0.13101719319820404, -0.09131486713886261, -0.21947155892848969, 1.6429259777069092, 0.9762681722640991, -0.9820955395698547, 0.8751909732818604, 0.11831493675708771, 0.1130327582359314, 0.18226175010204315, 0.465836763381958, -0.3883063793182373, 0.34205523133277893, -0.5374743938446045, -0.09398946166038513, 0.21473613381385803, 0.1741732656955719, -0.5108965039253235, -0.2731054425239563, -0.2714778482913971, 0.5402542352676392, -0.2822808027267456, -0.19788071513175964, -0.3156913220882416, 0.32729244232177734, -0.7447970509529114, 0.01700315997004509, 0.2634741961956024, 0.4007520377635956, -0.7844328880310059, -0.20386813580989838, -1.0494170188903809, 0.9974262118339539, -1.0221924781799316, 0.5769670605659485, 0.1014518290758133, -0.24650231003761292, -1.0085563659667969, -0.570285439491272, 0.13784630596637726, 0.7196512818336487, -0.15211081504821777, -0.07838966697454453, 0.05975249409675598, -0.3069228529930115, -0.2977985739707947, 0.20259301364421844, 0.23496702313423157, 0.4931817352771759, -0.27383866906166077, 0.3167589604854584, 0.46840745210647583, 0.36643266677856445, 0.5066609978675842, -0.04964711144566536, 0.11350993812084198, -0.26928654313087463, 0.19790570437908173, 0.0257406048476696, -0.46849942207336426, 0.02619233913719654, 0.3736654222011566, 0.0399615652859211, 0.052539531141519547, -0.24742038547992706, 0.03594614937901497, 0.3211415410041809, 0.01618190109729767, 0.07273536175489426, 0.04628763347864151, -0.12686848640441895, 0.28528472781181335, -0.24619248509407043, -0.44095417857170105, 0.18074177205562592, -0.021171336993575096, 0.14161664247512817, -0.4025963544845581, 0.24293410778045654, -0.1962706744670868, -0.1604168862104416, 0.4861883521080017, -0.3296746611595154, 0.2295774519443512, -0.36714497208595276, -0.058600056916475296, -0.012967942282557487, 0.12392428517341614, 0.18464471399784088, -0.09364427626132965, 0.008084543980658054, 0.10522173345088959, 0.16611990332603455, -0.1737675666809082, -0.02261248417198658, 0.0319201685488224, 0.03274955973029137, -0.1601833701133728, 0.12422271817922592, -0.055431853979825974, 0.2139890342950821, 0.14776286482810974, 0.10921983420848846, 0.019253674894571304, -0.3167935311794281, -0.17071641981601715, 0.12633703649044037, 0.15510956943035126, -0.05535980686545372, 0.0029427586123347282, 0.20118553936481476, 0.22251136600971222, -0.14343349635601044, -0.07814610004425049, 0.23398812115192413, 0.2113993912935257, -0.03912581503391266, -0.38881736993789673, 0.6476203203201294, 0.7657424807548523, 0.8545209765434265, -0.2042064517736435, 0.5009247660636902, -0.20063373446464539, 0.07522541284561157, -0.8896465301513672, -0.40154778957366943, -1.070896863937378, 0.1286407709121704, -0.07219468802213669, -0.2344476878643036, -0.04197666794061661, -0.36409491300582886, 0.10243701189756393, -0.41886234283447266, -0.7819259762763977, 0.07081367075443268, -0.556201159954071, 0.37356263399124146, 0.14455042779445648, 0.1770753264427185, 0.7000566124916077, 0.2758348286151886, -1.2879644632339478, -0.0161884892731905, -0.14513544738292694, -0.06873989850282669, 0.39960813522338867, -0.22861641645431519, 0.45418208837509155, -0.5356788039207458, 0.6284317374229431, 0.366370290517807, 0.06348299980163574, 0.7561290860176086, -0.779894232749939, -1.1763206720352173, -1.4040952920913696, 0.60422283411026, 0.04507024958729744, 0.2439633011817932, 0.33423924446105957, 0.03890737146139145, 0.07713393121957779, 0.09925024211406708, 0.04528161883354187, -0.012868828140199184, -0.10569629818201065, -0.06582164019346237, 0.010500689037144184, 0.04189082607626915, -0.15279872715473175, 0.015050612390041351, -0.03287394344806671, -0.05711918696761131, 0.05693015456199646, 0.0192258283495903, -0.014457277953624725, -0.015268310904502869, -0.05061081424355507, -0.06652230024337769, -0.04087819904088974, 0.07889663428068161, 0.08536898344755173, -0.02362845465540886, 0.02228260226547718, 0.02535826712846756, 0.005326561164110899, 0.011254928074777126, 0.10663490742444992, 0.025877101346850395, -0.023850733414292336, 0.07219948619604111, -0.049645211547613144, 0.3711039125919342, -0.25872308015823364, 0.3568418025970459, -0.20427139103412628, 0.18582198023796082, 0.16356106102466583, -0.12736892700195312, -0.07016158849000931, 0.25282713770866394, 0.25413978099823, -0.19806347787380219, -0.014586897566914558, 0.25041043758392334, -0.12477043271064758, -0.11898777633905411, 0.6195933818817139, 0.2326991707086563, 0.2534187436103821, -0.17937394976615906, -0.22061671316623688, 0.06557447463274002, -0.25840452313423157, -0.290210485458374, -0.24876344203948975, 0.13387995958328247, 0.12474477291107178, -0.3367920219898224, 0.11635438352823257, -0.6140022277832031, 0.2565256357192993, 0.07131087779998779, 0.1306910216808319, 0.2599703371524811, -0.15643854439258575, -0.08969065546989441, 0.17818289995193481, -0.2232741415500641, 0.09993093460798264, -0.3602071702480316, 0.24488215148448944, -0.035577476024627686, 0.08997004479169846, -0.09213928878307343, -0.21955516934394836, 0.15803620219230652, -0.16539569199085236, 0.28492188453674316, -0.03695652261376381, -0.2632422149181366, 0.08836063742637634, -0.3498823642730713, 0.4407874047756195, 0.37508624792099, 0.01752731390297413, 0.004040951374918222, -0.14454230666160583, 0.016136376187205315, -0.10873373597860336, 0.10203460603952408, 0.14989961683750153, -0.19786179065704346, -0.5291962027549744, 0.255697637796402, -0.20929093658924103, -0.29180800914764404, 0.3319670855998993, -0.11267495900392532, -0.018589751794934273, -0.09082290530204773, 0.10891931504011154, -0.2487047165632248, -0.3960472047328949, -0.3896044194698334, 0.2086968570947647, -0.619280219078064, 0.22859996557235718, 0.6710837483406067, 0.2632864713668823, 0.5443998575210571, -1.4870144128799438, 0.4172002077102661, -0.5145178437232971, -0.38171061873435974, 0.6878642439842224, 0.2539806067943573, -0.2203087955713272, -0.15152569115161896, -0.0028187802527099848, -0.07902198284864426, -0.9025335311889648, 0.5006219744682312, -0.5659782290458679, 0.03046068176627159, 0.546272337436676, -0.02818709798157215, -1.173119306564331, -0.450944185256958, 1.2547918558120728, 0.1708069145679474, 0.15194423496723175, 0.9039943814277649, 0.2969050705432892, 0.34125280380249023, -0.169383242726326, 0.022400526329874992, 0.8517821431159973, 0.47617247700691223, 0.026874937117099762, 0.02605881541967392, 0.49032479524612427, 0.4540455937385559, 0.5863715410232544, -0.47478896379470825, 0.6718232035636902, 0.46168509125709534, -0.2357882559299469, 0.0658937618136406, 0.057519033551216125, 0.12374016642570496, -0.5009515285491943, 0.08785396814346313, -1.111474871635437, -0.1013052761554718, -0.3131448030471802, -0.6903684735298157, 0.11178864538669586, -0.3728659451007843, -0.41718947887420654, -0.11703533679246902, 0.4147278368473053, 0.04349872097373009, 0.027647124603390694, 0.06740709394216537, -0.1694384515285492, -0.16890457272529602, -0.11141210049390793, 0.32614535093307495, -0.0834653303027153, -0.1968279480934143, 0.057073477655649185, -0.09148353338241577, 0.11006630957126617, 0.5829487442970276, 0.10588408261537552, -0.2525974214076996, 0.11680286377668381, 0.30887141823768616, 0.3750642240047455, 0.14059129357337952, 0.1922636181116104, -0.24295666813850403, -0.23583340644836426, -0.4371017813682556, -0.01963859237730503, -0.16805844008922577, -0.06569845229387283, -0.1165875792503357, -0.19414713978767395, 0.26785942912101746, -0.24691754579544067, 0.057253845036029816, -0.05437773838639259, 0.09322664141654968, -0.300731360912323, 0.088751882314682, 0.09805195033550262, -0.38999080657958984, 0.38205546140670776, -0.14671532809734344, 0.039703331887722015, 0.067366823554039, 0.0997937023639679, -0.26483333110809326, -0.06806383281946182, 0.07251746952533722, -0.181173175573349, 0.3781619668006897, -0.18286660313606262, 0.17093345522880554, -0.025899721309542656, -0.10704932361841202, 0.19317470490932465, -0.0003690192534122616, -0.8194056749343872, 0.3058176338672638, 0.018144218251109123, 0.08468742668628693, -0.7768510580062866, 0.3021529018878937, 0.014019690454006195, 0.16013199090957642, -0.1796111911535263, -0.38524162769317627, -0.31025388836860657, 0.5362935662269592, -0.06414121389389038, 0.39689093828201294, 0.11736852675676346, 0.27689242362976074, -0.10275352001190186, -0.38844314217567444, -0.3375171422958374, 0.027876857668161392, 0.16333889961242676, -0.340436726808548, 0.060867685824632645, 0.12696486711502075, 0.278898686170578, -0.6171314716339111, -0.3076222240924835, -0.08736377209424973, 0.5744026303291321, 0.39588767290115356, 0.7846620678901672, -0.22481772303581238, -0.2890138030052185, 0.2884999215602875, 0.05418141558766365, -0.1852516531944275, 0.2656692564487457, -0.006878715939819813, 0.6137329936027527, 0.21293707191944122, 0.23265695571899414, -0.1333400458097458, 0.793096125125885, 0.9715073704719543, 0.5608456134796143, 0.6086188554763794, -0.1552099734544754, -0.48276790976524353, -1.0425961017608643, 0.18707314133644104, 0.090302973985672, 0.45736369490623474, -0.10184533894062042, 0.14436550438404083, 0.17815151810646057, 0.005510231480002403, 0.07893282175064087, -0.06332086771726608, -0.06587584316730499, 0.056014977395534515, 0.05450272932648659, 0.018821898847818375, -0.034415364265441895, -0.022763840854167938, 0.02009052038192749, -0.10555385798215866, 0.07281706482172012, -0.17423589527606964, 0.07246459275484085, -0.04512704536318779, 0.014528176747262478, -0.04079731926321983, 0.13510644435882568, 0.08493948727846146, 0.008549715392291546, 0.05154052749276161, -0.03257022798061371, 0.05295364931225777, -0.12811611592769623, -0.5135043859481812, 0.06021250784397125, 0.09788669645786285, 0.04529730975627899, 0.029978357255458832, -0.0166323222219944, 0.04359964281320572, -0.18118958175182343, 0.25959596037864685, -0.24812594056129456, -0.14871205389499664, -0.04201319441199303, 0.11010821163654327, 0.32860153913497925, -0.23675937950611115, 0.28755006194114685, 0.003384214360266924, 0.09406258165836334, 0.3739564120769501, 0.08545835316181183, -0.22707119584083557, 0.030241897329688072, 0.04623880982398987, 0.2775958478450775, -0.1714450716972351, -0.2675897777080536, 0.18214361369609833, -0.10270613431930542, -0.17427732050418854, -0.18427807092666626, 0.11267624795436859, 0.2420538365840912, 0.3222031891345978, -0.03526939079165459, 0.16354900598526, -0.4304239749908447, 0.3061182498931885, 0.0056992704048752785, -0.027827972546219826, -0.16013190150260925, 0.057543378323316574, 0.08193712681531906, 0.23186637461185455, 0.1958882063627243, -0.34044334292411804, 0.458748459815979, 0.23100405931472778, -0.033851321786642075, -0.008780292235314846, 0.11529393494129181, -0.6634971499443054, 0.2539430260658264, -0.4198025166988373, 0.31542453169822693, 0.03137378394603729, -0.11434435099363327, -0.17688708007335663, 0.10503227263689041, -0.22384265065193176, -0.1790410429239273, 0.16576220095157623, 0.08510985970497131, 0.2768116295337677, -0.7308934926986694, 0.2710738182067871, -0.40504351258277893, 0.2343643307685852, -0.10702139884233475, 0.04675029590725899, 0.3192096948623657, -0.337611585855484, 0.29183369874954224, -0.18783989548683167, 0.23867428302764893, 0.14441129565238953, -0.38632920384407043, 0.03474689647555351, -0.11886551231145859, -0.11033233255147934, -0.03345136344432831, 0.11074910312891006, 0.28312698006629944, -0.180104598402977, -0.06980140507221222, 0.21097660064697266, -0.18773502111434937, 0.694640576839447, 1.1753650903701782, 0.9234257936477661, 0.6388425230979919, 0.1811831146478653, 0.32572823762893677, -0.6276586055755615, -0.28091511130332947, 0.1853022575378418, 0.22407931089401245, 0.5402586460113525, 0.7582033276557922, 0.1719060242176056, -0.3722953796386719, 0.43393057584762573, -0.4882206618785858, -0.32322192192077637, -0.12936744093894958, -0.11808781325817108, 0.5545017719268799, -0.7969660758972168, 0.061310622841119766, 0.2868000864982605, -0.537559986114502, -0.15596014261245728, 0.2691384553909302, 0.43331125378608704, -0.8476871848106384, -0.341734915971756, -0.3238469362258911, -0.3755086064338684, 0.04582224041223526, -0.6436456441879272, 0.0187732744961977, -0.21232715249061584, 0.25597330927848816, -1.0300203561782837, -0.2385564148426056, -1.2715225219726562, 0.6928191781044006, -0.7329275012016296, 0.39025136828422546, -0.51765376329422, 0.30464133620262146, 0.5406789183616638, 0.3989170789718628, -0.3417448103427887, -0.1476551592350006, -0.33459997177124023, 0.3312956392765045, 0.08719360828399658, -0.3415968418121338, 0.13532479107379913, -0.14385376870632172, 0.2598135769367218, -0.2127872109413147, 0.207270547747612, 0.18881551921367645, -0.09822413325309753, -0.2712602913379669, 0.08866088837385178, 0.12240984290838242, 0.38307809829711914, 0.1661873757839203, -0.047321490943431854, -0.5502716898918152, 0.5043115615844727, -0.047181881964206696, 0.1782113015651703, 0.1100865975022316, 0.10643972456455231, -0.1569853574037552, 0.050178706645965576, -0.4850245714187622, -0.019056005403399467, 0.2628845274448395, -0.040256302803754807, -0.13983282446861267, -0.18344929814338684, -0.07287471741437912, -0.2835213243961334, 0.33796364068984985, 0.1737043708562851, 0.424678236246109, -0.17755551636219025, 0.10891739279031754, 0.20940476655960083, -0.09980098158121109, 0.009318077936768532, -0.16980542242527008, -0.4872351586818695, -0.32596564292907715, 0.03456471115350723, 0.1131003350019455, 0.02487889677286148, 0.29100871086120605, -0.48935046792030334, -0.35023075342178345, -0.20535223186016083, -0.28860577940940857, 0.13045285642147064, -0.022875169292092323, -0.11233393102884293, -0.3348080813884735, -0.23786944150924683, -0.5087172985076904, -0.2062314748764038, -0.127817764878273, -0.11642777919769287, -0.42635536193847656, -0.2019355297088623, 0.005653866566717625, -0.13632912933826447, 0.21509656310081482, -0.2985951602458954, 0.3171593248844147, -0.34305867552757263, 0.8512192964553833, -0.8516513109207153, -0.027163710445165634, 0.06874542683362961, 0.14916081726551056, -0.37203726172447205, -1.2742048501968384, 0.021859275177121162, -0.31775668263435364, 0.20043596625328064, -0.30707603693008423, 0.5878521203994751, 0.34746548533439636, 0.9290342926979065, 0.7541541457176208, 1.1383424997329712, -0.4713650047779083, -0.4258805811405182, -0.0584413968026638, 0.45988309383392334, 0.21025165915489197, 0.2467646449804306, 0.17567434906959534, -0.3762052059173584, -0.6231608390808105, -0.04733874648809433, -0.005420707631856203, -0.0917852595448494, 0.6418754458427429, -0.3829052150249481, -0.036902882158756256, -1.5129528045654297, -0.7441467046737671, 0.0006655215402133763, 0.4975012540817261, 0.36405110359191895, 0.0535329170525074, -0.042356133460998535, 0.3035387098789215, 0.22758634388446808, 0.24237938225269318, -0.2765767574310303, 0.11661185324192047, -0.06702753901481628, -0.03059261105954647, 0.021902261301875114, 0.008554872125387192, -0.0584818497300148, -0.001848173444159329, 0.05488801375031471, 0.056561581790447235, 0.003456441918388009, -0.1283772885799408, 0.026531033217906952, 0.018711550161242485, 0.012288771569728851, -0.1363259106874466, 0.05242197960615158, 0.04756055399775505, -0.09897182136774063, -0.07657216489315033, -0.0685131698846817, 0.04516562819480896, 0.014232249930500984, 0.013909829780459404, 0.037476617842912674, -0.0652245432138443, 0.2503710389137268, 0.06683509051799774, 0.008172386325895786, -0.12514746189117432, 0.01330527663230896, 0.0669778361916542, -0.08426053076982498, -0.08913445472717285, -0.2116643637418747, 0.20848846435546875, 0.03501288592815399, 0.519111692905426, 0.27352285385131836, 0.13774535059928894, 0.10755875706672668, -0.050868019461631775, -0.34310951828956604, -0.059833209961652756, -0.1344144493341446, 0.10401524603366852, -0.0014591022627428174, 0.2971908152103424, -0.044493719935417175, 0.2040613442659378, -0.0438091903924942, -0.1337728649377823, -0.16868498921394348, 0.38728731870651245, 0.4341432750225067, -0.08954396843910217, -0.10492797940969467, -0.023019352927803993, -0.14374658465385437, 0.004400033503770828, -0.024376703426241875, -0.2634461224079132, -0.15238195657730103, 0.25995853543281555, 0.07388140261173248, -0.3173765540122986, 0.19711850583553314, -0.12541936337947845, -0.4657829999923706, -0.49037814140319824, -0.035543106496334076, 0.05343817546963692, 0.32712119817733765, 0.26541081070899963, -0.025625236332416534, 0.20339973270893097, -0.019763397052884102, 0.4045465588569641, 0.5441149473190308, 0.03331701457500458, 0.38200414180755615, 0.12505392730236053, -0.3244490921497345, 0.09900697320699692, -0.1727067083120346, 0.25483646988868713, -0.12501117587089539, -0.08469605445861816, 0.1789773404598236, -0.06518683582544327, 0.21070922911167145, 0.2405969798564911, 0.5223088264465332, -0.3300650417804718, 0.18619568645954132, -0.48993077874183655, -0.07007452845573425, -0.26435327529907227, 0.37123700976371765, 0.20340201258659363, 0.24469606578350067, -0.5191539525985718, 0.12926027178764343, -0.09539984166622162, -0.21807236969470978, -0.2848729193210602, 0.2728228271007538, -0.08637353777885437, 0.1777353286743164, 0.28092068433761597, -0.2735804617404938, 0.484347939491272, 0.039412256330251694, 1.302429437637329, -0.3389129936695099, 1.0317384004592896, 0.23340736329555511, 0.3844195306301117, 0.24896861612796783, 0.27287065982818604, 0.036794696003198624, 0.0756346732378006, 0.5029163360595703, -0.30964604020118713, -0.06446962803602219, 0.21310952305793762, 0.38413679599761963, -0.24238261580467224, 0.49394580721855164, 0.4109386205673218, 0.18251486122608185, 0.05944289267063141, 0.4616986811161041, 0.2246779501438141, 1.1239204406738281, -0.14082548022270203, -0.1971411556005478, -0.0192563459277153, 0.04006814956665039, -0.19714128971099854, 0.22167575359344482, 0.1413758546113968, 0.1664588749408722, -0.06901499629020691, 0.030705194920301437, 0.4989747405052185, 0.5447688698768616, 0.07809489220380783, 0.1987384408712387, -0.16504891216754913, 0.13755768537521362, 0.3198150098323822, -0.24333550035953522, -1.151987910270691, -0.8631797432899475, -0.6887140274047852, -1.6022394895553589, -1.603239893913269, -2.151587724685669, -2.7333333492279053, 0.6322914361953735, 0.17667433619499207, 0.24327145516872406, 0.3154025971889496, 0.3713100254535675, 0.062293581664562225, -0.15343086421489716, -0.13638445734977722, -0.013907298445701599, 0.029138486832380295, -0.22823932766914368, -0.11149736493825912, 0.008932247757911682, 0.0378432534635067, -0.10096830874681473, -0.09443388879299164, 0.16564148664474487, 0.13226202130317688, 0.19095075130462646, 0.46301308274269104, 0.13110268115997314, -0.15736253559589386, -0.10068246722221375, 0.4101416766643524, -0.0213080532848835, -0.20565184950828552, -0.1683589369058609, -0.03384017571806908, 0.1349411904811859, -0.12595948576927185, 0.14635024964809418, -0.30553486943244934, 0.33129623532295227, -0.0275175292044878, 0.03943582996726036, 0.05550384894013405, -0.1615843027830124, 0.11932996660470963, 0.10774298757314682, -0.07959219813346863, -0.17783775925636292, -0.4193071722984314, 0.08176198601722717, -0.0532991886138916, 0.12719547748565674, 0.303315669298172, 0.46630263328552246, 0.20222191512584686, 0.24215713143348694, 0.14606189727783203, -0.19392399489879608, -0.483744353055954, 0.13161548972129822, -0.233623206615448, -0.4258125126361847, -0.10851773619651794, -0.20004667341709137, 0.1283319592475891, 0.07419019937515259, 0.2303563356399536, 0.28772860765457153, 0.08405030518770218, -0.017149072140455246, 0.22922170162200928, 0.26839035749435425, -0.053860556334257126, -0.027785368263721466, 0.46886420249938965, -0.1516084522008896, -0.3055592179298401, -0.22071576118469238, 0.22750502824783325, -0.23625561594963074, 0.2851751744747162, -0.11028821021318436, 0.18400442600250244, 0.31517812609672546, 0.22345857322216034, 0.15961061418056488, 