{
  "schema_version": "1.1.0",
  "schema_hash": "692116a4b46efaef0ad70f7f984769541c02744308bd2a13eb976cbf3620e509",
  "layer1": {
    "weights": [
      -0.03983214125037193,
      -0.30591440200805664,
      -0.246515691280365,
      0.055236998945474625,
      0.11558669060468674,
      -0.09620407968759537,
      0.271738201379776,
      0.3698260188102722,
      0.020560191944241524,
      -0.004137145821005106,
      -0.06571102887392044,
      -0.08556520193815231,
      0.07798771560192108,
      -0.11078962683677673,
      0.4731113612651825,
      0.10252674669027328,
      0.32510432600975037,
      0.2941311299800873,
      -0.1061706468462944,
      0.10992886871099472,
      0.010533344931900501,
      -0.11304830014705658,
      0.13792455196380615,
      0.10822997987270355,
      0.14516207575798035,
      -0.020818782970309258,
      -0.30450356006622314,
      0.3371085226535797,
      -0.1389731913805008,
      0.475565105676651,
      -0.21889469027519226,
      0.15746153891086578,
      -0.0048151216469705105,
      -0.1401563584804535,
      0.13610823452472687,
      0.257666677236557,
      -0.1904580146074295,
      -0.06317391246557236,
      -0.21887759864330292,
      -0.19949054718017578,
      0.2571965157985687,
      -0.005912058055400848,
      -0.1330498456954956,
      0.04632757231593132,
      0.00030081020668148994,
      -0.12314607203006744,
      0.31757989525794983,
      0.025087561458349228,
      0.0039446051232516766,
      0.13720999658107758,
      0.23681305348873138,
      -0.02566852606832981,
      0.06759441643953323,
      0.11038895696401596,
      -0.017004966735839844,
      0.08465266227722168,
      0.1042829304933548,
      0.025866953656077385,
      0.015214089304208755,
      -0.06910748779773712,
      -0.02896922454237938,
      -0.07317181676626205,
      0.09120383113622665,
      -0.020625039935112,
      -0.07508819550275803,
      0.09874322265386581,
      -0.06882042437791824,
      -0.07464797794818878,
      -0.031117837876081467,
      -0.015329716727137566,
      -0.020722541958093643,
      -0.030534617602825165,
      0.04296409711241722,
      0.03261055052280426,
      -0.021487681195139885,
      -0.015257342718541622,
      -0.06900829076766968,
      -0.0011801932705566287,
      0.06185123696923256,
      -0.00923586543649435,
      -0.03678920492529869,
      -0.06107301637530327,
      -0.020500898361206055,
      0.02502930536866188,
      0.07066940516233444,
      0.08920091390609741,
      -0.07191352546215057,
      -0.11982866376638412,
      -0.013931014575064182,
      -0.013213848695158958,
      0.052420105785131454,
      0.09243576973676682,
      -0.02509191818535328,
      -0.014837372116744518,
      -0.022183701395988464,
      0.07832719385623932,
      -0.020308582112193108,
      0.06794003397226334,
      -0.08679688721895218,
      0.00539696030318737,
      -0.12391356378793716,
      -0.09198115766048431,
      0.002953721908852458,
      -0.07659310847520828,
      -0.10052992403507233,
      0.09402180463075638,
      -0.08179831504821777,
      0.14158225059509277,
      -0.06468231976032257,
      0.10097397118806839,
      -0.09089918434619904,
      0.16447503864765167,
      0.18651747703552246,
      -0.1215960755944252,
      0.12173352390527725,
      -0.032017290592193604,
      0.01742161624133587,
      -0.05804650858044624,
      -0.12069427967071533,
      -0.020959217101335526,
      0.09518071264028549,
      -0.00318147917278111,
      -0.12377525866031647,
      0.07961946725845337,
      -0.13620249927043915,
      0.027435800060629845,
      0.10754665732383728,
      -0.07861492782831192,
      0.042243219912052155,
      -0.04756544902920723,
      0.04020969197154045,
      -0.09004748612642288,
      0.06613728404045105,
      0.034973811358213425,
      0.055880360305309296,
      0.09807033836841583,
      0.06064668670296669,
      0.16550374031066895,
      -0.16015194356441498,
      0.041184134781360626,
      0.058324579149484634,
      0.048925843089818954,
      -0.03622940927743912,
      0.07788924127817154,
      0.06338813900947571,
      -0.0891871452331543,
      0.05249667540192604,
      -0.03639991953969002,
      -0.05945157632231712,
      -0.11067907512187958,
      -0.10697699338197708,
      0.08691301941871643,
      -0.04085983335971832,
      0.06586459279060364,
      0.03178105503320694,
      0.01897517964243889,
      0.1053328886628151,
      0.15653380751609802,
      -0.1806790977716446,
      -0.01796870306134224,
      0.060051508247852325,
      -0.007744535803794861,
      0.0010530278086662292,
      0.02683958411216736,
      0.04289533942937851,
      0.020209848880767822,
      -0.013111460953950882,
      -0.05708550661802292,
      -0.010586589574813843,
      -0.009978324174880981,
      0.0058854371309280396,
      -0.002874854952096939,
      0.04977112263441086,
      -0.01382249966263771,
      0.06010276824235916,
      -0.02183810994029045,
      0.05993977561593056,
      0.06208224222064018,
      0.025289304554462433,
      0.004659771919250488,
      0.05099404603242874,
      0.010210186243057251,
      -0.03586772084236145,
      0.14333675801753998,
      -0.03528597950935364,
      0.058352455496788025,
      0.050427138805389404,
      -0.02715524658560753,
      -0.024591311812400818,
      -0.0391014963388443,
      -0.0416763611137867,
      0.051957227289676666,
      0.01938936859369278,
      0.04030434414744377,
      0.04298592358827591,
      0.05209075286984444,
      0.011645887047052383,
      0.004130965564399958,
      -0.0004787989892065525,
      0.010234148241579533,
      -0.14584292471408844,
      0.008019107393920422,
      0.030456513166427612,
      0.07347545027732849,
      0.043762169778347015,
      0.05268718674778938,
      -0.02038458362221718,
      0.015940889716148376,
      0.007158227730542421,
      -0.03843801096081734,
      0.03473171964287758,
      -0.046321410685777664,
      0.08018425107002258,
      0.1524176001548767,
      -0.01114044338464737,
      0.09134501218795776,
      -0.02615896239876747,
      0.031560465693473816,
      -0.011138608679175377,
      0.0005648793885484338,
      0.08310183137655258,
      0.09302997589111328,
      0.08068177103996277,
      -0.05812051147222519,
      0.06925472617149353,
      0.009196862578392029,
      -0.0173040684312582,
      0.11626948416233063,
      -0.07068032771348953,
      0.09344729036092758,
      0.09364557266235352,
      -0.0800466537475586,
      0.06038577854633331,
      0.1650211215019226,
      0.07022689282894135,
      0.11996898055076599,
      0.013213573023676872,
      0.13877785205841064,
      -0.08707933872938156,
      0.09087932109832764,
      0.0033241163473576307,
      0.011803032830357552,
      0.1462567150592804,
      -0.0667874738574028,
      -0.06300364434719086,
      0.08060354739427567,
      -0.04240177571773529,
      0.05540134385228157,
      0.10536850988864899,
      0.02387676015496254,
      0.055711012333631516,
      0.11085576564073563,
      0.0590309277176857,
      0.06307616084814072,
      0.058783553540706635,
      0.06870579719543457,
      -0.04057919606566429,
      -0.046709153801202774,
      -0.08031930029392242,
      0.028501730412244797,
      0.20400100946426392,
      -0.015210216864943504,
      0.00043414082028903067,
      0.12558801472187042,
      -0.0072906119748950005,
      -0.019721586257219315,
      0.029387790709733963,
      0.09572294354438782,
      -0.03639480471611023,
      0.010180110111832619,
      -0.02464890480041504,
      0.024142028763890266,
      0.13184931874275208,
      -0.27616849541664124,
      0.07718776166439056,
      -0.01979777216911316,
      0.08367231488227844,
      -0.29732078313827515,
      -0.031220877543091774,
      -0.001709049683995545,
      0.15961548686027527,
      -0.3617033362388611,
      -0.15293438732624054,
      0.2052711546421051,
      0.2534984052181244,
      -0.5456205606460571,
      0.23058617115020752,
      -0.2565728425979614,
      0.17307117581367493,
      -0.4415525794029236,
      0.042934685945510864,
      0.20094764232635498,
      -0.06437573581933975,
      0.24500110745429993,
      0.1605493426322937,
      0.15714433789253235,
      0.13984674215316772,
      0.019336577504873276,
      0.01743778958916664,
      0.15661022067070007,
      0.2625530958175659,
      0.20798411965370178,
      -0.08680103719234467,
      -0.09490706026554108,
      0.2823006808757782,
      -0.13970884680747986,
      0.10518041998147964,
      -0.09909172356128693,
      -0.20391066372394562,
      0.011873445473611355,
      0.10797017812728882,
      -0.06953553855419159,
      0.208284392952919,
      -0.09807343035936356,
      0.04028264060616493,
      -0.10928728431463242,
      -0.02236369252204895,
      -0.18632559478282928,
      0.00986927654594183,
      -0.05341166630387306,
      0.1105039194226265,
      0.11243375390768051,
      0.08853085339069366,
      0.024282289668917656,
      -0.01881757751107216,
      0.007713777478784323,
      -0.01605125702917576,
      0.057966601103544235,
      -0.023311961442232132,
      0.0716063380241394,
      0.083783820271492,
      -0.05447080731391907,
      0.02922913432121277,
      0.04619821533560753,
      0.10403759032487869,
      -0.0018190295668318868,
      0.03150973841547966,
      0.1597701758146286,
      -0.03441332280635834,
      0.05015680193901062,
      0.02956925518810749,
      0.12980757653713226,
      -0.050269290804862976,
      -0.09567273408174515,
      0.04625936970114708,
      -0.12363728135824203,
      -0.12534642219543457,
      -0.03833271563053131,
      -0.034034907817840576,
      0.021955382078886032,
      -0.06778942048549652,
      -0.0005663769552484155,
      -0.038762416690588,
      0.02739783748984337,
      0.0038807312957942486,
      -0.086979940533638,
      -0.07192353159189224,
      0.0653565376996994,
      0.04552101343870163,
      0.08979341387748718,
      0.03532214090228081,
      0.0023236123379319906,
      -0.01476106233894825,
      0.019538788124918938,
      0.03802497684955597,
      0.032281700521707535,
      0.10718823969364166,
      -0.0460001640021801,
      0.05560687556862831,
      0.09552896022796631,
      -0.0025001305621117353,
      -0.09737396985292435,
      -0.015412899665534496,
      -0.04237748682498932,
      -0.023883411660790443,
      0.17675521969795227,
      -0.1427946537733078,
      -0.030836597084999084,
      -0.0008775138412602246,
      0.23380976915359497,
      -0.16080035269260406,
      -0.005413729697465897,
      0.018527615815401077,
      0.12516091763973236,
      0.16185536980628967,
      0.18813709914684296,
      -0.04131767898797989,
      0.038954779505729675,
      0.006951842922717333,
      -0.006959053222090006,
      -0.00346668204292655,
      -0.020675834268331528,
      -0.04779883846640587,
      -0.009865880012512207,
      0.0006489278166554868,
      0.033081959933042526,
      0.10151814669370651,
      -0.028604567050933838,
      -0.05636624991893768,
      0.07898088544607162,
      0.030212482437491417,
      0.0035312031395733356,
      -0.12108603864908218,
      0.12078891694545746,
      0.06654783338308334,
      -0.17430689930915833,
      0.11228159070014954,
      0.029919778928160667,
      0.10015138983726501,
      0.1358872652053833,
      -0.08475443720817566,
      0.048830173909664154,
      -0.008373483084142208,
      0.05144454538822174,
      -0.12537838518619537,
      -0.029357723891735077,
      -0.12983456254005432,
      -0.09161322563886642,
      0.19308821856975555,
      -0.020757606253027916,
      0.10306504368782043,
      0.21093842387199402,
      0.005026740022003651,
      -0.08659765124320984,
      -0.11586912721395493,
      -0.1656782478094101,
      -0.0890587791800499,
      0.017894910648465157,
      0.06266705691814423,
      0.05651680380105972,
      -0.05422218516469002,
      -0.0584680549800396,
      0.008723564445972443,
      -0.04248017072677612,
      0.022763974964618683,
      0.0289812833070755,
      0.05244077742099762,
      0.04073613882064819,
      -0.05637873336672783,
      -0.03539101034402847,
      0.03307657688856125,
      0.03671541064977646,
      0.02784702181816101,
      0.03860753774642944,
      0.03640308976173401,
      -0.027622297406196594,
      0.07862484455108643,
      0.07649432122707367,
      0.035689838230609894,
      0.009435728192329407,
      -0.05436856672167778,
      0.058335453271865845,
      0.06032247096300125,
      -0.07222538441419601,
      -0.033431824296712875,
      -0.02636401727795601,
      -0.032294861972332,
      -0.060400545597076416,
      -0.0032503604888916016,
      0.009762227535247803,
      0.032992031425237656,
      0.0008769151172600687,
      -0.004621095955371857,
      0.05614659935235977,
      0.10076286643743515,
      0.05001063644886017,
      -0.0660315677523613,
      0.059433914721012115,
      0.020678361877799034,
      -0.04630710929632187,
      -0.0834476426243782,
      0.11095228046178818,
      -0.08188671618700027,
      0.08477158099412918,
      0.02466510981321335,
      0.06535978615283966,
      0.10666369646787643,
      0.11652181297540665,
      0.10144004970788956,
      -0.0573134683072567,
      -0.06162380054593086,
      0.06207985430955887,
      0.1384274661540985,
      0.04551345854997635,
      -0.013709812425076962,
      0.03952661529183388,
      0.01892455480992794,
      -0.0472462922334671,
      -0.1218840479850769,
      0.12458156794309616,
      0.017413871362805367,
      -0.05552351847290993,
      -0.05702131241559982,
      -0.02086476795375347,
      0.09306295216083527,
      0.04737760126590729,
      0.08154334127902985,
      -0.10825643688440323,
      -0.025438208132982254,
      0.09036583453416824,
      0.08704034984111786,
      -0.005567514803260565,
      -0.09233612567186356,
      -0.07950495928525925,
      0.08395696431398392,
      0.027895156294107437,
      0.01898268237709999,
      -0.027516772970557213,
      0.09179861098527908,
      0.02250346913933754,
      -0.053736619651317596,
      -0.033288631588220596,
      0.07651650160551071,
      -0.03056887537240982,
      0.12278878688812256,
      0.01661498099565506,
      0.01168679166585207,
      0.06506556272506714,
      -0.036578018218278885,
      0.09082839637994766,
      0.0650644600391388,
      -0.0052822609432041645,
      0.08646390587091446,
      -0.048875413835048676,
      -0.05390654504299164,
      0.1168002262711525,
      0.1143515333533287,
      0.07723937183618546,
      0.03512686491012573,
      0.07572758197784424,
      0.09657435119152069,
      0.012288478203117847,
      -0.05297795310616493,
      0.025540892034769058,
      0.02351265959441662,
      -0.06419400125741959,
      0.09200900793075562,
      0.05694187805056572,
      -0.020158063620328903,
      0.015930792316794395,
      0.2151014655828476,
      -0.06928909569978714,
      -0.05454842373728752,
      -0.0019221944967284799,
      -0.2793102562427521,
      0.13904023170471191,
      -0.3897315561771393,
      -0.27469128370285034,
      -0.34670886397361755,
      -0.027711784467101097,
      0.00395822711288929,
      0.35399091243743896,
      0.14495673775672913,
      -0.034283220767974854,
      -0.0765751376748085,
      -0.0673031359910965,
      -0.11354141682386398,
      -0.06662857532501221,
      -0.015015817247331142,
      0.1960708051919937,
      0.057041242718696594,
      -0.1038377583026886,
      -0.2047015279531479,
      0.01971924677491188,
      -0.03697575256228447,
      -0.009295868687331676,
      -0.30193614959716797,
      0.27074670791625977,
      0.2651585042476654,
      -0.0934775099158287,
      -0.10044233500957489,
      0.436546266078949,
      0.07473868131637573,
      0.10331765562295914,
      0.01398067083209753,
      0.16606982052326202,
      -0.16003938019275665,
      0.13216358423233032,
      0.038467925041913986,
      -0.10440556704998016,
      0.13330549001693726,
      0.17584654688835144,
      -0.13880617916584015,
      -0.2599514126777649,
      -0.24625790119171143,
      -0.49195200204849243,
      0.252219021320343,
      -0.294196754693985,
      0.21161280572414398,
      0.04384051263332367,
      -0.16445162892341614,
      0.39644336700439453,
      0.03993701562285423,
      -0.012178154662251472,
      0.0003403149894438684,
      0.05749478191137314,
      -0.009135785512626171,
      0.027109960094094276,
      -0.06779799610376358,
      0.03666248545050621,
      0.020382782444357872,
      0.18458250164985657,
      -0.023081356659531593,
      -0.0056518567726016045,
      -0.005918731447309256,
      -0.05155603215098381,
      -0.08493378013372421,
      0.041847314685583115,
      0.06124841421842575,
      -0.0026573946233838797,
      0.10339101403951645,
      0.02439330331981182,
      -0.05516887083649635,
      0.054528675973415375,
      0.004884860944002867,
      0.02859961800277233,
      0.06872527301311493,
      0.0901326984167099,
      0.03797095641493797,
      -0.09628642350435257,
      -0.05844837427139282,
      0.16334709525108337,
      0.032293278723955154,
      -0.042799729853868484,
      -0.06300398707389832,
      0.04135138913989067,
      0.035293348133563995,
      -0.018288180232048035,
      0.13616102933883667,
      -0.05437975004315376,
      0.037019845098257065,
      0.06215617060661316,
      -0.014355926774442196,
      -0.02738260105252266,
      0.03324040398001671,
      0.10047080367803574,
      0.11213236302137375,
      0.11507081240415573,
      -0.04075133800506592,
      0.038461387157440186,
      0.05531971529126167,
      0.09531955420970917,
      0.15589340031147003,
      -0.050525765866041183,
      0.10857033729553223,
      -0.11957301199436188,
      0.1663733720779419,
      0.1433667540550232,
      0.07638215273618698,
      -0.14474619925022125,
      0.18012773990631104,
      0.07151976972818375,
      0.17535898089408875,
      0.056825365871191025,
      -0.017757093533873558,
      -0.08511781692504883,
      0.09880957752466202,
      -0.12578585743904114,
      0.06842781603336334,
      0.05240452662110329,
      0.10477223992347717,
      0.02023007534444332,
      0.07490137219429016,
      -0.04279398173093796,
      0.05764416605234146,
      -0.0670543909072876,
      -0.14849747717380524,
      0.15629340708255768,
      0.08138039708137512,
      0.1482650488615036,
      0.11356739699840546,
      0.03203803300857544,
      0.051368530839681625,
      0.07097845524549484,
      0.07158611714839935,
      0.06202239170670509,
      -0.14029347896575928,
      -0.18209588527679443,
      0.09891144186258316,
      -0.1028442308306694,
      -0.004377160221338272,
      -0.019332241266965866,
      -0.10452906787395477,
      -0.008946813642978668,
      0.008648443967103958,
      -0.05563567951321602,
      0.04070712625980377,
      0.010378925129771233,
      -0.15349160134792328,
      -0.012624099850654602,
      -0.07604294270277023,
      -0.0001134860867750831,
      0.17340822517871857,
      0.0037354351952672005,
      0.10898470878601074,
      0.047137096524238586,
      -0.1237509548664093,
      -0.031716298311948776,
      -0.20410434901714325,
      0.015729576349258423,
      -0.005438022315502167,
      0.016742080450057983,
      -0.036422405391931534,
      0.045929938554763794,
      0.010746240615844727,
      -0.027011681348085403,
      -0.030775059014558792,
      0.04949701577425003,
      0.0032369419932365417,
      0.053662724792957306,
      -0.01513812318444252,
      0.04668840020895004,
      0.005212552845478058,
      0.011236220598220825,
      -0.0169447660446167,
      0.051089875400066376,
      0.05036327615380287,
      0.006781481672078371,
      0.044307902455329895,
      -0.008370183408260345,
      0.044876955449581146,
      -0.03213270753622055,
      0.049587808549404144,
      -0.0011585538741201162,
      0.059951551258563995,
      0.031474240124225616,
      -0.03597995266318321,
      0.009777069091796875,
      0.032040148973464966,
      -0.053202591836452484,
      0.044058963656425476,
      -0.05302928015589714,
      0.09320778399705887,
      -0.048545364290475845,
      0.04586033523082733,
      0.03686390444636345,
      0.10357397794723511,
      0.010086079128086567,
      -0.07819384336471558,
      -0.03072633035480976,
      0.1530589461326599,
      0.01159687340259552,
      0.10346360504627228,
      0.011170406825840473,
      0.02987825497984886,
      -0.07633433490991592,
      0.0503382571041584,
      0.08405464142560959,
      -0.05579284951090813,
      0.03563361614942551,
      0.0010612349724397063,
      0.0565672367811203,
      -0.054317083209753036,
      -0.0523538775742054,
      0.05163966864347458,
      -0.10898683965206146,
      0.07312645763158798,
      0.14514406025409698,
      0.03076286055147648,
      0.027732839807868004,
      -0.049012746661901474,
      0.049299001693725586,
      0.015910906717181206,
      0.05871397629380226,
      0.051848843693733215,
      -0.07903328537940979,
      0.0638003945350647,
      -0.2246357649564743,
      0.1968526989221573,
      -0.06110069900751114,
      0.03562876582145691,
      -0.016785766929388046,
      0.09416835010051727,
      0.07227391749620438,
      0.027609553188085556,
      -0.08518259972333908,
      0.04471636191010475,
      0.015944691374897957,
      -0.04622606933116913,
      -0.0576300248503685,
      -0.047791987657547,
      -0.3140810430049896,
      0.166845440864563,
      0.020818907767534256,
      0.09885397553443909,
      0.011187356896698475,
      0.02632593736052513,
      -0.09295140951871872,
      -0.02464926801621914,
      0.03519032150506973,
      -0.09239014983177185,
      0.14019030332565308,
      -0.0395243838429451,
      0.026373358443379402,
      0.0407508946955204,
      -0.04599535092711449,
      -0.022344190627336502,
      0.10065031051635742,
      -0.12782977521419525,
      -0.013557443395256996,
      -0.08739656209945679,
      -0.055262330919504166,
      0.03819941729307175,
      -0.0626894161105156,
      0.05430332571268082,
      -0.06541913747787476,
      -0.04966088384389877,
      0.08993274718523026,
      0.03815038129687309,
      0.04696553200483322,
      -0.3095497786998749,
      -0.11843012273311615,
      0.08249985426664352,
      -0.3414778709411621,
      0.3484351634979248,
      -0.015601055696606636,
      -0.20828039944171906,
      -0.061703938990831375,
      -0.3460448980331421,
      0.09682892262935638,
      0.15140342712402344,
      -0.08202090859413147,
      0.053799256682395935,
      -0.4065539836883545,
      0.1494506299495697,
      0.07429125905036926,
      -0.0656898245215416,
      -0.2908110022544861,
      0.08472251147031784,
      0.30533161759376526,
      0.433461993932724,
      -0.10150638967752457,
      -0.0776006355881691,
      0.05715831369161606,
      -0.2091229110956192,
      0.2710646390914917,
      -0.19220633804798126,
      -0.18180450797080994,
      0.2069772481918335,
      0.2510319948196411,
      -0.07275865972042084,
      0.01623465120792389,
      -0.29058343172073364,
      -0.21743251383304596,
      0.12257068604230881,
      0.29265496134757996,
      0.07837917655706406,
      0.22396361827850342,
      0.026621870696544647,
      0.15520760416984558,
      -0.006826143246144056,
      0.20377929508686066,
      -0.0025666707661002874,
      0.009540700353682041,
      -0.2215065062046051,
      0.30457618832588196,
      -0.018762357532978058,
      -0.15595613420009613,
      -0.1252548098564148,
      0.15967895090579987,
      0.039964813739061356,
      -0.07179688662290573,
      -0.002008035546168685,
      0.07209721207618713,
      -0.01517766434699297,
      0.09453926980495453,
      -0.09437977522611618,
      0.041541825979948044,
      0.0658494234085083,
      0.02461189776659012,
      0.1824714094400406,
      0.0057600014843046665,
      -0.02085024118423462,
      0.04404357075691223,
      -0.0147409588098526,
      0.09155246615409851,
      0.03795021027326584,
      -0.029394080862402916,
      0.022821446880698204,
      0.07996101677417755,
      0.05032522231340408,
      -0.08689553290605545,
      -0.11262157559394836,
      0.024358320981264114,
      -0.006235596723854542,
      0.08822718262672424,
      0.049681954085826874,
      -0.058633267879486084,
      0.09277435392141342,
      0.0626785084605217,
      -0.028759704902768135,
      4.714777605840936e-05,
      0.02386540174484253,
      -0.010806761682033539,
      0.014059565030038357,
      0.09902914613485336,
      0.05840861797332764,
      -0.06495729088783264,
      0.013386904262006283,
      -0.05950717255473137,
      0.021587148308753967,
      -0.017411276698112488,
      -0.0274951308965683,
      0.02636551670730114,
      -0.0167078897356987,
      0.04085852578282356,
      0.059278231114149094,
      -0.1298411339521408,
      -0.009586804546415806,
      0.09761802107095718,
      0.06348694115877151,
      0.06682310253381729,
      0.09103913605213165,
      0.09096450358629227,
      0.01550047006458044,
      0.15137766301631927,
      0.04494743421673775,
      -0.06489542126655579,
      -0.062118079513311386,
      0.09734819829463959,
      0.051053572446107864,
      -0.0551874078810215,
      0.2582688331604004,
      0.010075815953314304,
      -0.19738797843456268,
      -0.035653501749038696,
      -0.023910393938422203,
      0.11221735179424286,
      -0.20537230372428894,
      0.004702234175056219,
      0.1712450236082077,
      -0.04606993496417999,
      0.020245792344212532,
      -0.05634506046772003,
      -0.008725088089704514,
      -0.03579958528280258,
      0.12411832809448242,
      -0.06511001288890839,
      0.0074698408134281635,
      0.24180573225021362,
      0.005950185935944319,
      0.18777453899383545,
      0.07328233867883682,
      0.042069241404533386,
      -0.08176133781671524,
      -0.008678928948938847,
      0.010968782007694244,
      -0.057589270174503326,
      0.023276282474398613,
      -0.012309038080275059,
      -0.002014907542616129,
      -0.07147300243377686,
      0.03760353475809097,
      0.08248484134674072,
      -0.042139697819948196,
      0.12343014776706696,
      0.2110477238893509,
      -0.1106845811009407,
      -0.006696547381579876,
      -0.0639537051320076,
      -0.13422001898288727,
      0.17827372252941132,
      0.12262415885925293,
      0.13279491662979126,
      -0.0024149520322680473,
      0.015187098644673824,
      -0.00427417503669858,
      0.049050573259592056,
      -0.04043988510966301,
      0.004825815558433533,
      0.02970851957798004,
      0.027368761599063873,
      -0.027636054903268814,
      0.0025248825550079346,
      0.04536355286836624,
      0.030093103647232056,
      -0.0033708177506923676,
      -0.03626345098018646,
      0.04602853208780289,
      -0.05385192856192589,
      0.04352566599845886,
      0.012071043252944946,
      0.0018359571695327759,
      -0.05174975469708443,
      -0.0031717829406261444,
      0.0017032623291015625,
      0.012251496315002441,
      0.07283630222082138,
      -0.030043045058846474,
      -0.05730804055929184,
      -0.04849894717335701,
      0.022937022149562836,
      0.004524484276771545,
      -0.07265877723693848,
      -0.04524127393960953,
      0.04516325145959854,
      0.08628859370946884,
      -0.0555400587618351,
      -0.014084726572036743,
      0.044603705406188965,
      -0.013120194897055626,
      0.06157486140727997,
      0.017029205337166786,
      -0.004189826548099518,
      -0.1150529757142067,
      -0.018425075337290764,
      0.012654122896492481,
      0.008574707433581352,
      0.0838596373796463,
      0.09369964897632599,
      0.0161596592515707,
      0.018514685332775116,
      -0.007516203913837671,
      0.06913669407367706,
      0.021190878003835678,
      -0.08818068355321884,
      0.15991391241550446,
      -0.036371663212776184,
      0.04827870428562164,
      0.08430063724517822,
      0.04381752014160156,
      -0.030521798878908157,
      -0.01753596030175686,
      -0.05251580476760864,
      0.0016579179791733623,
      -0.054040271788835526,
      -0.09215965867042542,
      0.007181619293987751,
      -0.03762669488787651,
      0.0065567707642912865,
      -0.0007432184647768736,
      -0.004703944083303213,
      -0.014412222430109978,
      -0.04641351476311684,
      0.005771076772361994,
      0.06826532632112503,
      0.015368225052952766,
      -0.0035943081602454185,
      -0.03316901996731758,
      0.10990273952484131,
      -0.18719454109668732,
      -0.00926292221993208,
      -0.08384044468402863,
      -0.05431274324655533,
      -0.02004138007760048,
      -0.04020768776535988,
      0.022333139553666115,
      -0.007160203997045755,
      0.012231225147843361,
      -0.06614077836275101,
      -0.18781669437885284,
      -0.059878118336200714,
      0.15365231037139893,
      0.01408146321773529,
      0.07720908522605896,
      0.08917723596096039,
      -0.02291438728570938,
      -0.036363985389471054,
      -0.07487280666828156,
      0.08020266890525818,
      -0.021384304389357567,
      -0.01698649302124977,
      -0.07266974449157715,
      -0.017652273178100586,
      -0.004739698953926563,
      -0.0005481797270476818,
      0.07141274958848953,
      0.12182920426130295,
      -0.01874559558928013,
      0.20445211231708527,
      -0.054152000695466995,
      0.024526407942175865,
      -0.0045250034891068935,
      -0.0788135752081871,
      -0.102755606174469,
      -0.04637386277318001,
      -0.05878845229744911,
      0.05121297761797905,
      0.008867774158716202,
      -0.10142478346824646,
      0.2902233600616455,
      0.13673537969589233,
      0.25288066267967224,
      0.35077351331710815,
      0.0783625990152359,
      0.30929869413375854,
      0.4100496172904968,
      0.09148195385932922,
      0.16880764067173004,
      0.0025234357453882694,
      -0.18805494904518127,
      -0.2750244736671448,
      0.051282383501529694,
      0.11716371774673462,
      0.3753841817378998,
      0.15644031763076782,
      0.2981644868850708,
      -0.09017399698495865,
      0.2778281271457672,
      0.31204313039779663,
      0.36365723609924316,
      0.26832830905914307,
      0.12721334397792816,
      -0.26572132110595703,
      0.06401676684617996,
      0.11375314742326736,
      -0.33373239636421204,
      0.14606575667858124,
      -0.29164642095565796,
      -0.25785350799560547,
      -0.2547556459903717,
      -0.19670391082763672,
      0.17807720601558685,
      0.3603087365627289,
      0.13404954969882965,
      -0.055011309683322906,
      -0.0440952330827713,
      -0.13620731234550476,
      0.18832138180732727,
      -0.16351598501205444,
      0.1834612637758255,
      -0.1278444230556488,
      -0.08546023070812225,
      -0.04231958091259003,
      -0.01957576908171177,
      -0.22189435362815857,
      -0.34034138917922974,
      -0.023674579337239265,
      -0.002009645802900195,
      -0.3641337454319,
      0.3140966594219208,
      0.26643022894859314,
      0.05723201483488083,
      0.047100283205509186,
      -0.027063030749559402,
      0.007028717547655106,
      0.025354202836751938,
      0.012500843033194542,
      -0.13189105689525604,
      -0.02067750133574009,
      0.0586024634540081,
      0.048060838133096695,
      0.05774331092834473,
      -0.03264768049120903,
      -0.10751025378704071,
      0.10017780214548111,
      -0.01774023286998272,
      0.14576265215873718,
      0.1034858226776123,
      0.14302420616149902,
      -0.04765443503856659,
      -0.01979491300880909,
      -0.07226118445396423,
      -0.034402575343847275,
      -0.05508732423186302,
      0.026120400056242943,
      -0.0014319969341158867,
      -0.0813671350479126,
      -0.002633811440318823,
      -0.08206744492053986,
      0.08546701818704605,
      0.06832350045442581,
      0.1197364553809166,
      0.054862912744283676,
      -0.027273595333099365,
      -0.10279863327741623,
      -0.08910544961690903,
      0.012819614261388779,
      0.06486689299345016,
      0.06642976403236389,
      -0.0776384100317955,
      0.06703642755746841,
      0.012557859532535076,
      0.0010739648714661598,
      -0.00230616657063365,
      -0.03650365397334099,
      -0.0045529562048614025,
      0.11646096408367157,
      0.13058266043663025,
      0.04585292190313339,
      -0.019149430096149445,
      0.10031027346849442,
      -0.05721071735024452,
      -0.03985992446541786,
      -0.08152767270803452,
      0.13447071611881256,
      -0.09116125106811523,
      -0.04583697021007538,
      -0.10425402969121933,
      0.19160257279872894,
      -0.08118213713169098,
      -0.053053248673677444,
      0.21211285889148712,
      0.017243271693587303,
      -0.07722906768321991,
      0.045512691140174866,
      0.10166868567466736,
      -0.11275161802768707,
      -0.10481667518615723,
      -0.066243976354599,
      0.1499485969543457,
      -0.050107959657907486,
      0.040558405220508575,
      -0.061049748212099075,
      0.05084967985749245,
      -0.02603014186024666,
      0.11401007324457169,
      -0.003995677921921015,
      0.032832931727170944,
      0.09832055866718292,
      -0.1064886823296547,
      -0.02755441516637802,
      -0.15295106172561646,
      0.2806854844093323,
      -0.025317180901765823,
      0.0034008105285465717,
      -0.02360488474369049,
      0.06243716925382614,
      -0.09201975911855698,
      0.18108779191970825,
      -0.06082969903945923,
      0.010347065515816212,
      -0.01657566800713539,
      -0.027490107342600822,
      -0.06305375695228577,
      0.05335665121674538,
      0.15607717633247375,
      -0.14721252024173737,
      0.09759010374546051,
      0.011441764421761036,
      0.016688846051692963,
      0.1968567818403244,
      -0.11209650337696075,
      0.08426881581544876,
      -0.14902673661708832,
      -0.0294336024671793,
      -0.2811901569366455,
      -0.01984565332531929,
      -0.11633844673633575,
      0.013440325856208801,
      0.01637696474790573,
      -0.0134819857776165,
      -0.017090097069740295,
      -0.01163485273718834,
      -0.050040680915117264,
      -0.03227558732032776,
      0.042489707469940186,
      -0.05815780907869339,
      -0.037769753485918045,
      0.04766792804002762,
      0.031737156212329865,
      -0.003118138760328293,
      -0.05739501491189003,
      -0.03934494033455849,
      -0.039845168590545654,
      0.020303435623645782,
      0.08439961075782776,
      0.08288543671369553,
      -0.006480850279331207,
      -0.032019734382629395,
      0.045852527022361755,
      0.039142906665802,
      0.05865027755498886,
      -0.05229571461677551,
      -0.03436309099197388,
      -0.01732080802321434,
      0.07378552854061127,
      -0.05785708874464035,
      -0.04407016187906265,
      0.04307541251182556,
      -0.02605474181473255,
      -0.10037137567996979,
      0.011334313079714775,
      -0.05370740965008736,
      0.006069333758205175,
      0.003113720566034317,
      -0.013096512295305729,
      0.03229518234729767,
      0.05243147164583206,
      0.015030983835458755,
      -0.11046954989433289,
      0.09486275166273117,
      -0.049750760197639465,
      0.023411627858877182,
      -0.006816874723881483,
      -0.0015837926184758544,
      0.02300531044602394,
      0.07055454701185226,
      0.040182340890169144,
      -0.06858046352863312,
      0.018599634990096092,
      0.0010677685495465994,
      0.047601550817489624,
      -0.044011153280735016,
      0.01498693972826004,
      0.12774433195590973,
      0.10128220170736313,
      0.1377139687538147,
      -0.07648985087871552,
      0.12952077388763428,
      -0.007991385646164417,
      0.08909998834133148,
      -0.02369566261768341,
      0.060209643095731735,
      -0.11159169673919678,
      0.08584422618150711,
      0.030256079509854317,
      0.021983813494443893,
      0.03090791590511799,
      0.12661361694335938,
      0.2331560254096985,
      -0.10502686351537704,
      -0.034565821290016174,
      -0.03819714114069939,
      0.07264720648527145,
      -0.08916594833135605,
      0.0012415389064699411,
      0.002500067465007305,
      0.08591555804014206,
      0.0026144846342504025,
      0.052511490881443024,
      0.10492048412561417,
      -0.04988526180386543,
      -0.10080856829881668,
      0.08842986822128296,
      -0.03145947307348251,
      -0.06055106967687607,
      -0.050422802567481995,
      0.025415578857064247,
      -0.010491819120943546,
      0.07874815165996552,
      0.09260772913694382,
      0.017113761976361275,
      0.032085567712783813,
      -0.06737109273672104,
      0.011239089071750641,
      0.09116338193416595,
      0.06869550794363022,
      0.010244814679026604,
      0.05754626542329788,
      0.08607576787471771,
      -0.0173947736620903,
      -0.020131193101406097,
      0.04834485426545143,
      0.06871861219406128,
      -0.1457107961177826,
      0.18001192808151245,
      -0.07007677853107452,
      0.13580666482448578,
      -0.08332838863134384,
      0.3313432037830353,
      -0.3150929808616638,
      0.34703347086906433,
      0.3483906686306,
      0.13457441329956055,
      0.2716197967529297,
      0.029365582391619682,
      0.07288574427366257,
      0.07301048189401627,
      -0.0027370555326342583,
      -0.13188780844211578,
      -0.18622978031635284,
      0.20733314752578735,
      -0.054577894508838654,
      -0.032438088208436966,
      -0.23968444764614105,
      -0.21396471560001373,
      0.1349610537290573,
      0.20986725389957428,
      0.06412190943956375,
      0.3088013231754303,
      -0.21148799359798431,
      0.08980681747198105,
      -0.1491493135690689,
      0.01919534243643284,
      0.10154992341995239,
      0.058392975479364395,
      0.4130646288394928,
      -0.07582474499940872,
      0.0075016990303993225,
      0.04784117266535759,
      -0.10087761282920837,
      0.2759620249271393,
      -0.03110799752175808,
      -0.07737167179584503,
      -0.04724632948637009,
      0.1611381620168686,
      -0.1349387764930725,
      -0.13084223866462708,
      0.029855241999030113,
      -0.12286054342985153,
      -0.13332967460155487,
      0.01076255738735199,
      0.027225809171795845,
      0.08469440042972565,
      -0.03344860300421715,
      0.30825671553611755,
      0.16415630280971527,
      0.045346152037382126,
      0.1312626600265503,
      0.05429574102163315,
      0.20330315828323364,
      -0.004346328321844339,
      0.00462532602250576,
      -0.02332504838705063,
      0.011140082962810993,
      0.016437916085124016,
      0.042888570576906204,
      0.048862311989068985,
      0.07627230882644653,
      -0.05790615826845169,
      -0.0964304506778717,
      0.011160279624164104,
      0.06629016250371933,
      0.006997864227741957,
      0.07120244204998016,
      -0.0008966689929366112,
      0.08957139402627945,
      0.11861301958560944,
      0.1406594216823578,
      0.004594010300934315,
      0.004488947335630655,
      -0.008698320016264915,
      0.08650922030210495,
      -0.0025756685063242912,
      -0.03421469032764435,
      -0.06356582045555115,
      -0.043613236397504807,
      -0.050925929099321365,
      -0.07850966602563858,
      0.029715219512581825,
      0.007376859895884991,
      -0.08099532127380371,
      0.10730358213186264,
      0.030123649165034294,
      -0.0038826612289994955,
      0.01758279837667942,
      -0.017295051366090775,
      -0.0517413355410099,
      0.047167979180812836,
      0.0401572585105896,
      0.04673946648836136,
      0.027905944734811783,
      -0.09860262274742126,
      -0.0224298145622015,
      0.021443631500005722,
      0.02851196378469467,
      0.14699029922485352,
      -0.14382071793079376,
      -0.019237397238612175,
      -0.0788082629442215,
      -0.16865305602550507,
      -0.03497897461056709,
      -0.16936758160591125,
      -5.8775585785042495e-05,
      0.029352521523833275,
      -0.10096906125545502,
      0.13529792428016663,
      0.09617838263511658,
      0.0023496050853282213,
      -0.11140131950378418,
      0.1292886883020401,
      0.021623168140649796,
      -0.021654142066836357,
      0.05064860358834267,
      -0.019643304869532585,
      -0.0196087583899498,
      0.07657042145729065,
      0.09666366130113602,
      0.006151791661977768,
      -0.04257621988654137,
      0.04144856706261635,
      0.034818775951862335,
      0.07353853434324265,
      0.08005502074956894,
      0.1212645024061203,
      0.04815574735403061,
      -0.05366939306259155,
      0.04404252767562866,
      -0.04320352524518967,
      0.10199395567178726,
      -0.10411941260099411,
      0.08307638019323349,
      0.060242872685194016,
      -0.06810741126537323,
      0.15097008645534515,
      -0.10739541798830032,
      -0.01864779368042946,
      -0.06926487386226654,
      0.04874853044748306,
      0.13167141377925873,
      0.04272272437810898,
      -0.00555551378056407,
      -0.1415133774280548,
      -0.007371971383690834,
      0.021843204274773598,
      0.1737148016691208,
      -0.03495679795742035,
      -0.1130574569106102,
      -0.1372385323047638,
      0.17169912159442902,
      -0.15873102843761444,
      0.022672908380627632,
      0.11506963521242142,
      -0.09055878967046738,
      0.03004816360771656,
      -0.03915486857295036,
      -0.010047840885818005,
      0.014090289361774921,
      0.03151541203260422,
      -0.03693442419171333,
      -0.015379823744297028,
      -0.04308994859457016,
      0.03674228489398956,
      0.006616957485675812,
      0.02315228432416916,
      0.021689511835575104,
      -0.0011069141328334808,
      -0.01165725290775299,
      0.00762002170085907,
      0.028972163796424866,
      -0.0206427164375782,
      -0.04446182772517204,
      -0.015593152493238449,
      0.04607054591178894,
      0.03459169715642929,
      0.08706925809383392,
      0.006613024976104498,
      -0.012314006686210632,
      -0.013972543179988861,
      0.05569580942392349,
      -0.028730228543281555,
      0.03347691148519516,
      0.20922766625881195,
      0.01654357649385929,
      0.058185234665870667,
      0.09965928643941879,
      0.007418349385261536,
      0.057456351816654205,
      0.026392057538032532,
      -0.020174965262413025,
      0.058887217193841934,
      -0.02544661983847618,
      -0.026395445689558983,
      0.06031017005443573,
      0.051238518208265305,
      -0.13881608843803406,
      -0.0025630465243011713,
      0.04491230472922325,
      -0.06607736647129059,
      -0.08763936907052994,
      0.019322162494063377,
      0.018145157024264336,
      0.05149689316749573,
      0.0021237400360405445,
      0.054024819284677505,
      0.05174792557954788,
      0.09690327942371368,
      0.012005041353404522,
      -0.06024028733372688,
      -0.002986630192026496,
      -0.0484057292342186,
      0.022469306364655495,
      -0.026144657284021378,
      0.09107853472232819,
      -0.012540516443550587,
      0.01849355921149254,
      -0.03213897719979286,
      0.12554098665714264,
      0.011960039846599102,
      -0.055879171937704086,
      0.006002762354910374,
      0.02303774282336235,
      0.01398871373385191,
      0.021678974851965904,
      0.07804814726114273,
      -0.037505194544792175,
      0.06402301043272018,
      0.04710712283849716,
      0.05477769672870636,
      -0.0701010525226593,
      -0.04371451959013939,
      0.12537330389022827,
      -0.07439646124839783,
      0.06062723696231842,
      -0.028540000319480896,
      0.06519540399312973,
      0.11522521078586578,
      -0.07687006145715714,
      -0.016229774802923203,
      0.034945860505104065,
      -0.06286530196666718,
      -0.12014249712228775,
      0.08644573390483856,
      -0.09254741668701172,
      0.07487413287162781,
      0.11686979234218597,
      -0.04968990013003349,
      0.10815680772066116,
      -0.04851862043142319,
      0.0031918170861899853,
      0.0003874990507028997,
      0.1089610755443573,
      -0.009763741865754128,
      0.12509186565876007,
      0.048728097230196,
      -0.06823533028364182,
      -0.10565284639596939,
      -0.017772097140550613,
      0.10811758786439896,
      0.09859324246644974,
      -0.10375235974788666,
      0.07537443935871124,
      0.08008890599012375,
      -0.012739205732941628,
      0.04450225085020065,
      0.023769045248627663,
      0.05875225365161896,
      0.03521163761615753,
      0.08579756319522858,
      -0.12024706602096558,
      -0.44992610812187195,
      -0.2309211641550064,
      0.3058043122291565,
      0.4455465078353882,
      0.34552431106567383,
      -0.03708479180932045,
      0.09904477745294571,
      -0.03353472054004669,
      -0.3577393889427185,
      0.01804293319582939,
      0.147369384765625,
      0.07207328826189041,
      -0.3069526255130768,
      0.08549336344003677,
      -0.24407412111759186,
      0.2086513340473175,
      -0.051235128194093704,
      0.46325600147247314,
      -0.1257181167602539,
      -0.11451245099306107,
      -0.10733619332313538,
      0.20471763610839844,
      0.05773167312145233,
      0.10896481573581696,
      -0.18706387281417847,
      -0.280673086643219,
      0.4433923065662384,
      0.37285661697387695,
      0.06061158701777458,
      -0.025464273989200592,
      -0.18009774386882782,
      -0.13805519044399261,
      0.10515282303094864,
      0.10924623906612396,
      -0.06124782934784889,
      -0.02842286415398121,
      -0.10603837668895721,
      0.009362985379993916,
      -0.3046344518661499,
      -0.44549036026000977,
      -0.04476954787969589,
      0.4205274283885956,
      0.06834600865840912,
      0.14780843257904053,
      -0.32331231236457825,
      0.2955741584300995,
      0.1354883313179016,
      0.30384576320648193,
      0.06734094023704529,
      0.3437999486923218,
      0.06966295838356018,
      0.013141799718141556,
      0.1180633157491684,
      0.06782831996679306,
      -0.002616332145407796,
      -0.13833104074001312,
      0.012134718708693981,
      -0.03222555294632912,
      -0.09884456545114517,
      0.01978662610054016,
      0.06202364340424538,
      0.10618286579847336,
      -0.07298078387975693,
      -0.08245766907930374,
      0.13473163545131683,
      -0.019627466797828674,
      0.12788374722003937,
      -0.018778163939714432,
      0.02866978570818901,
      -0.07931390404701233,
      0.02187364362180233,
      0.0995948314666748,
      -0.03518252819776535,
      -0.04027535393834114,
      0.0040353271178901196,
      0.08725544065237045,
      0.012041964568197727,
      0.0009834381053224206,
      -0.12268850207328796,
      -0.019091593101620674,
      0.0615851990878582,
      -0.004298156592994928,
      0.1292184591293335,
      0.09582044184207916,
      -0.09966151416301727,
      -0.09105715155601501,
      -0.024304982274770737,
      0.10322752594947815,
      -0.037719178944826126,
      0.016531778499484062,
      0.13361746072769165,
      0.1226198747754097,
      0.025097113102674484,
      -0.08584848046302795,
      0.12110190838575363,
      -0.05088650435209274,
      0.09034931659698486,
      -0.1058763787150383,
      0.03826073557138443,
      -0.010061013512313366,
      -0.02812785655260086,
      -0.09683340042829514,
      0.033820971846580505,
      0.0009785030269995332,
      -0.05631538853049278,
      0.04411349445581436,
      0.06901350617408752,
      -0.025365008041262627,
      -0.043585892766714096,
      0.10748033225536346,
      0.03208145126700401,
      0.15587885677814484,
      -0.18195898830890656,
      0.08940838277339935,
      -0.24618002772331238,
      0.028035694733262062,
      -0.04265948757529259,
      0.053836945444345474,
      0.26243770122528076,
      0.11787914484739304,
      -0.12183857709169388,
      0.11400459706783295,
      -0.058660831302404404,
      -0.03214354068040848,
      0.012523771263659,
      0.011977040208876133,
      0.097708560526371,
      0.18084654211997986,
      0.07863090187311172,
      -0.0704948827624321,
      -0.03487387299537659,
      -0.11871486157178879,
      0.08117622882127762,
      -0.03470008447766304,
      -0.02101135440170765,
      0.008460061624646187,
      0.16819578409194946,
      0.052933886647224426,
      0.03077341988682747,
      0.018603842705488205,
      0.16742871701717377,
      -0.059324149042367935,
      -0.05267797410488129,
      -0.028195837512612343,
      0.02297341823577881,
      0.13884082436561584,
      -0.044078148901462555,
      -0.06282395869493484,
      -0.11575952917337418,
      -0.11616368591785431,
      -0.19580891728401184,
      0.03945464268326759,
      0.018214644864201546,
      0.025692632421851158,
      0.002328793052583933,
      -0.0536089763045311,
      0.0298830084502697,
      0.013041507452726364,
      0.05807135999202728,
      -0.01697131246328354,
      -0.02632327377796173,
      0.013650290668010712,
      0.03789692372083664,
      0.030588306486606598,
      -0.03987140953540802,
      0.03847616910934448,
      -0.04511440172791481,
      0.04591648280620575,
      -0.05573572963476181,
      -0.022928006947040558,
      0.006749145686626434,
      0.02111578732728958,
      -0.059694841504096985,
      -0.0205395445227623,
      -0.03040779009461403,
      0.017976418137550354,
      -0.000915405573323369,
      0.0008564554154872894,
      0.02754196524620056,
      0.003913700580596924,
      0.0027347207069396973,
      -0.05528858304023743,
      0.04943987727165222,
      0.06450961530208588,
      -0.055088020861148834,
      0.02311251126229763,
      -0.015368476510047913,
      0.02814006805419922,
      -0.028659343719482422,
      -0.027051003649830818,
      -0.0027340713422745466,
      -0.012057965621352196,
      0.012692338787019253,
      -0.0452573299407959,
      0.08715128898620605,
      -0.020602108910679817,
      -0.10757483541965485,
      -0.10626140236854553,
      -0.10539528727531433,
      -0.02291516587138176,
      0.058408286422491074,
      -0.003057326190173626,
      0.012888796627521515,
      -0.03584963083267212,
      0.11264552921056747,
      0.053255703300237656,
      0.1267903745174408,
      -0.05966142192482948,
      0.06375297904014587,
      -0.12640438973903656,
      0.1098145917057991,
      0.0018557679140940309,
      0.007059668656438589,
      -0.0454268753528595,
      0.05963658541440964,
      0.18853497505187988,
      0.06534627079963684,
      0.047063812613487244,
      0.11178664118051529,
      0.05142001435160637,
      0.04728445038199425,
      -0.0489995963871479,
      -0.02148323506116867,
      0.10541238635778427,
      -0.018649864941835403,
      0.11950405687093735,
      0.006098587065935135,
      -0.012808422558009624,
      -0.10057039558887482,
      -0.016812434419989586,
      0.029108326882123947,
      -0.04306954890489578,
      0.17469091713428497,
      0.12786518037319183,
      0.05191723257303238,
      -0.0323960967361927,
      0.08835259824991226,
      0.014067096635699272,
      0.1084294244647026,
      0.0563068613409996,
      0.010366315953433514,
      0.03539486974477768,
      0.06919366121292114,
      -0.09701228886842728,
      0.08323617279529572,
      0.21610774099826813,
      -0.040319111198186874,
      -0.052063193172216415,
      -0.02712102234363556,
      0.048601992428302765,
      0.10547437518835068,
      0.11748948693275452,
      -0.0372132733464241,
      0.008673652075231075,
      0.13012894988059998,
      0.05851094797253609,
      -0.018988126888871193,
      0.16862981021404266,
      0.01991548016667366,
      0.12780557572841644,
      -0.13022172451019287,
      -0.05552225187420845,
      0.16835597157478333,
      0.023254219442605972,
      -0.07820764929056168,
      -0.06375599652528763,
      -0.022990230470895767,
      0.1266573965549469,
      -0.006722727324813604,
      0.3480938673019409,
      0.03794165328145027,
      0.20714910328388214,
      0.34497302770614624,
      0.2725147008895874,
      -0.1598339080810547,
      0.26983216404914856,
      -0.0656130462884903,
      0.05443352460861206,
      -0.12004385888576508,
      -0.2306109219789505,
      0.3040216565132141,
      0.147231787443161,
      0.1002231240272522,
      -0.3624444603919983,
      0.16589397192001343,
      0.1430627703666687,
      0.11643756181001663,
      -0.15963824093341827,
      0.1458689123392105,
      0.051343630999326706,
      -0.0011628385400399566,
      0.0034023411571979523,
      0.06241990998387337,
      -0.05860639363527298,
      -0.10086068511009216,
      0.021418606862425804,
      0.03989054635167122,
      0.3375962972640991,
      -0.24739329516887665,
      0.05689017474651337,
      0.05935622379183769,
      -0.03141704574227333,
      -0.05461033806204796,
      -0.2813183069229126,
      0.3054100573062897,
      0.20663687586784363,
      -0.16484497487545013,
      0.020923471078276634,
      -0.059867262840270996,
      0.2588654160499573,
      0.17477624118328094,
      -0.11326316744089127,
      0.18603095412254333,
      0.024117862805724144,
      0.1269487589597702,
      -0.006538086570799351,
      0.013234435580670834,
      0.12144356966018677,
      0.13685280084609985,
      0.0980343446135521,
      0.16223183274269104,
      -0.07016177475452423,
      -0.014360494911670685,
      0.03673891723155975,
      -0.06723672151565552,
      0.0050352709367871284,
      0.0722765326499939,
      0.018645280972123146,
      0.020673558115959167,
      -0.06862836331129074,
      0.055253274738788605,
      0.031486544758081436,
      -0.14525634050369263,
      -0.16099154949188232,
      0.011053097434341908,
      0.1044754907488823,
      -0.011579330079257488,
      -0.011096075177192688,
      0.04197530820965767,
      0.059036899358034134,
      -0.014314605854451656,
      -0.01485765166580677,
      0.07359404861927032,
      0.030179180204868317,
      0.01857772469520569,
      0.05710456892848015,
      0.06575024127960205,
      -0.05248533561825752,
      -0.01736682467162609,
      -0.054167263209819794,
      0.08669160306453705,
      -0.06927060335874557,
      0.020127341151237488,
      0.1295248568058014,
      0.03987376019358635,
      0.19529664516448975,
      -0.04150518774986267,
      -0.028270060196518898,
      0.12829457223415375,
      -0.031967826187610626,
      0.20964530110359192,
      -0.024660710245370865,
      0.0694110095500946,
      -0.023247387260198593,
      -0.08549854159355164,
      -0.031246593222022057,
      -0.026417123153805733,
      0.04334888607263565,
      0.020012278109788895,
      0.012268194928765297,
      0.03403271362185478,
      -0.09889543801546097,
      -0.09596859663724899,
      -0.09546957910060883,
      -0.022221233695745468,
      -0.07118571549654007,
      0.06603927910327911,
      -0.12586364150047302,
      -0.0499480701982975,
      -0.07119470089673996,
      0.08000695705413818,
      -0.11507660895586014,
      -0.030066117644309998,
      0.023338686674833298,
      -0.026646031066775322,
      0.02430073916912079,
      -0.017869552597403526,
      0.01858372800052166,
      0.07285092025995255,
      -0.12736652791500092,
      -0.035270653665065765,
      0.025910625234246254,
      0.03535015881061554,
      0.01762501522898674,
      0.043185941874980927,
      0.05850421264767647,
      0.08347859978675842,
      -0.07163063436746597,
      0.049157653003931046,
      0.050805624574422836,
      -0.018793201074004173,
      -0.061856627464294434,
      0.07639411836862564,
      0.023589879274368286,
      -0.09142915159463882,
      0.01953583024442196,
      -0.016653550788760185,
      0.026243671774864197,
      -0.15349870920181274,
      0.07208885997533798,
      0.11859184503555298,
      0.007484264671802521,
      0.06725508719682693,
      0.03840113803744316,
      -0.05848876014351845,
      -0.021846063435077667,
      0.03748784586787224,
      -0.15813179314136505,
      -0.00435379333794117,
      -0.07522068917751312,
      0.034454017877578735,
      0.07730922847986221,
      -0.11708150058984756,
      -0.1404579132795334,
      0.22786341607570648,
      -0.005927132908254862,
      0.002696151379495859,
      0.09458089619874954,
      -0.03943949192762375,
      -0.015157617628574371,
      -0.015610158443450928,
      0.04807598888874054,
      -0.0014875493943691254,
      0.01537487655878067,
      -0.05691342055797577,
      -0.03767966479063034,
      0.00957787036895752,
      0.057326145470142365,
      0.049116574227809906,
      0.03611111640930176,
      -0.03332134336233139,
      -0.05788469314575195,
      -0.04337884485721588,
      -0.039365507662296295,
      -0.04784967377781868,
      -0.02556288056075573,
      -0.02584836073219776,
      -0.02317224070429802,
      -0.051883064210414886,
      -0.027646638453006744,
      0.03889000415802002,
      0.026329755783081055,
      0.17798545956611633,
      0.036073531955480576,
      0.010922089219093323,
      0.14185991883277893,
      -0.0049492791295051575,
      0.003803268074989319,
      0.011482089757919312,
      0.021171608939766884,
      -0.013520320877432823,
      -0.019170092418789864,
      0.056237053126096725,
      -0.04297322779893875,
      0.0657205805182457,
      0.053772903978824615,
      -0.09748658537864685,
      0.06575039774179459,
      0.0028049347456544638,
      -0.015018765814602375,
      -0.05372545123100281,
      0.020855465903878212,
      0.06830724328756332,
      0.03595371171832085,
      0.023498233407735825,
      0.05093696713447571,
      0.1322701871395111,
      -0.02703222446143627,
      0.0666087344288826,
      0.004550775978714228,
      0.032940614968538284,
      0.02687634527683258,
      -0.06769010424613953,
      0.0827406719326973,
      0.013265840709209442,
      -0.13022182881832123,
      -0.15447326004505157,
      -0.031487882137298584,
      0.01538036484271288,
      -0.038122065365314484,
      0.058322831988334656,
      0.07973860949277878,
      -0.018046870827674866,
      0.011595158837735653,
      0.015646658837795258,
      -0.06306609511375427,
      0.05349723994731903,
      -0.010277769528329372,
      -0.10248897969722748,
      -0.10825733840465546,
      0.07830677181482315,
      0.10872651636600494,
      0.10858423262834549,
      -0.07044152915477753,
      -0.021639782935380936,
      -0.028523121029138565,
      -0.02542421966791153,
      -0.09800891578197479,
      0.14271633327007294,
      0.06903421133756638,
      0.03605661541223526,
      -0.06830433756113052,
      -0.10149221122264862,
      -0.09197801351547241,
      -0.02019432745873928,
      0.009746410883963108,
      0.12100456655025482,
      0.05833050236105919,
      0.02836514636874199,
      0.06933985650539398,
      0.04061708599328995,
      -0.22740072011947632,
      0.09152650833129883,
      -0.0045569962821900845,
      0.050982363522052765,
      -0.14604729413986206,
      0.11285846680402756,
      -0.06185242161154747,
      0.029598282650113106,
      -0.004945874679833651,
      -0.012490046210587025,
      -0.04242164269089699,
      0.03668883442878723,
      0.06694800406694412,
      0.02059718780219555,
      0.06261108070611954,
      0.04682959243655205,
      -0.012231485918164253,
      -0.08373040705919266,
      -0.2469661384820938,
      -0.07778428494930267,
      -0.3672054409980774,
      0.07960531115531921,
      -0.3652610182762146,
      0.29935789108276367,
      0.11362911015748978,
      -0.28238874673843384,
      0.11753945797681808,
      -0.13015301525592804,
      0.39231741428375244,
      -0.06708347797393799,
      0.10685154795646667,
      0.5662258267402649,
      -0.12443724274635315,
      0.12252732366323471,
      -0.3276682496070862,
      -0.35649755597114563,
      -0.24820691347122192,
      0.03728673234581947,
      -0.001498635159805417,
      -0.04589188098907471,
      0.06846120953559875,
      0.24796056747436523,
      0.17874029278755188,
      0.06455795466899872,
      -0.050148386508226395,
      -0.10538404434919357,
      -0.03642388805747032,
      -0.07352700084447861,
      0.16570456326007843,
      0.093329519033432,
      0.3424943685531616,
      -0.07323716580867767,
      -0.2600663900375366,
      0.001560001284815371,
      -0.04897055774927139,
      -0.0715261921286583,
      0.05456409603357315,
      -0.45969244837760925,
      0.2600249946117401,
      -0.03384524956345558,
      0.1805105060338974,
      0.2550540566444397,
      -0.006563965696841478,
      0.2548498511314392,
      0.0025484811048954725,
      0.28274035453796387,
      0.27324092388153076,
      -0.12596820294857025,
      -0.015180562622845173,
      0.02887512743473053,
      0.06065180152654648,
      0.0162622332572937,
      0.026526881381869316,
      -0.003290730994194746,
      0.04927179589867592,
      -0.08743278682231903,
      0.007933284156024456,
      0.1342848539352417,
      -0.0009695861372165382,
      -0.017726784572005272,
      -0.17459291219711304,
      0.10378511250019073,
      0.07029873132705688,
      -0.07193613797426224,
      0.04028654471039772,
      0.023359453305602074,
      0.017377076670527458,
      0.19436883926391602,
      0.08537615090608597,
      -0.06980420649051666,
      0.026537803933024406,
      0.10472499579191208,
      0.009246022440493107,
      -0.1397816240787506,
      -0.05628083646297455,
      -0.029360005632042885,
      -0.08403923362493515,
      0.028069382533431053,
      -0.009326115250587463,
      -0.026021070778369904,
      0.024338437244296074,
      -0.038665324449539185,
      0.00022332841763272882,
      0.01990284025669098,
      0.13099020719528198,
      0.1659468561410904,
      0.032750777900218964,
      -0.0010059564374387264,
      -0.05168361961841583,
      0.2216857373714447,
      0.0533272810280323,
      0.0074981581419706345,
      -0.11933500319719315,
      -0.032283782958984375,
      0.01249522715806961,
      0.04201676696538925,
      -0.004770120605826378,
      -0.14445428550243378,
      -0.12860924005508423,
      -0.00447050528600812,
      -0.06713163107633591,
      0.015971511602401733,
      0.06975234299898148,
      0.18934603035449982,
      -0.12088272720575333,
      0.11192836612462997,
      0.15652786195278168,
      0.1315138041973114,
      -0.16908766329288483,
      0.10653278976678848,
      0.20927192270755768,
      0.2441415935754776,
      0.057930994778871536,
      -0.10296791791915894,
      -0.14469575881958008,
      0.0008703325293026865,
      0.19513891637325287,
      0.05059540271759033,
      0.016633545979857445,
      -0.009904914535582066,
      -0.04663431644439697,
      -0.04642539098858833,
      0.01417375449091196,
      -0.037745993584394455,
      0.06658313423395157,
      -0.08174274116754532,
      -0.010473432950675488,
      -0.07936115562915802,
      0.024505317211151123,
      -0.03808904439210892,
      -0.0928410217165947,
      0.06792356818914413,
      0.07515203952789307,
      -0.02681633271276951,
      0.027246609330177307,
      0.06467378884553909,
      -0.08101825416088104,
      0.04341113939881325,
      -0.04213378578424454,
      0.017087029293179512,
      -0.0695715844631195,
      -0.006485858932137489,
      -0.03732053190469742,
      0.005920770112425089,
      -0.12999442219734192,
      0.1615190953016281,
      0.1038217544555664,
      0.03595744073390961,
      0.07070320099592209,
      -0.03435350954532623,
      -0.08346179872751236,
      0.031816303730010986,
      -0.07993650436401367,
      -0.07368099689483643,
      -0.003941845614463091,
      -0.13691076636314392,
      0.0030745842959731817,
      0.034091755747795105,
      0.05633776634931564,
      -0.009203068912029266,
      0.018422454595565796,
      -0.0003465414047241211,
      0.026146933436393738,
      -0.019991006702184677,
      -0.001814909279346466,
      -0.035816363990306854,
      -0.012185826897621155,
      -0.05396595969796181,
      0.009638398885726929,
      0.04814869165420532,
      0.04977552592754364,
      0.016755908727645874,
      -0.04454464837908745,
      -0.005647577345371246,
      0.0751008689403534,
      0.00031758524710312486,
      -0.030593266710639,
      -0.009134575724601746,
      -0.04164281114935875,
      -0.009877067059278488,
      0.055570244789123535,
      0.024731295183300972,
      -0.037202440202236176,
      0.0007511153817176819,
      -0.027150185778737068,
      -0.023196101188659668,
      0.05200749635696411,
      -0.01238849014043808,
      0.038506630808115005,
      0.0803518146276474,
      0.02053150348365307,
      0.07520219683647156,
      -0.029177729040384293,
      -0.024267790839076042,
      -0.01408420316874981,
      -0.008594647981226444,
      -0.03488010913133621,
      -0.022520264610648155,
      0.05951125547289848,
      -0.0004753371758852154,
      0.03068137727677822,
      0.043089888989925385,
      0.03438515216112137,
      -0.03269452229142189,
      -0.01541101559996605,
      0.028112543746829033,
      0.0889613926410675,
      -0.015534444712102413,
      0.11211109906435013,
      -0.05785266309976578,
      -0.05850668624043465,
      0.0504012331366539,
      0.1276182234287262,
      0.031030505895614624,
      -0.05715034529566765,
      -0.2539084851741791,
      -0.0315638966858387,
      -0.013139954768121243,
      0.08134131878614426,
      -0.03337353840470314,
      -0.028675511479377747,
      0.1971072554588318,
      -0.0032333864364773035,
      0.02983093075454235,
      -0.006080603692680597,
      0.11128169298171997,
      0.012193063274025917,
      0.029082637280225754,
      -0.09016260504722595,
      -0.07856082916259766,
      -0.042047277092933655,
      -0.02693500928580761,
      0.11385167390108109,
      0.05537555366754532,
      -0.008784309960901737,
      0.056214846670627594,
      0.10482221096754074,
      -0.008822263218462467,
      0.061932001262903214,
      -0.012817978858947754,
      -0.1170065626502037,
      0.013602574355900288,
      0.02829127199947834,
      -0.09627549350261688,
      -0.007364080287516117,
      0.08382266759872437,
      0.06432002782821655,
      -0.09806662052869797,
      0.04400797188282013,
      0.019692542031407356,
      0.07535992562770844,
      0.07243039458990097,
      0.028444791212677956,
      0.05397363007068634,
      0.031478606164455414,
      -0.03041394054889679,
      -0.00696787191554904,
      0.017467595636844635,
      -0.09173662215471268,
      0.06849784404039383,
      0.10987856984138489,
      -0.04649382457137108,
      0.0385480597615242,
      -0.012312829494476318,
      0.05928089842200279,
      0.02417902648448944,
      0.032849978655576706,
      0.04312339797616005,
      -0.26022419333457947,
      -0.3131771385669708,
      0.4731144309043884,
      0.18729770183563232,
      -0.4398534595966339,
      -0.1771504282951355,
      -0.280317485332489,
      0.018594281747937202,
      -0.18820443749427795,
      0.14722511172294617,
      0.316545307636261,
      0.25286945700645447,
      -0.18475034832954407,
      0.20629501342773438,
      0.302391916513443,
      0.07788096368312836,
      -0.02928847447037697,
      0.06975483894348145,
      0.23328110575675964,
      0.14371120929718018,
      -0.0504799447953701,
      -0.11558897793292999,
      -0.27590593695640564,
      0.33478009700775146,
      0.10433865338563919,
      0.03517726808786392,
      0.29523414373397827,
      0.17225834727287292,
      -0.14801406860351562,
      0.12042368948459625,
      0.055220719426870346,
      0.23347105085849762,
      0.22168171405792236,
      0.1265498846769333,
      -0.06421804428100586,
      -0.04669513180851936,
      0.28784337639808655,
      -0.0335228331387043,
      -0.04774193838238716,
      0.2519972026348114,
      -0.1756805181503296,
      -0.053822048008441925,
      0.2555837035179138,
      -0.07447563111782074,
      -0.10596142709255219,
      -0.4352410137653351,
      -0.2130846083164215,
      0.18246734142303467,
      0.2367042601108551,
      0.3106064796447754,
      -0.14326563477516174,
      0.1291600614786148,
      0.0366189107298851,
      -0.0606113038957119,
      0.04488760232925415,
      -0.005512565840035677,
      0.12600383162498474,
      0.14149044454097748,
      0.0693107545375824,
      0.022834589704871178,
      0.07036694884300232,
      -0.07583283632993698,
      -0.024279199540615082,
      -0.048906635493040085,
      0.071387879550457,
      0.04391441494226456,
      0.012774874456226826,
      0.11881718784570694,
      0.09311135113239288,
      -0.05446081608533859,
      -0.08454696089029312,
      0.033773716539144516,
      0.1636362075805664,
      -0.04328073561191559,
      0.1371021270751953,
      -0.17895819246768951,
      -0.12001575529575348,
      -0.06367414444684982,
      -0.06568562984466553,
      0.04494660347700119,
      0.08587145805358887,
      -0.001467062276788056,
      0.08169945329427719,
      0.0806964635848999,
      -0.09103738516569138,
      -0.08163398504257202,
      -0.030420633032917976,
      -0.0007873525028117001,
      -0.0896933451294899,
      -0.1127948984503746,
      0.012842349708080292,
      -0.03617464005947113,
      0.050556279718875885,
      -0.06038727983832359,
      -0.016543744131922722,
      -0.010887370444834232,
      0.10866475105285645,
      0.05464782565832138,
      0.06235666573047638,
      -0.03256024420261383,
      -0.0679890587925911,
      -0.13111701607704163,
      0.060492005199193954,
      -0.01602330058813095,
      0.05071994662284851,
      0.11495078355073929,
      -0.14997580647468567,
      0.08943910151720047,
      0.10104437172412872,
      0.2026413381099701,
      -0.060339681804180145,
      0.13368646800518036,
      0.013151470571756363,
      0.17108863592147827,
      0.12142334133386612,
      0.05318160355091095,
      0.08848400413990021,
      -0.006090006325393915,
      -0.04808974638581276,
      0.07705015689134598,
      0.01989850401878357,
      0.06726791709661484,
      -0.2997400462627411,
      -0.014674781821668148,
      -0.07431591302156448,
      0.14916090667247772,
      0.0784933939576149,
      -0.11586413532495499,
      0.060355786234140396,
      -0.07255800813436508,
      0.2691413462162018,
      0.007356511894613504,
      0.0725911483168602,
      -0.02823786623775959,
      0.14686495065689087,
      0.06659066677093506,
      -0.007336859591305256,
      -0.023640355095267296,
      0.08164151757955551,
      -0.10566090047359467,
      -0.10937745869159698,
      0.004158386494964361,
      0.005758048966526985,
      0.0031661742832511663,
      -0.1969587206840515,
      -0.016339201480150223,
      -0.1619332730770111,
      0.0675637349486351,
      0.0016249248292297125,
      0.16012823581695557,
      -0.003297962713986635,
      0.018011538311839104,
      -0.036093104630708694,
      -0.0033170392271131277,
      -0.030304623767733574,
      -0.21840739250183105,
      -0.19296729564666748,
      0.08221408724784851,
      0.16420181095600128,
      0.029753126204013824,
      0.004049427807331085,
      0.04909639060497284,
      -0.027414802461862564,
      0.00448569655418396,
      0.04547882080078125,
      -0.03450409322977066,
      -0.0522262305021286,
      -0.00491076335310936,
      0.03590823709964752,
      -0.033693112432956696,
      0.03301679342985153,
      -0.025169864296913147,
      0.014154203236103058,
      0.043822430074214935,
      -0.021082524210214615,
      0.035856619477272034,
      0.05973615497350693,
      0.09156961739063263,
      0.0351443737745285,
      -0.02570372447371483,
      0.030595563352108,
      -0.020018920302391052,
      0.0033443644642829895,
      0.0034952773712575436,
      0.0663754865527153,
      -0.02941735088825226,
      0.022012267261743546,
      0.039936549961566925,
      0.05122409015893936,
      -0.018533848226070404,
      -0.09012499451637268,
      0.01139998622238636,
      -0.004079289268702269,
      -0.01118108443915844,
      -0.0347403809428215,
      0.04850025847554207,
      -0.00181143160443753,
      0.0385444201529026,
      0.04912964627146721,
      0.05968814343214035,
      -0.04669082164764404,
      -0.02400895208120346,
      0.06157919019460678,
      -0.06782271713018417,
      0.0727221891283989,
      0.06955498456954956,
      0.18870235979557037,
      -0.02974429726600647,
      0.0610622838139534,
      -0.03125884011387825,
      0.020065804943442345,
      -0.08021651208400726,
      -0.11163504421710968,
      0.12237787246704102,
      0.039450835436582565,
      0.1395488977432251,
      -0.031738512217998505,
      -0.04973304271697998,
      0.02603827603161335,
      -3.619060225901194e-05,
      -0.007164339069277048,
      0.023853812366724014,
      0.13265907764434814,
      0.020765600726008415,
      0.11417318135499954,
      0.0727497786283493,
      -0.06889317184686661,
      0.09678703546524048,
      0.127198725938797,
      -0.07620172202587128,
      0.11276876926422119,
      -0.06590059399604797,
      0.01365178357809782,
      -0.06560949981212616,
      -0.01595098339021206,
      0.1216307207942009,
      0.051846884191036224,
      0.1336335688829422,
      -0.07669110596179962,
      -0.06978175044059753,
      0.05616404488682747,
      0.009224819019436836,
      0.00538879306986928,
      0.004464125260710716,
      -0.038640089333057404,
      0.08168567717075348,
      0.009664954617619514,
      -0.07799836248159409,
      -0.02953566610813141,
      0.01028912141919136,
      -0.01867889054119587,
      0.13198049366474152,
      0.14558762311935425,
      0.011716129258275032,
      0.007430665194988251,
      0.058285459876060486,
      -0.019120190292596817,
      0.011010094545781612,
      -0.08635549992322922,
      0.05182432383298874,
      0.007933923043310642,
      -0.173064187169075,
      0.08455751836299896,
      0.12550926208496094,
      0.10006024688482285,
      0.0818663164973259,
      -0.027401268482208252,
      0.09524425864219666,
      -0.11726564168930054,
      0.10786454379558563,
      0.24317854642868042,
      0.3196135461330414,
      0.14874549210071564,
      0.28402140736579895,
      0.5478990077972412,
      0.1550624966621399,
      -0.12938959896564484,
      0.22461789846420288,
      0.049098026007413864,
      0.06332727521657944,
      0.060726724565029144,
      0.04784980043768883,
      0.00948671717196703,
      0.2154039442539215,
      -0.16966032981872559,
      0.38365915417671204,
      0.008157513104379177,
      0.36477577686309814,
      -0.1939702033996582,
      0.1020432859659195,
      -0.2828112244606018,
      -0.342642605304718,
      0.13314026594161987,
      0.08755052834749222,
      0.24742333590984344,
      -0.0066285827197134495,
      0.26754364371299744,
      -0.02547387406229973,
      0.013927626423537731,
      -0.006173125933855772,
      0.1395246386528015,
      -0.0699579119682312,
      0.13754427433013916,
      -0.01854066364467144,
      0.1143898069858551,
      -0.036111027002334595,
      -0.24444587528705597,
      -0.0012337751686573029,
      -0.0791887491941452,
      -0.09522408246994019,
      -0.36409643292427063,
      0.008608770556747913,
      0.2890005111694336,
      0.1514049768447876,
      0.1943735033273697,
      0.30428534746170044,
      0.022807957604527473,
      -0.07218929380178452,
      0.09988987445831299,
      0.09937553107738495,
      -0.06443923711776733,
      -0.13184349238872528,
      0.07250645011663437,
      0.011215290986001492,
      -0.06029714271426201,
      -0.03878073766827583,
      -0.12423791736364365,
      -0.07205839455127716,
      0.014700966887176037,
      -0.018837470561265945,
      0.033704619854688644,
      -0.10213802754878998,
      -0.02166569046676159,
      -0.013092749752104282,
      -0.016691133379936218,
      -0.09097200632095337,
      0.08140869438648224,
      -0.05014967918395996,
      0.05236286297440529,
      -0.027486121281981468,
      0.07390008121728897,
      0.01136197429150343,
      0.10534195601940155,
      0.02967258170247078,
      -0.05372307449579239,
      0.043940067291259766,
      -0.005294045899063349,
      0.07614224404096603,
      -0.00813972856849432,
      0.020514801144599915,
      -0.02347809262573719,
      0.03887754678726196,
      -0.12119386345148087,
      0.09248558431863785,
      0.06399939209222794,
      0.03279701992869377,
      0.038209542632102966,
      0.028502974659204483,
      0.010848402045667171,
      0.0660228580236435,
      0.10248924791812897,
      0.012445738539099693,
      0.1844276487827301,
      -0.04258369654417038,
      -0.026284199208021164,
      0.08178182691335678,
      -0.030694084241986275,
      0.004049738869071007,
      -0.008496535010635853,
      0.11672627180814743,
      0.04328009486198425,
      0.03352039307355881,
      -0.023531878367066383,
      0.0038005998358130455,
      0.03688545525074005,
      0.007997100241482258,
      -0.22622422873973846,
      0.03324243053793907,
      0.08193231374025345,
      0.021779915317893028,
      -0.21875959634780884,
      0.013998359441757202,
      0.009321396239101887,
      -0.12038485705852509,
      -0.013756432570517063,
      -0.16358669102191925,
      -0.2058132290840149,
      0.06478749960660934,
      0.11877437680959702,
      0.057917091995477676,
      -0.15158145129680634,
      0.06553078442811966,
      -0.0059874714352190495,
      -0.004891307093203068,
      0.06989308446645737,
      0.037898339331150055,
      -0.002124486956745386,
      -0.0071950373239815235,
      0.030480453744530678,
      -0.09038574248552322,
      0.07618482410907745,
      -0.17825062572956085,
      0.18583470582962036,
      -0.10599526762962341,
      -0.08546006679534912,
      -0.060613274574279785,
      -0.05485983192920685,
      0.0849972814321518,
      0.06616012006998062,
      0.061211079359054565,
      0.06405159831047058,
      0.11976602673530579,
      0.15488143265247345,
      -0.06143556162714958,
      -0.17721380293369293,
      0.06861050426959991,
      -0.1099395751953125,
      0.029731757938861847,
      0.04324469715356827,
      0.05810057744383812,
      -0.0256073996424675,
      0.07280848175287247,
      -0.030299417674541473,
      -0.18048754334449768,
      0.06775648146867752,
      0.15332791209220886,
      0.08613553643226624,
      -0.03302685171365738,
      0.19047456979751587,
      -0.03031100332736969,
      0.016894802451133728,
      0.022518351674079895,
      -0.018345728516578674,
      0.015899814665317535,
      -0.009202010929584503,
      -0.05991778522729874,
      -0.03121715411543846,
      -0.0005042850971221924,
      0.0600743293762207,
      -0.04570863023400307,
      -0.015861880034208298,
      -0.0348835363984108,
      0.047537222504615784,
      0.0007953345775604248,
      0.05122584104537964,
      -0.018538281321525574,
      0.011201465502381325,
      -0.009813078679144382,
      -0.04897208511829376,
      0.008726246654987335,
      0.03171516954898834,
      -0.030038263648748398,
      -0.054882586002349854,
      0.09202305227518082,
      0.07383608818054199,
      0.00920151174068451,
      0.1304614394903183,
      -0.03591056168079376,
      -0.002609308809041977,
      -0.04857628792524338,
      -0.10634994506835938,
      0.011268503032624722,
      0.04422305151820183,
      0.003495278535410762,
      -0.12047542631626129,
      -0.12932616472244263,
      -0.11132417619228363,
      0.028701677918434143,
      -0.041287750005722046,
      -0.10236974060535431,
      -0.027710406109690666,
      -0.0031827848870307207,
      -0.03030179999768734,
      0.026012979447841644,
      -0.014578808099031448,
      -0.11328480392694473,
      -0.1855422705411911,
      0.08192507177591324,
      -0.024474862962961197,
      -0.149125337600708,
      0.16834712028503418,
      0.07665926963090897,
      -0.009197485633194447,
      -0.0325859859585762,
      -0.07152514904737473,
      -0.08545686304569244,
      0.00991134811192751,
      -0.06116373836994171,
      0.11592482775449753,
      0.008495796471834183,
      -0.0022316311951726675,
      0.0484977588057518,
      -0.022877691313624382,
      -0.18255174160003662,
      0.0188946183770895,
      0.10847906023263931,
      0.10925929248332977,
      0.08597780764102936,
      -0.03452311456203461,
      0.0999041423201561,
      -0.10853791981935501,
      0.0006578738684765995,
      -0.06163893640041351,
      0.0068372683599591255,
      -0.023318538442254066,
      0.08234986662864685,
      0.04340815171599388,
      0.057266198098659515,
      -0.0632844939827919,
      -0.0452105775475502,
      -0.06242848187685013,
      -0.037307776510715485,
      -0.09435634315013885,
      -0.07640593498945236,
      0.007956002838909626,
      0.01610049232840538,
      0.10449139773845673,
      -0.01086939312517643,
      0.08543404191732407,
      0.002662436803802848,
      0.04624413326382637,
      0.02751128375530243,
      0.019792895764112473,
      -0.07603362947702408,
      -0.015830229967832565,
      -0.003369692713022232,
      -0.0027696816250681877,
      0.0020252985414117575,
      0.038580961525440216,
      0.027510059997439384,
      -0.09730390459299088,
      0.02897004596889019,
      -0.02976793237030506,
      0.09654588997364044,
      -0.0804138034582138,
      0.12171947956085205,
      0.031354282051324844,
      -0.14609014987945557,
      0.09500835835933685,
      -0.032488126307725906,
      -0.326568603515625,
      0.07846508920192719,
      0.09175495058298111,
      0.03545867279171944,
      0.11246588081121445,
      0.07900641113519669,
      -0.045654673129320145,
      0.2885412871837616,
      0.0805969312787056,
      0.05006494000554085,
      0.015701884403824806,
      0.24120767414569855,
      0.1329483687877655,
      -0.09815151989459991,
      -0.10404165089130402,
      -0.04535745829343796,
      0.2119273692369461,
      -0.12250254303216934,
      -0.065467968583107,
      -0.06003929302096367,
      0.052043426781892776,
      -0.39562296867370605,
      -0.17623528838157654,
      0.07234803587198257,
      0.050897981971502304,
      0.08132392168045044,
      0.01573902741074562,
      -0.15236690640449524,
      -0.13271558284759521,
      0.33245527744293213,
      -0.23769886791706085,
      0.0539742037653923,
      0.3035076856613159,
      0.1387549638748169,
      0.1411939114332199,
      0.018880613148212433,
      0.1966843158006668,
      -0.04697621241211891,
      -0.11261401325464249,
      0.16051185131072998,
      0.23917701840400696,
      -0.17192073166370392,
      -0.10706032812595367,
      0.00732405437156558,
      0.28882983326911926,
      0.4014092683792114,
      0.3156340718269348,
      0.3212582468986511,
      -0.08238827437162399,
      -0.19948500394821167,
      -0.27688103914260864,
      -0.08214230090379715,
      0.055462948977947235,
      0.0849699154496193,
      0.05468115210533142,
      0.09950900822877884,
      0.030643831938505173,
      -0.024860506877303123,
      -0.010785768739879131,
      0.029012098908424377,
      0.027512477710843086,
      -0.03842149302363396,
      0.07153544574975967,
      -0.0023747964296489954,
      -0.04325270652770996,
      0.026583559811115265,
      0.06667838990688324,
      -0.021260207518935204,
      -0.004065966233611107,
      0.01720770075917244,
      -0.038036949932575226,
      0.10176465660333633,
      0.06677336990833282,
      -0.002193409251049161,
      0.142446830868721,
      -0.008816709741950035,
      0.04069702699780464,
      -0.018424538895487785,
      0.02369208261370659,
      0.025296222418546677,
      0.08000457286834717,
      -0.08930176496505737,
      0.10962970554828644,
      0.02482585608959198,
      -0.10983699560165405,
      0.035039983689785004,
      0.04328766092658043,
      0.02959667146205902,
      -0.04040048271417618,
      0.04590269923210144,
      0.0951550155878067,
      -0.015287656337022781,
      -0.034293774515390396,
      0.08184918016195297,
      0.09249857068061829,
      0.07260136306285858,
      -0.005615476984530687,
      -0.02487964928150177,
      -0.027153773233294487,
      -0.009675362147390842,
      0.08552834391593933,
      0.03417497128248215,
      0.07197032123804092,
      -0.0005509726470336318,
      0.10589143633842468,
      -0.10790252685546875,
      -0.04763578996062279,
      -0.131068617105484,
      0.1747273951768875,
      -0.12186217308044434,
      0.02140611596405506,
      -0.04003341868519783,
      0.09909383207559586,
      -0.014835046604275703,
      0.04861726984381676,
      0.04056635499000549,
      -0.08487535268068314,
      0.05884433910250664,
      0.07866302877664566,
      0.03262072429060936,
      0.07132302224636078,
      0.06447660177946091,
      -0.19055767357349396,
      0.11333964765071869,
      -0.14721305668354034,
      -0.0005515230004675686,
      0.012379768304526806,
      -0.12161803990602493,
      0.013320500031113625,
      0.09800321608781815,
      0.02599833346903324,
      -0.06942068040370941,
      0.14916931092739105,
      -0.1768801063299179,
      -0.1599523425102234,
      0.1460585594177246,
      0.05883786827325821,
      0.051553353667259216,
      -0.008102405816316605,
      0.09225518256425858,
      -0.019412701949477196,
      -0.10282346606254578,
      0.15365126729011536,
      0.01952248625457287,
      0.03795482590794563,
      0.010774203576147556,
      0.006668534129858017,
      -0.03700513765215874,
      -0.06944400817155838,
      0.1843840479850769,
      0.17493273317813873,
      -0.1439552903175354,
      -0.11027854681015015,
      0.0464145764708519,
      -0.07581284642219543,
      0.05515361204743385,
      0.12915602326393127,
      0.008997168391942978,
      0.08518882095813751,
      -0.0074871256947517395,
      0.03127903491258621,
      -0.04327041655778885,
      0.028405316174030304,
      0.03278033435344696,
      -0.03344954550266266,
      -0.05117860436439514,
      0.02786446362733841,
      -0.03623340278863907,
      -0.05624338611960411,
      -0.006349943578243256,
      0.00973646342754364,
      0.013752222061157227,
      0.003544650971889496,
      -0.05349120870232582,
      -0.04401092231273651,
      0.0291031152009964,
      -0.02330409735441208,
      0.018196124583482742,
      0.008433066308498383,
      0.04698048532009125,
      -0.051047224551439285,
      0.0515981987118721,
      0.033025383949279785,
      -0.01811562478542328,
      0.06051674112677574,
      0.04454999417066574,
      0.03236011415719986,
      0.032876573503017426,
      -0.05300389230251312,
      0.05666410177946091,
      -0.018804851919412613,
      0.0017473987536504865,
      -0.03807338699698448,
      0.03468761220574379,
      0.11995380371809006,
      -0.10974550992250443,
      -0.026408962905406952,
      -0.01444915123283863,
      0.11027113348245621,
      -0.012048568576574326,
      0.04692061245441437,
      0.005188280250877142,
      0.09419625997543335,
      -0.07553617656230927,
      0.04391954094171524,
      -0.03717056289315224,
      0.03854561969637871,
      -0.056536030024290085,
      -0.06736795604228973,
      -0.019803695380687714,
      0.16443714499473572,
      0.04097983241081238,
      0.06505433470010757,
      0.02398631162941456,
      0.017259376123547554,
      -0.10004650801420212,
      0.06807870417833328,
      -0.10095714032649994,
      0.016649484634399414,
      -0.0022232343908399343,
      0.07342879474163055,
      -0.030886555090546608,
      0.00019034753495361656,
      0.0762576162815094,
      0.003327739192172885,
      -0.10131850093603134,
      0.12296431511640549,
      0.1547764241695404,
      -0.08569934219121933,
      -0.007761246059089899,
      0.009329591877758503,
      -0.08466174453496933,
      0.025640973821282387,
      -0.031599391251802444,
      -0.0023895043414086103,
      0.08821059763431549,
      0.11903500556945801,
      -0.05970406159758568,
      0.0073695010505616665,
      -0.005422510206699371,
      -0.19136948883533478,
      -0.13897690176963806,
      0.11291784793138504,
      0.02964108996093273,
      0.02282683551311493,
      0.04251917824149132,
      0.07557600736618042,
      0.0477103628218174,
      0.10433180630207062,
      0.010374086908996105,
      0.08234009891748428,
      -0.06596364080905914,
      0.028232302516698837,
      -0.08238251507282257,
      0.0724891945719719,
      -0.05367739126086235,
      0.00019677364616654813,
      -0.10701154917478561,
      0.10242529213428497,
      -0.05065322667360306,
      0.10540268570184708,
      0.06641710549592972,
      0.09067679196596146,
      -0.01605270989239216,
      -0.1172242984175682,
      -0.0007055007154121995,
      -0.06731607019901276,
      0.06214264780282974,
      -0.07857491075992584,
      0.0003058260481338948,
      0.31677281856536865,
      -0.08942761272192001,
      -0.13457205891609192,
      0.18466195464134216,
      0.03829064592719078,
      0.1903042197227478,
      -0.21885915100574493,
      0.16862265765666962,
      0.057372868061065674,
      -0.20043352246284485,
      0.3639470934867859,
      -0.08340460807085037,
      -0.15066173672676086,
      0.27549949288368225,
      0.20580928027629852,
      0.2620401382446289,
      0.3063705563545227,
      0.08289366960525513,
      0.284162312746048,
      0.27737733721733093,
      -0.07479536533355713,
      -0.16177618503570557,
      0.3017066419124603,
      -0.07519499212503433,
      0.0240480899810791,
      -0.12945327162742615,
      -0.3326510787010193,
      0.09219726175069809,
      -0.3194844126701355,
      -0.247871533036232,
      0.06269608438014984,
      0.36849281191825867,
      0.3501359224319458,
      0.16588379442691803,
      0.13113853335380554,
      -0.19458599388599396,
      0.08988051116466522,
      -0.16958464682102203,
      0.20380370318889618,
      0.09139692038297653,
      0.2078508585691452,
      -0.17788268625736237,
      -0.15446652472019196,
      -0.11905352026224136,
      -0.21079882979393005,
      -0.35711660981178284,
      0.1970357447862625,
      0.11807848513126373,
      -0.13693207502365112,
      0.024054167792201042,
      0.010801970958709717,
      -0.10436030477285385,
      0.05617215111851692,
      0.024330155923962593,
      0.08109366148710251,
      0.08873645216226578,
      0.014646206051111221,
      0.030973635613918304,
      -0.027082771062850952,
      -0.052500318735837936,
      -0.0867500826716423,
      0.05293310806155205,
      -0.04357817396521568,
      -0.04891953617334366,
      0.10590190440416336,
      -0.007017161231487989,
      0.14341016113758087,
      0.04361007362604141,
      -0.0681968629360199,
      0.004184588324278593,
      -0.08104132115840912,
      -0.08077352494001389,
      0.10066710412502289,
      -0.015615968033671379,
      -0.03754803165793419,
      -0.022492632269859314,
      -0.013313164934515953,
      -0.05267452448606491,
      0.05774296075105667,
      -0.05160714313387871,
      0.16850341856479645,
      0.11183406412601471,
      0.004298073705285788,
      0.0041973828338086605,
      0.01630767434835434,
      0.047237955033779144,
      -0.057319268584251404,
      0.058210425078868866,
      -0.05562583729624748,
      0.07773711532354355,
      0.018815645948052406,
      -0.015795836225152016,
      -0.06570855528116226,
      0.07973162084817886,
      0.052551861852407455,
      0.021869288757443428,
      0.045210789889097214,
      0.16090573370456696,
      0.00970030389726162,
      -0.09250205755233765,
      0.056807808578014374,
      -0.041652921587228775,
      0.05385008826851845,
      0.04325409606099129,
      -0.10470947623252869,
      0.08458120375871658,
      -0.09254852682352066,
      -0.1335114985704422,
      -0.0795937031507492,
      0.06840797513723373,
      -0.006707364227622747,
      -0.15132096409797668,
      0.010322636924684048,
      0.03751879185438156,
      0.01903238333761692,
      -0.11466994881629944,
      -0.08901546150445938,
      -0.15503810346126556,
      0.012120833620429039,
      -0.08292918652296066,
      0.16652733087539673,
      0.011675471439957619,
      -0.16243116557598114,
      0.03992219269275665,
      -0.14504462480545044,
      -0.05281208083033562,
      0.09249117970466614,
      0.0010815466521307826,
      0.03356489911675453,
      0.11790284514427185,
      -0.011199772357940674,
      -0.05834413319826126,
      -0.0990883931517601,
      0.014704572968184948,
      0.11310312896966934,
      0.1425887942314148,
      0.018530050292611122,
      0.049199994653463364,
      0.056922610849142075,
      -0.015262575820088387,
      -0.010852634906768799,
      0.11231537908315659,
      0.051772378385066986,
      0.0457422211766243,
      0.13569778203964233,
      -0.09997761249542236,
      -0.01550320815294981,
      0.10751236975193024,
      -0.022450227290391922,
      0.06382275372743607,
      0.09780475497245789,
      0.054933659732341766,
      0.1482013463973999,
      -0.039762187749147415,
      0.019099662080407143,
      -0.14352324604988098,
      -0.014193631708621979,
      -0.07783699780702591,
      -0.038184165954589844,
      0.02002609521150589,
      -0.04966849088668823,
      -0.05547376349568367,
      0.03445956110954285,
      -0.009926240891218185,
      0.01369766891002655,
      0.060226380825042725,
      -0.02622368559241295,
      -0.05904225632548332,
      0.03431524336338043,
      -0.014860466122627258,
      -0.014452990144491196,
      0.056735120713710785,
      -0.023721978068351746,
      -0.032096296548843384,
      0.06054387241601944,
      -0.02836572378873825,
      0.03390735760331154,
      0.030289942398667336,
      0.05810648202896118,
      0.016424700617790222,
      0.0068962350487709045,
      -0.026197578758001328,
      0.0176105797290802,
      -0.1509387046098709,
      0.07735013216733932,
      -0.03427980840206146,
      0.007349129766225815,
      -0.004333328455686569,
      -0.029060252010822296,
      -0.03906509280204773,
      -0.0296237301081419,
      -0.01229451596736908,
      -0.08097364008426666,
      -0.03937562182545662,
      -0.05347851663827896,
      -0.008346905931830406,
      -0.056157130748033524,
      -0.037945706397295,
      -0.050414975732564926,
      0.13212770223617554,
      -0.02406349591910839,
      0.012825075536966324,
      0.03605274111032486,
      -0.04652288928627968,
      -0.0042345901019871235,
      0.10321557521820068,
      0.12523797154426575,
      0.028200428932905197,
      0.07145373523235321,
      0.05399328097701073,
      0.022822998464107513,
      -0.05240194499492645,
      0.009365662932395935,
      0.007072608917951584,
      -0.0362844318151474,
      0.018329907208681107,
      0.07643084973096848,
      -0.022330664098262787,
      0.070273756980896,
      0.04820921644568443,
      0.08450240641832352,
      0.048872217535972595,
      -0.07241557538509369,
      0.11825722455978394,
      0.07054124772548676,
      0.03690045699477196,
      0.01320909708738327,
      0.06786417216062546,
      -0.07079224288463593,
      0.06392501294612885,
      0.08487671613693237,
      -0.26144176721572876,
      0.04296598955988884,
      0.05924092233181,
      -0.019153352826833725,
      0.03580499067902565,
      0.06902498006820679,
      0.05414401367306709,
      0.021435238420963287,
      -0.05685557425022125,
      0.08341586589813232,
      -0.0015853028744459152,
      0.03563898801803589,
      -0.11987049132585526,
      -0.040754206478595734,
      -0.022166555747389793,
      -0.07315695285797119,
      -0.001074452418833971,
      -0.049204859882593155,
      -0.06369536370038986,
      -0.016897907480597496,
      0.12417832016944885,
      0.02055402472615242,
      0.03732072189450264,
      0.03569252789020538,
      0.0016473407158628106,
      0.143291175365448,
      0.030068289488554,
      -0.06304610520601273,
      -0.07812882214784622,
      0.03866635635495186,
      0.03838760778307915,
      0.16397406160831451,
      0.1128469705581665,
      -0.03603211045265198,
      0.0013311569346114993,
      0.0677422359585762,
      -0.07477830350399017,
      -0.06371939927339554,
      0.14705410599708557,
      -0.3651430308818817,
      0.06303432583808899,
      0.3323533833026886,
      -0.4940563142299652,
      -0.5041374564170837,
      -0.061223216354846954,
      0.2934316396713257,
      0.026085171848535538,
      0.07633844763040543,
      0.1936877816915512,
      0.27999168634414673,
      -0.10058996826410294,
      0.18825814127922058,
      -0.08494570106267929,
      -0.34573811292648315,
      -0.41511228680610657,
      -0.26307013630867004,
      -0.0008222827455028892,
      0.15373080968856812,
      -0.015404077246785164,
      -0.15744873881340027,
      0.4321841597557068,
      0.32555288076400757,
      -0.03839912265539169,
      0.04544609412550926,
      0.05484619736671448,
      -0.013765336014330387,
      -0.056259848177433014,
      -0.08310019224882126,
      -0.31484901905059814,
      0.4342658817768097,
      -0.1897292286157608,
      -0.16159550845623016,
      0.01756201684474945,
      0.13976499438285828,
      -0.30033326148986816,
      0.06519609689712524,
      0.09754513204097748,
      -0.01466202363371849,
      0.1323956400156021,
      0.012571110390126705,
      0.10598369687795639,
      0.1606801450252533,
      0.2870579659938812,
      -0.1498258262872696,
      0.16553263366222382,
      0.17944881319999695,
      -0.17914225161075592,
      -0.10437359660863876,
      -0.14763319492340088,
      -0.20487184822559357,
      0.0970112755894661,
      0.025367679074406624,
      -0.04463791102170944,
      0.020561717450618744,
      0.05609217658638954,
      0.003744627581909299,
      -0.06812983751296997,
      0.012187744490802288,
      0.0024131524842232466,
      -0.015739500522613525,
      0.001408301992341876,
      -0.10593036562204361,
      0.07421153038740158,
      0.022133387625217438,
      0.014550500549376011,
      0.08560045808553696,
      0.04464956372976303,
      0.016267690807580948,
      0.08129491657018661,
      -0.07842614501714706,
      -0.03718852624297142,
      -0.012377078644931316,
      -0.03194868564605713,
      -0.09150339663028717,
      0.12168433517217636,
      -0.02241354063153267,
      -0.023577988147735596,
      0.005475499201565981,
      0.05003691464662552,
      0.0951007753610611,
      0.02409326657652855,
      -0.12993505597114563,
      -0.050296638160943985,
      0.1044742539525032,
      0.06932476162910461,
      0.11914225667715073,
      0.16007785499095917,
      -0.03956364095211029,
      0.08498414605855942,
      0.11873704940080643,
      -0.08907467126846313,
      0.08236631751060486,
      -0.010639608837664127,
      0.00316942622885108,
      -0.09827063977718353,
      0.11438217014074326,
      0.030776137486100197,
      -0.054157793521881104,
      0.0793466791510582,
      0.04215816780924797,
      0.10724863409996033,
