{"layer1": {"weights": [-0.09134119749069214, -0.13667720556259155, -0.09249550104141235, -0.016360048204660416, -0.13428954780101776, 0.14701810479164124, -0.060212116688489914, 0.1508651226758957, -0.13771280646324158, -0.05068402737379074, -0.1240447461605072, 0.1817476898431778, 0.10837871581315994, 0.06499966233968735, 0.12770456075668335, 0.09348004311323166, 0.07736989110708237, -0.23979327082633972, -0.002468197839334607, 0.03234121575951576, -0.09970539808273315, 0.17672111093997955, 0.4213581085205078, -0.0591820664703846, -0.18471412360668182, -0.11839940398931503, -0.06771522015333176, 0.11226450651884079, 0.06541463732719421, -0.18420742452144623, -0.07388891279697418, -0.01764683984220028, -0.07347124069929123, -0.11307832598686218, 0.10921428352594376, -0.02378060109913349, 0.13966725766658783, 0.06667816638946533, 0.017454948276281357, 0.025610949844121933, 0.10820623487234116, -0.01892346329987049, 0.09592194110155106, 0.05883041024208069, 0.027781758457422256, 0.12489039450883865, 0.21343176066875458, -0.16068032383918762, -0.055461276322603226, 0.15460482239723206, 0.10655733942985535, -0.19822847843170166, 0.10148682445287704, 0.12473505735397339, 0.10990334302186966, 0.018245570361614227, 0.053175196051597595, -0.07659672945737839, 0.0009005391038954258, 0.009396431036293507, -0.04100833088159561, -0.004122342448681593, -0.019220057874917984, 0.02984836883842945, -0.013331343419849873, 0.036883413791656494, 0.07061470299959183, -0.06604710221290588, -0.04707499220967293, 0.14516772329807281, 0.0173480287194252, 0.033532433211803436, 0.0396835021674633, -0.022481899708509445, -0.10397117584943771, 0.13986296951770782, 0.06701252609491348, 0.029477955773472786, 0.02370595559477806, 0.01859009452164173, -0.08631572127342224, 0.024175258353352547, 0.0487327016890049, -0.03572262078523636, -0.046706315129995346, 0.035875070840120316, -0.04085327312350273, 0.08499465137720108, 0.109867163002491, -0.03302091360092163, 0.03699182718992233, -0.10285785794258118, -0.03697711601853371, -0.02717513218522072, -0.03153547644615173, 0.03225833550095558, -0.08282483369112015, -0.08627432584762573, -0.0009390676859766245, -0.025720354169607162, 0.023224344477057457, 0.003566532861441374, 0.04805414751172066, 0.21041765809059143, 0.04483626037836075, -0.0044867610558867455, 0.10086794197559357, -0.017959829419851303, -0.04274424910545349, -0.11697188019752502, 0.1380302459001541, -0.04422205314040184, 0.056233081966638565, -0.041996605694293976, 0.17003539204597473, -0.08115340769290924, 0.032352495938539505, -0.05880322679877281, -0.032333116978406906, 0.04710111394524574, -0.029028909280896187, -0.11961887776851654, 0.08596803992986679, 0.008212764747440815, 0.04821533337235451, -0.0071819862350821495, -0.06632229685783386, -0.055090539157390594, 0.005040623247623444, -0.03293744474649429, -0.01277132984250784, 0.062051355838775635, -0.07203631103038788, 0.05288194492459297, 0.09902559220790863, 0.04220890998840332, -0.0006690632435493171, 0.0763714537024498, -0.06524402648210526, 0.0541570670902729, -0.029448390007019043, -0.062212854623794556, -0.02297307923436165, -0.025320887565612793, 0.005947875790297985, 0.13036227226257324, -0.005078336223959923, -0.0011036680079996586, 0.1106499582529068, -0.0949283018708229, -0.12181465327739716, -0.022303756326436996, 0.12158387154340744, -0.08034913241863251, -0.0015319179510697722, -0.006623747758567333, 0.04091354086995125, 0.008630719035863876, -0.004000375978648663, -0.04832230135798454, -0.04924226179718971, -0.06378892809152603, 0.06352273374795914, 0.0074028074741363525, 0.06391531974077225, 0.05887548625469208, 0.05662471428513527, 0.07286138087511063, -0.08091914653778076, 0.02473761886358261, 0.05661778151988983, -0.020105702802538872, -0.018010780215263367, 0.048131879419088364, 0.04164327681064606, 0.07038222253322601, 0.15852589905261993, 0.17589421570301056, 0.03196748346090317, 0.09208827465772629, -0.005917431320995092, 0.04879922792315483, -0.03942983224987984, 0.02014198526740074, 0.03184071183204651, 0.046186063438653946, -0.05053814873099327, -0.08504699170589447, 0.011324118822813034, 0.037003204226493835, 0.08707114309072495, 0.04501830041408539, 0.07419853657484055, 0.007098156027495861, 0.031517766416072845, -0.03278004378080368, 0.11836830526590347, 0.04674119874835014, 0.09577954560518265, -0.0683419331908226, 0.01454940252006054, -0.05626659095287323, 0.06477820873260498, 0.11310699582099915, 0.02110891602933407, 0.08088106662034988, 0.03224870562553406, 0.013887926936149597, -0.024427829310297966, -0.02606295980513096, 0.07376792281866074, 0.060728687793016434, 0.1426641047000885, 0.11333075910806656, 0.06704403460025787, -0.004325139801949263, -0.0031426807399839163, 0.03428594022989273, 0.049333665519952774, 0.020534150302410126, -0.034795597195625305, 0.11666636168956757, -0.040008142590522766, 0.02374352514743805, 0.0824911817908287, -0.021562080830335617, 0.04869641736149788, -0.014941278845071793, 0.00985225010663271, 0.003127859439700842, 0.03925492614507675, 0.017727283760905266, -0.11239776015281677, 0.1302424967288971, 0.04418928176164627, -0.025050118565559387, 0.07002104818820953, -0.02052488550543785, 0.004709607921540737, -0.01973569020628929, 0.06435409933328629, -0.02494705468416214, 0.05665722116827965, 0.027174031361937523, 0.12985044717788696, 0.035803187638521194, -0.025888625532388687, 0.0932619571685791, -0.01571216993033886, 0.036068715155124664, -0.012513871304690838, 0.07169876247644424, -0.02345161698758602, 0.05763282626867294, 0.06012233346700668, -0.08898716419935226, 0.06035330146551132, 0.05062419921159744, 0.05116140469908714, 0.11822794377803802, 0.11975474655628204, 0.019906502217054367, -0.07388827949762344, 0.05059957504272461, 0.022529784590005875, 0.03215663507580757, -0.007448544260114431, -0.015043181367218494, -0.008591381832957268, 0.03323082625865936, -0.13188786804676056, 0.11304283142089844, 0.024581778794527054, -0.13868723809719086, -0.012470376677811146, 0.013442101888358593, 0.1021820455789566, 0.0021523560862988234, -0.10746151953935623, 0.028055202215909958, -0.10260500013828278, 0.01788598671555519, 0.06046952307224274, -0.01675102487206459, -0.21070630848407745, -0.05404350161552429, -0.10256674140691757, 0.2231135368347168, -0.04734070599079132, -0.08799272775650024, -0.16922535002231598, 0.05971432477235794, -0.004574909806251526, 0.21926790475845337, 0.021977480500936508, 0.0867132842540741, 0.14366906881332397, 0.15946432948112488, -0.1980011910200119, 0.03784298524260521, 0.21218977868556976, -0.12427123636007309, -0.005460235755890608, -0.024423375725746155, 0.05386878922581673, 0.09994755685329437, 0.015921931713819504, 0.12291387468576431, 0.013381902128458023, 0.0692136362195015, 0.017117897048592567, -0.10928177088499069, -0.13610494136810303, 0.05890323966741562, 0.026963306590914726, 0.09816553443670273, -0.036570314317941666, -0.01773170940577984, -0.05084330588579178, 0.07657019793987274, 0.11355086416006088, 0.02691892720758915, -0.005490596871823072, -0.04529527202248573, -0.010375016368925571, 0.07964914292097092, 0.026099465787410736, -0.08814606815576553, -0.04075649008154869, 0.023792769759893417, 0.05692774057388306, 0.11853919923305511, 0.017162764444947243, 0.05315244197845459, -0.03207430616021156, 0.04623393714427948, 0.19116832315921783, -0.03148604556918144, 0.0877133458852768, 0.04984378069639206, -0.007315783761441708, -0.025780756026506424, 0.16817237436771393, 0.06315215677022934, 0.09815052896738052, -0.09446670860052109, 0.004004710353910923, 0.024268684908747673, 0.06441943347454071, -0.028667159378528595, 0.13495640456676483, -0.051358968019485474, 0.039225056767463684, 0.09327032417058945, -0.0632140040397644, -0.08665669709444046, -0.003521486185491085, -0.0902843326330185, -0.059242136776447296, -0.02430916577577591, 0.16776521503925323, -0.049935221672058105, -0.025294490158557892, -0.033046215772628784, 0.12948939204216003, 0.08965674042701721, 0.015032057650387287, -0.02814190834760666, 0.06277700513601303, 0.002616400830447674, 0.05559920147061348, 0.04344435781240463, 0.05125618353486061, 0.06233466416597366, 0.0012188544496893883, 0.07519624382257462, -0.000334323151037097, 0.009359659627079964, -0.04044210910797119, 0.045170608907938004, 0.1084807962179184, 0.05067168176174164, 0.014630290679633617, 0.13804829120635986, -0.08312863856554031, 0.07451742142438889, -0.057132650166749954, -0.0957031324505806, -0.08088907599449158, 0.05004255101084709, -0.015837857499718666, -0.057616326957941055, -0.07642625272274017, -0.14230132102966309, -0.03113739937543869, -0.0491657517850399, -0.054377902299165726, 0.08743822574615479, 0.02703092433512211, -0.09040006995201111, 0.04952852800488472, -0.09560085088014603, -0.07682684063911438, 0.04964650794863701, -0.04495762661099434, 0.07606177031993866, 0.025460965931415558, -0.043054401874542236, 0.0016974242171272635, -0.11480587720870972, -0.122585229575634, -0.044947847723960876, -0.0013733970699831843, 0.04406104236841202, 0.07152524590492249, -0.10612005740404129, 0.06577198952436447, 0.12209749966859818, -0.049298934638500214, -0.04924066737294197, 0.008757036179304123, 0.08367498219013214, -0.045969050377607346, 0.0015300672966986895, -0.01552561391144991, -0.025132425129413605, -0.013191201724112034, 0.04216739162802696, 0.04309031739830971, -0.0837431326508522, 0.007130893412977457, 0.05908308923244476, 0.014365777373313904, -0.015500059351325035, 0.007411756552755833, -0.01798604615032673, -0.05667324736714363, 0.002407737774774432, 0.011533412151038647, 0.03605134040117264, -0.08201716095209122, 0.006197412498295307, 0.01888471283018589, -0.022038431838154793, -0.0013844597851857543, -0.10677435994148254, 0.11467502266168594, 0.05242079496383667, 0.07058099657297134, -0.014705422334372997, 0.024040210992097855, 0.06926334649324417, -0.037327200174331665, -0.004755494184792042, -0.07732140272855759, 0.03336509317159653, 0.07314511388540268, 0.014032694511115551, -0.1285756379365921, 0.03754454851150513, -0.03645903989672661, 0.07673048973083496, 0.04995014891028404, 0.07580603659152985, -0.06608068943023682, 0.066404789686203, 0.1025678738951683, 0.05073903501033783, 0.03316858410835266, 0.04346337169408798, 0.0686066746711731, -0.04659101366996765, 0.061143599450588226, -0.034701090306043625, -0.00045563693856820464, -0.013138365931808949, 0.046013277024030685, 0.031289469450712204, 0.0011046590516343713, -0.002842274494469166, 0.12122230231761932, -0.011855680495500565, -0.05484083294868469, 0.10373912751674652, 0.02006314881145954, 0.057365454733371735, 0.0028318443801254034, -0.014972490258514881, 0.07482277601957321, 0.005434015300124884, -0.033848170191049576, 0.007438040804117918, 0.01779494620859623, 0.10756724327802658, -0.010738760232925415, -0.06359460204839706, 0.029568878933787346, 0.009467031806707382, -0.07036563009023666, 0.023915592581033707, -0.07930566370487213, 0.07388308644294739, -0.008563000708818436, 0.09527965635061264, 0.06823298335075378, -0.011282800696790218, 0.009740274399518967, -0.06885450333356857, 0.0009944038465619087, 0.07764450460672379, -0.051913291215896606, -0.020523255690932274, 0.05610290542244911, 0.06058259308338165, -0.10538346320390701, 0.013207807205617428, 0.029304593801498413, -0.029385952278971672, 0.002682881895452738, -0.1131729930639267, 0.06460674107074738, 0.05667693912982941, 0.025035355240106583, 0.08926500380039215, -0.07398252934217453, -0.07557909190654755, -0.016370022669434547, -0.04183762148022652, 0.07309500873088837, 0.11127785593271255, -0.09663091599941254, -0.03266698122024536, -0.04699583724141121, -0.09752782434225082, 0.022436533123254776, -0.04090673103928566, 0.13485659658908844, -0.0636744350194931, -0.012044169008731842, -0.024918118491768837, 0.013018275611102581, -0.18278610706329346, 0.09538210928440094, -0.0009465751354582608, -0.19686667621135712, 0.10776837170124054, -0.10684743523597717, 0.13721221685409546, 0.053326066583395004, -0.10213226824998856, -0.15419770777225494, 0.2310413420200348, -0.07231684029102325, -0.20249499380588531, -0.08269356191158295, 0.07071081548929214, 0.3104913532733917, 0.007299243938177824, -0.02717757411301136, 0.14165402948856354, 0.025367647409439087, -0.013621964491903782, 0.1789928525686264, 0.04005804285407066, -0.05772380530834198, -0.12601183354854584, 0.14476071298122406, -0.026462040841579437, 0.053031835705041885, -0.1013847216963768, -0.13094013929367065, -0.21834714710712433, 0.11673815548419952, -0.026125505566596985, -0.13365435600280762, 0.1051497757434845, -0.07654554396867752, 0.15078724920749664, -0.0071438816376030445, -0.21039749681949615, 0.0915398895740509, -0.06884922087192535, 0.019120709970593452, 0.11764143407344818, 0.20576447248458862, 0.1291038990020752, 0.16884000599384308, 0.06945323944091797, -0.15379193425178528, -0.020739682018756866, 0.10253151506185532, 0.053495049476623535, 0.052904337644577026, 0.04263795167207718, 0.0904693603515625, -0.06155838817358017, 0.17683802545070648, -0.06886675208806992, 0.06722471863031387, -0.09816624969244003, 0.0062688603065907955, 0.15196996927261353, 0.10426364094018936, -0.08847712725400925, -0.013820997439324856, 0.030775398015975952, 0.0635104775428772, 0.1098921075463295, -0.11985258013010025, -0.05194142833352089, -0.02005108632147312, 0.0885874330997467, 0.09487348049879074, 0.09871772676706314, -0.04290449246764183, -0.05872919410467148, -0.041033145040273666, 0.03540630266070366, -0.04777400195598602, 0.07587645202875137, 0.054322004318237305, 0.11584610491991043, 0.05907389521598816, 0.11084761470556259, -0.007809645961970091, 0.10042054951190948, 0.041998736560344696, -0.07343819737434387, -0.007037273608148098, -0.11228302866220474, -0.043351463973522186, 0.00449372548609972, -0.13964073359966278, 0.02618962526321411, 0.06705282628536224, 0.008378300815820694, 0.047694917768239975, -0.04979126527905464, 0.02720644511282444, 0.03976057097315788, 0.062141597270965576, 0.12116905301809311, 0.06724205613136292, -0.0860334113240242, 0.06107158958911896, -0.027589786797761917, 0.024758271872997284, -0.019177164882421494, -0.00022731492936145514, -0.10799813270568848, 0.09241918474435806, 0.07749343663454056, 0.15277831256389618, 0.020415296778082848, -0.014447360299527645, 0.11422640085220337, 0.16040660440921783, -0.02722078189253807, -0.0021506554912775755, -0.04089392349123955, 0.0018497648416087031, 0.11699847877025604, 0.12287336587905884, 0.06343501061201096, 0.03455708548426628, -0.02865014225244522, 0.07291663438081741, -0.05532858893275261, -0.08654339611530304, 0.0740806981921196, 0.03978953883051872, 0.06851685047149658, -0.07340911030769348, 0.03945178911089897, -0.02398737706243992, -0.0044874995946884155, 0.015958329662680626, 0.08714469522237778, 0.05804551765322685, 0.01350211538374424, 0.010403149761259556, -0.006341869477182627, -0.00688974978402257, -0.007388683035969734, -0.04373816400766373, -0.035843078047037125, 0.05804252251982689, 0.030908936634659767, -0.010823290795087814, -0.044013649225234985, 0.07228197157382965, 0.03457372635602951, -0.06723583489656448, 0.10424777865409851, 0.0066298991441726685, -0.04628352075815201, -0.02196609601378441, 0.05200985074043274, 0.060925714671611786, -0.05267028138041496, -0.0010922504588961601, 0.02581721730530262, 0.03717834874987602, -0.06579910218715668, 0.03356105834245682, -0.013346884399652481, -0.014403030276298523, -0.032233793288469315, -0.011312824673950672, 0.055502790957689285, -0.0896320641040802, 0.03693336620926857, 0.034962039440870285, -0.025710394605994225, -0.07063797116279602, -0.007877246476709843, 0.03276539221405983, 0.0135741475969553, -0.08427943289279938, 0.04756415635347366, 0.03157269209623337, -0.040356025099754333, -0.04743923991918564, 0.1679813414812088, 0.005399900488555431, 0.055714793503284454, -0.03079434111714363, -0.07142557203769684, -0.062407951802015305, -0.015913108363747597, 0.08116783946752548, 0.08377820253372192, -0.019783535972237587, 0.06915193051099777, -0.012377087026834488, -0.008667714893817902, -0.1215970441699028, 0.016875242814421654, 0.031700026243925095, 0.0015633782604709268, 0.0622769333422184, -0.03972883149981499, 0.09917522966861725, 0.007014564238488674, -0.024099742993712425, 0.08040743321180344, -0.06643953174352646, 0.0900321900844574, 0.03998811915516853, 0.01240407396107912, 0.014441289007663727, -0.04923184588551521, 0.024877160787582397, -0.04291364923119545, -0.01612168550491333, 0.046939071267843246, -0.026253722608089447, 0.052625834941864014, -0.016982004046440125, -0.011737220920622349, -0.015868719667196274, 0.0037875722628086805, -0.025371873751282692, 0.03761179372668266, 0.025884365662932396, -0.10206291824579239, 0.001758638652972877, 0.005305894184857607, 0.04242727905511856, 0.028336869552731514, 0.0220821350812912, 0.025983642786741257, -0.028325006365776062, -0.05860094726085663, -0.10697729140520096, -0.03762677684426308, -0.01448526419699192, 0.06555403769016266, 0.012808372266590595, -0.09931258857250214, 0.046601686626672745, 0.06543483585119247, -0.03473861142992973, -0.011891383677721024, -0.06631416082382202, -0.08102955669164658, -0.010983801446855068, -0.0756063237786293, -0.0015033631352707744, 0.033904414623975754, 0.1653854250907898, 0.04254937171936035, 0.052315715700387955, 0.1685241460800171, 0.11092916131019592, 0.08910003304481506, -0.04648703709244728, 0.0279075987637043, 0.047603726387023926, 0.005363416858017445, -0.002135186456143856, -0.08326186239719391, -0.027271831408143044, 0.04889466241002083, -0.05636525899171829, 0.030547980219125748, 0.006895597092807293, -0.008835830725729465, -0.07577048242092133, 0.015580352395772934, 0.1130089983344078, 0.004070639610290527, -0.08910416811704636, 0.12725846469402313, -0.008649676106870174, -0.18679849803447723, -0.12459888309240341, -0.10613073408603668, 0.1555039882659912, -0.033524103462696075, 0.0028911028057336807, 0.14874888956546783, 0.0885719358921051, 0.2203429490327835, 0.10356862843036652, 0.1527668535709381, 0.015852153301239014, 0.05095745623111725, 0.012649690732359886, -0.017749298363924026, -0.13281983137130737, -0.026043450459837914, -0.09240923821926117, 0.08488939702510834, 0.18360979855060577, 0.0241255946457386, 0.1303318738937378, 0.1300576627254486, -0.0021064947359263897, -0.029067985713481903, 0.09962797909975052, 0.15967494249343872, 0.08878988027572632, -0.06714940071105957, -0.01632550358772278, 0.008271750062704086, -0.08599310368299484, 0.09045737981796265, -0.058476772159338, -0.07043991982936859, 0.03490816056728363, -0.05812663957476616, -0.06871015578508377, 0.03763701021671295, -0.0328647717833519, 0.04396306723356247, 0.11728686839342117, 0.16321709752082825, 0.2577163279056549, -0.034468840807676315, -0.046964213252067566, -0.12328170239925385, 0.1312510222196579, -0.04779878631234169, 0.005320435389876366, 0.0009476069826632738, 0.08008421212434769, -0.03525315597653389, 0.06043553724884987, 0.15349271893501282, -0.045098695904016495, 0.039070013910532, 0.012378299608826637, -0.09392261505126953, 0.02551710419356823, -0.06618741899728775, -0.05917114019393921, -0.010271210223436356, -0.02826320193707943, 0.005414059851318598, -0.019545219838619232, 0.043540291488170624, 0.02727348916232586, 0.09015844762325287, -0.011412568390369415, -0.01633443497121334, -0.01232123002409935, 0.07388608902692795, -0.07014257460832596, -0.019488682970404625, -0.0010062229121103883, 0.027195198461413383, -0.024250170215964317, -0.015844840556383133, -0.055087096989154816, 0.05129440873861313, 0.09919070452451706, -0.005353377666324377, 0.03206272050738335, -0.0045825401321053505, -0.057319022715091705, -0.0030352280009537935, -0.04867926985025406, 0.12524916231632233, 0.09414151310920715, -0.0481073297560215, -0.002252828562632203, -0.02060558833181858, -0.07967954128980637, 0.0559537298977375, -0.0705886036157608, 0.1574050486087799, -0.005979715380817652, 0.03650075942277908, -0.10706755518913269, 0.15363378822803497, -0.05017287656664848, -0.015051126480102539, -0.15246105194091797, 0.07739622890949249, -0.09786523133516312, -0.09711416810750961, -0.11850499361753464, 0.08035863190889359, -0.03248727321624756, 0.055107031017541885, 0.018873022869229317, -0.013631368055939674, -0.06165467947721481, -0.01040151808410883, -0.0806410163640976, 0.0022428114898502827, -0.1649288535118103, -0.03573420271277428, -0.09480582922697067, -0.03260795399546623, 0.0780080258846283, 0.025744175538420677, 0.0164866391569376, -0.021647941321134567, 0.0749528631567955, 0.031202420592308044, -0.06859928369522095, 0.03077429160475731, -0.031287793070077896, -0.04715203866362572, -0.01941494457423687, 0.07149095833301544, 0.027254512533545494, -0.09177681803703308, -0.09159260988235474, 0.0942889079451561, 0.07191922515630722, 0.11211258172988892, 0.003411042969673872, 0.14582183957099915, -0.08848557621240616, 0.06778998672962189, 0.15020166337490082, 0.1479785293340683, -0.06143684685230255, -0.0048394338227808475, -0.022396564483642578, -0.024756761267781258, -0.06880541890859604, 0.02580159530043602, -0.016568226739764214, 0.11747179925441742, -0.029453355818986893, 0.03783073648810387, -0.1208893433213234, -0.09339798986911774, 0.005813352297991514, -0.07325885444879532, 0.02523137256503105, 0.12548623979091644, 0.018625251948833466, -0.062216710299253464, 0.13910731673240662, -0.049603961408138275, -0.021240515634417534, 0.024303076788783073, 0.15910960733890533, -0.012815285474061966, 0.024587975814938545, 0.0397191122174263, -0.02317103184759617, -0.022174840793013573, -0.0331319235265255, 0.019558724015951157, 0.025410950183868408, -0.016669876873493195, -0.10915587097406387, -0.04123291000723839, 0.16831812262535095, 0.07044126093387604, 0.14898976683616638, 0.009112471714615822, 0.031060008332133293, -0.01333341933786869, 0.02328483760356903, -0.05798616260290146, 0.14516973495483398, -0.03246879205107689, 0.050043147057294846, -0.07898485660552979, -0.0023117016535252333, 0.03331173211336136, -0.009085331112146378, -0.03558788448572159, -0.09063960611820221, 0.08003182709217072, 0.061874330043792725, -0.012731526978313923, 0.03298192471265793, 0.02775575965642929, 0.012612918391823769, -0.04162338748574257, 0.007273978088051081, -0.024646475911140442, 0.03441385552287102, -0.034880731254816055, 0.10672134160995483, -0.03140797093510628, -0.022686582058668137, 0.08121240884065628, -0.03144317865371704, -0.045151468366384506, 0.006532570347189903, -0.010662540793418884, 0.026340065523982048, -0.01808030903339386, -0.07626372575759888, -0.07792428135871887, 0.09294375032186508, -0.008342284709215164, 0.07103541493415833, 0.04551731422543526, -0.02217237651348114, 0.047843944281339645, -0.027950184419751167, 0.05189008638262749, 0.038075096905231476, 0.02591025084257126, -0.03819143399596214, 0.1287756711244583, -0.001956597436219454, -0.020429961383342743, 0.10841523855924606, 0.06393194198608398, 0.02667194791138172, -0.04161591827869415, -0.07560651749372482, 0.03275662660598755, 0.011499062180519104, -0.03876710310578346, -0.0026815796736627817, 0.043879617005586624, -0.08818074315786362, -0.11981923133134842, 0.07248318940401077, 0.06615177541971207, -0.054238930344581604, -0.03187868744134903, 0.0634801834821701, 0.09112657606601715, 0.06729429960250854, 0.047023698687553406, 0.044798944145441055, -0.014218405820429325, 0.01982538402080536, -0.02902095764875412, -0.04788462072610855, 0.006973080337047577, -0.033724650740623474, 0.0021287896670401096, 0.06704229861497879, -0.016104482114315033, 0.012110508047044277, 0.037681881338357925, 0.13561323285102844, 0.0718652755022049, 0.07020922005176544, -0.11573892086744308, 0.11220497637987137, 0.013736668974161148, -0.06553757190704346, 0.15607325732707977, -0.19105389714241028, 0.10379371047019958, -0.08081594854593277, 0.0407099723815918, 0.07360631227493286, -0.1283598691225052, 0.02628381922841072, 0.1287277340888977, 0.05589979141950607, -0.17598886787891388, 0.020693590864539146, -0.04067361727356911, -0.1168578565120697, 0.13893474638462067, -0.04057871177792549, 0.04028288647532463, 0.09166128188371658, 0.15517346560955048, 0.1391003429889679, -0.04574400186538696, 0.24296800792217255, 0.1360219269990921, 0.04426033794879913, 0.20091427862644196, 0.12843863666057587, 0.038504019379615784, 6.634170131292194e-05, -0.09442441910505295, -0.1552181988954544, 0.020415274426341057, -0.024747980758547783, -0.1090780571103096, 0.15107129514217377, 0.2300039678812027, 0.004229426383972168, 0.008074916899204254, 0.18957491219043732, 0.13248024880886078, 0.12928615510463715, 0.046011194586753845, 0.08313118666410446, 0.12543867528438568, -0.16881296038627625, 0.0531657338142395, 0.025982970371842384, -0.03382917121052742, 0.011417503468692303, 0.015870917588472366, 0.004298831801861525, 0.009761522524058819, -0.014777171425521374, -0.033562518656253815, -0.031342677772045135, -0.0618688203394413, 0.09151441603899002, 0.04966679960489273, -0.010106967762112617, -0.051938287913799286, 0.14223943650722504, -0.046634286642074585, -0.06651780754327774, -0.026453236117959023, -0.01788128726184368, 0.1523178666830063, 0.030256452038884163, -0.008967298083007336, 0.0811719223856926, 0.002788866637274623, -0.031157830730080605, 0.034849535673856735, 0.06894586980342865, 0.043671395629644394, 0.018222564831376076, -0.03392244875431061, 0.07565397769212723, -0.06702139973640442, -0.0474226288497448, 0.03215467557311058, -0.03677009791135788, -0.008222452364861965, 0.09800026565790176, 0.07871329039335251, -0.06526816636323929, -0.10677263885736465, 0.0018771166214719415, 0.1166074350476265, 0.13237892091274261, -0.018170099705457687, 0.01642535999417305, 0.1017981544137001, -0.1350238174200058, 0.10656477510929108, 0.11030645668506622, -0.007058992050588131, 0.003576389979571104, 0.006713252514600754, -0.15881775319576263, -0.12465599924325943, 0.02137022651731968, -0.0480651818215847, -0.01514824852347374, -0.023116040974855423, 0.14123743772506714, -0.05787188559770584, -0.017986908555030823, -0.016269564628601074, 0.009967531077563763, -0.051225148141384125, -0.020939067006111145, -0.07385807484388351, 0.015138338319957256, 0.043503329157829285, 0.009282932616770267, 0.0135899493470788, -0.017668388783931732, 0.017921559512615204, 0.00718753831461072, -0.09021271020174026, -0.08777065575122833, 0.058492690324783325, -0.017988424748182297, 0.0005348117556422949, 0.0159075278788805, -0.022148357704281807, -0.09295393526554108, -0.05232052132487297, -0.09487330168485641, -0.03314664214849472, 0.06880895048379898, 0.011519299820065498, 0.06945110112428665, 0.052500203251838684, -0.10748198628425598, -0.08577005565166473, 0.02080530859529972, -0.05163905769586563, -0.0441044457256794, -0.06238379701972008, 0.0992695614695549, -0.03581467643380165, 0.0037901217583566904, 0.13604509830474854, -0.03393108770251274, 0.02142370492219925, 0.08240192383527756, -0.006940172053873539, 0.07783523201942444, 0.06600482761859894, 0.09784281998872757, -0.04327021911740303, -0.04914173111319542, 0.015108137391507626, -0.022475678473711014, 0.0342387929558754, -0.08220666646957397, -0.02310006320476532, 0.04678703844547272, 0.02798440307378769, 0.05030232295393944, -0.017675448209047318, -0.03408173844218254, 0.023973822593688965, -0.054459698498249054, -0.005148238968104124, 0.012397791258990765, -0.07104577124118805, -0.005793838296085596, 0.062210943549871445, 0.01811601035296917, -0.07853961735963821, -0.019318699836730957, -0.10179076343774796, -0.11610845476388931, 0.06047306954860687, 0.04511043056845665, -0.014117078855633736, -0.03423163667321205, -0.0033479053527116776, 0.13903577625751495, -0.02396691031754017, -0.060931380838155746, -0.0016707945615053177, -0.0053275469690561295, 0.014493177644908428, -0.026517823338508606, 0.015734631568193436, 0.06088058277964592, 0.16899967193603516, -0.0014903402188792825, -0.02515592612326145, 0.06332310289144516, -0.06332612782716751, -0.03217942640185356, -0.08622117340564728, 0.08741717040538788, 0.04460987076163292, 0.09464696049690247, 0.04128217324614525, -0.0488399900496006, -0.07017505168914795, 0.008488577790558338, -0.09925432503223419, 0.03157026320695877, 0.05412747338414192, 0.018487896770238876, 0.0894295796751976, -0.058894962072372437, -0.055481959134340286, 0.023252159357070923, 0.07578767091035843, -0.05771217122673988, 0.02353827841579914, 0.03569349646568298, -0.0864935964345932, 0.02480396255850792, 0.04425995424389839, -0.07454642653465271, -0.045436251908540726, -0.04475053772330284, -0.07612010836601257, -0.04345596954226494, -0.059543427079916, 0.05298592522740364, 0.052906930446624756, 0.024676239117980003, 0.023852992802858353, -0.0445510670542717, -0.048967260867357254, 0.0053629218600690365, 0.057902779430150986, -0.007021903060376644, -0.010835269466042519, 0.010006211698055267, 0.05373411998152733, 0.026250913739204407, -0.025267720222473145, 0.0925125926733017, 0.10833553969860077, -0.02933855913579464, -0.012507127597928047, -0.002203363925218582, 0.13142874836921692, 0.04544050619006157, 0.052817873656749725, -0.011053536087274551, -0.06455325335264206, -0.09911883622407913, 0.04496030882000923, 0.1255161017179489, -0.04107723385095596, -0.039647530764341354, -0.024593351408839226, -0.014098984189331532, 0.07756958156824112, 0.0028192801401019096, -0.048357170075178146, -0.09216780215501785, 0.042942509055137634, 0.062102969735860825, -0.08274846524000168, -0.06575405597686768, -0.017111893743276596, 0.12597285211086273, 0.03139183297753334, 0.024917565286159515, 0.16932664811611176, -0.13976243138313293, 0.14426112174987793, 0.035909503698349, -0.21644122898578644, 0.09910605102777481, -0.07935633510351181, -0.0664815753698349, 0.13438759744167328, -0.03831910341978073, -0.1232372298836708, 0.15511834621429443, -0.05160355567932129, -0.16446320712566376, 0.009313782677054405, 0.10337866097688675, 0.03309320658445358, 0.0755549743771553, -0.1114424467086792, 0.05564001575112343, 0.03214703127741814, 0.12407505512237549, -0.154067724943161, 0.16837599873542786, 0.005321279168128967, 0.043464552611112595, 0.1575654000043869, 0.20464226603507996, -0.062049128115177155, 0.07415679097175598, -0.05646788328886032, 0.1297060251235962, 0.057060662657022476, 0.1438252329826355, 0.060720160603523254, 0.05720853805541992, -0.11673334985971451, -0.00379323516972363, -0.031085601076483727, -0.06306571513414383, 0.2210310995578766, -0.07344210147857666, 0.03409004956483841, -0.04195788502693176, -0.11923716217279434, 0.2048402726650238, -0.013859164901077747, 0.06560695171356201, -0.06709390133619308, -0.04238443076610565, 0.10274062305688858, -0.048759981989860535, -0.018468491733074188, 0.05811538174748421, 0.07928411662578583, 0.030383560806512833, 0.04206165671348572, -0.06163806840777397, -0.05691720172762871, 0.09487908333539963, -0.07967673987150192, 0.08940831571817398, 0.06396832317113876, -0.038257572799921036, 0.0060383169911801815, 0.03060978464782238, 0.07293626666069031, -0.057859208434820175, -0.025422053411602974, 0.039480842649936676, 0.023470081388950348, -0.06808360666036606, 0.02644425816833973, -0.006215893663465977, 0.06407923996448517, 0.09826630353927612, 0.1072419211268425, 0.10658981651067734, -0.020550867542624474, 0.03445880115032196, 0.018607569858431816, -0.10555995255708694, 0.07454586774110794, -0.002633660100400448, -0.030451642349362373, -0.03950868546962738, 0.051281627267599106, 0.027993101626634598, 0.03770285099744797, -0.05788140743970871, -0.02922091819345951, -0.01357307843863964, -0.01743331551551819, 0.08956322073936462, -0.044804640114307404, -0.014018812216818333, 0.12206621468067169, -0.0607517808675766, 0.022759241983294487, -0.010877975262701511, 0.05201491340994835, -0.05945899337530136, -0.1440703421831131, -0.014816313050687313, -0.10187763720750809, -0.1254371851682663, 0.0622466579079628, 0.17930962145328522, -0.0041132038459181786, 0.07918784767389297, -0.016332805156707764, 0.04159329831600189, -0.013008671812713146, 0.0005660494789481163, -0.045391473919153214, 0.028851039707660675, 0.0821257159113884, -0.05567951872944832, 0.10150440782308578, 0.042543359100818634, 0.028332894667983055, -0.010360034182667732, 0.06171295419335365, -0.05046558007597923, 0.041442375630140305, 0.044079702347517014, 0.07058563828468323, -0.005201364867389202, 0.05897481366991997, 0.017308726906776428, -0.1024872437119484, 0.03875928744673729, 0.0858413577079773, 0.002949255518615246, -0.01551931444555521, 0.04815451055765152, -0.11346615105867386, -0.03745536506175995, -0.054451532661914825, 0.025022275745868683, 0.025700587779283524, -0.0761510506272316, -0.06625772267580032, 0.06910939514636993, -0.1043979823589325, 0.004190224222838879, -0.07040737569332123, -0.024070190265774727, 0.016277221962809563, 0.0589706227183342, 0.04543418809771538, 0.007373598869889975, 0.013866064138710499, -0.02059953473508358, 0.11296580731868744, 0.07890091091394424, 0.016269495710730553, 0.08625250309705734, 0.030133971944451332, 0.10922861099243164, -0.018550464883446693, 0.032179251313209534, 0.056164324283599854, -0.047473710030317307, -0.04349289834499359, -0.05525624379515648, -0.004957706201821566, -0.009054000489413738, 0.0005145921022631228, -0.012942945584654808, 0.049430470913648605, -0.03930811583995819, 0.04701973497867584, -0.03092997893691063, -0.016245177015662193, 0.03531309962272644, -0.09103250503540039, -0.013929127715528011, -0.03650404512882233, -0.012579922564327717, -0.060920070856809616, -0.024633346125483513, -0.06231836974620819, 0.07195691764354706, 0.05529896169900894, 0.10436463356018066, 0.014290806837379932, 0.0074780844151973724, -0.027164937928318977, 0.024128761142492294, 0.06972960382699966, 0.052906520664691925, 0.047419652342796326, -0.032714974135160446, -0.1290130615234375, 0.06747699528932571, -0.02748088538646698, 0.12835867702960968, 0.028202207759022713, -0.11432419717311859, 0.03227858617901802, 0.033646684139966965, -0.002803144045174122, 0.08648886531591415, -0.0028041682671755552, 0.03223078325390816, -0.0011675064451992512, 0.06882086396217346, -0.10352703183889389, -0.010834727436304092, -0.03626514598727226, 0.011405380442738533, -0.05615820735692978, 0.06815776973962784, 0.08542481064796448, -0.0779404267668724, 0.14217175543308258, 0.09155497699975967, 0.03297380730509758, -0.006478115450590849, -0.011323905549943447, -0.06948719173669815, 0.028353741392493248, 0.08987080305814743, -0.13512569665908813, -0.02552800066769123, -0.06014719977974892, -0.002484422642737627, 0.07923908531665802, 0.028842605650424957, -0.037237491458654404, 0.17291535437107086, 0.07357511669397354, 0.0581708699464798, -0.027543775737285614, 0.05119145289063454, 0.03864574432373047, -0.07024581730365753, -0.021791422739624977, -0.07039003819227219, 0.05539645999670029, 0.04944194108247757, -0.02808431163430214, -0.11570851504802704, 0.025784412398934364, -0.060671430081129074, 0.11091294884681702, 0.05733751133084297, 0.060154784470796585, 0.019624603912234306, 0.038564976304769516, 0.09279889613389969, -0.1320120096206665, -0.03915509581565857, 0.05896718427538872, 0.09725823253393173, 0.037885528057813644, 0.06647000461816788, -0.041382577270269394, -0.04757526516914368, 0.021525757387280464, -0.12647508084774017, 0.1401764154434204, 0.013492666184902191, -0.05345300957560539, -0.028030261397361755, -0.000591869349591434, -0.04944554343819618, 0.10736094415187836, 0.05900098755955696, -0.02631845511496067, 0.03794897720217705, 0.0806841030716896, 0.2076968550682068, -0.04459087923169136, -0.15510018169879913, -0.027251750230789185, 0.14525698125362396, -0.06259036809206009, -0.09730104357004166, 0.12170195579528809, -0.09870129078626633, -0.0694117471575737, 0.16505534946918488, -0.05568961799144745, -0.014996074140071869, 0.057932522147893906, -0.009155060164630413, 0.08062810450792313, -0.018316274508833885, -0.08630204200744629, 0.09952376037836075, 0.06296426057815552, 0.1831449270248413, 0.14112812280654907, 0.15766316652297974, 0.16487127542495728, -0.20984181761741638, -0.1716686636209488, -0.11032995581626892, -0.07685623317956924, -0.02089678682386875, -0.04725509136915207, 0.1751859486103058, 0.22832491993904114, 0.03094761073589325, -0.12373655289411545, 0.2017284780740738, 0.1158962994813919, -0.04437040537595749, -0.01021723635494709, 0.16829456388950348, 0.006030067335814238, -0.02101655676960945, -0.04535460099577904, 0.11290733516216278, -0.027587343007326126, 0.04175541549921036, 0.07536273449659348, 0.09543030709028244, 0.1134057566523552, 0.05281856283545494, 0.035667188465595245, 0.01078068558126688, 0.022232886403799057, -0.12588262557983398, 0.029812125489115715, 0.04551205039024353, -0.09224066883325577, -0.02470715530216694, 0.04946695268154144, 0.029595209285616875, 0.005469656083732843, 0.031631097197532654, 0.039325304329395294, 0.07183528691530228, -0.03149386867880821, 0.05324600636959076, -0.05190441757440567, 0.1063898429274559, 0.0179909598082304, -0.05707915872335434, 0.040975622832775116, 0.058047715574502945, -0.03393037989735603, -0.04062775522470474, -0.006198290269821882, -0.0869143083691597, -0.02082725428044796, 0.06231847032904625, 0.05462159588932991, 0.004064418841153383, 0.009848580695688725, 0.0171560849994421, 0.08422139286994934, 0.03388873115181923, -0.15694601833820343, 0.016401706263422966, 0.12723125517368317, 0.04816452041268349, -0.020255636423826218, 0.004133454989641905, -0.07924368977546692, -0.11371065676212311, 0.0026740285102277994, -0.08302534371614456, 0.16204456984996796, -0.07472018152475357, -0.06605235487222672, -0.027536455541849136, -0.04075133427977562, -0.11720504611730576, 0.2247135490179062, -0.1488621085882187, 0.11622177809476852, 0.010748795233666897, -0.08156993240118027, 0.012202790938317776, 0.04929181933403015, -0.04438925161957741, 0.028363822028040886, -0.02612481079995632, 0.017658136785030365, 0.031993575394153595, 0.0731198862195015, 0.009580687619745731, 0.04985751956701279, 0.003202054649591446, 0.026616089046001434, 0.030562181025743484, -0.020608410239219666, 0.038459330797195435, 0.0954684317111969, -0.013109911233186722, 0.006666071712970734, 0.030272146686911583, -0.04105599597096443, 0.00634793983772397, 0.06954928487539291, -0.10722384601831436, -0.011502091772854328, 0.03692150488495827, -0.08744247257709503, 0.05606716871261597, 0.14425969123840332, 0.03265475481748581, -0.03854642063379288, 0.08792708814144135, 0.01541298907250166, -0.005352802108973265, 0.08838491886854172, 0.016819586977362633, 0.1316283643245697, 0.04274479299783707, -0.11444456875324249, 0.09782635420560837, -0.011654825881123543, 0.004173473455011845, -0.04957186430692673, 0.07031092792749405, -0.023029237985610962, 0.013467456214129925, -0.08063691109418869, 0.06063390523195267, 0.026497380807995796, 0.07003401964902878, -0.02139844372868538, 0.11647606641054153, -0.037278663367033005, 0.08827371150255203, 0.0676281675696373, 0.04976069927215576, 0.005176020320504904, -0.01811218075454235, 0.07848864048719406, -0.06946490705013275, -0.07594917714595795, -0.11926718801259995, 0.035477135330438614, -0.041152022778987885, 0.005774447228759527, -0.037085454910993576, -0.015105066820979118, 0.08900729566812515, -0.07833591848611832, 0.08968384563922882, -0.09569615870714188, 0.0038327183574438095, 0.03842930495738983, -0.011833124794065952, 0.07543288916349411, -0.07846324145793915, 0.05959763005375862, 0.18574896454811096, 0.040201153606176376, -0.11493091285228729, -0.019585365429520607, 0.025094948709011078, 0.0015680288197472692, -0.01244231965392828, -0.0007917030598036945, -0.09140855073928833, 0.02188885398209095, -0.04750892519950867, -0.06898125261068344, -0.00968860276043415, -0.03867734596133232, 0.05035189166665077, 0.02221831865608692, -0.005087170284241438, -0.05910515785217285, 0.1209864541888237, 0.05060044303536415, -0.09533623605966568, -0.06628380715847015, -0.09784454107284546, 0.04619961231946945, -0.01322481594979763, 0.04845947027206421, 0.03664511814713478, 0.039496682584285736, 0.005780621897429228, 0.08862457424402237, -0.0848856270313263, -0.04643078148365021, -0.07987957447767258, 0.01835910603404045, 0.044193558394908905, 0.056483179330825806, 0.07243791967630386, 0.020150506868958473, -0.011121793650090694, -0.06512943655252457, -0.02952943928539753, 0.02043868601322174, 0.05521197244524956, -0.014755837619304657, -0.03968748450279236, 0.02854134887456894, 0.07159887254238129, 0.08021195977926254, -0.023795390501618385, -0.003519929014146328, 0.17557136714458466, 0.03235309571027756, -0.08407016098499298, 0.11591820418834686, 0.11701954901218414, -0.062024276703596115, -0.015238968655467033, 0.04989380016922951, 0.020740507170557976, -0.05203511193394661, -0.05637466534972191, 0.10036180913448334, -0.03788129240274429, -0.050358280539512634, 0.0077048130333423615, -0.06895908713340759, 0.049202777445316315, 0.07368157804012299, 0.04549629986286163, 0.026960913091897964, 0.00918356329202652, -0.016271483153104782, 0.06637273728847504, 0.05486813932657242, 0.09413041919469833, -0.032396115362644196, 0.08573324978351593, 0.07564519345760345, -0.0059494138695299625, -0.03886902332305908, 0.007324338890612125, 0.03125683218240738, 0.007482252083718777, -0.038707662373781204, 0.2453988641500473, -0.16540256142616272, -0.13379527628421783, 0.1840030401945114, 0.04516427963972092, 0.10980188846588135, 0.3023914098739624, -0.15445852279663086, -0.05877862870693207, 0.19165350496768951, 0.05665955692529678, -0.030309677124023438, 0.16866981983184814, 0.10773006081581116, -0.15689750015735626, -0.022358154878020287, 0.10566337406635284, 0.10002921521663666, 0.21437129378318787, 0.05313445255160332, 0.1390715092420578, 0.019421260803937912, 0.09307879954576492, 0.06248461455106735, 0.06140327826142311, -0.1393955498933792, 0.13821908831596375, -0.06551482528448105, 0.11430712789297104, -0.06320268660783768, 0.016427742317318916, -0.060222115367650986, -0.11782456934452057, 0.05971510335803032, 0.15074245631694794, -0.07762527465820312, 0.21137280762195587, 0.06102759763598442, -0.1758207231760025, -0.008595963940024376, -0.09044335782527924, 0.1203715056180954, 0.004507262259721756, -0.10245631635189056, 0.15571187436580658, -0.1544966697692871, 0.07238739728927612, 0.027808645740151405, 0.1675703078508377, -0.03777531906962395, -0.12338054925203323, 0.017265237867832184, 0.036082856357097626, 0.107966348528862, -0.028259163722395897, 0.06398037821054459, 0.007770842406898737, 0.08109698444604874, -0.17536012828350067, 0.1194453239440918, -0.016041463240981102, -0.023161524906754494, 0.051146410405635834, 0.07917655259370804, -0.055782485753297806, 0.06513548642396927, 0.016598671674728394, 0.07661949098110199, -0.09666980057954788, 0.010629808530211449, 0.01600632071495056, -0.015670455992221832, -0.052961546927690506, 0.020940832793712616, -0.005655341316014528, -0.09183724224567413, 0.06229978799819946, 0.09118979424238205, 0.0026706610806286335, -0.07537193596363068, 0.09635955840349197, 0.13261687755584717, 0.007983787916600704, 0.08763013035058975, 0.0850825384259224, -0.011114436201751232, -0.009963168762624264, 0.12105009704828262, 0.06876081973314285, -0.07824289798736572, 0.047144174575805664, -0.06081518903374672, 0.020050212740898132, 0.04463454335927963, 0.05194122716784477, -0.022046927362680435, -0.07599196583032608, 0.11433584988117218, 0.014890148304402828, 0.06295333802700043, -0.08167793601751328, 0.027890333905816078, 0.10699901729822159, 0.0023226949851959944, 0.06098397821187973, 0.10558716207742691, -0.0164943914860487, -0.07562603801488876, 0.0016613714396953583, -0.027384258806705475, -0.042722634971141815, -0.009728791192173958, -0.02203061431646347, 0.03378897160291672, -0.038794368505477905, -0.006916781887412071, -0.07332359254360199, -0.04580678418278694, 0.05743316560983658, -0.0007570801535621285, -0.018355756998062134, -0.02614894136786461, -0.06822412461042404, 0.04646722599864006, 0.0014606419717893004, -0.018791766837239265, 0.07317525148391724, -0.10070113092660904, 0.0487552136182785, -0.0582289956510067, 0.06879876554012299, -0.022434690967202187, -0.11254838854074478, 0.0016932494472712278, -0.00802578404545784, 0.03801495581865311, -0.012053482234477997, -0.04679655656218529, 0.05797871574759483, -0.11374030262231827, 0.004160010255873203, -0.016956256702542305, -0.06440336257219315, -0.04007664695382118, -0.05682539567351341, -0.07846660166978836, -0.08070547878742218, 0.01554560661315918, -0.01254060585051775, 0.010622469708323479, 0.014800245873630047, -0.10349573194980621, 0.0632232278585434, 0.029204122722148895, -0.005437156651169062, 0.030865676701068878, 0.1159372553229332, -0.022475311532616615, -0.0009619960910640657, -0.11909442394971848, -0.031606677919626236, 0.06352977454662323, 0.056904252618551254, -0.01292510237544775, 0.057174768298864365, -0.08179684728384018, 0.14024119079113007, 0.00010589222802082077, 0.11772038042545319, 0.004865665454417467, 0.00442094961181283, 0.06671226024627686, -0.008927096612751484, 0.06895768642425537, -0.07259108871221542, 0.04258468747138977, -0.07424993813037872, -0.01092338003218174, 0.11390800029039383, -0.048186346888542175, 0.09008405357599258, -0.03851078823208809, 0.08661989122629166, -0.022826679050922394, -0.025311650708317757, -0.003525993088260293, -0.02275504730641842, 0.004467759747058153, 0.012163111940026283, -0.07622850686311722, -0.06007826700806618, -0.019940242171287537, 0.0041234176605939865, 0.05750717967748642, 0.02941245771944523, -0.09693542867898941, -0.043261073529720306, 0.07692275941371918, -0.0009261848172172904, 0.07730221748352051, -0.05323660001158714, -0.021714070811867714, 0.013363465666770935, 0.04605823755264282, -0.08285709470510483, 0.07834922522306442, 0.03015252575278282, -0.05149202048778534, 0.03206900134682655, -0.06932315975427628, 0.0664513111114502, -0.07047676295042038, 0.04443476349115372, -0.016902757808566093, -0.025932488963007927, -0.015889866277575493, 0.06549733877182007, -0.09351540356874466, 0.09581320732831955, -0.052976470440626144, -0.12229447811841965, 0.009822338819503784, 0.05190794914960861, 0.03726428747177124, -0.015577387996017933, -0.1006593182682991, 0.006439416203647852, -0.1137717142701149, 0.004851215053349733, -0.0070736100897192955, -0.014451616443693638, 0.02783537283539772, -0.006923382636159658, 0.02894224412739277, 0.01287007238715887, -0.025675060227513313, 0.06554420292377472, 0.13570380210876465, 0.05559873580932617, 0.01120839361101389, 0.017241617664694786, 0.20220433175563812, -0.012785684317350388, -0.07903289049863815, 0.023747317492961884, 0.07030986249446869, -0.010279395617544651, -0.0024867283646017313, 0.024926530197262764, 0.046842582523822784, 0.012348638847470284, -0.02253378927707672, -0.013579118996858597, 0.037933822721242905, 0.05832121893763542, -0.0025996200274676085, 0.04594307020306587, 0.046667713671922684, 0.029937563464045525, -0.0022691499907523394, 0.09002378582954407, -0.0006222495576366782, -0.04667959734797478, -0.04773328825831413, 0.03067423403263092, -0.025088859722018242, 0.06430087983608246, 0.018158821389079094, -0.01804373972117901, 0.06785127520561218, -0.1113765761256218, 0.09535541385412216, 0.10441207140684128, -0.09009135514497757, 0.03615403175354004, -0.05608857050538063, 0.11659479886293411, -0.030109861865639687, 0.056587133556604385, -0.14547446370124817, -0.22530052065849304, 0.14034287631511688, -0.040521152317523956, -0.07491599023342133, -0.2520640790462494, 0.07316417992115021, -0.11208921670913696, -0.06347443908452988, -0.014031355269253254, 0.055911123752593994, 0.016567926853895187, 0.039257269352674484, 0.13609260320663452, 0.08441341668367386, 0.05295369029045105, 0.04495498538017273, 0.17418234050273895, 0.12193455547094345, -0.12126421928405762, -0.01725512184202671, 0.08330899477005005, 0.09107871353626251, -0.02840285375714302, 0.19045405089855194, 0.07044769078493118, -0.027505038306117058, 0.03430590406060219, 0.04006188362836838, 0.01666926220059395, 0.12455491721630096, 0.0018560828175395727, 0.08635836839675903, -0.16405072808265686, -0.053451236337423325, 0.14429925382137299, 0.018641214817762375, -0.02214408479630947, 0.09764999896287918, 0.18896394968032837, -0.10591650009155273, 0.009866341017186642, -0.1456509381532669, -0.019437965005636215, -0.03148629143834114, -0.022231098264455795, -0.01961476169526577, 0.07040145248174667, 0.003825300605967641, -0.08311833441257477, 0.03621913492679596, 0.06377217918634415, 0.1280009001493454, 0.1226792111992836, -0.026952160522341728, -0.054432179778814316, 0.12335966527462006, 0.074764184653759, 0.029087409377098083, 0.13248978555202484, 0.1017802357673645, -0.024860519915819168, 0.08486898243427277, -0.003489153925329447, -0.001321120304055512, -0.07151313126087189, -0.057591211050748825, 0.0910351425409317, 0.05686086416244507, -0.013419920578598976, 0.016443341970443726, 0.0474780835211277, -0.03428909182548523, -0.03172747790813446, 0.05245395004749298, -0.021862052381038666, -0.062276095151901245, 0.07286292314529419, 0.04732660576701164, -0.17689117789268494, -0.03303264454007149, 4.5474429498426616e-05, 0.13753670454025269, 0.06541869789361954, -0.07251943647861481, 0.09427551925182343, 0.0061541274189949036, -0.18032711744308472, 0.126738503575325, 0.01859879307448864, -0.038483213633298874, -0.04640321433544159, 0.021494731307029724, 0.015493396669626236, 0.14064812660217285, -0.058783359825611115, 0.10248268395662308, 0.04944900795817375, -0.017267903313040733, -0.008859415538609028, 0.02366134710609913, 0.04223332181572914, 0.02819303795695305, 0.15385422110557556, 0.06614231318235397, 0.0056943995878100395, 0.06318017095327377, -0.07298357784748077, -0.03124602511525154, 0.14181989431381226, 0.08046314865350723, 0.04774927347898483, -0.12076406180858612, 0.023409435525536537, 0.12252578884363174, -0.04113530367612839, -0.031445253640413284, -0.08042624592781067, 0.0684036910533905, 0.13175013661384583, -0.016567528247833252, 0.10738448798656464, -0.00457131490111351, -0.0165388360619545, 0.015618561767041683, 0.018636884167790413, -0.04602348431944847, -0.00268155662342906, 0.07944954931735992, 0.0800878182053566, -0.09155483543872833, 0.026439838111400604, -0.0022338214330375195, -0.06416772305965424, 0.0343317873775959, -0.07161127030849457, -0.0733465626835823, -0.07180193066596985, 0.00960390642285347, -0.09247437864542007, -0.013834482058882713, -0.06600592285394669, 0.000629931571893394, 0.0091400146484375, 0.0679071769118309, -0.07586044073104858, -0.05066356807947159, -0.07422872632741928, -0.016729820519685745, -0.10168032348155975, -0.08064032346010208, -0.06571498513221741, -0.013542468659579754, 0.009345700964331627, -0.09473363310098648, 0.028671499341726303, 0.13754791021347046, 0.06224188208580017, -0.0015279826475307345, -0.04391779005527496, 0.08087088167667389, 0.05565738305449486, 0.04637594521045685, -0.056899186223745346, -0.10177300125360489, -0.039085518568754196, -0.0027113326359540224, 0.04298409819602966, 0.07105014473199844, -0.0011021648533642292, -0.053688500076532364, -0.02868378907442093, 0.01802811585366726, -0.0379277728497982, -0.07380183786153793, 0.07164066284894943, -0.0019799922592937946, 0.03544596582651138, 0.026213956996798515, 0.18092882633209229, 0.04217873141169548, 0.11624913662672043, -0.007465262897312641, -0.04737835004925728, -0.07125873863697052, 0.03655051067471504, 0.017553258687257767, 0.01564951241016388, 0.058676380664110184, 0.070741668343544, 0.03855258226394653, -0.06246902421116829, 0.024916930124163628, -0.002210506470873952, -0.015015143901109695, 0.07181578129529953, -0.027856502681970596, -0.006830958649516106, 0.02305609919130802, 0.08835989236831665, 0.16640371084213257, -0.08329079300165176, 0.07877867668867111, 0.0227962676435709, 0.025807993486523628, -0.020659327507019043, -0.04577011615037918, -0.012996594421565533, 0.08756250888109207, 0.0894678384065628, 0.10618004947900772, 0.14750395715236664, 0.08252707123756409, 0.0009098860900849104, 0.0884510800242424, -0.10742300003767014, -0.07098767161369324, 0.045033689588308334, -0.07902884483337402, 0.08924002945423126, 0.0342288464307785, 0.042955998331308365, -0.05698280408978462, -0.019215695559978485, 0.051871299743652344, 0.012213307432830334, 0.034211959689855576, -0.07649480551481247, 0.050639353692531586, -0.04998690262436867, 0.015932204201817513, -0.07422119379043579, 0.10832615941762924, -0.01830662600696087, 0.03221187740564346, 0.002087193774059415, 0.08569756895303726, 0.02580181136727333, 0.06849923729896545, 0.020428944379091263, 0.012899794615805149, 0.05744171887636185, 0.03856657072901726, 0.05724956467747688, 0.07898110896348953, -0.05667157471179962, 0.15463609993457794, 0.0821671262383461, 0.05648999288678169, 0.024685828015208244, -0.060786210000514984, 0.08864032477140427, 0.05015028268098831, 0.07302731275558472, 0.10918240249156952, 0.023120559751987457, 3.350030965521e-05, -0.007623520214110613, 0.04306397587060928, -0.007023998536169529, 0.0625937208533287, 0.20196589827537537, 0.15702909231185913, 0.16560427844524384, -0.07130719721317291, 0.17606836557388306, 0.054229866713285446, 0.03985603526234627, 0.15411658585071564, 0.08173413574695587, -0.049585744738578796, 0.09086770564317703, -0.04510802403092384, 0.0015751757891848683, -0.158404141664505, 0.07137467712163925, 0.10214201360940933, 0.0346088707447052, 0.18575459718704224, -0.05028371512889862, -0.1155577152967453, -0.0011149615747854114, 0.132508784532547, 0.018384339287877083, 0.043251801282167435, -0.04235532879829407, 0.14269371330738068, 0.22943376004695892, -0.15065942704677582, 0.08729476481676102, 0.016666345298290253, -0.16544054448604584, -0.08778419345617294, 0.06067723035812378, -0.18895363807678223, 0.024526875466108322, -0.05232275649905205, -0.02978428080677986, 0.07084760069847107, 0.06156329810619354, -0.08360759168863297, 0.22346295416355133, 0.10404022783041, -0.07176966220140457, 0.06340573728084564, 0.14017680287361145, 0.3694815933704376, -0.02349378913640976, -0.1974557787179947, -0.03186728432774544, 0.007844365201890469, 0.07475540786981583, 0.008273785933852196, -0.013223842717707157, 0.012304812669754028, 0.08478005230426788, 0.05485492944717407, -0.10462857782840729, 0.04282492771744728, 0.014735513366758823, 0.09047389775514603, -0.033468641340732574, 0.02507990412414074, -0.0816129669547081, 0.04929473251104355, 0.057141903787851334, 0.11872438341379166, -0.04292256385087967, 0.0020077466033399105, -0.17163386940956116, 0.06738322973251343, 0.017485201358795166, -0.056656334549188614, -0.07811582088470459, -0.06258143484592438, 0.07614351063966751, 0.06028434634208679, -0.017263369634747505, -0.1316283494234085, -0.024079369381070137, -0.04032621160149574, 0.07128089666366577, 0.08291870355606079, 0.025294089689850807, 0.07815469801425934, -0.09603548794984818, -0.060719240456819534, 0.1227910965681076, 0.06283392012119293, -0.03279060125350952, -0.014778201468288898, 0.01449507661163807, -0.039727941155433655, -0.07895129173994064, 0.11975988745689392, -0.044906117022037506, 0.11033223569393158, -0.04289357736706734, -0.08030978590250015, 0.06104838103055954, 0.15334802865982056, 0.0020870452281087637, -0.0036243100184947252, -0.08453855663537979, 0.03284144029021263, 0.009356416761875153, -0.021327681839466095, 0.0016578349750488997, 0.11719580739736557, 0.026767803356051445, 0.17352983355522156, -0.12653905153274536, 0.1112058237195015, 0.09391579777002335, -0.012379500083625317, -0.06764832884073257, 0.07986122369766235, 0.03178274631500244, 0.17132984101772308, 0.06698185950517654, -0.029173344373703003, -0.03759019449353218, -0.04408206045627594, -0.0799773782491684, -0.06451906263828278, 0.0021108442451804876, 0.0007961226510815322, 0.047563549131155014, 0.024304930120706558, -0.0007674579974263906, 0.048976488411426544, -0.045353665947914124, -0.014086214825510979, -0.005370414350181818, 0.01996227167546749, -0.016213983297348022, -0.043065834790468216, -0.0004861798952333629, 0.05511694774031639, -0.035738229751586914, 0.15796396136283875, -0.046468351036310196, -0.051467783749103546, 0.021605614572763443, -0.03452110290527344, -0.0993177592754364, 0.0064697228372097015, 0.028416790068149567, -0.035284820944070816, 0.03200920298695564, -0.05682256072759628, -0.006575661711394787, 0.08590623736381531, 0.06623219698667526, -0.01843119226396084, 0.07720720767974854, 0.07785960286855698, -0.006489408668130636, 0.054483562707901, -0.051606837660074234, 0.06980617344379425, 0.016743304207921028, 0.07557884603738785, 0.0007758514257147908, 0.0008640974410809577, -0.07612384110689163, 0.013627077452838421, -0.012110869400203228, 0.14744789898395538, -0.02066427655518055, -0.09409723430871964, 0.046190716326236725, 0.07752219587564468, -0.007515958976000547, 0.012737832963466644, 0.08857093751430511, 0.032743848860263824, 0.022142231464385986, 0.08014959841966629, 0.04750337824225426, -0.1185995414853096, 0.10494758188724518, 0.07578520476818085, -0.041861966252326965, 0.10063084214925766, 0.040051933377981186, -0.08641287684440613, 0.1073426753282547, -0.029278714209794998, 0.1200065016746521, -0.03435882553458214, -0.024496974423527718, 0.02586299367249012, 0.0541977658867836, 0.03296180069446564, -0.04611193388700485, -0.014683591201901436, -0.0958026871085167, 0.0007345444173552096, -0.006186191458255053, 0.06010632961988449, -0.053120650351047516, 0.08550921827554703, -0.0468159094452858, -0.07342033833265305, 0.067143514752388, 0.09397481381893158, 0.021758785471320152, -0.007383609656244516, -0.07213518023490906, 0.052413132041692734, -0.03674302622675896, -0.059083662927150726, -0.018269358202815056, 0.009844344109296799, -0.03016095981001854, -0.004516165237873793, -0.022530557587742805, 0.03456640616059303, 0.03882591053843498, 0.05674076825380325, 0.09125956892967224, -0.028207944706082344, 0.06922885030508041, 0.01887902058660984, 0.006472504232078791, 0.022568143904209137, 0.058491311967372894, -0.10825355350971222, 0.06445001810789108, -0.0856187492609024, -0.017052318900823593, -0.0370735339820385, -0.00903109461069107, 0.009111776947975159, -0.02775733545422554, -0.06617611646652222, -0.020547809079289436, 0.027359941974282265, -0.04014867916703224, 0.010782317258417606, -0.07261120527982712, 0.02870173379778862, 0.011598446406424046, 0.02331150509417057, 0.012871469371020794, 0.07573755830526352, 0.031046412885189056, 0.027665210887789726, -0.008788090199232101, -0.05449223890900612, 0.03655475378036499, 0.07501315325498581, 0.02039211057126522, 0.004060655366629362, -0.0465325266122818, 0.06527674943208694, -0.02569393441081047, 0.020849263295531273, 0.11978141963481903, 0.07972163707017899, 0.03996679186820984, -0.041391294449567795, -0.026340501382946968, 0.032365888357162476, 0.08806151151657104, -0.12368980050086975, 0.037421055138111115, 0.11036325991153717, 0.018296267837285995, 0.020687298849225044, -0.04012594372034073, 0.09378466755151749, 0.08204295486211777, -0.1481906622648239, -0.12991181015968323, -0.07446133345365524, 0.09843826293945312, 0.23418191075325012, 0.17275230586528778, 0.11904542148113251, 0.0478825569152832, -0.03473561629652977, 0.19420041143894196, -0.06834975630044937, 0.151937335729599, 0.0759674683213234, 0.18013042211532593, 0.10019897669553757, 0.05437271669507027, 0.02886779047548771, 0.04152427986264229, 0.13849249482154846, -0.07602842152118683, -0.09266897290945053, 0.08750069886445999, 0.11558964848518372, 0.16984526813030243, -0.012718469835817814, -0.12270451337099075, -0.024584181606769562, 0.12897230684757233, -0.2006523460149765, 0.018177209421992302, 0.002774949185550213, 0.03031664900481701, -0.020273782312870026, -0.10651304572820663, -0.01219136081635952, 0.10686980187892914, 0.22070914506912231, 0.14503172039985657, 0.10200885683298111, 0.12420658767223358, -0.017097296193242073, 0.02244468405842781, -0.03623231127858162, -0.09853625297546387, 0.11011313647031784, 0.15388067066669464, -0.15520355105400085, -0.09163501113653183, -0.001765925670042634, 0.1502493917942047, -0.004066544584929943, 0.05533921718597412, -0.012836421839892864, 0.015596198849380016, 0.08041377365589142, 0.01302379835397005, -0.10572297126054764, -0.03215881064534187, 0.018504923209547997, -0.025083955377340317, 0.07984078675508499, -0.09598971158266068, 0.14393645524978638, 0.09856658428907394, 0.02134650945663452, -0.05648065730929375, -0.013556160032749176, -0.022988736629486084, -0.08325281739234924, 0.018132906407117844, -0.008677505888044834, -0.018415747210383415, 0.07967834919691086, 0.0016709163319319487, -0.05377428978681564, -0.001562635530717671, 0.046899259090423584, -0.05384088307619095, 0.051852043718099594, 0.003908029291778803, -0.03850601613521576, -0.0139460489153862, 0.08159037679433823, -0.013915309682488441, 0.030364204198122025, -0.039267733693122864, 0.022866051644086838, 0.004052732605487108, -0.06758561730384827, 0.0005872961482964456, -0.022153615951538086, -0.003952366299927235, 0.05798078328371048, -0.01766652800142765, -0.011371806263923645, -0.04604467749595642, -0.02780269831418991, 0.047864217311143875, 0.026568682864308357, 0.032522812485694885, -0.02061234973371029, 0.10842475295066833, 0.0536983348429203, -0.22487106919288635, -0.05510934814810753, 0.0722438395023346, 0.12774203717708588, -0.11487650871276855, 0.12356045842170715, 0.1091078594326973, -0.020872170105576515, -0.04071183130145073, -0.011754135601222515, 0.03189646080136299, 0.02413076162338257, 0.11866667121648788, 0.04523133113980293, -0.031476184725761414, 0.006659080274403095, -0.028883302584290504, -0.15281181037425995, 0.011757825501263142, 0.039248835295438766, 0.027060503140091896, -0.019926121458411217, -0.017384426668286324, 0.10433221608400345, -0.1060921847820282, -0.03095071390271187, 0.053226981312036514, 0.018399983644485474, 0.12707236409187317, 0.04273476079106331, 0.10098028928041458, 0.06249945983290672, -0.014799585565924644, -0.030566301196813583, 0.05229894071817398, -0.039664994925260544, -0.04302002117037773, 0.12192782759666443, 0.015771465376019478, -0.027730736881494522, -0.032598819583654404, 0.021206878125667572, 0.06005842238664627, 0.05784367769956589, -0.08377394825220108, -0.030416665598750114, -0.017416832968592644, 0.10533975064754486, -0.026472626253962517, 0.01650451309978962, 0.023252354934811592, -0.026984039694070816, -0.021676676347851753, -0.032416392117738724, 0.08520295470952988, -0.02976028062403202, 0.03362312167882919, -0.014995953068137169, 0.013818496838212013, 0.023374006152153015, 0.019214492291212082, -0.019564760848879814, -0.01472410187125206, -0.06324032694101334, -0.03877739608287811, 0.024587396532297134, 0.03298391029238701, -0.03829585760831833, 0.10875377058982849, -0.03833680972456932, 0.024001741781830788, 0.09737793356180191, -0.04084060713648796, -0.04540913924574852, 0.09725001454353333, 0.027019288390874863, -0.08593250066041946, -0.05643574148416519, 0.03561018779873848, 0.10217572003602982, -0.07376541197299957, -0.02072104811668396, -0.04631972312927246, -0.0294999610632658, 0.004440451506525278, 0.0694408267736435, 0.03334871307015419, 0.02821614220738411, 0.09721889346837997, 0.033088572323322296, 0.11168958246707916, 0.09199181944131851, -0.0736926794052124, 0.0918271392583847, 0.04006274417042732, -0.07350054383277893, 0.07490517199039459, -0.006743801757693291, -0.039506129920482635, 0.11748811602592468, 0.02543175406754017, 0.05875690281391144, 0.07963751256465912, -0.036183737218379974, -0.04331136867403984, 0.029014093801379204, -0.05696447193622589, -0.047641001641750336, 0.015670612454414368, 0.07963220030069351, 0.08362343907356262, -0.01882815733551979, -0.1859651505947113, 0.05593305081129074, 0.0232411976903677, 0.04712648689746857, 0.08739205449819565, 0.06112426891922951, 0.1363518238067627, -0.04011695459485054, 0.023688191547989845, -0.01380249485373497, -0.07138027995824814, -0.05514049157500267, 0.008407910354435444, 0.05226963013410568, 0.03467120975255966, 0.011750294826924801, -0.024078087881207466, 0.013988924212753773, -0.018407588824629784, 0.019113045185804367, -0.0511791966855526, -0.012093926779925823, -0.01643812097609043, 0.045369189232587814, -0.00030616761068813503, -0.0014511768240481615, -0.04385394603013992, 0.049649499356746674, -0.052341729402542114, -0.01926342584192753, -0.0658109039068222, 0.04282283037900925, -0.013136880472302437, 0.13552141189575195, -0.09319569170475006, 0.046013474464416504, 0.028719870373606682, 0.06813585758209229, 0.07313158363103867, 0.03715511038899422, -0.011043321341276169, -0.026722542941570282, 0.023960566148161888, 0.030021067708730698, 0.04621631279587746, 0.03978485241532326, 0.05811203643679619, 0.059926580637693405, 0.006293109152466059, -0.09519994258880615, 0.10527679324150085, -0.03737188130617142, -0.1704319268465042, 0.1696484088897705, 0.09876738488674164, -0.14721450209617615, 0.04434717446565628, -0.19816888868808746, 0.19346113502979279, -0.029510479420423508, -0.06460162997245789, -0.12187201529741287, -0.08843232691287994, 0.03656184673309326, 0.1969604641199112, -0.09463391453027725, -0.027110101655125618, -0.24210408329963684, 0.04927220940589905, 0.10394905507564545, -0.1553928256034851, 0.2083616703748703, 0.011422906070947647, -0.09112978726625443, 0.07450411468744278, 0.08800265192985535, 0.022575313225388527, 0.07592327892780304, -0.12553474307060242, -0.04120046645402908, 0.2053755819797516, 0.12482551485300064, -0.11830145120620728, -0.22212937474250793, 0.07636670023202896, -0.09592203050851822, 0.05474675074219704, 0.10105063766241074, 0.037470269948244095, -0.09638778120279312, 0.09683313220739365, 0.16848036646842957, -0.16400910913944244, -0.09777289628982544, -0.04691464081406593, 0.014401066116988659, 0.04728080332279205, 0.09883305430412292, 0.10619086772203445, 0.07332735508680344, -0.006701890379190445, 0.19889163970947266, -0.041298143565654755, -0.06992942839860916, 0.1582668125629425, -0.047172870486974716, 0.007872575893998146, 0.11052772402763367, 0.06594482064247131, 0.13440895080566406, -0.06617790460586548, 0.018597353249788284, 0.013706812635064125, 0.17307865619659424, 0.0941942036151886, 0.06018263101577759, -0.05043727904558182, 0.06091588735580444, -0.035946816205978394, 0.08060149848461151, -0.03327787667512894, -0.15776124596595764, -0.002987932413816452, -0.1144353598356247, 0.017610304057598114, 0.17341098189353943, -0.03668133541941643, -0.07433535903692245, -0.0015819532563909888, 0.044900082051754, 0.07727546244859695, 0.010779817588627338, -0.021123182028532028, -0.05012474209070206, 0.14362117648124695, 0.027506930753588676, 0.01751532219350338, -0.04661112651228905, 0.029905468225479126, 0.12953044474124908, 0.04586613550782204, -0.048924751579761505, 0.013486967422068119, -0.034768786281347275, 0.09728597104549408, 0.09326625615358353, 0.07743382453918457, -0.08102098852396011, -0.0043011680245399475, -0.11937367171049118, 0.05189729481935501, -0.0664232075214386, 0.07513975352048874, -0.01859479397535324, -0.019481007009744644, 0.13997411727905273, 0.01509052887558937, 0.15626884996891022, -0.018597621470689774, 0.14417697489261627, 0.0800786018371582, 0.1799461841583252, 0.004494951572269201, 0.013306204229593277, 0.17489297688007355, 0.03817116469144821, -0.07799242436885834, 0.09909605234861374, 0.045940570533275604, -0.06447776407003403, 0.045227184891700745, -0.02993674762547016, 0.010900263674557209, 0.11299142241477966, -0.025799183174967766, -0.018658244982361794, -0.016881924122571945, 0.07216327637434006, 0.11199160665273666, 0.04989022761583328, 0.08777996152639389, 0.15863603353500366, -0.000584448454901576, 0.13085174560546875, -0.012986092828214169, -0.05258801206946373, 0.06593621522188187, -0.03211362287402153, 0.133400559425354, -0.05963170900940895, -0.017523551359772682, -0.06758613884449005, -0.02721250057220459, 0.029175803065299988, -0.0694919005036354, 0.02862214855849743, -0.021836966276168823, 0.00248925038613379, 0.018185125663876534, 0.030153676867485046, 0.004732596687972546, -0.17522332072257996, -0.019788138568401337, -0.07500961422920227, -0.04823414236307144, -0.09975084662437439, 0.030407140031456947, -0.01889512501657009, -0.07864659279584885, 0.02901582606136799, -0.0070111630484461784, -0.04427438974380493, 0.047779206186532974, -0.049235306680202484, -0.044592149555683136, -0.05542854964733124, -0.020375575870275497, -0.06019597128033638, 0.05263974145054817, 0.005182245280593634, -0.04873731732368469, -0.047868091613054276, 0.011753666214644909, -0.02541179582476616, 0.0053952462039887905, -0.08045351505279541, -0.03307608142495155, 0.15576520562171936, -0.0479302741587162, 0.07911528646945953, -0.03144343942403793, 0.08747114986181259, -0.012330321595072746, 0.025090442970395088, 0.01699722558259964, -0.0012921775924041867, -0.10598786920309067, -0.04292335361242294, 0.04130084812641144, 0.00847401563078165, 0.00620698370039463, 0.018514221534132957, 0.05392847955226898, 0.01657217927277088, 6.332018529064953e-06, 0.04901788756251335, 0.030121829360723495, 0.042590659111738205, 0.011304805055260658, -0.010525609366595745, -0.00637391023337841, 0.030810702592134476, -0.08758662641048431, -0.004453794565051794, -0.07729349285364151, -0.023228459060192108, 0.014018857851624489, 0.03610788285732269, -0.047700319439172745, 0.026518113911151886, -0.0028932238928973675, 0.04677153378725052, -0.017281178385019302, 0.04792222008109093, -0.00010727933113230392, -0.0012863074662163854, 0.022299334406852722, 0.010330120101571083, -0.03967420384287834, 0.08723580837249756, 0.0694289281964302, 0.026450635865330696, -0.017945988103747368, 0.012485319748520851, -0.04227084666490555, -0.0784454345703125, 0.1469339281320572, 0.040381815284490585, 0.0374545082449913, 0.04006411135196686, -0.07037205994129181, 0.0683298334479332, 0.10394874215126038, 0.05059410259127617, 0.0017647892236709595, -0.020732879638671875, 0.08790406584739685, -0.01170017383992672, -0.0007650603074580431, 0.04135482758283615, 0.025171173736453056, -0.03677321970462799, 0.07293364405632019, -0.058205507695674896, 0.07384983450174332, 0.09708642214536667, 0.020175369456410408, 0.024733513593673706, -0.05875885859131813, 0.02660960890352726, 0.011247815564274788, 0.03136734664440155, 0.13792061805725098, -0.048911940306425095, 0.08368462324142456, -0.0045774877071380615, -0.11237535625696182, -0.06279037892818451, 0.08175719529390335, 0.07903340458869934, -0.0816766768693924, 0.015670614317059517, 0.005722912028431892, 0.011957756243646145, -0.07739795744419098, -0.025226453319191933, -0.025414466857910156, 0.11280521005392075, 0.04510759189724922, 0.12520013749599457, 0.05079934373497963, -0.048966556787490845, 0.1251826286315918, 0.23620961606502533, 0.1980559527873993, 0.13507935404777527, 0.06281495839357376, -0.16146625578403473, -0.03857952728867531, 0.029354343190789223, 0.04824874922633171, -0.0081458305940032, -0.06158304214477539, 0.06690869480371475, 0.18734104931354523, 0.1282472461462021, 0.17804200947284698, 0.0750725269317627, 0.08879987895488739, 0.05903052166104317, 0.11430267989635468, 0.02491573430597782, -0.02539960667490959, -0.09534318000078201, -0.10791934281587601, -0.058165259659290314, 0.03946591168642044, 0.07849091291427612, -0.1144188791513443, 0.02523924596607685, 0.02303699217736721, 0.004256473388522863, -0.09536656737327576, 0.059600070118904114, -0.0045777373015880585, -0.04246260225772858, 0.13066893815994263, -0.01901542954146862, 0.17366909980773926, 0.07588276267051697, 0.0007494029123336077, -0.1599915325641632, -0.0726049467921257, -0.029789473861455917, -0.00527518754824996, -0.0618152990937233, -0.15101324021816254, 0.13686731457710266, 0.043056949973106384, -0.015649128705263138, 0.07466264069080353, 0.24120429158210754, 0.07868301868438721, 0.06724315881729126, -0.01808231882750988, -0.017450785264372826, -0.035353027284145355, 0.03484543785452843, -0.07481960207223892, 0.12399864941835403, -0.012981880456209183, -0.06755588203668594, -0.046126458793878555, 0.06490842998027802, -0.0011480143293738365, -0.040636301040649414, -0.12387874722480774, -0.043449465185403824, 0.0856819674372673, 0.1027894914150238, 0.020923953503370285, -0.024029523134231567, 0.0936984121799469, 0.1081637367606163, 0.09709914028644562, 0.03447259962558746, 0.14703336358070374, 0.08111923933029175, -0.022407613694667816, -0.1390300989151001, 0.004548225086182356, -0.04947787523269653, 0.05604184418916702, 0.022335005924105644, 0.10138387233018875, -0.0960909053683281, 0.05323433503508568, 0.09424151480197906, 0.06610920280218124, -0.07918918877840042, -0.044246748089790344, -0.03315087780356407, 0.06942933052778244, 0.07731129974126816, 0.043087977916002274, 0.038107652217149734, 0.029467228800058365, 0.16841095685958862, 0.0808531641960144, -0.011768086813390255, 0.0215217974036932, 0.007683286443352699, -0.003954991698265076, -0.00301947258412838, 0.05265576392412186, -0.039124127477407455, 0.17849816381931305, 0.006173094268888235, -0.04483329877257347, 0.06358951330184937, 0.03969976305961609, -0.021536562591791153, -0.002101537771522999, 0.0326802097260952, 0.040250036865472794, -0.01987946592271328, 0.14685995876789093, 0.0028492254205048084, 0.03351324424147606, 0.0935441106557846, 0.03079172782599926, 0.08716198056936264, -0.038757968693971634, 0.07143253087997437, 0.02967851236462593, 0.07313749939203262, 0.040447648614645004, 0.05378280580043793, -0.08262013643980026, -0.0007867408567108214, 0.11715690046548843, 0.13816186785697937, 0.01942456141114235, 0.05332261696457863, 0.12407752126455307, -0.011285573244094849, 0.011724555864930153, 0.14682915806770325, -0.10670490562915802, -0.05403684079647064, 0.02076004631817341, 0.04562682285904884, -0.1456274539232254, -0.05437221750617027, 0.06794621050357819, 0.05901537090539932, -0.00034433978726156056, 0.007608819752931595, -0.011889583431184292, 0.035751406103372574, 0.002800783608108759, -0.03254836052656174, -0.054447829723358154, -0.0871838927268982, -0.0522787906229496, 0.12295186519622803, -0.023670848459005356, -0.06335806846618652, 0.0671311616897583, 0.027810076251626015, -0.09752309322357178, -0.045476723462343216, -0.06455780565738678, 0.031165702268481255, -0.03134839981794357, -0.004594560246914625, -0.04431167617440224, -0.06360676884651184, 0.03375275060534477, 0.046007681638002396, 0.09030182659626007, -0.03312011435627937, -0.11067517101764679, -0.021501455456018448, 0.036153554916381836, -0.05360642820596695, -0.07723530381917953, -0.0021735713817179203, 0.10733472555875778, -0.009486577473580837, -0.020822763442993164, 0.040080755949020386, 0.04847082123160362, 0.08817986398935318, -0.06525061279535294, -0.013540735468268394, -0.035620465874671936, 0.11415328085422516, 0.051817577332258224, -0.030702076852321625, 0.02678479067981243, -0.04837972670793533, 0.015528478659689426, -0.00693358201533556, 0.007578959688544273, -0.040218763053417206, 0.06846264749765396, -0.09922865778207779, 0.015578584745526314, 0.020752763375639915, 0.011569971218705177, -0.0046063498593866825, 0.05573450028896332, 0.008544852025806904, -0.0804506167769432, -0.02039681375026703, -0.005895238369703293, 0.009484485723078251, -0.0714750811457634, -0.013120190240442753, -0.023314401507377625, -0.036074746400117874, 0.005136021412909031, -0.0633121132850647, 0.03035900741815567, -0.06438171863555908, -0.018946511670947075, 0.06949746608734131, -0.04983788728713989, 0.034812428057193756, 0.005384538322687149, 0.04444863647222519, -0.019220342859625816, 0.19118183851242065, 0.15250377357006073, 0.03820299357175827, 0.003998974338173866, 0.07587523013353348, -0.06841829419136047, 0.08766307681798935, 0.09261409938335419, 0.03900126367807388, -0.027155423536896706, 0.04862092435359955, 0.11170880496501923, 0.015605486929416656, -0.10401833057403564, 0.01633426360785961, 0.011241169646382332, 0.021809671074151993, 0.02965354546904564, 0.1749432235956192, 0.01621015928685665, -0.04308350756764412, 0.08035758137702942, -0.04631539806723595, 0.0721621885895729, 0.06964325159788132, -0.02992970496416092, 0.04575046896934509, -0.06399064511060715, 0.12382353842258453, 0.05123702064156532, -0.001888855593279004, 0.03535612300038338, 0.04247824102640152, 0.04577380418777466, -0.010643146932125092, 0.019550584256649017, 0.035578008741140366, 0.06185324117541313, -0.04133395105600357, 0.019874537363648415, -0.10254919528961182, 0.0007307355990633368, -0.0002595270925667137, 0.07144977152347565, -0.0630410760641098, -0.062200456857681274, 0.09264747053384781, -0.00533266318961978, -0.09405053406953812, -0.0013244366273283958, 0.07770936191082001, -0.12060108035802841, -0.1674429178237915, 0.044101350009441376, -0.04182674363255501, 0.11690409481525421, 0.014158190228044987, 0.005835417658090591, 0.13868914544582367, 0.003774265293031931, 0.1577502340078354, -0.004123720806092024, -0.20047108829021454, -0.13877148926258087, 0.07232356071472168, 0.13880349695682526, 0.08166889101266861, -0.12405101954936981, 0.1515507996082306, 0.14392270147800446, -0.10440917313098907, 0.02164197340607643, 0.14016495645046234, 0.025854311883449554, -0.09520930051803589, -0.102679543197155, 0.03317594528198242, -0.0017942750127986073, 0.11315102875232697, 0.11975325644016266, -0.04488350450992584, 0.05167834088206291, 0.22241802513599396, 0.03636351227760315, 0.11623804271221161, 0.13133695721626282, 0.13923810422420502, -0.031035399064421654, 0.0678117498755455, -0.055648323148489, -0.06705213338136673, 0.15310907363891602, -0.03618894889950752, 0.0983690693974495, 0.14117373526096344, -0.16628408432006836, 0.06076415628194809, -0.08842290937900543, -0.08285809308290482, 0.01940159685909748, 0.17874833941459656, 0.09018094837665558, 0.1056411862373352, -0.010958212427794933, -0.08454173058271408, 0.00805610790848732, 0.07556165754795074, 0.06634368002414703, 0.01928059756755829, 0.0573003776371479, -0.09205303341150284, 0.021180514246225357, -0.13311368227005005, 0.03581174835562706, 0.18929553031921387, -0.004589321091771126, -0.038203369826078415, -0.025634510442614555, -0.04718147590756416, 0.02569507621228695, -0.0754103735089302, -0.013673605397343636, 0.09627487510442734, -0.04361388459801674, 0.049276143312454224, 0.03252729773521423, 0.010085473768413067, 0.10378579795360565, 0.012345897033810616, 0.05104050040245056, 0.0023188672494143248, 0.03269548341631889, 0.003216263372451067, -0.0005010156892240047, -0.05691325664520264, 0.09580021351575851, -0.011702545918524265, -0.09011290222406387, 0.06357958912849426, 0.00286524323746562, -0.10369347035884857, 0.0682021975517273, 0.036797139793634415, -0.01330819632858038, 0.004012742079794407, 0.04631001129746437, -0.009222318418323994, 0.13765820860862732, 6.193840818013996e-05, 0.07464130222797394, 0.13610956072807312, -0.018091358244419098, -0.053508058190345764, 0.05367022752761841, 0.11273358017206192, 0.039177536964416504, -0.15813957154750824, -0.06711527705192566, 0.027569672092795372, 0.018908167257905006, -0.099382184445858, 0.09093408286571503, 0.016041571274399757, 0.03577076271176338, -0.17395858466625214, 0.02101978287100792, 0.03243711218237877, -0.055398907512426376, -0.04259572923183441, -0.03911063075065613, 0.09259789437055588, -0.006044704467058182, -0.04634622856974602, 0.040225692093372345, -0.06849672645330429, -0.04229321330785751, 0.09161937981843948, 0.06105510890483856, 0.0603315569460392, 0.06078990548849106, -0.017802665010094643, -0.05380646884441376, -0.08854027837514877, -0.025881031528115273, -0.10469289124011993, -0.0003405329189263284, -0.09588729590177536, -0.019986523315310478, -0.03638944774866104, -0.017500219866633415, -0.09072986245155334, -0.057260408997535706, -0.10276059806346893, 0.010782920755445957, 0.1149759367108345, 0.06827971339225769, 0.04326731339097023, -0.0074862027540802956, -0.04485590383410454, -0.030906634405255318, -0.06245768815279007, 0.00862125400453806, -0.006414375733584166, 0.05946066975593567, -0.04515707865357399, 0.10424762219190598, -0.007600187789648771, -0.10587327927350998, -0.007286836393177509, 0.11569681018590927, -0.023470813408493996, -0.10608883202075958, -0.033978477120399475, 0.0084684481844306, 0.07208859920501709, -0.09494166076183319, -0.04556918889284134, -0.062017180025577545, -0.043781038373708725, -0.013443997129797935, 0.06723511219024658, -0.07912855595350266, 0.00977047998458147, -0.03864143043756485, -0.029908115044236183, -0.003426829120144248, -0.06712210923433304, 0.11355327069759369, 0.07455909997224808, -0.05917105823755264, -0.006543832831084728, -0.057906508445739746, -0.053837936371564865, 0.09374429285526276, 0.05623076483607292, -0.07730840146541595, -0.0002874400815926492, -0.036268122494220734, -0.06818978488445282, 0.025446604937314987, 0.014322488568723202, -0.1217723935842514, -0.08357563614845276, 0.010059411637485027, -0.03746739402413368, 0.007529451511800289, 0.006773466244339943, 0.03320347145199776, 0.005879079923033714, -0.10932636260986328, 0.04328940063714981, 0.09083987772464752, 0.01495338324457407, 0.09991037845611572, 0.09834550321102142, -0.13093574345111847, 0.08927097171545029, 0.040883854031562805, -0.08840300142765045, 0.16900742053985596, 0.027617599815130234, 0.05106845125555992, -0.06437009572982788, 0.03563927859067917, -0.056876592338085175, -0.04468318819999695, 0.047856152057647705, -0.04979180544614792, 0.06640436500310898, 0.12134381383657455, 0.05248190090060234, -0.0800529345870018, 0.12253443151712418, -0.025225888937711716, 0.04530760273337364, 0.024731356650590897, 0.0007386661018244922, -0.04744575172662735, 0.06418443471193314, 0.031052568927407265, -0.060376156121492386, -0.06049513816833496, 0.03026379831135273, -0.05061495676636696, 0.03526151552796364, 0.02321622334420681, 0.024832915514707565, 0.07814647257328033, -0.035398535430431366, -0.04241485148668289, 0.03917163610458374, 0.09754973649978638, -0.04634835198521614, 0.01614171266555786, 0.00808859895914793, 0.04248657822608948, -0.07135837525129318, -0.06329727172851562, -0.09632358700037003, 0.01759280264377594, -0.05079006776213646, 0.017082730308175087, 0.05424033850431442, -0.10077668726444244, -0.005359175615012646, -0.011870726011693478, 0.03304727375507355, -0.049567192792892456, 0.015119923278689384, -0.030931955203413963, 0.032044269144535065, 0.03342150151729584, -0.012038245797157288, 0.060043882578611374, -0.09931668639183044, 0.011445225216448307, -0.042270198464393616, 0.010259279049932957, 0.03613169491291046, 0.0639757439494133, 0.21670450270175934, 0.024430807679891586, 0.11818499118089676, 0.0765940323472023, -0.2165374606847763, 0.015045532956719398, 0.13395202159881592, 0.004632116761058569, 0.0513206385076046, -0.0571083165705204, -0.054560255259275436, 0.11067662388086319, -0.005764667876064777, 0.04315733537077904, -0.14045681059360504, 0.06041671335697174, 0.14120785892009735, 0.05805911496281624, 0.05252353101968765, 0.023495271801948547, 0.02181883342564106, 0.023537620902061462, 0.14353324472904205, 0.19615063071250916, -0.012595891021192074, 0.139652281999588, -0.07540062069892883, 0.10347261279821396, -0.06521795690059662, -0.08423597365617752, 0.04357857257127762, 0.21259689331054688, -0.1067519336938858, 0.0014757663011550903, 0.14850296080112457, 0.021054092794656754, -0.01691175438463688, -0.004664231091737747, -0.06011797487735748, -0.21270808577537537, -0.19769318401813507, 0.1889960616827011, -0.051252059638500214, -0.2417391985654831, 0.10532451421022415, -0.13750730454921722, 0.07322559505701065, 0.10096585750579834, 0.04295157268643379, -0.16708575189113617, 0.034745972603559494, -0.08112817257642746, 0.029195839539170265, 0.1303872913122177, 0.021988071501255035, -0.031979355961084366, 0.03503454849123955, 0.03398025035858154, -0.07603204995393753, 0.04526727274060249, -0.019283544272184372, 0.06219063326716423, 0.03680460900068283, -0.004879502579569817, -0.012484862469136715, -0.08489108085632324, 0.10999414324760437, -0.017844267189502716, 0.03722996637225151, -0.031437795609235764, 0.0023052245378494263, -0.010585688054561615, -0.05457239970564842, -0.022757358849048615, -0.0272689126431942, -0.07622984796762466, -0.007961788214743137, 0.012842993251979351, 0.11557190120220184, 0.07552380859851837, 0.04650646448135376, 0.01980448141694069, 0.10154856741428375, 0.004751650150865316, -0.014441056177020073, -0.07468286901712418, 0.05407541245222092, -0.12583935260772705, 0.03761669620871544, 0.04226982593536377, 0.1284969002008438, 0.09217625111341476, -0.034409500658512115, -0.12447419762611389, -0.040967218577861786, 0.02503582276403904, -0.056126415729522705, 0.022774457931518555, -0.08724776655435562, -0.05988357588648796, -0.036105457693338394, 0.04953821003437042, -0.04925185441970825, 0.06492657214403152, 0.043864257633686066, 0.06384915858507156, 0.08705572038888931, 0.14667682349681854, -0.06096789985895157, 0.04638444259762764, 0.06181378662586212, 0.07393660396337509, 0.02069147676229477, 0.05744215473532677, -0.019665349274873734, -0.005655417684465647, 0.036801185458898544, 0.023487236350774765, 0.048067525029182434, -0.11622519046068192, -0.05580776557326317, 0.024888237938284874, 0.06831387430429459, 0.01837344840168953, -0.031900275498628616, -0.029075881466269493, -0.005922726355493069, 0.061256684362888336, -0.07207805663347244, -0.02363208308815956, -0.03659341111779213, 0.01729617267847061, 0.07382606714963913, -0.0351828970015049, 0.021008014678955078, -0.03666554018855095, 0.061295077204704285, -0.07903239876031876, 0.021878285333514214, -0.012459225952625275, 0.02969553880393505, 0.048896029591560364, 0.026514841243624687, -0.074014812707901, 0.09581144899129868, -0.05179965868592262, -0.0052225966937839985, -0.005419797729700804, -0.09805481880903244, 0.009391812607645988, -0.006886267103254795, 0.10258911550045013, -0.026568688452243805, 0.032545305788517, 0.036441389471292496, -0.004920669365674257, 0.0024649323895573616, -0.009340785443782806, 0.021008996292948723, 0.03388207405805588, -0.01594439148902893, 0.05967577546834946, -0.06029453128576279, 0.01828654482960701, -0.08357538282871246, 0.012902543880045414, -0.005580945871770382, -0.09160449355840683, 0.017801446840167046, -0.10179689526557922, -0.004814708139747381, 0.03130214661359787, 0.00016947585390880704, -0.031264957040548325, 0.10926777869462967, 0.053060393780469894, 0.025611713528633118, 0.01042706985026598, 0.024020245298743248, -0.16251426935195923, -0.021356597542762756, -0.00031082556233741343, 0.08426124602556229, 0.034422945231199265, 0.08696208894252777, 0.07916615903377533, -0.1260634809732437, -0.010174496099352837, -0.030225127935409546, -0.001372762257233262, -0.0962764322757721, -0.02469664067029953, -0.02683592215180397, 0.01331852376461029, 0.010723710991442204, -0.04182279855012894, -0.04477882385253906, 0.07283276319503784, -0.01772153377532959, 0.03066997416317463, -0.06092168018221855, 0.024402868002653122, -0.06840185821056366, -0.025459647178649902, 0.07073716074228287, -0.05049573630094528, 0.04707685112953186, 0.014559004455804825, 0.024257967248558998, -0.02295004576444626, -0.018868502229452133, 0.05197521299123764, 0.13023386895656586, 0.02056596241891384, -0.12624406814575195, 0.03673672676086426, -0.021119795739650726, 0.07899585366249084, -0.08452431112527847, -0.04175228998064995, -0.017926715314388275, 0.08952843397855759, 0.024124041199684143, 0.07659684866666794, 0.06353886425495148, 0.055788930505514145, 0.0287273358553648, 0.04451669380068779, 0.0031205667182803154, 0.05354202911257744, 0.14289462566375732, -0.007052722852677107, -0.07473520189523697, -0.15452012419700623, 0.029271597042679787, 0.014518712647259235, 0.07821709662675858, 0.02399406209588051, 0.03913213312625885, 0.09543757140636444, 0.03007703274488449, -0.012039474211633205, -0.02301657386124134, -0.024395883083343506, -0.008636252954602242, -0.01366463303565979, -0.02161162905395031, -0.014944670721888542, 0.0169987753033638, 0.06013708934187889, 0.10096297413110733, -0.0255929883569479, 0.1295180469751358, 0.016483476385474205, 0.040032707154750824, -0.09260137379169464, -0.11938430368900299, 0.02901425212621689, -0.03748514503240585, -0.04088399186730385, 0.036665137857198715, 0.01975938118994236, 0.021768420934677124, -0.0253237783908844, -0.02567332237958908, 0.05325226113200188, -0.06998898088932037, 0.014337862841784954, -0.007693571969866753, -0.1250051110982895, -0.00025491509586572647, -0.1455175131559372, -0.1434246450662613, 0.031785547733306885, 0.018262427300214767, -0.021883876994252205, -0.24144458770751953, 0.060022275894880295, 0.024432703852653503, -0.05042877420783043, 0.02525297738611698, -0.0771050900220871, 0.24695032835006714, 0.07714831829071045, 0.1875053495168686, 0.21267051994800568, 0.19053933024406433, 0.05922944098711014, -0.012913894839584827, -0.012977470643818378, -0.15974867343902588, 0.13402780890464783, -0.06339854747056961, 0.054491765797138214, 0.033378008753061295, -0.049261488020420074, -0.11245524883270264, -0.0731581598520279, 0.20243173837661743, 0.010512694716453552, 0.13590091466903687, -0.07809717953205109, 0.02319139800965786, 0.025642896071076393, 0.03462657332420349, 0.19995565712451935, 0.11385689675807953, -0.03626859933137894, 0.009352728724479675, -0.03582215681672096, -0.03520575538277626, -0.1525794416666031, -0.14291490614414215, -0.03564217686653137, 0.19975320994853973, 0.20804879069328308, -0.006529743317514658, 0.021388662979006767, -0.0019789603538811207, -0.08409321308135986, 0.028949908912181854, 0.12082690000534058, 0.04676132649183273, 0.07047317177057266, 0.07515960186719894, 0.04296547546982765, -0.0021541090682148933, -0.017938237637281418, 0.12847986817359924, -0.02354634366929531, -0.016950346529483795, 0.005916898138821125, -0.03348535671830177, -0.00609954446554184, -0.07482423633337021, -0.025523696094751358, -0.1425020545721054, -0.10665366798639297, 0.046093348413705826, 0.07217508554458618, 0.05085181072354317, 0.061531275510787964, 0.016096143051981926, -0.01914912834763527, 0.11615560203790665, 0.0169381033629179, -0.09302724897861481, 0.0846938043832779, 0.13981248438358307, 0.026692859828472137, -0.10395590215921402, -0.04672294855117798, 0.08125200867652893, -0.0015453245723620057, -0.046536799520254135, 0.08447025716304779, 0.04646306112408638, -0.09294962137937546, -0.06315048784017563, 0.03148724138736725, 0.08946752548217773, -0.08270129561424255, -0.016921302303671837, 0.04536226764321327, 0.030261866748332977, 0.08133410662412643, -0.12361002713441849, -0.09844404458999634, 0.08577147126197815, -0.031905774027109146, 0.12147527933120728, -0.05826533958315849, -0.026000522077083588, -0.06204719468951225, -0.02646017260849476, 0.01656385324895382, -0.018449682742357254, 0.008081509731709957, 0.04522266238927841, -0.02293298952281475, -0.060392092913389206, -0.002481517381966114, 0.04236060008406639, 0.035916998982429504, 0.020670583471655846, 0.09115822613239288, 0.11859328299760818, 0.05891547352075577, 0.17748664319515228, 0.08510418981313705, 0.008678468875586987, 0.1266414374113083, -0.021710392087697983, -0.06954120844602585, 0.10893893986940384, -0.014368410222232342, -0.015190128237009048, -0.010091795586049557, 0.01318357139825821, 0.04923656955361366, 0.0387585312128067, 0.008629601448774338, 0.012147786095738411, 0.069529227912426, -0.007661024574190378, 0.011738707311451435, -0.03206747770309448, 0.019824234768748283, -0.001791708287782967, 0.02453513815999031, 0.02511197328567505, -0.007639016956090927, 0.05949362739920616, 0.0951295867562294, -0.015039228834211826, -0.04297127574682236, 0.052702244371175766, 0.03300124779343605, -0.05732090026140213, 0.04149724915623665, -0.09276486188173294, 0.04200589656829834, 0.07780569791793823, 0.015308845788240433, 0.04936700686812401, 0.18753579258918762, 0.054079800844192505, -0.053081341087818146, -0.0340452715754509, -0.0378267802298069, 0.02623661421239376, -0.01214004959911108, -7.278510747710243e-05, -0.053626567125320435, -0.1227654367685318, 0.02743915282189846, 0.005035520996898413, -0.12372906506061554, -0.01699965074658394, -0.0517771877348423, -0.13143369555473328, 0.03211582452058792, 0.057185590267181396, 0.08281999826431274, -0.07541479170322418, -0.1076444461941719, 0.06851769238710403, -0.022104430943727493, 0.012548895552754402, -0.01902427338063717, -0.03126702457666397, -0.04166952520608902, -0.014313709922134876, 0.0975145474076271, -0.03409167006611824, -0.03797699138522148, 0.04883822798728943, 0.021719668060541153, -0.11157557368278503, 0.03008851408958435, -0.009957249276340008, 0.039343442767858505, 0.07986147701740265, 0.025490257889032364, 0.10439756512641907, -0.03959564119577408, -0.03335397318005562, 0.07042621076107025, 0.0051033045165240765, 0.03661300614476204, -0.02802526019513607, 0.027854163199663162, 0.028763171285390854, 0.0033487139735370874, 0.035936687141656876, 0.04540606960654259, -0.005033941473811865, 0.17328010499477386, -0.04943133518099785, -0.06617233902215958, 0.1171407625079155, 0.00939090270549059, 0.0989542081952095, 0.023806370794773102, -0.0035781811457127333, 0.0016361430753022432, -0.04461514204740524, 0.02490992099046707, 0.09976126253604889, 0.0014963445719331503, -0.05014533922076225, 0.10537523031234741, 0.020319100469350815, 0.07075574994087219, -0.07419265806674957, -0.028883492574095726, 0.0400528758764267, -0.0019309251802042127, 0.04618094861507416, 0.01637270301580429, -0.079609714448452, -0.09572919458150864, -0.11931145191192627, -0.08630124479532242, -0.050725240260362625, 0.020513003692030907, -0.0009455139515921474, 0.02719895914196968, 0.03350123018026352, -0.03840242326259613, 0.04929563030600548, 0.015574612654745579, 0.0640159472823143, -0.027756068855524063, 0.0054637836292386055, -0.018277650699019432, 0.04376567527651787, -0.024633893743157387, -0.028293533250689507, 0.037971131503582, -0.066980741918087, -0.002327853115275502, 0.16728131473064423, -0.032643161714076996, 0.008362028747797012, -0.007845609448850155, 0.08176121860742569, -0.046757061034440994, -0.07288441061973572, 0.03969530761241913, -0.10259551554918289, -0.024874335154891014, -0.0897296741604805, 0.014686932787299156, 0.05539071187376976, -0.03006877191364765, -0.0010290236677974463, 0.016550403088331223, -0.0895194336771965, -0.11021330207586288, 0.13514041900634766, -0.07375617325305939, -0.02426343411207199, -0.10108593106269836, 0.07329389452934265, -0.04801880568265915, 0.18753959238529205, 0.06900231540203094, 0.015487389639019966, -0.1567777842283249, -0.19935543835163116, 0.1015462875366211, 0.18929463624954224, 0.1880459040403366, 0.10465779155492783, -0.036445025354623795, -0.030902782455086708, 0.03994324430823326, 0.1930016279220581, 0.01347191073000431, 0.03291536495089531, -0.01297337468713522, 0.14460329711437225, -0.03591255843639374, -0.16187439858913422, 0.03904299810528755, 0.09913913160562515, 0.04679889976978302, 0.19950969517230988, 0.05013461038470268, 0.20660699903964996, -0.019381500780582428, 0.09936898946762085, 0.06277892738580704, 0.027150921523571014, 0.19627368450164795, 0.08203442394733429, -0.11843178421258926, 0.0063483756966888905, 0.039881736040115356, -0.07596702873706818, -0.03227965161204338, -0.12807737290859222, -0.020787257701158524, 0.12017408758401871, -0.09341028332710266, -0.03244374692440033, -0.15890806913375854, 0.10446391999721527, 0.11091572046279907, -0.03765019401907921, 0.025427361950278282, -0.08292125165462494, 0.007287574931979179, 0.00024890669737942517, 0.13116350769996643, -0.09028157591819763, 0.05067342892289162, -0.06740695983171463, -0.0789223164319992, -0.01987680047750473, 0.08535745739936829, 0.2548416256904602, -0.006548125762492418, 0.0389539897441864, -0.01830907166004181, 0.04858783259987831, 0.047701068222522736, 0.0885479673743248, -0.011466984637081623, 0.05129081755876541, 0.04509306699037552, -0.013489453122019768, 0.07133225351572037, -0.0417746938765049, 0.15103428065776825, 0.005148252472281456, 0.09358209371566772, 0.047045622020959854, -0.05063045024871826, -0.021949801594018936, -0.020477911457419395, -0.03968574106693268, 0.09165021777153015, 0.021208705380558968, -0.03593842312693596, 0.08422920107841492, -0.06994814425706863, 0.0150063531473279, -0.024505767971277237, -0.024563219398260117, 0.05587341636419296, 0.08121449500322342, 0.15853223204612732, -0.005522993393242359, 0.04397996515035629, -0.043866340070962906, 0.049422841519117355, 0.055922795087099075, 0.08023617416620255, -0.03742387145757675, -0.08509466052055359, 0.1445656567811966, -0.03258029371500015, 0.021183399483561516, 0.06457098573446274, -0.08430272340774536, 0.015656616538763046, -0.0054004741832613945, 0.04103873297572136, -0.06061946228146553, -0.03756912425160408, -0.0026217829436063766, -0.04681882634758949, 0.028333624824881554, 0.01970270462334156, -0.007915342226624489, 0.02380513958632946, -0.1559382826089859, 0.00695863738656044, -0.009393456391990185, 0.012684457004070282, -0.06505425274372101, -0.0014224678743630648, -0.020569009706377983, 0.06354035437107086, 0.11028781533241272, -0.06137732416391373, -0.050144221633672714, -0.08326666057109833, 0.028633568435907364, -0.00662178173661232, -0.012875660322606564, -0.07361172139644623, 0.03180341050028801, -0.07475312799215317, -0.01109574269503355, -0.06096522882580757, 0.03604477643966675, -0.010800882242619991, 0.003952606115490198, 0.037724386900663376, 0.1103791743516922, 0.022141026332974434, 0.08158698678016663, -0.05806531384587288, 0.025671182200312614, -0.06024583801627159, 0.0622565858066082, 0.05703582614660263, -0.1393318921327591, -0.004436520393937826, 0.009212106466293335, 0.02101973257958889, -0.012673373334109783, -0.0409512035548687, -0.007681603077799082, 0.05447470396757126, -0.009466422721743584, -0.03340689837932587, 0.06075098365545273, 0.1536855846643448, 0.04342114180326462, -0.11857358366250992, -0.024892881512641907, -0.05458434671163559, 0.019850384443998337, -0.05431480333209038, -0.011814042925834656, 0.06446607410907745, 0.06286012381315231, -0.04118139669299126, -0.03007929027080536, -0.036353789269924164, -0.03182881325483322, 0.07135739177465439, 0.048166703432798386, 0.14088809490203857, -0.06462711840867996, 0.020065266638994217, 0.008347229100763798, 0.0016234550857916474, -0.07273183763027191, 0.08202585577964783, -0.024764588102698326, -0.040301065891981125, -0.08621196448802948, -0.023875722661614418, -0.00640857731923461, 0.05427776277065277, 0.008058897219598293, 0.08234774321317673, 0.01723482832312584, 0.05678514018654823, -0.08977532386779785, 0.033853210508823395, -0.15118438005447388, -0.0003330762847326696, -0.05900491029024124, -0.0011267097434028983, 0.0072951540350914, -0.04299115017056465, -0.06983693689107895, 0.08173884451389313, 0.09503134340047836, 0.12661705911159515, 0.04609323665499687, 0.09417013823986053, 0.1507633924484253, 0.07116734236478806, -0.13156147301197052, -0.09793994575738907, 0.004344198852777481, -0.03597080707550049, 0.009030038490891457, -0.021214092150330544, -0.04588726907968521, -0.07945752888917923, 0.04301052168011665, -0.027190890163183212, 0.046543270349502563, 0.030153976753354073, 0.02915000356733799, 0.08791641891002655, -0.027427716180682182, -0.009102340787649155, -0.01740488037467003, -0.03372643142938614, -0.001510393456555903, 0.03748716413974762, 0.014958471059799194, -0.017018169164657593, -0.06067224219441414, -0.026843544095754623, 0.054648760706186295, 0.020677804946899414, 0.02269924245774746, 0.0018355549545958638, -0.053139738738536835, -0.011627327650785446, 0.023185264319181442, 0.029137419536709785, -0.05021417886018753, 0.10769855976104736, -0.05953652784228325, -0.03713340684771538, 0.07821645587682724, 0.031796060502529144, 0.10744205862283707, 0.11837225407361984, -0.06655538082122803, -0.03680875524878502, 0.005066285841166973, 0.015064484439790249, 0.0015934985131025314, 0.01324535347521305, 0.016625864431262016, -0.0830661952495575, 0.1101251021027565, -0.06081930547952652, -0.02467021718621254, 0.05852837115526199, -0.06407847255468369, -0.04291071370244026, -0.10806405544281006, -0.06687401980161667, 0.0181816965341568, 0.0031804421450942755, 0.0022082743234932423, -0.1183551475405693, -0.03467952087521553, 0.021557943895459175, -0.03639066219329834, 0.08957734704017639, 0.1251264363527298, 0.18987123668193817, 