{"layer1": {"weights": [0.20972193777561188, -0.2081855684518814, 0.24576003849506378, -0.14305369555950165, 0.03975846990942955, 0.11399917304515839, 0.034998148679733276, 0.05934542417526245, -0.003075603861361742, -0.07016444206237793, -0.0585036464035511, 0.08431565016508102, -0.10394266992807388, -0.003945235628634691, 0.04740256071090698, -0.1971505880355835, 0.12693478167057037, -0.16881929337978363, 0.0932001918554306, -0.0028406898491084576, 0.08554707467556, -0.030680792406201363, 0.16769158840179443, 0.15838047862052917, -0.07825475931167603, 0.10481471568346024, 0.28581976890563965, 0.07247091829776764, -0.03567107394337654, -0.15049435198307037, -0.24378624558448792, 0.2681078314781189, -0.13394008576869965, 0.05991367995738983, 0.09873181581497192, -0.02634614333510399, -0.033355358988046646, 0.1658409833908081, 0.014711706899106503, 0.252271443605423, 0.12267987430095673, 0.10825552046298981, 0.18462245166301727, -0.12683844566345215, 0.11793273687362671, -0.15287601947784424, -0.007919210940599442, 0.009412018582224846, 0.13670310378074646, -0.04882495850324631, -0.022975923493504524, -0.24692153930664062, 0.09281156212091446, -0.03906925395131111, -0.01069115661084652, 0.06666616350412369, 0.01504476834088564, 0.09137599915266037, -0.1815861016511917, 0.017073385417461395, 0.05709650740027428, 0.07426125556230545, 0.02556765079498291, 0.0030825433786958456, 0.048549115657806396, 0.07695604860782623, 0.05965890362858772, 0.10035693645477295, -0.054621390998363495, 0.1413380652666092, -0.02291622944176197, 0.08515467494726181, -0.014064695686101913, -0.052999578416347504, -0.03249339386820793, 0.024823371320962906, 0.05130170285701752, 0.025532886385917664, -0.07959889620542526, -0.021767914295196533, 0.11758764833211899, 0.14151568710803986, 0.20148888230323792, -0.12053704261779785, 0.054736118763685226, -0.057867035269737244, -0.03387066721916199, 0.010270725004374981, 0.014821958728134632, 0.004759731236845255, -0.08520721644163132, -0.05631708353757858, 0.09238743036985397, 0.025505755096673965, -0.00858969148248434, -0.0398859828710556, -0.04805527999997139, 0.11146453768014908, 0.008437328040599823, -0.09232980757951736, -0.0005642691976390779, 0.06472191959619522, 0.11812201887369156, 0.005812404677271843, -0.006528930272907019, -0.034039102494716644, -0.07109563797712326, -0.03177494555711746, 0.04509471356868744, -0.0507827028632164, 0.09251195192337036, -0.04729472100734711, 0.017303330823779106, -0.0972275584936142, 0.153259739279747, -0.0035584766883403063, 0.05751913785934448, -0.004935423843562603, -0.011256345547735691, 0.00685634883120656, -0.11032281070947647, -0.04987774044275284, -0.03772495314478874, -0.013486546464264393, -0.05579698458313942, -0.07449086755514145, -0.01998947188258171, -0.06749127805233002, -0.02807888202369213, 0.10255631804466248, -0.007237263489514589, 0.08045023679733276, -0.011730953119695187, -0.0786266103386879, -0.042496610432863235, -0.015823382884263992, -0.0009883777238428593, 0.06656119972467422, -0.053711239248514175, -0.05507555603981018, 0.038239430636167526, 0.16410775482654572, -0.04035026952624321, -0.11360134184360504, 0.12435904890298843, 0.0167655348777771, -0.037304822355508804, 0.08227304369211197, -0.038284532725811005, 0.032219696789979935, -0.08727288991212845, -0.033066608011722565, 0.025222009047865868, 0.02626841329038143, 0.024788975715637207, -0.020167674869298935, -0.020772982388734818, 0.1645771861076355, 0.1226128488779068, 0.07289979606866837, -0.04061632230877876, 0.022836487740278244, -0.025472382083535194, -0.008305993862450123, 0.05056984722614288, 0.0057500433176755905, -0.06686977297067642, -0.008484897203743458, -0.00915246270596981, 0.10377957671880722, -0.035342585295438766, 0.01526784710586071, -0.0012138847960159183, -0.04833127185702324, 0.011168836615979671, 0.027588626369833946, 0.04097369685769081, 0.006778754759579897, -0.020773960277438164, 0.012431451119482517, 0.10391339659690857, 0.028372440487146378, -0.0808686837553978, -0.16794009506702423, 0.004555135034024715, 0.015652356669306755, 0.058202143758535385, 0.07933174818754196, -0.026083042845129967, 0.014748954214155674, -0.045732587575912476, 0.014964465983211994, 0.10899748653173447, -0.040396638214588165, 0.06928190588951111, 0.008902263827621937, 0.0030476702377200127, 0.04179011657834053, 0.024369142949581146, -0.04392531141638756, -0.003639968577772379, -0.02722747065126896, 0.06378651410341263, 0.14018301665782928, 0.02282060496509075, -0.005584692116826773, -0.0389222726225853, 0.09262418001890182, 0.013611814938485622, -0.036056388169527054, -0.07495620846748352, 0.03374585509300232, 0.05577247589826584, 0.07370296865701675, -0.10631562769412994, 0.01025326643139124, -0.06700529903173447, -0.006627644412219524, 0.06490209698677063, 0.10546660423278809, -0.022797726094722748, -0.006269900128245354, -0.00786625500768423, 0.02150600403547287, 0.04372303932905197, 0.08016127347946167, -0.05985806882381439, 0.00872903410345316, 0.01575729250907898, 0.0670902356505394, 0.07286407053470612, -0.003349584760144353, 0.015157477930188179, -0.026139825582504272, -0.011433090083301067, -0.0005246123764663935, 0.11847380548715591, 0.010888209566473961, -0.01309521310031414, 0.031162546947598457, 0.020630601793527603, -0.012892789207398891, 0.03594253212213516, 0.019807135686278343, 0.012367542833089828, 0.020647695288062096, 0.01084247138351202, 0.024854915216565132, -0.02229173295199871, 0.09842601418495178, 0.0290539413690567, 0.01739993691444397, -0.036670997738838196, -0.00829418282955885, 0.08810781687498093, 0.0401674248278141, 0.027863305062055588, 0.03846042603254318, 0.05044635385274887, -0.12548215687274933, -0.03467676043510437, -0.04743929207324982, -0.08255923539400101, -0.039153069257736206, 0.06479953974485397, 0.007741078268736601, -0.11994373053312302, 0.05541113018989563, -0.0292863380163908, 0.10009580850601196, -0.09850120544433594, -0.2514475882053375, -0.14069339632987976, -0.007933681830763817, 0.26388511061668396, -0.020399492233991623, 0.044142987579107285, -0.022722138091921806, 0.07752077281475067, -0.18880291283130646, 0.14320245385169983, 0.03856572508811951, 0.05730896443128586, 0.01611153595149517, 0.21411706507205963, 0.042355600744485855, 0.12900638580322266, -0.24938420951366425, -0.018809979781508446, 0.07291456311941147, 0.19671764969825745, 0.06413855403661728, 0.035047851502895355, 0.05600849539041519, 0.046312153339385986, -0.05859001725912094, 0.05448537319898605, -0.060750383883714676, -0.11124145239591599, 0.1997738480567932, 0.17847302556037903, 0.032651107758283615, -0.1339775025844574, 0.07316611707210541, 0.21715745329856873, -0.016324443742632866, -0.060243647545576096, -0.11220808327198029, -0.05261008441448212, 0.2140367478132248, 0.03947658836841583, -0.10141059756278992, -0.059941813349723816, -0.12210727483034134, 0.2722555994987488, 0.035880472511053085, 0.011804784648120403, 0.056709159165620804, -0.056203629821538925, -0.2698015868663788, 0.06498289853334427, 0.2479788064956665, 0.04518739879131317, 0.044872477650642395, 0.03101983107626438, 0.03461946174502373, -0.0422908291220665, 0.06791212409734726, -0.016110006719827652, 0.06453239172697067, 0.00425720913335681, 0.06290415674448013, 0.04177229851484299, -0.021207178011536598, 0.056589506566524506, 0.08050664514303207, -0.10961920768022537, 0.016345052048563957, 0.031012702733278275, 0.09491836279630661, -0.007176502142101526, 0.007653433829545975, 0.02125408500432968, -0.05050211399793625, 0.08630001544952393, -0.10757827758789062, -0.06889927387237549, 0.006089454982429743, -0.04685478284955025, 0.15637904405593872, 0.2014547884464264, -0.12149839848279953, 0.06551001220941544, 0.027664681896567345, -0.01674068719148636, 0.0003944982890971005, -0.10228081047534943, -0.07455849647521973, 0.04336174950003624, -0.004613242112100124, 0.0335744172334671, 0.05964246764779091, -0.10792670398950577, 0.11913277208805084, 0.041918158531188965, 0.0709257647395134, -0.09195900708436966, -0.027088699862360954, -0.04925122857093811, -0.017831355333328247, 0.07213525474071503, 0.06637033075094223, 0.08506637811660767, -0.01706678420305252, -0.01237072516232729, 0.23968729376792908, -0.16660615801811218, -0.037915781140327454, 0.004056790377944708, 0.19066640734672546, -0.12848109006881714, 0.015772273764014244, 0.18634270131587982, 0.09312303364276886, 0.07739471644163132, -0.013951011002063751, 0.08533081412315369, 0.0068337759003043175, 0.09869392961263657, -0.010016330517828465, 0.046838629990816116, 0.031111910939216614, -0.0684724971652031, 0.05986328423023224, -0.05385705456137657, 0.01100020483136177, 0.15569177269935608, -0.04242159053683281, 0.002733906265348196, -0.06567845493555069, 0.016843054443597794, -0.0008711287518963218, 0.09451456367969513, -0.018630001693964005, -0.04081880301237106, -0.044237568974494934, -0.07685808092355728, 0.037549521774053574, 0.00646540243178606, -0.0791621208190918, 0.03531729429960251, 0.09440257400274277, -0.08413620293140411, 0.01259566843509674, -0.022657403722405434, -0.10077612102031708, 0.04345781356096268, 0.0513649508357048, 0.031462714076042175, 0.0013729778584092855, -0.03873607888817787, 0.040655095130205154, 0.08856714516878128, 0.11673834919929504, 0.13090302050113678, 0.1201862171292305, 0.026455838233232498, -0.06971605122089386, -0.11295883357524872, -0.010865000076591969, 0.08245378732681274, 0.09751124680042267, -0.105482317507267, -0.0008834576001390815, -0.002252694219350815, 0.07133852690458298, -0.0054233805276453495, -0.09024059027433395, -0.06798920035362244, 0.11499674618244171, 0.11134707182645798, -0.09992530941963196, 0.09002627432346344, 0.01356723066419363, -0.000577865110244602, 0.018600691109895706, 0.05840934440493584, 0.012248354963958263, 0.09113021939992905, -0.08022887259721756, -0.005761661566793919, -0.03263227269053459, 0.029233740642666817, 0.06852129101753235, -0.008112166076898575, -0.01568193919956684, -0.028718242421746254, -0.024088535457849503, -0.061488013714551926, 0.007180358283221722, -0.04279753565788269, 0.03245999291539192, -0.028522972017526627, -0.09537559002637863, -0.034091200679540634, 0.04055646061897278, 0.008109872229397297, -0.0698862299323082, 0.018946655094623566, -0.0064757345244288445, -0.007431082893162966, -0.0028567712288349867, 0.09426490217447281, 0.038206856697797775, -0.002387560671195388, 0.039776645600795746, 0.02730925753712654, 0.04104185476899147, 0.15222424268722534, 0.00835686456412077, 0.07654722034931183, 0.05899493768811226, 0.032222501933574677, 0.03877118602395058, -0.10451608151197433, 0.013866376131772995, 0.10485374927520752, 0.017135892063379288, 0.06480279564857483, -0.05681351199746132, 0.06129616126418114, -0.14368994534015656, -0.020156854763627052, 0.11810542643070221, 0.1350594460964203, 0.06839887797832489, 0.1391465812921524, 0.030734458938241005, 0.1295795440673828, 0.08549915254116058, -0.052780404686927795, -0.015878306701779366, 0.02951233461499214, 0.07673174142837524, -0.05542270094156265, -0.057826537638902664, -0.04438875988125801, -0.04062218964099884, 0.008534988388419151, 0.030668998137116432, -0.07980049401521683, 0.044772613793611526, 0.08790618181228638, 0.062265608459711075, 0.03506491705775261, 0.02717595361173153, -0.009315160103142262, -0.053130947053432465, -0.051959775388240814, 0.07664643973112106, -0.030175557360053062, 0.004883970599621534, 0.06930308043956757, 0.043374236673116684, -0.0710638165473938, 0.0978395938873291, 0.0240151546895504, -0.03863038495182991, 0.034907933324575424, 0.06721878796815872, 0.013579074293375015, 0.03264651447534561, 0.07222703844308853, 0.030735159292817116, 0.016396645456552505, -0.07833608984947205, 0.04765023663640022, 0.03935670480132103, -0.07798785716295242, -0.037820689380168915, -0.14800159633159637, 0.1545059233903885, 0.18416385352611542, 0.11277814209461212, -0.01671900786459446, -0.06602183729410172, 0.18993501365184784, -0.023853978142142296, 0.037482548505067825, 0.04699821397662163, 0.03160397708415985, -0.1238836795091629, -0.022171994671225548, 0.018498031422495842, 0.2128099799156189, 0.022441726177930832, 0.0865953341126442, -0.04472579061985016, 0.0605212040245533, 0.009698536247015, -0.06578732281923294, -0.012507099658250809, 0.0579388365149498, 0.09808618575334549, -0.09223796427249908, 0.11193130910396576, 0.2729886770248413, -0.07107321172952652, -0.00265438761562109, 0.035555414855480194, -0.04614073783159256, -0.003618863644078374, 0.1944897472858429, 0.17606152594089508, 0.03279978781938553, -0.1672983467578888, -0.017462512478232384, -0.006642394233494997, -0.2066071331501007, 0.13500720262527466, -0.08539323508739471, -0.20169351994991302, -0.26962730288505554, -0.19018155336380005, 0.20344039797782898, -0.06423895061016083, -0.06126732379198074, 0.00961080752313137, 0.17729851603507996, 0.11423688381910324, -0.0004932984593324363, 0.09002760797739029, 0.0678354799747467, -0.032465189695358276, -0.0018692801240831614, 0.030572503805160522, -0.07692599296569824, 0.1398962140083313, -0.034541647881269455, 0.026349637657403946, 0.03580525517463684, -0.01355348713696003, 0.05460304394364357, 0.047894030809402466, 0.1406918168067932, 0.09855018556118011, 0.07426033914089203, 0.07528695464134216, 0.12645003199577332, 0.08039136976003647, 0.05248480662703514, -0.07459842413663864, -0.06008993089199066, 0.10504218190908432, 0.07922174036502838, -0.1463848054409027, 0.03933609277009964, -0.02978997491300106, 0.014068558812141418, 0.10798365622758865, 0.05804351344704628, 0.021275639533996582, -0.05321978032588959, -0.052614253014326096, -0.0538809560239315, 0.02435644343495369, 0.053886301815509796, 0.106546550989151, -0.02824847772717476, 0.04466923326253891, 0.12766236066818237, -0.051335010677576065, 0.07502514868974686, 0.09261366724967957, 0.016850490123033524, 0.1313798427581787, -0.11916575580835342, -0.06985686719417572, 0.03318697214126587, -0.06605568528175354, -0.10676722228527069, -0.06561240553855896, -0.03868577629327774, -0.09323243051767349, -0.04457084834575653, 0.06595001369714737, -0.13679061830043793, 0.1014450266957283, -0.0716097429394722, 0.1353815495967865, -0.08822868764400482, 0.051389798521995544, 0.03596676141023636, 0.13679195940494537, 0.06878852099180222, 0.03561811149120331, 0.10423559695482254, 0.041690658777952194, -0.02573346346616745, -0.09220710396766663, -0.03278699889779091, 0.05057528242468834, 0.0313778854906559, -0.07538125663995743, -0.1679164171218872, -0.07637887448072433, 0.16500934958457947, 0.06924774497747421, 0.03781900554895401, -0.001624639960937202, -0.01419678796082735, -0.05908135697245598, 0.060185506939888, 0.07681720703840256, -0.0012632845900952816, 0.0979907363653183, 0.07294418662786484, 0.059837706387043, 0.04385834559798241, -0.014830345287919044, 0.0031443729531019926, 0.08103365451097488, 0.06466200947761536, 0.11591547727584839, -0.04319668933749199, 0.04843132570385933, -0.06178349256515503, 0.16150738298892975, 0.021056178957223892, -0.03244296833872795, 0.041881952434778214, 0.008288293145596981, 0.05804450437426567, 0.015625763684511185, -0.0557788647711277, 0.03234006464481354, 0.06501596421003342, 0.09376496821641922, -0.02708636410534382, 0.06594450026750565, -0.040634483098983765, 0.03819235786795616, 0.007059914525598288, -0.07928330451250076, -0.043309736996889114, -0.04448992758989334, -0.020949281752109528, -0.02633536048233509, 0.039090804755687714, -0.0012808309402316809, 0.053173672407865524, 0.0699366107583046, -0.015010679140686989, 0.050499022006988525, 0.04924241453409195, 0.055610015988349915, 0.06654857099056244, 0.05312465876340866, -0.04092302918434143, -0.01598021574318409, 0.005091979168355465, 0.0010328716598451138, -0.03413549065589905, 0.10845497995615005, 0.0003086984215769917, 0.011913226917386055, -0.02092094160616398, -0.06787919998168945, -0.0883442759513855, -0.11165288835763931, -0.06778644025325775, 0.03398827463388443, -0.015699464827775955, -0.020037103444337845, 0.013660972937941551, 0.0419965498149395, 0.1451255977153778, 0.09747543185949326, 0.06045076251029968, -0.012696969322860241, -0.11448885500431061, -0.03684799373149872, 0.008931446820497513, 0.06476746499538422, 0.04434671252965927, 0.03848783299326897, -0.08122071623802185, -0.06738417595624924, -0.02484261803328991, 0.08317840099334717, 0.020438451319932938, -0.11081602424383163, 0.026479922235012054, -0.08238346129655838, 0.04452404007315636, -0.03552248328924179, -0.08100611716508865, -0.12978065013885498, 0.0333201140165329, -0.1035119816660881, 0.06779766827821732, 0.032584961503744125, -0.02753758244216442, -0.07399319112300873, -0.01213114708662033, -0.014001247473061085, 0.021942518651485443, 0.06438042223453522, -0.04175659269094467, 0.029972659423947334, -0.028285158798098564, 0.005083122756332159, 0.06408599764108658, 0.0368049219250679, 0.017504731193184853, 0.025770680978894234, -0.02147221378982067, -0.03785717114806175, -0.04133308678865433, 0.06170167773962021, 0.04581207036972046, 0.03441363945603371, 0.08115898072719574, 0.024669907987117767, 0.09734533727169037, -0.04362597316503525, 0.08520562946796417, 0.007906251586973667, 0.013480832800269127, -0.07801541686058044, -0.06919699162244797, 0.09880570322275162, 0.0545496791601181, 0.2467585951089859, 0.015411574393510818, 0.11605115979909897, 0.021460482850670815, -0.005121840629726648, 0.0014861894305795431, 0.006981734652072191, 0.001418792875483632, -0.02246268093585968, -0.012280150316655636, 0.030854713171720505, 0.13212932646274567, -0.04600480571389198, 0.08345890045166016, 0.05135565623641014, 0.04955386742949486, 0.08809416741132736, 0.14358796179294586, 0.17607805132865906, 0.3113514184951782, -0.15538594126701355, -0.026505019515752792, 0.08824469894170761, -0.004585604183375835, 0.08007218688726425, -0.008320857770740986, -0.04131026566028595, 0.19548526406288147, -0.03995220735669136, -0.14175744354724884, 0.2573743462562561, 0.11193571239709854, -0.05643269419670105, 0.13617448508739471, 0.0030557222198694944, 0.02754872664809227, 0.06157304719090462, 0.16330495476722717, 0.04430321976542473, -0.14987745881080627, 0.058266330510377884, -0.10222209244966507, -0.07399879395961761, 0.1749013215303421, -0.0415274016559124, 0.19530774652957916, 0.17655180394649506, -0.029575461521744728, 0.1606992781162262, 0.12208950519561768, 0.2148292362689972, 0.3070422112941742, 0.0719245970249176, -0.2204103022813797, -0.16364116966724396, -0.04604637995362282, 0.1626405417919159, -0.04276984930038452, -0.020110489800572395, 0.10567072033882141, 0.03806210681796074, -0.15390051901340485, -0.14606553316116333, 0.02612307481467724, -0.0029077334329485893, -0.09988398104906082, 0.08817115426063538, -0.06522689014673233, 0.03707483038306236, 0.07939336448907852, 0.05015747249126434, 0.03554432839155197, 0.1738734096288681, -0.0604219064116478, -0.08260830491781235, 0.006353192031383514, -0.10875185579061508, 0.15227274596691132, 0.025244271382689476, -0.006372206844389439, 0.038778942078351974, 0.06777971982955933, -0.08849474787712097, 0.007755859289318323, 0.10230981558561325, -0.10233891010284424, 0.08117803931236267, 0.08586437255144119, -0.05101892352104187, -0.06573209166526794, 0.10061981528997421, -0.04170098528265953, -0.02055319957435131, 0.13911958038806915, 0.018443334847688675, 0.06380467116832733, 0.058146968483924866, 0.06979755312204361, 0.03925108164548874, 0.015279174782335758, -0.06627033650875092, -0.09750054031610489, 0.03019946999847889, -0.15855446457862854, -0.09725189954042435, -0.06306441128253937, 0.0064158691093325615, -0.0346481055021286, -0.07693490386009216, 0.06270574033260345, 0.06024798005819321, 0.0641525387763977, 0.12442397326231003, 0.12891919910907745, 0.16888652741909027, 0.05937603861093521, 0.11692745238542557, 0.11991492658853531, -0.07698073238134384, 0.01686631701886654, -0.03717992827296257, -0.042266249656677246, -0.15347222983837128, 0.15592233836650848, -0.1329251378774643, -0.13468100130558014, -0.04907981678843498, 0.032313693314790726, -0.04406566545367241, 0.14367006719112396, 0.05624816566705704, 0.014101414009928703, -0.019930005073547363, 0.021271098405122757, -0.05956316366791725, -0.06982842087745667, -0.053680453449487686, 0.06256411969661713, 0.006332322023808956, -0.05949833244085312, 0.1252841055393219, 0.06748916208744049, -0.008753502741456032, -0.0920880064368248, 0.04295991361141205, -0.07435380667448044, -0.11563101410865784, 0.006710481364279985, -0.053162939846515656, -0.01302518043667078, 0.015466633252799511, -0.07363655418157578, -0.0014929143944755197, -0.009500705637037754, 0.039085812866687775, -0.0052226088009774685, -0.10963291674852371, -0.10735198110342026, -0.08014478534460068, 0.040052879601716995, 0.03844698891043663, 0.037667348980903625, -0.020072655752301216, -0.015202122740447521, 0.015089359134435654, -0.02188633196055889, 0.0042902398854494095, -0.08153737336397171, -0.01628004014492035, 0.09713471680879593, -0.022375356405973434, 0.0919109359383583, -0.019614754244685173, -0.08331100642681122, 0.0735742449760437, -0.023255011066794395, -0.03924641013145447, -0.044184744358062744, 0.022935451939702034, 0.07885241508483887, 0.06270298361778259, 0.028221992775797844, 0.10317718237638474, 0.011786368675529957, -0.028567194938659668, -0.003937314730137587, 0.011187017895281315, 0.09933830797672272, 0.022252922877669334, -0.06633158773183823, -0.02550528571009636, 0.03085216134786606, 0.08365281671285629, 0.07348483055830002, 0.0023471347521990538, -0.023710759356617928, -0.05511888861656189, -0.07186388224363327, -0.0042744348756968975, 0.019934548065066338, 0.06787148863077164, -0.07233237475156784, -0.0691075474023819, 0.10022959858179092, -0.050588905811309814, 0.061060983687639236, 0.033305756747722626, -0.05049695074558258, -0.024439532309770584, -0.10149337351322174, -0.008131318725645542, -0.06139211729168892, 0.08361366391181946, -0.01837322488427162, -0.019393987953662872, -0.001593578839674592, -0.08569604158401489, 0.02878192439675331, 0.044521745294332504, -0.04690084606409073, 0.001133764279074967, 0.03263627737760544, 0.056465230882167816, -0.09339554607868195, 0.08699730783700943, 0.04162544384598732, 0.03391424939036369, -0.038038406521081924, -0.00945218838751316, 0.08019333332777023, 0.08672960102558136, -0.04963738098740578, 0.047261353582143784, -0.005170298740267754, 0.024893876165151596, -0.01883389800786972, 0.11580045521259308, 0.04085463285446167, 0.04700735956430435, 0.021186288446187973, -0.030953796580433846, 0.00011680502211675048, -0.008613742887973785, -0.0494299940764904, -0.044541820883750916, 0.03961979225277901, 0.07075022161006927, -0.06400851160287857, -0.08276381343603134, 0.03171738237142563, -0.02257196418941021, 0.03457263112068176, 0.015623829327523708, -0.09229423105716705, -0.026317033916711807, 0.005992937367409468, 0.08106191456317902, -0.007607000879943371, 0.09742914885282516, -0.11348850280046463, -0.10015951842069626, -0.03459241986274719, 0.06777209043502808, -0.007821131497621536, 0.09037313610315323, 0.06255806237459183, 0.021499259397387505, -0.003483398584648967, 0.05100540444254875, -0.07118649780750275, 0.07781737297773361, 0.0836191400885582, -0.01603647880256176, -0.0197282824665308, -0.017377380281686783, 0.1288287192583084, 0.0673174187541008, -0.017767876386642456, -0.036372438073158264, 0.07670745998620987, 0.030788572505116463, -0.06597878783941269, -0.016210423782467842, 0.04287314414978027, -0.01206088624894619, 0.026891587302088737, 0.09066101908683777, 0.03664945811033249, -0.2473737895488739, -0.15652614831924438, -0.2576979994773865, 0.23993198573589325, 0.10909199714660645, 0.21163564920425415, 0.014152107760310173, -0.010800269432365894, 0.15252071619033813, 0.1833941489458084, 0.037431418895721436, -0.09629158675670624, 0.06498755514621735, 0.02038608491420746, 0.11687503010034561, 0.30328452587127686, -0.0030986580532044172, -0.15663959085941315, -0.06241888552904129, 0.10253936797380447, -0.2124791145324707, 0.04627341777086258, -0.04524927958846092, -0.02416348084807396, -0.1504839062690735, -0.031003328040242195, -0.16553737223148346, 0.15333452820777893, -0.11227280646562576, 0.09390629827976227, -0.1695106327533722, 0.053609468042850494, 0.06796732544898987, 0.09180670231580734, -0.013840265572071075, 0.06745871156454086, 0.009406052529811859, -0.0018393628997728229, -0.013911344110965729, 0.04610702395439148, -0.06356123834848404, 0.049819912761449814, -0.07757015526294708, -0.052257683128118515, 0.23226463794708252, -0.14825718104839325, 0.134168341755867, 0.2069847136735916, 0.01314765214920044, 0.10085231065750122, -0.12663859128952026, -0.03353074938058853, 0.05905484780669212, 0.09272684901952744, 0.15532724559307098, -0.09788483381271362, 0.0031372918747365475, -0.0817146897315979, 0.0026092592161148787, -0.06379654258489609, -0.0759015679359436, -0.0976414829492569, 0.08379796147346497, 0.062068451195955276, 0.049080319702625275, 0.06470873951911926, -0.012003743089735508, -0.09505034238100052, 0.0625847727060318, 0.08429767936468124, -0.10641385614871979, 0.1318606287240982, 0.19239600002765656, -0.009677748195827007, 0.047418348491191864, 0.020030923187732697, 0.11144377291202545, 0.07864324003458023, -0.021425941959023476, -0.032943304628133774, 0.11756560206413269, 0.0872301384806633, 0.18738484382629395, -0.016392286866903305, 0.06433937698602676, -0.043971698731184006, 0.09208330512046814, 0.0574398934841156, -0.09094451367855072, 0.02448146976530552, 0.09283751249313354, -0.06580312550067902, -0.0898725762963295, 0.05409018322825432, 0.011735974811017513, -0.06313454359769821, -0.039806365966796875, 0.07309243083000183, -0.03465460240840912, -0.09076850116252899, -0.08814715594053268, 0.05215155705809593, 0.00691656768321991, 0.11115796864032745, -0.0553160198032856, 0.0031863953918218613, -0.0054609947837889194, 0.1491348147392273, -0.1224827840924263, -0.06843464076519012, 0.13928069174289703, 0.015981074422597885, 0.0001702342415228486, 0.029047077521681786, 0.04058973863720894, 0.08849743008613586, 0.0781954973936081, -0.007009598892182112, -0.07998131215572357, 0.03906666859984398, -0.053182657808065414, 0.017947129905223846, -0.029505249112844467, -0.03482678905129433, 0.03629862144589424, -0.005239156540483236, -0.04399833083152771, 0.1225220337510109, -0.030594369396567345, -0.09317775070667267, 0.015646226704120636, 0.07603029906749725, 0.11528000980615616, 0.007074905559420586, -0.0838785395026207, -0.005668241530656815, -0.00703434506431222, 0.03148592635989189, 0.02316943369805813, 0.08010637015104294, 0.04142006114125252, 0.17584364116191864, -0.043030980974435806, -0.07269052416086197, -0.01074301078915596, -0.014480139128863811, -0.01951076090335846, -0.006330062635242939, 0.033950936049222946, -0.051275093108415604, 0.007360289804637432, -0.00047626165905967355, 0.04124000668525696, 0.02970755472779274, -0.006935485173016787, 0.11922416090965271, 0.06701638549566269, -0.0025514080189168453, -0.014029184356331825, -0.019935106858611107, -0.022076142951846123, -0.04912208765745163, 0.014992691576480865, 0.027820397168397903, -0.010859397239983082, 0.07482382655143738, -0.02361842431128025, 0.006808679085224867, -0.061784904450178146, -0.036477819085121155, -0.04618624225258827, 0.12146337330341339, 0.05738329887390137, 0.026490064337849617, 0.05904323235154152, 0.02950899302959442, 0.17942412197589874, 0.0702330470085144, -0.0040846033953130245, 0.04465074464678764, 0.014547972939908504, -0.06603652238845825, 0.0036720288917422295, -0.053862784057855606, 0.05459074303507805, 0.017334116622805595, 0.004691415000706911, 0.022373532876372337, 0.014043605886399746, 0.035369209945201874, -0.013992685824632645, -0.044520050287246704, 0.030442634597420692, 0.08070351928472519, 0.08595423400402069, 0.08136714994907379, 0.04340927675366402, 0.15497368574142456, 0.06634591519832611, -0.06686805933713913, -0.09171602129936218, 0.0750400498509407, 0.026528893038630486, -0.005106574390083551, -0.04061996564269066, 0.0881812572479248, -0.03318404033780098, 0.0028640376403927803, -0.025932205840945244, 0.1631336510181427, 0.0982825756072998, 0.06632078438997269, -0.0663246288895607, 0.005757154896855354, 0.1577080637216568, 0.026932647451758385, 0.03196581453084946, 0.015190105885267258, 0.05919934809207916, 0.08424805104732513, -0.047940365970134735, 0.029610993340611458, 0.00817633606493473, -0.020231790840625763, 0.03207489475607872, 0.012772414833307266, -0.009203153662383556, -0.01563544012606144, 0.03171765059232712, 0.003336104564368725, -0.04484868794679642, 0.06953147798776627, -0.027669014409184456, 0.0075946771539747715, -0.0409100316464901, 0.057818442583084106, -0.02805609442293644, 0.11267385631799698, 0.06610207259654999, 0.024078741669654846, -0.03853577747941017, -0.09259971231222153, 0.018958620727062225, -0.029552379623055458, 0.03258269652724266, 0.017309201881289482, -0.0563192144036293, 0.1238282322883606, -0.0059810481034219265, 0.06422493606805801, 0.060266315937042236, -0.015194015577435493, 0.06468246132135391, 0.10827843844890594, 0.05396471917629242, -0.024818656966090202, -0.06217020004987717, -0.012543347664177418, -0.0750710591673851, 0.13000759482383728, -0.026387594640254974, 0.02012822777032852, -0.045748282223939896, 0.04154275357723236, 0.04662342369556427, -0.06343039125204086, 0.11775989830493927, -0.016423102468252182, 0.008327541872859001, -0.0023625935427844524, -0.06640072166919708, -0.28049755096435547, -0.1322520226240158, 0.2018391638994217, -0.15995877981185913, 0.027316266670823097, 0.11627136170864105, -0.07360634952783585, 0.26594579219818115, 0.16850464046001434, 0.07220097631216049, -0.06167606636881828, 0.0768023207783699, 0.18991060554981232, 0.07807305455207825, 0.18137648701667786, 0.20631326735019684, 0.12117933481931686, -0.13071826100349426, 0.10178495943546295, 0.09112091362476349, -0.08664503693580627, 0.10869929194450378, 0.017182201147079468, 0.04108147323131561, -0.06580966711044312, 0.00779314897954464, -0.2582586407661438, 0.10967642068862915, 0.2202567309141159, 0.2425215095281601, 0.24059449136257172, -0.07527412474155426, -0.05470576509833336, 0.15718157589435577, 0.10244446992874146, -0.009271842427551746, 0.10906921327114105, -0.12117304652929306, 0.0244950782507658, -0.1534656137228012, 0.2753832936286926, -0.11723437905311584, -0.12196619808673859, -0.23946304619312286, -0.1298537701368332, 0.14227692782878876, -0.007977588102221489, 0.053604934364557266, 0.06105463206768036, 0.13613711297512054, 0.09075634926557541, 0.04705449193716049, -0.007004835642874241, 0.043067459017038345, -0.1190788596868515, -0.024236829951405525, 0.022002026438713074, 0.013307209126651287, -0.06060439348220825, -0.042436420917510986, -0.0027397405356168747, 0.02696162462234497, 0.05113600939512253, 0.026356706395745277, 0.04045668989419937, 0.020452523604035378, 0.0360821932554245, -0.0016558235511183739, 0.013281830586493015, 0.06545989960432053, -0.12144854664802551, -0.08013477921485901, 0.08059791475534439, -0.10625404119491577, 0.08284826576709747, -0.10758502781391144, 0.04898786544799805, -0.022892042994499207, -0.024104824289679527, 0.051102351397275925, 0.09171195328235626, 0.026416882872581482, -0.048193998634815216, 0.1016295999288559, 0.02181498147547245, -0.05760400369763374, -0.06219089776277542, 0.009450080804526806, 0.09514348953962326, -0.036385759711265564, 0.06424567103385925, 0.07926762849092484, -0.01517905481159687, 0.08083448559045792, 0.04871983081102371, 0.06996273249387741, -0.03442620486021042, 0.11818508058786392, 0.0871494933962822, 0.004191698040813208, 0.07591618597507477, -0.0805102065205574, -0.11100474745035172, 0.08284137398004532, 0.00398610346019268, -0.06432966142892838, 0.013153675012290478, 0.05275077745318413, 0.010977900587022305, -0.017786307260394096, 0.07963459938764572, -0.043531566858291626, 0.009897064417600632, 0.07077676057815552, -0.03471888601779938, 0.007129620760679245, 0.07419989258050919, 0.017062265425920486, 0.004132106900215149, -0.028521869331598282, -0.17270395159721375, -0.08282502740621567, -0.05340950936079025, 0.005163957830518484, 0.07895761728286743, 0.038964685052633286, -0.017750991508364677, 0.009571949951350689, -0.0054829237051308155, 0.06834758073091507, -0.06118295341730118, 0.023864321410655975, 0.06161629781126976, 0.06936600804328918, 0.02438870072364807, -0.05354205518960953, -0.11157474666833878, -0.028827926144003868, 0.030779294669628143, 0.022215884178876877, 0.07820752263069153, -0.027416298165917397, -0.015591982752084732, 0.04990990459918976, 0.10572197288274765, 0.06952213495969772, -0.08155380934476852, 0.06366041302680969, -0.059489212930202484, 0.030206546187400818, 0.021033478900790215, 0.1708994060754776, -0.031825028359889984, 0.07912509143352509, -0.08949080854654312, -0.06315383315086365, -0.05247829109430313, 0.0020521320402622223, 0.07804932445287704, -0.055258311331272125, -0.09670383483171463, -0.09685099869966507, 0.03067341446876526, -0.038495782762765884, 0.010959843173623085, 0.05801057443022728, -0.019624534994363785, 0.008154141716659069, -0.0785963162779808, -0.11000574380159378, -0.05257624387741089, 0.05397805571556091, 0.04017090052366257, 0.06526394188404083, -0.09853179007768631, -0.06808770447969437, -0.015481517650187016, -0.031889140605926514, -0.13356636464595795, -0.007982871495187283, 0.028709635138511658, -0.03191053494811058, 0.0254351906478405, -0.04887789115309715, 0.055375177413225174, -0.0571012906730175, -0.027973895892500877, 0.020352201536297798, -0.12010546028614044, 0.016643207520246506, 0.00041293527465313673, 0.09006310999393463, 0.004499911796301603, 0.03446206450462341, 0.00027622468769550323, 0.06730183213949203, 0.12304000556468964, -0.09751105308532715, 0.05757390335202217, 0.05709373205900192, 0.04210270568728447, 0.0968886986374855, -0.016371682286262512, 0.03568040579557419, -0.035481493920087814, 0.03725814446806908, -0.016423549503087997, -0.03306180611252785, -0.08028741925954819, -0.02911214530467987, 0.02487093023955822, 0.11277122050523758, 0.06427159905433655, 0.05652397871017456, 0.023760531097650528, 0.04509521275758743, 0.072994165122509, -0.0033923203591257334, 0.054162025451660156, 0.022650230675935745, 0.008956493809819221, -0.0435728095471859, 0.1066255196928978, -0.01820230856537819, -0.031865041702985764, 0.00743457954376936, 0.0485755056142807, -0.01906798966228962, 0.039538104087114334, 0.05050168186426163, 0.07934794574975967, 0.018821237608790398, -0.006953267380595207, 0.03420107066631317, 0.11861245334148407, 0.045973170548677444, 0.07526747137308121, 0.13766510784626007, 0.05374658852815628, 0.10555810481309891, 0.021477192640304565, -0.05020487681031227, 0.04736514016985893, 0.06924058496952057, 0.06079841032624245, 0.08014614880084991, 0.06530081480741501, -0.03680627793073654, 0.06119003891944885, 0.10223416239023209, 0.0294512752443552, 0.04752487316727638, -0.03058062307536602, 0.09604708850383759, 0.06987261027097702, 0.17355258762836456, 0.1058829054236412, 0.02569248341023922, -0.05124028027057648, 0.03763965144753456, 0.021528737619519234, -0.05953754484653473, 0.04052694886922836, -0.01849330961704254, 0.040806543081998825, -0.15278224647045135, 0.11105401813983917, 0.030842626467347145, 0.08395259082317352, 0.17174291610717773, 0.07048990577459335, -0.12687738239765167, -0.1168224960565567, 0.1659003049135208, 0.08561643213033676, -0.0415973886847496, 0.003044155426323414, 0.10646289587020874, -0.0032991673797369003, 0.018135393038392067, -0.07180548459291458, -0.07210883498191833, 0.14072728157043457, 0.2409597486257553, -0.15223023295402527, -0.07498513162136078, 0.0704277753829956, 0.20520426332950592, 0.029216771945357323, -0.06030860170722008, 0.009248399175703526, 0.12877321243286133, -0.013055139221251011, 0.05451063811779022, -0.1501891165971756, 0.2258676290512085, 0.2248721569776535, 0.21268227696418762, 0.17584282159805298, 0.27217358350753784, 0.24621546268463135, 0.1370818018913269, -0.25920405983924866, 0.0010445616208016872, 0.14039826393127441, 0.001515753916464746, 0.022873960435390472, 0.14242923259735107, -0.11234700679779053, -0.09624520689249039, -0.1903473138809204, -0.13785521686077118, 0.08192128688097, -0.04383113607764244, -0.3024708032608032, 0.03788348659873009, 0.12623827159404755, 0.1407271772623062, 0.01147033367305994, 0.22480371594429016, -0.11879486590623856, -0.07546167820692062, 0.025354579091072083, 0.10226850211620331, 0.09069772809743881, 0.001204353291541338, -0.05992778018116951, 0.005476546008139849, 0.11922178417444229, -0.005689385812729597, 0.028569575399160385, 0.015225720591843128, 0.03928331658244133, 0.09954498708248138, 0.021237215027213097, 0.019521595910191536, 0.07866742461919785, 0.039098359644412994, -0.018664682283997536, -0.09048187732696533, 0.04497779905796051, 0.06286849826574326, 0.01650262624025345, 0.0585184283554554, -0.016955064609646797, -0.008107335306704044, 0.10770764201879501, -0.011279995553195477, -0.02963397093117237, -0.02176840417087078, 0.1148163303732872, -0.13806331157684326, -0.058299485594034195, 0.012973856180906296, 0.13208980858325958, -0.022131849080324173, 0.003863917663693428, -0.08488142490386963, -0.023170989006757736, -0.0017180119175463915, 0.12351934611797333, 0.05576207488775253, 0.12415522336959839, 0.04946538060903549, 0.022026415914297104, -0.00467321602627635, 0.1587795913219452, -0.03220033273100853, 0.07355380803346634, -0.04081670567393303, 0.013796934857964516, -0.05607783794403076, 0.027010219171643257, 0.025542519986629486, 0.1222124695777893, 0.026423780247569084, -0.12174206227064133, -0.03249624744057655, 0.025895539671182632, 0.036404870450496674, 0.030502913519740105, -0.020980626344680786, 0.016202010214328766, 0.01554979756474495, 0.048581816256046295, 0.05941213667392731, -0.006474710535258055, 0.0939488410949707, 0.0702388733625412, -0.03903662785887718, -0.10396265238523483, 0.051629215478897095, 0.04267897456884384, -0.0414670929312706, 0.08937767893075943, 0.06384850293397903, 0.08268137276172638, 0.0736657902598381, -0.006523084361106157, -0.036877140402793884, 0.06429194658994675, -0.00035338703310117126, -0.07913415879011154, -0.049416474997997284, -0.05851556360721588, -0.03135436028242111, -0.021447116509079933, 0.05142277106642723, 0.05638181045651436, -0.0527043379843235, 0.04094444587826729, 0.047878775745630264, -0.04671487584710121, -0.08339493721723557, 0.12744984030723572, -0.031208079308271408, -0.09256307780742645, 0.07331345975399017, 0.04235979914665222, 0.15498964488506317, 0.033469777554273605, 0.15757405757904053, -0.08293703943490982, -0.04192947968840599, -0.07304941117763519, -0.08371461182832718, -0.010130762122571468, -0.02530365251004696, -0.1198422834277153, -0.0626506581902504, 0.014361612498760223, -0.08185793459415436, -0.06994946300983429, 0.11595100909471512, 0.13968254625797272, -0.003623925382271409, -0.0017596717225387692, 0.041460298001766205, -0.021788151934742928, -0.007790032774209976, -0.06073779985308647, -0.10894030332565308, -0.08700735121965408, 0.03480049967765808, -0.031095139682292938, 0.027550488710403442, -0.07519342005252838, 0.0542488694190979, -0.004958720412105322, -0.11128315329551697, 0.09708554297685623, 0.03737887740135193, 0.013592014089226723, 0.04409981891512871, 0.04657707363367081, -0.010905075818300247, -0.06787580996751785, -0.04874726012349129, -0.01879153773188591, 0.04839152842760086, 0.007903571240603924, 0.030458036810159683, -0.12080293148756027, 0.02404961735010147, -0.089265376329422, 0.0910676047205925, -0.05539087578654289, 0.06817968189716339, 0.021536793559789658, -0.03872235119342804, 0.09530054032802582, 0.052349887788295746, 0.043962009251117706, -0.03181399405002594, 0.07743248343467712, -0.03558141738176346, 0.04092029109597206, -0.10573120415210724, 0.028615232557058334, 0.07179054617881775, -0.0643162727355957, -0.02024124749004841, 0.017719067633152008, 0.06728830188512802, -0.05151859670877457, 0.024664269760251045, 0.07768955081701279, -0.04217544198036194, -0.06022240221500397, 0.055700987577438354, 0.034689612686634064, -0.14527828991413116, 0.04226439446210861, -0.06150981783866882, -0.052145570516586304, -0.02935485914349556, -0.004024920053780079, -0.03068275935947895, -0.02118995413184166, 0.027625778689980507, 0.03199288249015808, -0.02080501616001129, 0.014771931804716587, 0.08264084160327911, -0.17698439955711365, 0.01931707374751568, 0.017401214689016342, 0.02903689257800579, 0.07356487214565277, 0.055647846311330795, 0.03174245357513428, 0.1314004510641098, -0.057617999613285065, -0.1270812451839447, 0.08561770617961884, 0.030650509521365166, -0.025184370577335358, 0.025814181193709373, 0.03140805661678314, -0.057875167578458786, -0.06534390896558762, 0.10470915585756302, 0.03054347075521946, 0.005347548983991146, 0.07518734782934189, 0.06412898749113083, 0.02110973745584488, -0.0036628302186727524, 0.046285565942525864, -0.0001324084005318582, 0.03839423879981041, -0.04234578460454941, -0.006571728270500898, 0.07206276059150696, -0.019604066386818886, -0.060694195330142975, 0.027504323050379753, 0.03251776099205017, -0.22759537398815155, -0.21390102803707123, 0.1366761326789856, 0.26829221844673157, -0.03163477033376694, -0.23076193034648895, -0.022657407447695732, 0.12163802236318588, 0.2736407220363617, -0.14636273682117462, 0.1515786051750183, -0.08821127563714981, 0.15255504846572876, -0.07004299759864807, -0.017655212432146072, -0.1336984634399414, -0.2543991208076477, -0.17197394371032715, -0.0706985741853714, -0.2160283923149109, -0.03482348099350929, 0.01695164479315281, -0.2136240303516388, 0.16698020696640015, 0.1879955381155014, 0.1631506234407425, -0.04954192787408829, -0.10747039318084717, -0.2561659812927246, 0.15263569355010986, 0.18710419535636902, 0.0641988217830658, 0.15339145064353943, -0.05542244389653206, 8.177085692295805e-05, 0.001562693272717297, -0.09221374988555908, 0.13505175709724426, -0.17221589386463165, 0.011045859195291996, -0.03972996398806572, 0.1762997806072235, 0.24300123751163483, -0.04479358717799187, -0.2199247181415558, 0.010602680966258049, 0.17378868162631989, 0.17534032464027405, -0.003211980452761054, -0.26417550444602966, 0.000376192998373881, -0.04856973886489868, 0.07049575448036194, -0.019852720201015472, 0.007652865257114172, -0.0017818911001086235, -0.013339469209313393, 0.07928801327943802, 0.04920511692762375, 0.04248955845832825, -0.04436252638697624, 0.1001870408654213, 0.03853156790137291, 0.01259582582861185, -0.042310185730457306, 0.018069421872496605, 0.04618073254823685, 0.05696308985352516, 0.07359177619218826, 0.03375644236803055, 0.09075972437858582, 0.05885621905326843, 0.1540101319551468, 0.07733507454395294, 0.016773704439401627, -0.0657104030251503, -0.1807943433523178, -0.01838395744562149, 0.044937822967767715, 0.05968635529279709, -0.1016029566526413, 0.01343127153813839, 0.06410237401723862, -0.03150288388133049, -0.09351053833961487, 0.039638884365558624, 0.07087808102369308, 0.1345508098602295, 0.03495810180902481, -0.06107060983777046, 0.08165892213582993, 0.052760545164346695, 0.0036043741274625063, -0.0666641816496849, -0.04879574105143547, 0.06441378593444824, 0.02927427366375923, 0.08088084310293198, 0.048986125737428665, -0.022150985896587372, 0.059778064489364624, 0.054306209087371826, 0.0356823205947876, -0.010111453011631966, 0.04553459212183952, 0.06308545917272568, -0.19276712834835052, 0.08999574184417725, 0.01901647448539734, 0.03773884475231171, 0.012322924099862576, -0.03990498185157776, -0.050834041088819504, 0.09543119370937347, -0.04046168550848961, -0.018277572467923164, 0.060279641300439835, 0.07522131502628326, 0.021036973223090172, -0.03696151822805405, -0.019642328843474388, 0.10664863884449005, -0.033407606184482574, 0.03876971825957298, -0.04170446842908859, 0.06900403648614883, -0.07540024071931839, 0.0442306250333786, 0.18463268876075745, 0.090223029255867, 0.07707500457763672, 0.012283341959118843, -0.00211407826282084, -0.06331916898488998, -0.044854436069726944, 0.018243620172142982, -0.013159834779798985, 0.004479687660932541, 0.06280828267335892, -0.02286161109805107, -0.11047017574310303, -0.04229537397623062, 0.04293159395456314, -0.08159355819225311, -0.043064408004283905, 0.010390284471213818, -0.1047835648059845, 0.042681194841861725, 0.06752490997314453, 0.0711122453212738, 0.06520827859640121, 0.046442363411188126, -0.035528745502233505, -0.01714351214468479, 0.005639238283038139, 0.027494056150317192, -0.0617700070142746, -0.025931652635335922, 0.03731941431760788, -0.05087816342711449, -0.08409898728132248, 0.022675778716802597, -0.06333120912313461, -0.02580714039504528, 0.00013917039905209094, 0.03629978746175766, 0.0036378325894474983, -0.09776893258094788, -0.01498896349221468, 0.04096147045493126, -0.010156859643757343, -0.015192138962447643, -0.09659247100353241, -0.06554485857486725, 0.025224531069397926, -0.04717092961072922, 0.02811473235487938, 0.06972494721412659, -0.055911023169755936, 0.01988629624247551, -0.0376020111143589, 1.62275700859027e-05, -0.0116281658411026, 0.012445464730262756, 0.02546493336558342, 0.0477331317961216, 0.09746161848306656, -0.03741854801774025, 0.10959617048501968, -0.08382269740104675, 0.03980516642332077, -0.0005291090928949416, 0.04612168297171593, 0.02765621803700924, 0.04393023997545242, 0.06062954291701317, 0.09313064813613892, -0.04432554170489311, -0.0339796356856823, 0.09114598482847214, 0.0644504576921463, -0.05576300621032715, 0.02761346846818924, 0.04286560043692589, -0.047234173864126205, -0.03467174619436264, -0.08150333166122437, 0.0490264967083931, 0.025544339790940285, -0.12831757962703705, -0.03821008652448654, -0.029264358803629875, -0.00406560068950057, -0.09171219915151596, 0.0763721913099289, -0.0038679291028529406, 0.04415086284279823, 0.0772354006767273, 0.04011784493923187, 0.03347638621926308, -0.07351825386285782, 0.005617741495370865, 0.054710954427719116, 0.08598639070987701, 0.14345382153987885, 0.01511251088231802, 0.0035429857671260834, 0.020486339926719666, -0.01700020022690296, -0.021220145747065544, -0.07119550555944443, 0.11398886889219284, -0.06282017379999161, 0.09339824318885803, 0.007891645655035973, -0.14112362265586853, 0.03219928219914436, 0.014227821491658688, 0.1923942267894745, -0.039212778210639954, -0.05221433565020561, 0.11721528321504593, 0.03327358514070511, -0.03097446821630001, -0.06934136897325516, 0.02172284945845604, -0.012298757210373878, 0.06567161530256271, -0.022940507158637047, 0.01752345636487007, 0.004399023484438658, 0.06971726566553116, 0.05563272535800934, 0.0012460378929972649, 0.07075708359479904, -0.0038061237428337336, 0.13528357446193695, -0.05751628428697586, 0.12321946024894714, -0.0033530769869685173, -0.02500060573220253, -0.06827449798583984, -0.003197762882336974, 0.1332985758781433, 0.060596268624067307, -0.024943850934505463, -0.008944106288254261, 0.02077280543744564, 0.09962276369333267, -0.04502696916460991, 0.100129634141922, -0.1086311936378479, 0.13310961425304413, 0.3584984242916107, -0.11194416135549545, -0.15468966960906982, 0.0892123430967331, 0.15241000056266785, 0.13188563287258148, -0.029898548498749733, 0.113182432949543, -0.08779700845479965, -0.1303921937942505, 0.14702652394771576, 0.1537853330373764, -0.12942472100257874, -0.07925478368997574, -0.10919035971164703, -0.1075625792145729, 0.1556590050458908, 0.22949929535388947, 0.05843646451830864, -0.2340218722820282, 0.20385806262493134, -0.005838562734425068, 0.0920400619506836, -0.09587264060974121, 0.04662606120109558, 0.12971650063991547, -0.05012573301792145, -0.175433948636055, -0.23604528605937958, 0.027439361438155174, -0.011180971749126911, 0.03348011523485184, -0.02609250135719776, 0.16539376974105835, 0.365919828414917, 0.014167259447276592, 0.027736661955714226, 0.1530078649520874, -0.006537503097206354, 0.16574573516845703, 0.14010068774223328, 0.03181983530521393, 0.04584752395749092, 0.2399628609418869, -0.021421223878860474, -0.17849725484848022, -0.04144245758652687, -0.06046180799603462, 0.0994747057557106, 0.0451803132891655, 0.06678692251443863, -0.07402907311916351, -0.10555031150579453, -0.030364124104380608, 0.10081421583890915, 0.09955571591854095, -0.030180837959051132, -0.07211677730083466, 0.027790948748588562, -0.08184293657541275, 0.07246751338243484, 0.0451960414648056, -0.05439179763197899, 0.014641419984400272, 0.05590594559907913, -0.005455722101032734, 0.08744221925735474, -0.03371955081820488, -0.02377271093428135, -0.14241193234920502, 0.023739837110042572, 0.11333107948303223, 0.01724155806005001, -0.006078800652176142, 0.005830657668411732, -0.008908898569643497, 0.09580186009407043, 0.10663830488920212, -0.02345398999750614, 0.046527836471796036, 0.11097189784049988, -0.07334078848361969, 0.01581965573132038, 0.07602456957101822, 0.022623879835009575, -0.019539613276720047, -0.05854206159710884, 0.05871567502617836, 0.07808003574609756, -0.06924842298030853, 0.07274273782968521, 0.06240380182862282, -0.03849849849939346, -0.005925256758928299, 0.035858530551195145, 0.02067100629210472, 0.08632842451334, 0.14074139297008514, 0.1326276808977127, 0.09846984595060349, 0.03291968256235123, 0.00784779991954565, 0.0300185177475214, 0.01305469125509262, 0.032365258783102036, -0.0652637630701065, 0.06549563258886337, 0.016697343438863754, 0.05209636315703392, -0.0416746623814106, -0.03160238265991211, 0.02932095341384411, -0.0032347512897104025, -0.01793309673666954, -0.06315731257200241, -0.07820931822061539, 0.0440162718296051, -0.0036146664060652256, 0.0958564281463623, -0.07407490164041519, -0.022754337638616562, 0.18727849423885345, 0.019704218953847885, 0.046620678156614304, -0.03087659552693367, -0.00983282458037138, 0.02353057637810707, 0.02851615846157074, 0.06444504112005234, 0.05594265088438988, 0.17271819710731506, -0.014395263977348804, -0.14209716022014618, -0.019001515582203865, -0.08694901317358017, -0.030688004568219185, -0.014929980039596558, -0.08250999450683594, 0.03676942363381386, 0.04419635981321335, 0.04501498118042946, -0.059724774211645126, 0.040336836129426956, 0.07535216212272644, 0.16684433817863464, 0.024570496752858162, 0.021181505173444748, 0.047645360231399536, -0.04027479514479637, -0.049213800579309464, -0.17253762483596802, 0.03308653086423874, -0.00855980534106493, -0.013465511612594128, -0.07676950097084045, 0.11605017632246017, 0.04899520426988602, -0.008500776253640652, 0.14287716150283813, -0.08156853169202805, 0.016515932977199554, -0.031769152730703354, -0.0487004816532135, -0.01611998677253723, -0.05272625759243965, 0.06972549855709076, -0.019271284341812134, -0.00233672559261322, -0.009321587160229683, 0.12592996656894684, -0.07441376894712448, -0.0024582401383668184, 0.009660107083618641, 0.04066294804215431, -0.019298415631055832, -0.001715231453999877, -0.022006673738360405, 0.020510366186499596, 0.038578957319259644, 0.009840283542871475, -0.02918730489909649, 0.024670954793691635, -0.012849720194935799, 0.014561031013727188, -0.06192267686128616, -0.020797286182641983, -0.014083895832300186, -0.008998342789709568, 0.20118702948093414, 0.027180420234799385, 0.03984120860695839, 0.027664469555020332, 0.00947957020252943, 0.07999800145626068, -0.029426107183098793, 0.034581657499074936, -0.039122480899095535, 0.12120186537504196, 0.03614461049437523, 0.04369642585515976, 0.031117040663957596, 0.047986872494220734, 0.04427314177155495, 0.024827368557453156, -0.05130375921726227, -0.06043614074587822, -0.03810669109225273, 0.0731433779001236, -0.004903487395495176, 0.04575084522366524, 0.06900686770677567, -0.016826443374156952, 0.10717753320932388, -0.030145768076181412, -0.013108083978295326, 0.07562191039323807, 0.079227015376091, 0.0841866061091423, 0.05088021233677864, 0.02044030837714672, 0.09648427367210388, 0.039183877408504486, 0.1057405024766922, -0.03167508915066719, -0.04026799276471138, -0.005581543315201998, -0.04241756722331047, 0.041410528123378754, -0.013673395849764347, 0.05506959185004234, -0.09835122525691986, -0.0699637159705162, -0.03926708549261093, -0.05044729262590408, 0.06464727222919464, -0.030529070645570755, -0.02202414907515049, 0.1426565945148468, 0.04514703527092934, 0.09307561069726944, 0.040724627673625946, -0.0047340989112854, -0.07383432239294052, 0.08205664157867432, -0.011875506490468979, 0.02563534490764141, 0.02224605530500412, 0.023005375638604164, 0.05987301841378212, -0.028427433222532272, 0.05770532786846161, 0.013228905387222767, -0.03695036098361015, 0.08646330237388611, 0.019823484122753143, -0.019551899284124374, -0.01575116440653801, 0.004523193463683128, -0.03871472179889679, 0.07103335857391357, -0.08945019543170929, -0.022441167384386063, -0.04116635024547577, 0.004165241960436106, -0.07584751397371292, -0.08294074982404709, 0.030384209007024765, 0.0456896647810936, 0.18681153655052185, -0.13507825136184692, -0.1841149628162384, -0.00544672692194581, 0.18055593967437744, -0.12714047729969025, 0.14036884903907776, -0.15002703666687012, 0.14240941405296326, 0.08940448611974716, -0.15674301981925964, 0.15034572780132294, -0.03461525961756706, -0.02108583226799965, 0.20465438067913055, -0.2059165984392166, 0.07252874970436096, -0.2221488058567047, 0.07947150617837906, -0.11563132703304291, -0.33516308665275574, -0.03198791667819023, 0.12622828781604767, 0.23350951075553894, 0.1471516638994217, -0.06730905920267105, 0.08996864408254623, 0.10906749963760376, -0.14612220227718353, -0.09885450452566147, 0.13358083367347717, 0.2253340631723404, -0.2848706841468811, 0.07656488567590714, -0.1579606831073761, 0.16564235091209412, 0.11700654774904251, -0.00487544434145093, -0.06988641619682312, 0.11567111313343048, -0.16016894578933716, 0.0340038500726223, 0.1284804344177246, -0.05447179451584816, 0.20595405995845795, -0.07578664273023605, 0.026750629767775536, -0.1411391943693161, -0.04191957786679268, 0.053102247416973114, -0.02661849930882454, 0.06382282823324203, 0.10932867974042892, -0.007646556012332439, 0.02856690064072609, 0.07129403948783875, 0.048241905868053436, -0.01232924871146679, -0.043292347341775894, 0.053124748170375824, 0.009364893659949303, 0.020463326945900917, 0.23665471374988556, -0.028268318623304367, 0.2208728790283203, 0.03261830657720566, -0.04137078672647476, 0.10757473111152649, 0.03478005900979042, 0.021601978689432144, 0.022715575993061066, -0.08418849855661392, 0.09408330172300339, 0.005459384061396122, 0.013463892042636871, -0.11247681826353073, 0.06236559525132179, -0.007755717728286982, -0.023535454645752907, -0.013552622869610786, 0.07736536115407944, 0.07743293046951294, 0.03879707306623459, -0.14093157649040222, 0.12931935489177704, -0.039875514805316925, 0.09159046411514282, -0.029386768117547035, -0.018868591636419296, 0.04093882441520691, -0.035035889595746994, 0.0006438621785491705, 0.11542042344808578, -0.0128486892208457, -0.06941976398229599, 0.01417269092053175, -0.030983326956629753, -0.05091104656457901, -0.05280957743525505, -0.016561400145292282, -0.016094857826828957, 0.054904744029045105, 0.004017298109829426, 0.05488676205277443, 0.07865475863218307, 0.013672645203769207, 0.12146405875682831, 0.0038767815567553043, 0.006902066525071859, -0.015150089748203754, 0.010877569206058979, 0.03812089189887047, 0.10288960486650467, 0.030253451317548752, 0.11117877066135406, 0.10151444375514984, 0.1243097111582756, 0.05495221167802811, 0.09589073061943054, 0.027981000021100044, 0.057235315442085266, 0.07977457344532013, 0.09774996340274811, 0.038992803543806076, 0.10539153963327408, 0.02395264059305191, 0.02625206671655178, -0.14342676103115082, -0.11108862608671188, -0.10055515170097351, -0.015108291991055012, 0.01978275366127491, 0.07851026952266693, -0.14392009377479553, -0.0960635170340538, 0.015363913029432297, 0.1122385710477829, -0.028913099318742752, -0.04966410994529724, 0.022326966747641563, -0.0023118751123547554, -0.04299100488424301, -0.02942444011569023, -0.004778629634529352, 0.13968591392040253, 0.0656033307313919, 0.06170434132218361, 0.14110909402370453, 0.07671117037534714, 0.047036632895469666, -0.005707348696887493, -0.04216272756457329, 0.006225497927516699, 0.0006140867481008172, -0.024031154811382294, 0.02823622152209282, 0.02728906087577343, -0.12349745631217957, 0.06738478690385818, 0.011932753957808018, 0.10872077941894531, 0.060826513916254044, 0.026007579639554024, -0.09580732136964798, -0.007199833635240793, -0.006750323344022036, 0.09835611283779144, 0.058821529150009155, 0.021433599293231964, -0.020453283563256264, 0.01259743794798851, -0.0180378258228302, -0.11369053274393082, 0.0066643753089010715, -0.049306415021419525, 0.057893551886081696, 0.015917573124170303, 0.08967052400112152, 0.05427663400769234, -0.07350318878889084, -0.0423620380461216, 0.12244509160518646, -0.003975511994212866, -0.08150507509708405, -0.0016748161287978292, 0.09698739647865295, -0.03135973960161209, -0.004519256297498941, -0.003004525788128376, 0.003154088743031025, -0.04980145022273064, -0.10185446590185165, 0.04139583930373192, -0.012285350821912289, -0.03170313313603401, 0.1391225904226303, 0.05657697096467018, 0.05920003354549408, 0.1108594611287117, 0.057295478880405426, 0.09760119020938873, 0.04917999729514122, 0.04435790330171585, 0.0229607243090868, 0.057140056043863297, 0.051527317613363266, -0.04130076617002487, 0.07046481966972351, 0.013174297288060188, -0.06401840597391129, -0.0319412499666214, -0.10956212878227234, 0.024148715659976006, 0.005700523499399424, -0.006898879539221525, -0.06552176177501678, -0.006136331241577864, -0.09665309637784958, -0.010144144296646118, 0.024370890110731125, 0.07111617177724838, -0.05918984115123749, -0.019514232873916626, 0.031698405742645264, 0.02951178327202797, 0.051254574209451675, 0.031983811408281326, 0.03776179254055023, 0.08866330981254578, 0.020438596606254578, 0.0699276402592659, -0.05617678910493851, 0.09589072316884995, 0.038686852902173996, 0.00011713828280335292, 0.015825362876057625, 0.01251654326915741, 0.06587151437997818, 0.03269181028008461, 0.06078828498721123, -0.00179526605643332, -0.011501608416438103, 0.013484710827469826, 0.06810903549194336, -0.009584384970366955, -0.012848139740526676, 0.08746157586574554, 0.006010736338794231, 0.0327187180519104, 0.04342082887887955, -0.017272034659981728, -0.00489850202575326, 0.009487814269959927, 0.028858337551355362, 0.02128227800130844, -0.00151116494089365, -0.009250007569789886, -0.021532129496335983, -0.029350154101848602, -0.07713091373443604, -0.0982840359210968, -0.06967250257730484, 0.006769842002540827, -0.06022385507822037, -0.043769676238298416, 0.04668057709932327, -0.03676870837807655, -0.04275718331336975, -0.0148009043186903, -0.1569506675004959, 0.2178090214729309, 0.029672745615243912, 0.14072838425636292, -0.20118291676044464, -0.018798841163516045, -0.05363745987415314, 0.006966698449105024, -0.2505086362361908, -0.2308122217655182, 0.12102768570184708, 0.007494634483009577, -0.06986628472805023, -0.23785029351711273, 0.13380330801010132, 0.058959320187568665, 0.07499493658542633, -0.031045572832226753, 0.03536612167954445, 0.19914229214191437, -0.0028322983998805285, 0.15681211650371552, -0.1896526962518692, 0.10533266514539719, 0.07769812643527985, 0.11600615829229355, -0.20766599476337433, -0.05762212350964546, 0.26580020785331726, 0.20067615807056427, 0.23268981277942657, 0.27636954188346863, -0.04617684334516525, 0.20051132142543793, -0.1473996490240097, 0.006073560565710068, 0.08504068106412888, -0.03229685127735138, -0.008199501782655716, 0.08895405381917953, 0.0037468494847416878, -0.0012420512503013015, -0.06580737978219986, -0.14871251583099365, -0.1475696563720703, -0.07894624024629593, -0.00223902752622962, 0.12554804980754852, 0.2009487748146057, -0.18436448276042938, -0.07849383354187012, 0.18384888768196106, 0.06021011620759964, 0.012976815924048424, 0.059213295578956604, 0.03903412073850632, 0.07064665108919144, 0.0856841430068016, 0.12565827369689941, -0.0018429567571729422, 0.08384867757558823, 0.059331104159355164, 0.029233073815703392, -0.05949344113469124, 0.06387718766927719, 0.12341127544641495, 0.06428752839565277, -0.08696276694536209, -0.0744432881474495, 0.09778719395399094, -0.004262065049260855, -0.025822529569268227, -0.07121467590332031, 0.06639862805604935, 0.13854992389678955, 0.04133094847202301, -0.0757068395614624, 0.019282018765807152, 0.10808850824832916, 0.019523167982697487, -0.17003308236598969, 0.09839564561843872, -0.035764746367931366, -0.05708657577633858, 0.06341932713985443, -0.027300313115119934, 0.07381153851747513, 0.03803165629506111, -0.02202056720852852, 0.05858098343014717, 0.12337956577539444, 0.032171767204999924, -0.0584232360124588, -0.057788949459791183, 0.04543378949165344, 0.018822377547621727, 0.06777730584144592, -0.004449890460819006, -0.11678598821163177, 0.07959315180778503, -0.1386079043149948, 0.05691065266728401, 0.02406151592731476, -0.08438386023044586, 0.041317474097013474, 0.2002032846212387, -0.11586953699588776, 0.06891162693500519, -0.03107205219566822, 0.13125011324882507, -0.11974380910396576, -0.027104118838906288, 0.19465644657611847, -0.06760018318891525, -0.038277532905340195, 0.04405134171247482, 0.06345218420028687, -0.0437488853931427, 0.09585076570510864, -0.09086216241121292, -0.08735670894384384, 0.026632273569703102, -0.0508124940097332, 0.045503102242946625, -0.07388079166412354, -0.0461282841861248, 0.09789954870939255, -0.017692381516098976, 0.015385136008262634, 0.0399959534406662, -0.105702243745327, 0.00901640672236681, -0.03209254890680313, -0.02964031510055065, 0.01882249303162098, -0.062018685042858124, 0.10915996879339218, 0.046957265585660934, 0.004069786984473467, -0.10059930384159088, 0.00594619195908308, 0.007146431598812342, -0.12669649720191956, 0.04001385346055031, 0.07572447508573532, -0.018205290660262108, 0.08129759877920151, 0.009187562391161919, -0.03125016763806343, -0.03859499469399452, 0.038910456001758575, 0.0064144860953092575, 0.05911801755428314, -0.04237133264541626, -0.06532104313373566, -0.06813069432973862, -0.048611242324113846, 0.06641602516174316, -0.033943526446819305, -0.07050623744726181, 0.054574038833379745, 0.07303398847579956, -0.042964424937963486, -0.09175258874893188, 0.027807576581835747, 0.021141724660992622, -0.06576327979564667, 0.01960156299173832, -0.014542264863848686, 0.0034151969011873007, -0.0008639699663035572, 0.1077151969075203, 0.05728953704237938, -0.03467053547501564, 0.09393110871315002, -0.003613507142290473, -0.029308587312698364, 0.1953546553850174, -0.03983165696263313, 0.10682377219200134, -0.023053251206874847, -0.05242522060871124, -0.05829283222556114, 0.09582933038473129, 0.03132549673318863, -0.04270578548312187, 0.007060675881803036, 0.026089785620570183, 0.03910810500383377, 0.014250224456191063, -0.02516292780637741, -0.01270096842199564, -0.024912232533097267, -0.07218573242425919, 0.11855297535657883, -0.0115886265411973, -0.018776915967464447, 0.12029929459095001, -0.07194013893604279, 0.022033773362636566, 0.05240374803543091, 0.06507549434900284, 0.08486548811197281, 0.036688193678855896, -0.032192278653383255, 0.0880410447716713, 0.08585365861654282, 0.16001303493976593, -0.019849667325615883, 0.030564267188310623, 0.005130062345415354, 0.00957048311829567, 0.029667794704437256, 0.05935493856668472, 0.07027753442525864, 0.012994707562029362, 0.008486730977892876, 0.1274634301662445, -0.0440075658261776, -0.04078054800629616, 0.07143774628639221, 0.007634386885911226, 0.06588439643383026, 0.047038767486810684, -0.025415366515517235, -0.03373381495475769, 0.06245914846658707, 0.05809309333562851, 0.021270791068673134, -0.04864034429192543, -0.005197425838559866, 0.035075608640909195, -0.03470725566148758, 0.015223045833408833, 0.0688495859503746, -0.023938225582242012, -0.002834836719557643, -0.011452912352979183, -0.04136800020933151, 0.035015832632780075, 0.09082189947366714, -0.0007438050815835595, -0.015053823590278625, -0.02201603353023529, -0.0026316987350583076, -0.023033464327454567, 0.08973850309848785, 0.017097029834985733, 0.009927798062562943, 0.12218493223190308, 0.017520787194371223, -0.04847756773233414, -0.02235824055969715, 0.05095508322119713, 0.013102635741233826, -0.0022347779013216496, -0.050995420664548874, 0.11922242492437363, 0.01938694715499878, 0.08134041726589203, -0.014832526445388794, 0.01931668259203434, 0.061102498322725296, -0.1462569534778595, -0.0721365436911583, -0.029595183208584785, 0.025351764634251595, -0.009310168214142323, 0.019132567569613457, -0.03380131348967552, -0.03641107678413391, 0.16122452914714813, 0.15248310565948486, -0.16344976425170898, 0.03537677228450775, 0.038581084460020065, 0.0820520669221878, 0.1191691905260086, -0.07390209287405014, 0.04767142981290817, -0.10666301101446152, -0.0057236505672335625, -0.03869849443435669, -0.1094256192445755, 0.30183231830596924, -0.13993190228939056, 0.004650504793971777, -0.24007681012153625, -0.2556479573249817, 0.055498156696558, -0.12269587069749832, -0.2136661857366562, 0.032155346125364304, -0.05642286315560341, 0.13606293499469757, -0.043076541274785995, 0.29768162965774536, -0.15526068210601807, 0.1536250114440918, 0.11487212032079697, 0.03467694669961929, 0.029548801481723785, 0.10325576364994049, 0.1672113686800003, -0.041196174919605255, 0.04365061596035957, 0.041046883910894394, -0.18210956454277039, 0.21365417540073395, -0.2060275822877884, 0.01345021277666092, 0.12011075019836426, 0.22980165481567383, 0.08425429463386536, 0.18711690604686737, -0.03709227964282036, 0.14129287004470825, 0.11184524744749069, 0.01510688103735447, -0.1410910040140152, 0.016308115795254707, 0.11328702419996262, 0.02344343066215515, 0.09517346322536469, 0.01037714071571827, 0.12904970347881317, 0.05519375950098038, 0.07614932954311371, 0.08221209049224854, -0.13402515649795532, 0.013372762128710747, 0.07816660404205322, 0.01822703331708908, 0.06892356276512146, -0.07800381630659103, 0.07653407752513885, -0.0439690537750721, 0.16025371849536896, -0.04338085278868675, -0.003152869176119566, 0.092173732817173, 0.03478815406560898, 0.1007765382528305, 0.052299026399850845, 0.030238749459385872, -0.034994952380657196, -0.05586817115545273, 0.13820847868919373, 0.03060860000550747, 0.14331355690956116, 0.061016231775283813, 0.0034178351052105427, 0.057744450867176056, -0.06294679641723633, -0.05663534626364708, -0.05974756181240082, 0.028002440929412842, -0.04465257748961449, -0.05989648401737213, 0.09763593971729279, -0.11549870669841766, 0.10427462309598923, 0.014838313683867455, -0.03626343607902527, -0.0252586267888546, -0.03286674618721008, -0.028018657118082047, 0.08277079463005066, -0.0312892310321331, 0.006918753497302532, -0.022475821897387505, -0.002141461940482259, 0.04201836884021759, -0.09249424934387207, 0.05667693912982941, -0.05563202500343323, 0.18497736752033234, 0.019964279606938362, -0.05895014479756355, -0.02166532725095749, 0.1973855197429657, 0.018696576356887817, 0.060226328670978546, 0.04322415217757225, -0.03106837160885334, -0.07008048892021179, 0.019788604229688644, -0.05176394060254097, -0.016622306779026985, -0.004339900799095631, 0.010915135033428669, -0.06712047755718231, 0.12688665091991425, -0.00872432067990303, 0.00013425810902845114, 0.02597728930413723, -0.18755444884300232, 0.09366156905889511, 0.12307661771774292, -0.1038629338145256, -0.028464913368225098, 0.00022161132073961198, -0.04444696754217148, -0.02230968326330185, 0.07723427563905716, 0.0716516375541687, 0.05801717936992645, -0.0431993268430233, -0.02466714382171631, 0.024057576432824135, 0.16448518633842468, 0.007413200568407774, 0.10099717974662781, -0.09748680144548416, 0.17904461920261383, -0.0785539522767067, 0.07843740284442902, 0.012527070008218288, -0.006411469541490078, 0.060519732534885406, 0.0028814654797315598, 0.010907485149800777, 0.11072839796543121, 0.05146407708525658, -0.047347165644168854, -0.030196906998753548, 0.1256435364484787, -0.04394414275884628, -0.013220499269664288, 0.0032968695741146803, -0.020275652408599854, 0.07643982768058777, -0.0489959679543972, -0.034073129296302795, 0.026148933917284012, -0.049837883561849594, -0.026278303936123848, -0.024825097993016243, 0.011341644451022148, 0.013939916156232357, 0.011160693131387234, -0.11654067784547806, -0.038704708218574524, -0.04693422093987465, -0.04278571903705597, -0.012069802731275558, 0.04522344842553139, -0.026247836649417877, -0.061541710048913956, 0.12054303288459778, -0.025201328098773956, 0.11502484977245331, 0.02398337796330452, 0.049393005669116974, 0.12453870475292206, 0.037016868591308594, 0.0675935223698616, -0.01975003257393837, 0.035686515271663666, 0.004450696520507336, 0.027213281020522118, 0.014549678191542625, -0.04851742088794708, 0.10067684948444366, 0.009402032941579819, -0.029928265139460564, 0.0863330066204071, -0.021994885057210922, -0.01243546698242426, 0.002562787849456072, 0.09607287496328354, -0.046956539154052734, 0.0057802521623671055, 0.011245615780353546, 0.04275253787636757, 0.05731440708041191, -0.015792688354849815, -0.013746917247772217, -0.019799716770648956, -0.09621009975671768, 0.05932074785232544, -0.07209118455648422, -0.0670764148235321, 0.08717688173055649, 0.03930964320898056, -0.06117090955376625, 0.08793812990188599, -0.03550655394792557, -0.10244278609752655, -0.045668892562389374, -0.01601153053343296, 0.06975464522838593, 0.0874248817563057, 0.11326606571674347, -0.04963674768805504, 0.005234525538980961, 0.014653477817773819, -0.040174540132284164, 0.019200336188077927, -0.0466608852148056, 0.08713943511247635, -0.05711819604039192, -0.019862700253725052, 0.01749448850750923, -0.009404774755239487, 0.07649903744459152, 0.04330892860889435, 0.05429530143737793, 0.08141689747571945, 0.02686966396868229, 0.08422932028770447, -0.03345699608325958, 0.022925926372408867, -0.031317029148340225, 0.007175736129283905, 0.07743682712316513, 0.00012050144141539931, -0.09004882723093033, -0.09180748462677002, 0.019879814237356186, -0.04689600318670273, -0.04584915563464165, -0.028186729177832603, -0.019526557996869087, 0.006392051000148058, -0.027064722031354904, -0.054273348301649094, 0.0652078315615654, 0.00787158403545618, 0.013622661121189594, 0.07993917912244797, 0.048052482306957245, 0.04743081331253052, -0.02775491587817669, 0.09364478290081024, -0.10598092526197433, 0.018542729318141937, 0.017042826861143112, -0.012222026474773884, -0.024141300469636917, 0.0361609011888504, -0.050028007477521896, 0.18593496084213257, 0.2630308270454407, -0.0634223073720932, -0.05817292630672455, 0.056125275790691376, 0.12109094113111496, 0.05574005842208862, -0.016577759757637978, -0.040396325290203094, 0.23631171882152557, -0.028693899512290955, -0.0858357697725296, -0.14727681875228882, 0.2576093077659607, 0.2659885585308075, 0.11113160103559494, -0.11431429535150528, -0.17179585993289948, 0.08652004599571228, -0.15466009080410004, -0.1493304967880249, 0.197453573346138, -0.0708402693271637, 0.13153034448623657, 0.05789482966065407, 0.042245421558618546, -0.0276316087692976, -0.007970703765749931, 0.0004170709289610386, 0.13534745573997498, 0.25411367416381836, 0.2176792174577713, 0.05390382185578346, 0.00396996783092618, 0.055584050714969635, -0.006363837514072657, -0.07575158029794693, 0.13223521411418915, -0.030521785840392113, -0.08214116096496582, 0.04652651399374008, -0.045654620975255966, 0.0729287639260292, -0.11949072033166885, 0.14902305603027344, -0.039018429815769196, 0.11093392223119736, -0.07819891721010208, 0.12693028151988983, -0.011852763593196869, 0.12359326332807541, 0.05916614085435867, 0.023011526092886925, -0.09297702461481094, 0.03788696974515915, 0.032307229936122894, 0.0878758653998375, 0.021908534690737724, 0.06618709117174149, 0.01817811094224453, 0.03672042116522789, -0.07652345299720764, -0.09940705448389053, 0.12770520150661469, 0.06210402771830559, -0.039441321045160294, -0.04447358474135399, -0.07564031332731247, 0.018304232507944107, 0.18149399757385254, -0.02737085521221161, 0.07202528417110443, 0.06705178320407867, -0.11457666754722595, 0.10345461219549179, 0.0881161317229271, -0.03661497309803963, 0.019842755049467087, 0.020979484543204308, -0.04557478800415993, -0.047884564846754074, 0.06729621440172195, -0.08453065156936646, 0.13092780113220215, -0.10260916501283646, 0.05116816610097885, -0.07245895266532898, 0.039852678775787354, 0.05249880626797676, -0.04479420557618141, 0.009347770363092422, 0.07621493935585022, 0.009483945555984974, 0.14526492357254028, -0.023463357239961624, 0.033084411174058914, 0.011934397742152214, 0.019533313810825348, -0.1386646181344986, 0.17572155594825745, 0.040969833731651306, 0.05943938344717026, 0.13145768642425537, -0.04192955046892166, -0.09628443419933319, -0.1917242854833603, 0.1767118126153946, -0.009371661581099033, 0.005124445538967848, -0.07548755407333374, -0.06166895106434822, -0.05947376415133476, 0.07542567700147629, -0.058332476764917374, 0.03991216793656349, 0.12690390646457672, 0.09765342622995377, 0.08525114506483078, 0.09388808161020279, 0.040941063314676285, 0.019403954967856407, -0.10583378374576569, -0.04375851899385452, 0.06763423979282379, -0.10972146689891815, -0.0966435968875885, 0.07083693891763687, -0.01283127348870039, 0.03193271905183792, 0.062125056982040405, -0.06952807307243347, -0.07537252455949783, 0.027732567861676216, -0.03282563015818596, 0.08497810363769531, 0.02452974021434784, 0.043740998953580856, 0.011842492036521435, -0.0055391923524439335, 0.08917399495840073, 0.06770505756139755, -0.052999868988990784, 0.0039266361854970455, 0.046843115240335464, -0.022465070709586143, -0.012835467234253883, 0.02243674360215664, 0.020075539126992226, 0.10596483945846558, 0.061063289642333984, 0.0400971993803978, 0.00760874105617404, 0.12140385806560516, -0.002946134191006422, -0.002453387249261141, -0.01972651109099388, -0.009200938045978546, -0.024596847593784332, -0.021238768473267555, -0.02915992960333824, 0.03950968757271767, -0.0032052400056272745, -0.0100278090685606, 0.11809053272008896, 0.08362987637519836, 0.0051290239207446575, -0.08560167998075485, -0.022887708619236946, -0.03816885128617287, -0.03178371489048004, -0.05284028500318527, -0.024362698197364807, 0.0781119167804718, -0.03387156501412392, 0.08267010748386383, 0.06360030174255371, -0.020210865885019302, -0.02253148891031742, 0.08433935791254044, -0.034377697855234146, 0.02336975559592247, 0.014605088159441948, -0.024494625627994537, -0.11799141019582748, 0.09035643190145493, -0.11371935904026031, -0.06454133987426758, 0.04152977466583252, -0.09844756126403809, 0.04857790097594261, -0.010343995876610279, 0.004355417564511299, -0.027243664488196373, -0.0507802851498127, -0.13122029602527618, -0.016612235456705093, -0.01843360997736454, 0.07490445673465729, -0.07126709818840027, 0.08314637839794159, 0.081857830286026, -0.05849158763885498, -0.04178411513566971, 0.09523648023605347, -0.024214651435613632, 0.04634448140859604, -0.01086865458637476, -0.02426084317266941, -0.046402618288993835, -0.028998345136642456, -0.03874806687235832, 0.010810205712914467, 0.12213940918445587, 0.1560797095298767, 0.13528288900852203, -0.040711019188165665, 0.04810715466737747, 0.08159197866916656, 0.016718439757823944, -0.014623804949223995, -0.06592217832803726, -0.021863292902708054, -0.026116803288459778, -0.07466139644384384, 0.0048002698458731174, -0.020798685029149055, -0.06626079976558685, 0.14417201280593872, 0.0519384890794754, 0.01344822347164154, 0.01816515065729618, 0.044541459530591965, -0.07644626498222351, 0.0431571789085865, -0.023844782263040543, 0.06029655784368515, -0.0770232081413269, -0.06057645380496979, -0.05622066184878349, 0.04928150027990341, 0.016426078975200653, 0.027045855298638344, 0.025606948882341385, 0.02050432562828064, 0.07883816957473755, -0.03492755442857742, 0.06700310111045837, -0.0374554805457592, 0.07789517939090729, 0.10143639147281647, 0.08597517013549805, -0.10090255737304688, 0.11892661452293396, 0.09083908796310425, 0.01234687864780426, -0.06718776375055313, -0.023468662053346634, -0.05574152246117592, -0.04877416044473648, 0.02308381162583828, -0.03542095422744751, -0.022731544449925423, 0.08394505828619003, 0.050831593573093414, 0.05127860978245735, 0.058092039078474045, -0.109551340341568, 0.03688395768404007, 0.09748196601867676, 0.03667492792010307, 0.10681314021348953, 0.0184117890894413, 0.1846718192100525, -0.014585858210921288, 0.07348812371492386, -0.08232075721025467, 0.17879773676395416, 0.18901985883712769, 0.28817519545555115, -0.05364275723695755, -0.01878996752202511, 0.30340591073036194, 0.08580438047647476, 0.10288269817829132, -0.10349108278751373, 0.2269972711801529, -0.11738773435354233, 0.06813766062259674, 0.2544746398925781, -0.19890619814395905, 0.12248439341783524, 0.02642330341041088, 0.010346618480980396, 0.028868338093161583, 0.1425265073776245, 0.1428976058959961, -0.03949940577149391, 0.03977646306157112, -0.011378188617527485, -0.08584000170230865, 0.04187145084142685, 0.12683184444904327, -0.0427192822098732, 0.023968111723661423, 0.062413085252046585, 0.03157475218176842, -0.06705955415964127, -0.12427723407745361, 0.13168853521347046, 0.015883885324001312, 0.0782901793718338, 0.12312653660774231, -0.0692981705069542, 0.0019430855754762888, -0.15496455132961273, 0.18494677543640137, -0.06064369156956673, -0.07311895489692688, -0.06670863181352615, 0.017238201573491096, 0.026337772607803345, -0.0018923725001513958, -0.07715079933404922, 0.05030977725982666, 0.050921499729156494, -0.028117284178733826, 0.09613506495952606, -0.014254782348871231, 0.035025667399168015, -0.06230073422193527, -0.06721742451190948, 0.09651824086904526, 0.09073980152606964, -0.07573028653860092, -0.026870282366871834, 0.053294625133275986, 0.1725853532552719, -0.0732366144657135, 0.08918271958827972, -0.0786748006939888, -0.08747503161430359, 0.014207089319825172, -0.017214003950357437, -0.03022913448512554, -0.06244086101651192, -0.08003978431224823, -0.03639257699251175, -0.03158372640609741, 0.11391263455152512, -0.06409895420074463, -0.041720613837242126, 0.03944840282201767, 0.037445586174726486, 0.042172688990831375, 0.06159043684601784, 0.09125605970621109, 0.007300823926925659, 0.029932891950011253, -0.018174361437559128, 0.11660487204790115, 0.038257844746112823, 0.11708967387676239, -0.02075732685625553, 0.0008370106806978583, -0.019959604367613792, -0.10004591941833496, 0.1399112194776535, 0.027353860437870026, 0.09217321872711182, 0.02947157621383667, 0.007790077477693558, 0.051895223557949066, 0.03413144499063492, 0.1562558263540268, -0.14896893501281738, 0.10198362171649933, -0.008451638743281364, -0.07965567708015442, -0.14362038671970367, -0.10169998556375504, -0.05995333939790726, 0.011264978908002377, 0.07559920102357864, 0.03913191705942154, -0.08852025866508484, 0.03685316815972328, -0.02298561856150627, -0.06026225909590721, -0.026602037250995636, -0.025642013177275658, -0.1626630276441574, 0.010312163271009922, -0.014787254855036736, 0.02040846459567547, 0.13797403872013092, -0.0562702901661396, 0.004868618678301573, -0.025371257215738297, -0.0663299709558487, 0.006229130085557699, 0.020685387775301933, -0.019130386412143707, 0.0134710893034935, 0.08784763514995575, 0.04359328746795654, -0.0032966695725917816, -0.0049215396866202354, 0.014811974950134754, 0.07421746104955673, -0.010461969301104546, 0.05022954195737839, 0.1668630987405777, 0.02374603971838951, 0.015559370629489422, -0.030396973714232445, 0.0570434145629406, 0.06879644095897675, -0.0358758345246315, 0.051745787262916565, -0.02366681583225727, 0.0962689220905304, 0.034557148814201355, 0.0410323329269886, 0.09096982330083847, 0.09525036811828613, -0.02318914607167244, -0.03601757064461708, -0.025303220376372337, -0.09914965182542801, 0.0001533721515443176, 0.05809864029288292, -0.10271350294351578, 0.13574343919754028, -0.0705375224351883, -0.08109698444604874, -0.04977387934923172, -0.11330744624137878, -0.010471290908753872, -0.03518688678741455, -0.019643694162368774, -0.03863037750124931, 0.005623095203191042, -0.00036039651604369283, 0.12783509492874146, 0.02797042578458786, 0.06645777076482773, 0.0812428668141365, -0.021366937085986137, 0.0060937004163861275, -0.0442349798977375, 0.09476645290851593, -0.07070218026638031, 0.10141612589359283, 0.07240594923496246, 0.14348043501377106, 0.017583200708031654, 0.13426315784454346, 0.052311524748802185, 0.02563532628118992, -0.028091926127672195, 0.010480827651917934, 0.015547608956694603, 0.08460403978824615, -0.07476142048835754, -0.10500013828277588, 0.09626129269599915, -0.0777500569820404, -0.05389886721968651, -0.05275009945034981, 0.022997325286269188, -0.03026404231786728, -0.02811957150697708, 0.05060363933444023, 0.06558353453874588, 0.04366770014166832, 0.01925586722791195, 0.008948443457484245, -0.12045089155435562, -0.06951842457056046, 0.04524127393960953, 0.03055969811975956, 0.14705078303813934, -0.028534991666674614, 0.06036708503961563, 0.06586103141307831, 0.08411983400583267, 0.11510162800550461, 0.0062736752443015575, -0.04921130836009979, 0.08542396873235703, 0.07249076664447784, -0.09566894173622131, 0.008387859910726547, 0.09425696730613708, 0.07561779022216797, 0.10322610288858414, 0.06883008033037186, 0.0596640408039093, 0.012616859748959541, -0.04458615928888321, 0.01648467779159546, 0.00895650964230299, 0.02031679078936577, 0.12269911170005798, 0.00028911244589835405, 0.012055532075464725, 0.0064368946477770805, -0.006675866898149252, 0.02116108126938343, 0.11291072517633438, -0.03729870170354843, 0.04726220667362213, 0.07026917487382889, 0.058082494884729385, 0.013060390949249268, -0.048169203102588654, 0.0484108068048954, 0.05851204693317413, 0.02853582054376602, 0.025744913145899773, -0.0702219307422638, -0.017629366368055344, 0.07039695233106613, -0.017614804208278656, -0.17739039659500122, -0.04275504872202873, -0.04469846189022064, -0.08749036490917206, -0.07273191958665848, 0.0327233262360096, -0.02169225737452507, 0.03155820444226265, 0.015264509245753288, 0.010919997468590736, 0.06080477312207222, 0.14685311913490295, -0.0004010982811450958, 0.015171559527516365, -0.12708106637001038, 0.11085774749517441, 0.18333157896995544, -0.21039646863937378, 0.10304533690214157, 0.02533017471432686, -0.1894051879644394, 0.07073572278022766, 0.02120082639157772, -0.13591310381889343, 0.058520812541246414, 0.13362492620944977, -0.06748426705598831, -0.081760473549366, 0.18294651806354523, 0.05155273154377937, 0.05079422518610954, -0.04775550216436386, 0.1269262284040451, 0.04040982201695442, -0.05351347476243973, -0.14794982969760895, -0.12955015897750854, -0.16965782642364502, 0.24367018043994904, -0.013584167696535587, -0.26197922229766846, 0.07228562980890274, 0.16038578748703003, 0.1446334570646286, 0.07876991480588913, -0.13096030056476593, -0.03630119562149048, -0.14802764356136322, 0.2004755139350891, 0.18267424404621124, 0.22007015347480774, -0.0421748161315918, 0.022376472130417824, 0.16159482300281525, -0.06403566151857376, 0.01902526430785656, 0.15840600430965424, 0.07281360775232315, 0.14128099381923676, 0.06005125120282173, -0.13203687965869904, 0.024817727506160736, 0.27464935183525085, -0.051038406789302826, -0.13452868163585663, 0.041993025690317154, 0.038193609565496445, 0.012117580510675907, 0.04202358424663544, 0.1332739293575287, 0.15218961238861084, -0.02760264277458191, 0.02578572928905487, 0.03795528784394264, 0.10167078673839569, -0.04735228791832924, -0.06194538623094559, -0.18595224618911743, 0.05154163017868996, -0.08867978304624557, -0.01945970579981804, -0.0168145764619112, -2.1327068679966033e-05, 0.13183502852916718, -0.03117460012435913, 0.010878811590373516, -0.008688142523169518, -0.00576021010056138, 0.13654738664627075, 0.004501092713326216, -0.0867847129702568, -0.032655198127031326, 0.12666982412338257, 0.04475976899266243, -0.06527291238307953, -0.024504972621798515, -0.0009915188420563936, 0.24680784344673157, -0.032749321311712265, 0.01269474159926176, -0.14561523497104645, 0.07840624451637268, 0.10802426934242249, 0.0321635976433754, -0.08197538554668427, 0.04244672507047653, 0.02454157918691635, -0.03079884499311447, -0.0360390767455101, 0.09487452358007431, -0.07899504899978638, -0.1275227665901184, 0.006304515525698662, -0.11970818042755127, -0.10463199019432068, 0.13140684366226196, 0.05430222675204277, -0.09553614258766174, 0.11312701553106308, -0.05761991813778877, 0.08568641543388367, 0.03568565100431442, 0.06572087109088898, -0.1439114511013031, 0.06739189475774765, 0.10916304588317871, -0.014611735008656979, 0.001354187959805131, -0.09073641896247864, 0.018043477088212967, 0.007485722191631794, -0.052904464304447174, 0.012890435755252838, 0.09064620733261108, 0.09090987592935562, -0.025633370503783226, -0.000993912573903799, 0.05733950063586235, 0.04525752738118172, 0.05818888172507286, -0.07419194281101227, 0.06547605991363525, 0.024554848670959473, -0.07869365811347961, -0.10574911534786224, -0.015764571726322174, 0.0037783640436828136, 0.07640694826841354, -0.0321166068315506, 0.11035419255495071, 0.07211311906576157, -0.08519008755683899, 0.08988866209983826, 0.025474000722169876, 0.05723130330443382, -0.02580919675529003, 0.06206731125712395, -0.003650993574410677, 0.11242721229791641, 0.0846090242266655, 0.04282502830028534, 0.0026794367004185915, -0.06271052360534668, -0.025933856144547462, -0.004076668061316013, 0.026233235374093056, -0.011094702407717705, -0.0006381000275723636, 0.07522842288017273, 0.10380128771066666, 0.052431002259254456, -0.041372571140527725, -0.001020456780679524, -0.0015425413148477674, -0.015298611484467983, 0.01972261257469654, -0.04081914201378822, -0.07705947011709213, -0.03965579345822334, -0.021966710686683655, -0.04269746318459511, -0.07259403169155121, 0.02426692098379135, -0.08266840130090714, 0.020440664142370224, 0.09307786822319031, 0.09944331645965576, 0.06689100712537766, -0.040724705904722214, 0.0360884927213192, 0.06533931940793991, 0.012796172872185707, -0.028249196708202362, 0.00047879130579531193, 0.013131869025528431, -0.018793528899550438, 0.02385886386036873, 0.056937865912914276, -0.02254665642976761, -0.04866654425859451, 0.06215246394276619, 0.09944084286689758, -0.07261534035205841, -0.0628216341137886, 0.03650638461112976, 0.062384989112615585, 0.05388132110238075, 0.07999405264854431, -0.04956302419304848, -0.04349710792303085, 0.02184593677520752, 0.07179420441389084, -0.08251315355300903, -0.08781040459871292, 0.018746957182884216, 0.0303826704621315, 0.12134130299091339, 0.08433341234922409, 0.1384982019662857, 0.10289260745048523, 0.009905864484608173, 0.029153238981962204, 0.04826955869793892, -0.011860104277729988, 0.013754271902143955, 0.09161296486854553, 0.0291728712618351, -0.012090830132365227, 0.0007751225493848324, -0.0031265923753380775, -0.018717732280492783, 0.008071044459939003, -0.06593423336744308, 0.08882129192352295, 0.015589630231261253, 0.07654639333486557, 0.06429676711559296, -0.03176890313625336, 0.03948410227894783, -0.07387881726026535, 0.022742781788110733, 0.08521769940853119, -0.0774318277835846, 0.10990914702415466, 0.1357533186674118, -0.05134179815649986, -0.05991332232952118, -0.05214858055114746, 0.03382580727338791, -0.04557383060455322, 0.07705835998058319, -0.08848453313112259, 0.05385145545005798, 0.12527906894683838, 0.0009453304810449481, -0.021442756056785583, 0.07886897772550583, -0.013355428352952003, 0.005130556412041187, 0.009898251853883266, 0.031998250633478165, 0.08912629634141922, -0.07345256209373474, -0.09258288145065308, -0.01350265834480524, -0.0026792341377586126, 0.0929165706038475, 0.027484726160764694, 0.10369441658258438, 0.009364433586597443, -0.016658632084727287, -0.032458215951919556, 0.15995848178863525, -0.023211665451526642, -0.046577103435993195, -0.036545902490615845, 0.04551819711923599, 0.0013799017760902643, 0.0540725514292717, -0.0025450189132243395, -0.018117181956768036, -0.020376969128847122, 0.03802621364593506, -0.03514278680086136, 0.037918224930763245, -0.05676935613155365, -0.22591526806354523, 0.13113367557525635, 0.031033923849463463, -0.03572765365242958, 0.1703214943408966, 0.03653071075677872, -0.06458568572998047, 0.1473792940378189, 0.14306586980819702, -0.12782184779644012, -0.12893447279930115, -0.08629243820905685, -0.11581210792064667, 0.00706146378070116, -0.14350846409797668, -0.16001230478286743, -0.13258622586727142, -0.2061198204755783, 0.14793068170547485, -0.03195562586188316, 0.1200941652059555, 0.017931479960680008, 0.22706161439418793, 0.18371814489364624, -0.11445091664791107, -0.07829111069440842, 0.15436457097530365, -0.08287738263607025, 0.10329657793045044, -0.12285540252923965, 0.2423786222934723, 0.25052300095558167, -0.056429874151945114, -0.06930729001760483, -0.01653076894581318, 0.15025869011878967, -0.020596938207745552, 0.22300617396831512, 0.08932238817214966, -0.07799354940652847, 0.10528938472270966, -0.11367052793502808, -0.05418267846107483, 0.15088105201721191, -0.04039836674928665, -0.044700250029563904, 0.12299910187721252, -0.1161847934126854, -0.06905964016914368, -0.04537369683384895, -0.017018228769302368, -0.023532643914222717, 0.0895233303308487, 0.11396050453186035, -0.019371991977095604, 0.03665439411997795, -0.012967242859303951, 0.04032188653945923, 0.11904812604188919, -0.05030088499188423, -0.0680243968963623, 0.07977667450904846, -0.04592583328485489, 0.0296636950224638, 0.0693105012178421, 0.10024672746658325, 0.1180841401219368, 0.060437001287937164, 0.05152739956974983, 0.18419219553470612, -0.004029744304716587, -0.10870427638292313, 0.10381027311086655, 0.09552069753408432, -0.12842728197574615, -0.06378164887428284, 0.054459188133478165, 0.019162585958838463, -0.006914745084941387, 0.1079912856221199, -0.1717391163110733, -0.013173783197999, 0.023832084611058235, -0.07186160236597061, -0.09162572771310806, 0.13740000128746033, -0.060094915330410004, 0.04718471318483353, 0.12432008236646652, -0.03041919320821762, -0.036457981914281845, 0.08549301326274872, 0.05564579367637634, 0.04065430164337158, 0.02916172705590725, -0.035778794437646866, 0.10773111879825592, -0.07738029211759567, 0.08691912144422531, -0.0053509874269366264, -0.0521199107170105, 0.0985114797949791, -0.09978216886520386, 0.03661828115582466, 0.04467477649450302, -0.0980159193277359, -0.038961295038461685, 0.09985265880823135, -0.13448411226272583, -0.1479026824235916, 0.08853539824485779, 0.028521860018372536, -0.004430447705090046, -0.03589502349495888, -0.05554518476128578, 0.06850698590278625, 0.09721143543720245, -0.13425542414188385, 0.031147362664341927, 0.0725625529885292, -0.015079809352755547, -0.03741166368126869, -0.024255456402897835, -0.008790040388703346, 0.02489653415977955, -0.019786931574344635, 0.02465181238949299, 0.06445324420928955, -0.006158744916319847, -0.049092456698417664, 0.052717458456754684, 0.10981857031583786, -0.06914389878511429, -0.06691775470972061, -0.022084681317210197, 0.017440585419535637, 0.048220425844192505, 0.041563790291547775, -0.04144943132996559, -0.04769790545105934, 0.0464184395968914, 0.00710624223574996, 0.041488323360681534, -0.05859139934182167, -0.0025379208382219076, 0.021385041996836662, 0.08793780952692032, -0.03413586691021919, 0.009793502278625965, 0.0033093395177274942, -0.01922956109046936, -0.07680255174636841, -0.06417706608772278, 0.02781490609049797, -0.013778680935502052, 0.047966793179512024, 0.05926214158535004, -0.1307482272386551, 0.0922904908657074, 0.042743418365716934, 0.016692273318767548, 0.012402727268636227, 0.03490500897169113, -0.032596562057733536, 0.023582879453897476, 0.004504740238189697, 0.0343548022210598, 0.020118653774261475, 0.003811558708548546, 0.0596846342086792, -0.0009808419272303581, 0.1080671027302742, 0.03783997520804405, -0.08472912758588791, 0.0029792720451951027, 0.07555582374334335, -0.07435309141874313, -0.021440602838993073, -0.14067579805850983, -0.03429760783910751, 0.06251906603574753, 0.033562079071998596, -0.04914241284132004, 0.002079734345898032, 0.01740897074341774, -0.07401808351278305, -0.0077541908249258995, 0.0672326311469078, -0.03835402429103851, 0.019751252606511116, 0.10746736079454422, 0.08589847385883331, -0.029713785275816917, -0.05424875020980835, -0.029112322255969048, 0.07871796935796738, 0.09081936627626419, 0.10872889310121536, -0.07561828941106796, 0.004982564132660627, -0.031317539513111115, 0.04500849172472954, 0.020068703219294548, -0.07159338146448135, 0.06184200942516327, 0.09596160054206848, 0.05751771479845047, -0.0581376776099205, 0.10732430964708328, 0.025646289810538292, 0.13493679463863373, 0.02594851888716221, 0.09305665642023087, 0.04739337041974068, 0.03601241856813431, -0.03273113816976547, -0.0761595368385315, 0.030618861317634583, 0.051978711038827896, -0.07519125193357468, -0.06421821564435959, 0.04876134544610977, 0.17093798518180847, 0.03275780379772186, 0.07891549915075302, 0.09678049385547638, 0.10670045018196106, 0.03495153784751892, 0.011834920383989811, -0.0375996008515358, 0.07397258281707764, 0.0473533533513546, -0.10550999641418457, 0.035247769206762314, 0.0635036826133728, 0.02897828072309494, -0.011326131410896778, 0.06729096174240112, -0.03946560248732567, 0.022277135401964188, 0.052027519792318344, 0.015803853049874306, 0.03955453634262085, 0.07103323191404343, -0.12348559498786926, -0.004342156462371349, -0.05028347298502922, 0.0427483431994915, -0.06116237863898277, 0.048301342874765396, 0.0018575598951429129, -0.0233144648373127, -0.07812721282243729, 0.11776935309171677, 0.020892217755317688, 0.03959532454609871, 0.048663582652807236, 0.05500554293394089, 0.017037706449627876, 0.02498660422861576, -0.03367418795824051, -0.034075889736413956, -0.055046699941158295, 0.03482796624302864, -0.04650488868355751, -0.008225543424487114, 0.008170168846845627, -0.03790436312556267, -0.16901370882987976, 0.025230320170521736, -0.002997833304107189, 0.11622878164052963, 0.03446850925683975, 0.17000800371170044, 0.2503509819507599, -0.15151283144950867, -0.039282865822315216, -0.1461198776960373, -0.1443469375371933, -0.2139025628566742, -0.04640829563140869, 0.12091165781021118, -0.24124975502490997, 0.24015723168849945, -0.0786699652671814, 0.10078640282154083, 0.04030121862888336, -0.09304086118936539, 0.04285114258527756, -0.06295303255319595, -0.04486663267016411, -0.09188119322061539, -0.1900429129600525, 0.09953181445598602, -0.10022541880607605, 0.046718720346689224, -0.15628740191459656, -0.25779759883880615, 0.035633597522974014, 0.01533681433647871, 0.2100878357887268, 0.1616789698600769, 0.16253416240215302, 0.028372133150696754, -0.10094980895519257, 0.05046527460217476, 0.050310198217630386, -0.06106332316994667, -0.16063791513442993, 0.07077300548553467, 0.1973329484462738, 0.09948962181806564, 0.10916120558977127, 0.04716842621564865, -0.07298698276281357, 0.08064181357622147, 0.06394904106855392, 0.15404212474822998, 0.10518775880336761, 0.03622809424996376, 0.143781840801239, 0.08434852957725525, 0.0139640923589468, 0.05766494944691658, 0.06617669761180878, 0.037741780281066895, -0.09701265394687653, 0.07044772803783417, 0.10374637693166733, -0.01211859006434679, -0.023943649604916573, 0.15853439271450043, 0.029893996194005013, -0.07810750603675842, 0.09487387537956238, -0.08543848246335983, 0.00104751146864146, 0.03083510510623455, -0.016793986782431602, 0.02576504647731781, 0.01454020757228136, 0.012794570066034794, 0.008228003978729248, 0.07306252419948578, 0.16229285299777985, 0.02055724896490574, 0.04625464230775833, 0.061084698885679245, 0.09897463768720627, 0.17618247866630554, -0.051858361810445786, 0.11708156764507294, 0.002432718873023987, -0.02168995700776577, -0.059986744076013565, 0.03360619768500328, -0.02246781438589096, -0.07070163637399673, 0.04382622614502907, 0.08048253506422043, -0.05829945579171181, 0.015383847989141941, -0.04116854816675186, -0.08457960188388824, -0.08753906935453415, 0.012116639874875546, 0.031876496970653534, 0.026838304474949837, -0.0849153995513916, -0.004765429999679327, -0.09093763679265976, -0.013121199794113636, -0.14951956272125244, -0.08714483678340912, 0.02776121348142624, 0.041999656707048416, -0.03170659765601158, -0.03512914106249809, 0.20077714323997498, 0.08271446824073792, 0.07791566848754883, 0.04362095519900322, -0.07362750172615051, 0.018389390781521797, 0.1322687566280365, 0.023844458162784576, 0.01639251783490181, 0.11107301712036133, -0.014004197902977467, 0.07010998576879501, 0.11095058917999268, -0.057854071259498596, 0.07501039654016495, -0.03429234400391579, -0.046266186982393265, -0.01747879944741726, -0.0021142070181667805, -0.004195944871753454, -0.03378938138484955, -0.035774875432252884, 0.029000060632824898, -0.04044213891029358, 0.0263852346688509, -0.014675425365567207, 0.03126880154013634, -0.09661704301834106, 0.09724348038434982, -0.017011404037475586, 0.10150206834077835, 0.015569363720715046, 0.07634032517671585, 0.0715518519282341, 0.11253897845745087, -0.0923047810792923, 0.04063158854842186, 0.05037122592329979, 0.036984506994485855, -0.012996516190469265, 0.024949906393885612, 0.16631901264190674, -0.003990556579083204, 0.008658410981297493, -0.001154586672782898, 0.09423445910215378, 0.007216669153422117, 0.021891098469495773, 0.030062852427363396, 0.0765128955245018, -0.03364082798361778, 0.057406432926654816, 0.06043674796819687, 0.06623018532991409, 0.018783660605549812, -0.04491353780031204, -0.05866013467311859, 0.009565990418195724, -0.027441851794719696, 0.04979659616947174, -0.023270681500434875, 0.00935205165296793, 0.009317281655967236, 0.031846437603235245, -0.08548320829868317, -0.0619143508374691, 0.1308213323354721, -0.0842617079615593, 0.15663745999336243, -0.018704505637288094, -0.034990619868040085, -0.06285403668880463, -0.030982572585344315, 0.046830009669065475, -0.05892251431941986, 0.08074513077735901, 0.04455731436610222, 0.027637751772999763, -0.021948544308543205, -0.06595664471387863, -0.03210930898785591, -0.06597355008125305, 0.13114330172538757, 0.020084235817193985, 0.0534752793610096, 0.018671615049242973, -0.006799771450459957, 0.04403787851333618, -0.02687973715364933, -0.03493126854300499, 0.12869881093502045, -0.09063883870840073, -0.11371966451406479, -0.01607920415699482, 0.07675296068191528, 0.06688590347766876, 0.007808873429894447, 0.11713886260986328, 0.04868264123797417, 0.01994592323899269, 0.025695523247122765, -0.03163844347000122, -0.09863011538982391, 0.027338122949004173, 0.05733503773808479, 0.09033553302288055, 0.01914789155125618, 0.017778079956769943, 0.10612516105175018, -0.11704683303833008, 0.04027530178427696, 0.0956125259399414, 0.018999958410859108, -0.05545192211866379, 0.12343520671129227, 0.058916326612234116, -0.009870481677353382, 0.03547017648816109, -0.029044071212410927, -0.040745560079813004, 0.009299523197114468, -0.01906132511794567, 0.051309093832969666, 0.05311636999249458, 0.16008298099040985, -0.059234343469142914, -0.004093017894774675, -0.07153642177581787, -0.02916826494038105, 0.08037780970335007, -0.04910903051495552, 0.08661267906427383, 0.09930042177438736, -0.027368849143385887, -0.00678277388215065, 0.0024725301191210747, 0.03558662533760071, 0.124015212059021, 0.024591417983174324, 0.05756548419594765, -0.010350212454795837, -0.04672950878739357, 0.04892929270863533, 0.10113609582185745, 0.04584360867738724, 0.08358312398195267, -0.016183536499738693, 0.04147765412926674, -0.044029880315065384, -0.06380470097064972, 0.06154245883226395, -0.007906992919743061, 0.058598872274160385, 0.08956331759691238, 0.07902758568525314, 0.0045444900169968605, 0.04820789769291878, -0.015601076185703278, 0.08507726341485977, -0.06380390375852585, -0.1969001740217209, 0.09836379438638687, -0.11385250091552734, 0.17358684539794922, -0.10442763566970825, -0.17129787802696228, 0.007587957661598921, -0.22483108937740326, 0.03801284357905388, 0.0014208456268534064, 0.1143704354763031, 0.014540533535182476, -0.126238152384758, -0.19015856087207794, -0.1806318163871765, 0.007778233848512173, 0.13714569807052612, -0.07637719064950943, 0.15151987969875336, 0.12692587077617645, -0.04860050603747368, -0.10995916277170181, 