{"layer1": {"weights": [0.33202478289604187, -0.26235973834991455, 0.015247203409671783, 0.20950335264205933, -0.09957284480333328, 0.03848113492131233, -0.07660462707281113, -0.024614037945866585, -0.19103875756263733, -0.14129233360290527, 0.21260446310043335, -0.022581391036510468, -0.17571479082107544, 0.19448165595531464, -0.22990603744983673, -0.4432796537876129, 0.44398823380470276, -0.19825154542922974, -0.11593306064605713, 0.25120648741722107, 0.279275119304657, 0.011160477064549923, 0.2515801787376404, 0.4099157154560089, -0.16144339740276337, -0.40207046270370483, 0.4538510739803314, -0.3556123673915863, 0.1478823721408844, 0.19715102016925812, 0.30085209012031555, 0.45949041843414307, 0.18604503571987152, -0.10398935526609421, -0.23900549113750458, 0.3136594891548157, -0.26060372591018677, 0.8288525342941284, -0.31498104333877563, -0.29302677512168884, -0.28066107630729675, -0.2261848747730255, 0.29903313517570496, -0.06921736896038055, -0.1563437134027481, 0.3129969537258148, -0.03423328697681427, 0.3595661222934723, 0.0545874759554863, 0.057984985411167145, -0.3489767611026764, 0.04162320867180824, -0.005668185651302338, 0.268366277217865, 0.36366206407546997, -0.08962924033403397, 0.19590304791927338, -0.16740942001342773, 0.3304426372051239, 0.06779245287179947, -0.22490456700325012, 0.016517261043190956, 0.042591407895088196, 0.15697945654392242, -0.2674620747566223, 0.03419850394129753, 0.12370620667934418, 0.0361945740878582, 0.14108073711395264, 0.10499682277441025, -0.03957298398017883, -0.15947529673576355, -0.02547340840101242, -0.10927369445562363, -0.053325943648815155, 0.23915745317935944, -0.011206898838281631, 0.11542608588933945, 0.026262223720550537, -0.0847347229719162, 0.06261124461889267, -0.017037132754921913, -0.5286285877227783, -0.011370108462870121, -0.10188793390989304, 0.343447744846344, 0.013108582235872746, -0.3093636929988861, 0.3434419631958008, -0.012074796482920647, -0.16342009603977203, -0.012361469678580761, 0.20423106849193573, -0.06654465198516846, -0.11116750538349152, 0.08542727679014206, -0.014442545361816883, -0.005234071519225836, -0.11386638879776001, -0.21606440842151642, -0.09548332542181015, -0.07415610551834106, 0.08259043097496033, -0.15586960315704346, -0.13174207508563995, 0.09489960223436356, 0.24668093025684357, 0.22154606878757477, -0.2233514040708542, 0.028812149539589882, 0.2601001560688019, 0.165700301527977, 0.24911728501319885, -0.19084027409553528, -0.018626118078827858, -0.29541048407554626, -0.042837098240852356, 0.8082581758499146, 0.28132784366607666, -0.09479685127735138, -0.000985838589258492, -0.22609561681747437, 0.038866546005010605, -0.0662713348865509, -0.15220561623573303, -0.11327236890792847, 0.45083922147750854, -0.13890257477760315, -0.25491708517074585, 0.14726582169532776, 0.19911029934883118, -0.2633926272392273, -0.09647608548402786, 0.041673045605421066, -0.22801288962364197, -0.18616414070129395, 0.5211171507835388, 0.033327583223581314, -0.11973460763692856, 0.1729058474302292, -0.24424515664577484, 0.41361626982688904, -0.37241271138191223, 0.08370350301265717, 0.1596560776233673, -0.3031991422176361, 0.11105810105800629, -0.1531635820865631, 0.25927048921585083, -0.5514972805976868, 0.16194140911102295, 0.05865347757935524, -0.19521479308605194, 0.12703867256641388, 0.1155497133731842, -0.24602074921131134, -0.01815054751932621, -0.4576788544654846, -0.2647913694381714, 0.029581163078546524, -0.026839161291718483, -0.0023970832116901875, 0.06286735087633133, 0.10535377264022827, 0.09224747121334076, 0.08257117122411728, -0.09411119669675827, 0.06948967278003693, 0.03979536518454552, 0.10502686351537704, 0.008696505799889565, -0.09776154905557632, 0.08844134211540222, -0.050300613045692444, -0.09199735522270203, 0.02100377529859543, 0.15194717049598694, 0.0035959433298557997, 0.008586794137954712, -0.03947383910417557, 0.04556533694267273, 0.0521840825676918, -0.08090489357709885, 0.07718915492296219, -0.14093343913555145, 0.0527631938457489, 0.09873071312904358, -0.07679742574691772, -0.09494709223508835, -0.022770948708057404, -0.34503400325775146, -0.3908528685569763, -0.051136866211891174, -1.2088226079940796, -0.042240701615810394, 0.2725716233253479, 0.22629497945308685, -0.23331411182880402, -0.239450603723526, -0.03257168456912041, 0.1973705142736435, 0.011605357751250267, -0.12863969802856445, 0.17295242846012115, 0.3844766616821289, -0.30675259232521057, -0.133766770362854, -0.0627819299697876, 0.07205134630203247, -0.15199939906597137, 0.06154239922761917, 0.16970294713974, -0.05560950189828873, 0.16982753574848175, -0.026615237817168236, 0.009964102879166603, -0.044899534434080124, -0.31604108214378357, -0.014767053537070751, -0.38189423084259033, 0.1620945781469345, 0.13028447329998016, 0.040556181222200394, -0.17762070894241333, -0.007871285080909729, -0.09306598454713821, 0.2313123196363449, 0.23836110532283783, 0.19847382605075836, -0.047086201608181, 0.36554333567619324, 0.25062593817710876, -0.3225107192993164, -0.530890703201294, 0.2744772434234619, -0.09842877835035324, -0.0025753865484148264, -0.1909560114145279, 0.09547296911478043, 0.024897567927837372, -0.16845490038394928, 0.18368442356586456, 0.20260876417160034, -0.1015210896730423, -0.03470420464873314, 0.09554117172956467, 0.02186891809105873, 0.4481934607028961, 0.19330450892448425, -0.11245626956224442, -0.5770378112792969, 0.4019905626773834, -0.11462273448705673, 0.22130319476127625, 0.04143146798014641, -0.3469042479991913, 0.15019488334655762, 0.16410820186138153, -0.04658365994691849, 0.754316508769989, -0.5602604150772095, 0.13286781311035156, -0.06466416269540787, -0.17548821866512299, 0.007914217188954353, 0.2352028638124466, 0.1722240298986435, -0.17250385880470276, -0.0498792827129364, -0.06763174384832382, 0.359697163105011, -0.6413359642028809, -0.30129608511924744, 0.3437313139438629, 0.08380776643753052, -0.33335357904434204, 0.5203255414962769, -0.17372910678386688, 0.39304742217063904, -0.5287584066390991, -0.3419361412525177, -0.05036495625972748, 0.23526674509048462, -0.3373681306838989, 0.31509649753570557, 0.1000337079167366, -0.26786553859710693, -0.47899651527404785, 0.4504643380641937, -0.17430062592029572, 0.388972669839859, 0.1797359138727188, 0.29653868079185486, -0.06684563308954239, -0.39735597372055054, 0.041608721017837524, 0.15220355987548828, -0.0480882003903389, 0.40392178297042847, -0.20628085732460022, 0.16022178530693054, 0.14460621774196625, 0.34845080971717834, -0.06140366941690445, 0.6669920086860657, -0.36808326840400696, -0.44259434938430786, -0.15408971905708313, 0.6951378583908081, 0.04340987652540207, 0.04831995815038681, 0.04613332450389862, -0.19089451432228088, -0.0527573861181736, 0.3441252112388611, 0.14944899082183838, 0.031449683010578156, 0.1187867596745491, 0.19927048683166504, -0.5764581561088562, 0.10773380100727081, -0.19457651674747467, 0.07165803760290146, 0.13244375586509705, 0.034144289791584015, -0.04130038991570473, -0.003129422664642334, 0.08980449289083481, 0.0228183064609766, -0.04763856530189514, 0.06051246449351311, 0.3961016833782196, 0.02003849670290947, -0.19853302836418152, -0.007962014526128769, 0.11972620338201523, -0.3865664601325989, 0.050226885825395584, 0.026071814820170403, 0.1764429807662964, 0.28063029050827026, 0.016259079799056053, -0.3624636232852936, -0.12086222320795059, 0.13701677322387695, 0.05541424825787544, 0.06432461738586426, 0.0025759292766451836, 0.0479714572429657, 0.03444085642695427, -0.26815319061279297, 0.06712958216667175, 0.004050396382808685, 0.2033856213092804, -0.11433843523263931, 0.0606234148144722, -0.19070130586624146, 0.20425403118133545, -0.07542076706886292, 0.08151178061962128, 0.11686070263385773, 0.035076554864645004, -0.18982738256454468, -0.1806134134531021, -0.036807116121053696, -0.4181210994720459, 0.31612083315849304, -0.08318229764699936, -0.4095161259174347, 0.30751511454582214, -0.09979107975959778, -0.05087815225124359, 0.15680959820747375, 0.09923217445611954, -0.07458213716745377, 0.04181002080440521, -0.0015409021871164441, -0.023030567914247513, -0.05638202652335167, 0.10464227944612503, 0.1832745224237442, 0.030854173004627228, 0.1380784958600998, -0.49818333983421326, 0.26063260436058044, -0.3138337731361389, 0.02007303573191166, -0.151276633143425, 0.32961800694465637, 0.17978648841381073, 0.07953081279993057, 0.03696624934673309, 0.23505021631717682, -0.10515644401311874, 0.097858726978302, -0.053598836064338684, -0.009020962752401829, -0.0602237842977047, 0.00687477458268404, -0.2175312042236328, 0.04626636579632759, -0.054540541023015976, 0.3491456210613251, -0.09776053577661514, 0.14303642511367798, -0.11513300240039825, -0.9926893711090088, 0.1183505430817604, -0.488160103559494, 0.5165830850601196, 0.16727638244628906, 0.03396205976605415, -0.03495520353317261, 0.1694968193769455, 0.09179043769836426, 0.15378715097904205, 0.5233670473098755, -0.4119827449321747, 0.02305450662970543, 0.06915595382452011, -0.19915840029716492, 0.23247338831424713, 0.637272298336029, 0.013273804448544979, -0.81866055727005, -0.40524038672447205, 0.19580920040607452, 0.329932302236557, 0.009392192587256432, 0.06159450113773346, 0.07727044075727463, -0.02462858334183693, 0.036601725965738297, -0.03803585469722748, -0.0182483047246933, -0.009628592059016228, 0.10373957455158234, -0.08052071183919907, 0.11651904881000519, 0.05338704586029053, -0.037470925599336624, -0.002625119173899293, 0.052054982632398605, -0.036382194608449936, 0.036950740963220596, -0.018969235941767693, 0.07739710807800293, -0.01198438461869955, 0.0027080776635557413, -0.13985076546669006, -0.05772213637828827, 0.06642241030931473, 0.07608607411384583, -0.3118495047092438, -0.04623325169086456, -0.0356888510286808, 0.04035571590065956, 0.05336523428559303, 0.013736718334257603, -0.04292459785938263, 0.15035060048103333, 0.4073455035686493, 0.08794263750314713, -0.10064147412776947, 0.2838611304759979, -0.18232224881649017, 0.15006376802921295, 0.4666139781475067, -0.36694690585136414, 0.23366571962833405, -0.08083067089319229, -0.08077847212553024, 0.12336497008800507, -0.07121148705482483, -0.061317671090364456, 0.2061837911605835, -0.15413539111614227, 0.19376341998577118, 0.2674964368343353, -0.2901867926120758, 0.22688043117523193, 0.22862748801708221, -0.29652488231658936, -0.15725015103816986, 0.04710774123668671, -0.12998546659946442, -0.24931682646274567, 0.22145886719226837, 0.16279415786266327, -0.0008272025734186172, -0.03231887146830559, 0.043953172862529755, -0.16834332048892975, 0.015158205293118954, -0.11716180294752121, 0.22947850823402405, 0.3802056312561035, -0.027641119435429573, 0.00889733899384737, 0.08641618490219116, -0.1906100958585739, 0.24287959933280945, 0.03248460963368416, -0.30525627732276917, -0.06028527766466141, -0.05755426362156868, -0.0053896657191216946, -0.005383603274822235, -0.004545004107058048, 0.12320999801158905, -0.1374509483575821, 0.21077241003513336, -0.08043968677520752, 0.022635331377387047, -0.02735653705894947, 0.10834749042987823, 0.062107689678668976, -0.21108950674533844, 0.2887047231197357, -0.01121553499251604, 0.2296755313873291, 0.1980271190404892, -0.034467101097106934, 0.0706854909658432, 0.014730499126017094, 0.014707794412970543, 0.052113939076662064, 0.14146636426448822, 0.14942637085914612, -0.051375389099121094, 0.060471225529909134, 0.3770662248134613, -0.176741361618042, 0.39941346645355225, -0.13312356173992157, -0.26380208134651184, -0.35024216771125793, 0.04803652688860893, 0.1863863617181778, -0.10777810961008072, -0.9218850135803223, 0.19041131436824799, 0.08303394913673401, 0.0840393602848053, 0.6715169548988342, 0.6251633167266846, -0.09659980982542038, -0.006492333486676216, 0.10294905304908752, -0.1149771511554718, -0.0491466298699379, -0.25818637013435364, -0.3795173168182373, -0.09416836500167847, -0.0341176874935627, 0.10397394746541977, 0.0055783940479159355, -0.14783917367458344, -0.07929173111915588, 0.5484437942504883, 0.2086036652326584, 0.07448704540729523, 0.19754061102867126, 0.039713989943265915, 0.08911427855491638, -0.018517129123210907, 0.07569388300180435, 0.23312494158744812, 0.2737151086330414, -0.3602847158908844, -0.1382800042629242, -0.11374731361865997, 0.04476367309689522, -0.38150012493133545, 0.003129286225885153, 0.11977729946374893, 0.08226900547742844, 0.1886225938796997, -0.020104294642806053, -0.6121883392333984, -0.09300170838832855, 0.017000369727611542, 0.08477029949426651, -0.02521323971450329, 0.22571122646331787, -0.08269880712032318, 0.555030882358551, -0.4360942244529724, -0.05187318101525307, -0.2598732113838196, 0.022744102403521538, 0.2407047003507614, 0.10412175953388214, -0.0712309256196022, -0.19446103274822235, -0.2735493779182434, 0.4821232557296753, -0.08890171349048615, -0.19257692992687225, -0.032656457275152206, 0.16525466740131378, 0.2192528247833252, 0.022426767274737358, 0.3370753228664398, -0.12158085405826569, 0.2538023591041565, -0.45568808913230896, 0.3755470812320709, 0.1035735085606575, 0.2776593565940857, -0.06554646790027618, 0.1248638853430748, -0.039756834506988525, -0.13922640681266785, -0.31624338030815125, 0.01670078933238983, -0.05522073432803154, 0.013692393898963928, 0.18649259209632874, -0.16571305692195892, -0.3680495321750641, 0.06292364746332169, 0.19815190136432648, -0.13210301101207733, 0.00047755317064002156, 0.1371098756790161, -0.204229474067688, 0.08452100306749344, 0.20353826880455017, -0.04223841056227684, 0.2230605185031891, -0.09324394166469574, -0.25351962447166443, 0.02737741358578205, -0.05417909100651741, -0.45078617334365845, 0.2136244773864746, -0.4187946021556854, 0.07389459013938904, 0.21465709805488586, -0.0912083089351654, 0.012249473482370377, 0.08270807564258575, 0.11375634372234344, 0.05317658931016922, -0.04186045750975609, -0.21572069823741913, 0.1476668268442154, -0.05842193216085434, -0.02877325937151909, -0.07001858949661255, 0.1476483792066574, -0.17157961428165436, 0.6587915420532227, 0.22300541400909424, -0.3097692131996155, 0.5172132253646851, 0.09282958507537842, -0.021031590178608894, -0.16704626381397247, 0.2325981706380844, -0.13156060874462128, -0.2906551957130432, -0.19168929755687714, -0.4597871005535126, -0.12078285217285156, 0.20250113308429718, 0.09060214459896088, -0.03591002896428108, 0.06337584555149078, -0.008479797281324863, 0.03915802761912346, 0.03293679282069206, 0.13153500854969025, -0.198622465133667, 0.5006654858589172, 0.15735042095184326, -0.2979694902896881, -0.3391077518463135, 0.02558833919465542, 0.24698616564273834, 0.26732468605041504, -0.14390034973621368, -0.12121348828077316, -0.004828399047255516, -0.19511361420154572, -0.40597301721572876, 0.2138432264328003, -0.5199510455131531, -0.2503829300403595, -0.4932910203933716, -0.4013122320175171, 0.4066641926765442, -0.3342234492301941, -0.8169280886650085, 0.0758323222398758, 0.33404234051704407, 0.3793710768222809, 0.4808642864227295, -0.06354369223117828, 0.009802012704312801, -0.057283949106931686, 0.08640103787183762, 0.008001689799129963, -0.03229552507400513, 0.0921936109662056, -0.021252421662211418, -0.01536424271762371, -0.03930540382862091, -0.007593752816319466, -0.014134491793811321, 0.0520537793636322, 0.009473443031311035, 0.019766338169574738, 0.04045373573899269, 0.0640776976943016, 0.04313112422823906, 0.10099188983440399, 0.1209573745727539, -0.04704589396715164, 0.03520374372601509, 0.005421863403171301, 0.031036024913191795, 0.01226202305406332, 0.005913465283811092, 0.04853272810578346, -0.020819345489144325, -0.043880898505449295, -0.0023296840954571962, 0.0827692449092865, -0.2190643548965454, 0.1844411939382553, -0.17587776482105255, 0.6484307050704956, 0.06462264806032181, -0.24048860371112823, -0.012922036461532116, -0.484956830739975, -0.0021220881026238203, 0.2140488177537918, 0.2371431440114975, -0.8302609920501709, -0.10417088121175766, -0.020021094009280205, -0.01677638478577137, 0.18293483555316925, 0.16693685948848724, -0.42942526936531067, -0.06481494754552841, -0.44539445638656616, 0.13676150143146515, -0.004089436959475279, -0.10533574968576431, 0.15139050781726837, 0.6203543543815613, 0.15810613334178925, 0.28966444730758667, -0.12356898933649063, -0.5003274083137512, -0.04829936847090721, -0.13584274053573608, -0.12232496589422226, 0.2532322406768799, 0.004072879906743765, -0.09558878093957901, 0.3462373912334442, -0.36771801114082336, -0.015808336436748505, 0.028465520590543747, -0.17660726606845856, 0.2629501223564148, 0.0019600887317210436, 0.13518109917640686, 0.09912189096212387, -0.217681422829628, -0.06551094353199005, -0.02945125289261341, -0.23218397796154022, 0.09037484973669052, 0.2114604413509369, 0.19467447698116302, 0.3184052109718323, 0.09220421314239502, 0.0701179951429367, -0.04713647812604904, -0.07367149740457535, -0.18091171979904175, -0.14720594882965088, -0.18991436064243317, -0.1642504632472992, -0.15916745364665985, 0.01120692677795887, -0.11765401065349579, -0.017056263983249664, 0.4135408401489258, -0.06677017360925674, -0.2459174245595932, 0.05082861706614494, 0.03170664235949516, 0.4037120044231415, -0.19718098640441895, 0.1145760715007782, 0.20474526286125183, -0.23214268684387207, -0.3238680064678192, -0.5404515862464905, 0.23223523795604706, 0.23282776772975922, -0.5612542033195496, 0.1682080179452896, -1.3643652200698853, -0.17881685495376587, -0.6809021234512329, -0.22296273708343506, -0.0015104127814993262, 0.09859148412942886, 0.4829297363758087, 0.21526174247264862, 0.3277392089366913, 0.11999650299549103, 0.44873547554016113, 0.1637372523546219, -0.5854914784431458, 0.002635051729157567, -0.10878229141235352, -0.27809345722198486, -0.1317528784275055, 0.1533285230398178, -0.21523676812648773, -0.013068734668195248, -0.5793835520744324, -0.0027653835713863373, 0.30364251136779785, 0.34736180305480957, -0.38398343324661255, 0.16143155097961426, 0.4262505769729614, 0.34196022152900696, -0.13213783502578735, 0.03289319574832916, -0.2740585505962372, -0.11304979026317596, -0.19444046914577484, 0.1899564564228058, 0.498953640460968, -0.38846445083618164, -0.18268011510372162, 0.047642551362514496, 0.0987587720155716, -0.0829271674156189, 0.030946901068091393, 0.18978381156921387, 0.01828780397772789, 0.2502547800540924, -0.24335914850234985, -0.10600091516971588, -0.05400075763463974, -0.007980043068528175, -0.152064248919487, 0.6107729077339172, 0.2771455645561218, 0.36750489473342896, -0.1319437474012375, -0.13104629516601562, 0.028908513486385345, -0.033419765532016754, -0.024027561768889427, -0.031354840844869614, -0.13712698221206665, 0.1396663784980774, 0.14767886698246002, 0.052525654435157776, 0.066240593791008, -0.05292672663927078, 0.03862432390451431, -0.13582243025302887, -0.19846707582473755, 0.042845651507377625, 0.027412736788392067, 0.02928963117301464, -0.11060537397861481, 0.0736120417714119, 0.007588585838675499, -0.010366538539528847, 0.0809885784983635, 0.019286390393972397, -0.1674540787935257, -0.12226494401693344, 0.013259180821478367, 0.010587169788777828, 0.22520747780799866, -0.15005509555339813, 0.10236482322216034, 0.2877737581729889, 0.10171772539615631, 0.22993919253349304, 0.004182547330856323, 0.08222278207540512, -0.071151003241539, -0.20088626444339752, 0.2282346487045288, 0.1549879014492035, -0.2907143235206604, -0.35478532314300537, 0.27407974004745483, 0.2706250548362732, 0.20624366402626038, -0.11462756991386414, -0.5402407050132751, 0.24881502985954285, 0.11048340797424316, -0.8117218613624573, -0.10626178979873657, 0.10478191077709198, 0.14498300850391388, 0.2681892514228821, -0.03574785217642784, 0.25950101017951965, 0.17006318271160126, 0.24390923976898193, -0.03605775162577629, 0.24090491235256195, 0.1528753936290741, 0.06726925075054169, 0.4840626120567322, -0.02537606470286846, 0.24722443521022797, 0.09194961190223694, -0.018582139164209366, 0.39217913150787354, -0.2853277325630188, 0.1312534362077713, -0.19360603392124176, 0.05681220069527626, 0.04467151686549187, 0.23240357637405396, -0.06330534815788269, 0.12918540835380554, -0.2989802658557892, -0.6875123381614685, 0.4468534290790558, 0.04539641737937927, -0.06605873256921768, 0.2571449875831604, 0.3969564735889435, -0.14120861887931824, -0.5145668983459473, -0.6284945607185364, 0.4338197708129883, 0.16205525398254395, -0.2336951196193695, 0.13969221711158752, 0.1628822237253189, -0.3741341531276703, -0.5405787229537964, 0.23945601284503937, 0.03671742230653763, 0.04398445039987564, -0.5161731243133545, -0.741590678691864, 0.5628702044487, -0.1876715123653412, -0.07517048716545105, -0.16293348371982574, 0.27618783712387085, -0.33859783411026, -0.36016494035720825, -0.3327578902244568, 0.5340627431869507, 0.05737387388944626, 0.022735076025128365, -0.028727203607559204, 0.02514997124671936, 0.0028553777374327183, 0.035036277025938034, 0.011915392242372036, 0.07107841968536377, -0.026885123923420906, -0.20174618065357208, 0.0172304455190897, -0.01693481206893921, -0.02744768187403679, 0.009555273689329624, -0.028349552303552628, 0.0693245679140091, -0.05148443579673767, 0.01537375058978796, 0.02451101690530777, -0.018187645822763443, 0.058449842035770416, -0.046164266765117645, 0.09148061275482178, -0.019870540127158165, -0.13207848370075226, 0.03105735406279564, 0.021967316046357155, -0.020296184346079826, 0.0006974518182687461, -0.027928560972213745, -0.02093515731394291, -0.21596668660640717, 0.24556244909763336, -0.3463989794254303, -0.24921981990337372, -0.13088412582874298, -0.01271035335958004, 0.21338148415088654, -0.45793724060058594, 0.34566667675971985, -0.20322218537330627, 0.21506765484809875, 0.025188418105244637, 0.23097357153892517, -0.3964567184448242, -0.07251740992069244, 0.23398160934448242, -0.1057124212384224, -0.2635100185871124, 0.059267885982990265, 0.2592804431915283, 0.014211278408765793, -0.2997191250324249, -0.11063586920499802, -0.19301997125148773, 0.052135664969682693, 0.0015245594549924135, 0.13130615651607513, -0.0626283586025238, 0.20710596442222595, -0.16602113842964172, 0.11230942606925964, -0.07725759595632553, 0.3542455732822418, -0.09705624729394913, -0.3530714511871338, -0.15677838027477264, 0.3660838305950165, 0.25757357478141785, -0.41869089007377625, 0.3150217533111572, 0.251819372177124, 0.18140526115894318, -0.03085242211818695, 0.10291282832622528, -0.28532058000564575, 0.49307915568351746, -0.33891767263412476, 0.0797601118683815, -0.04008245840668678, 0.2877446413040161, -0.20197924971580505, 0.1336747258901596, 0.12628322839736938, 0.14466680586338043, 0.14626048505306244, 0.1959521770477295, -0.10218032449483871, 0.2646125555038452, -0.1540519893169403, -0.18996214866638184, 0.16428405046463013, -0.14946480095386505, -0.013400821946561337, 0.06449615955352783, 0.2804771065711975, -0.02299623191356659, -0.09774882346391678, 0.08784317970275879, -0.06291899085044861, -0.13079728186130524, -0.017550507560372353, 0.35873204469680786, -0.12016020715236664, 0.09988558292388916, -0.008347592316567898, 0.04711160436272621, -0.024395255371928215, -0.014133750461041927, -0.11334213614463806, 0.09220517426729202, -2.423989772796631, -0.04001351445913315, -0.3977169096469879, -0.44701850414276123, 0.6031692624092102, -0.4458795189857483, -0.30019500851631165, -0.3403014540672302, 0.03506383299827576, 0.09190330654382706, -0.2723506689071655, 0.4900600016117096, -0.5983098149299622, -0.15630406141281128, 0.17392462491989136, 0.21489469707012177, 0.1329803615808487, 0.2807080149650574, 0.16878707706928253, 0.26206839084625244, 0.0982900857925415, 0.18641582131385803, -0.41541019082069397, -0.67356276512146, -0.08224628865718842, -0.2614053189754486, 0.49622565507888794, -0.6189817190170288, 0.04805189371109009, -0.0688227042555809, 0.12226944416761398, -0.11106769740581512, -0.07372138649225235, 0.48110756278038025, 0.4250907301902771, -0.13015618920326233, -0.14322076737880707, 0.09858643263578415, 0.1336630880832672, 0.3457498848438263, 0.18404574692249298, 0.2449924647808075, -0.12730436027050018, 0.4573746919631958, 0.05532936006784439, 0.2601574659347534, 0.38905325531959534, 0.16988959908485413, -0.14694273471832275, 0.11303649842739105, -0.10877609997987747, -0.12948258221149445, 0.07684976607561111, 0.016784142702817917, 0.08564428240060806, 0.17490394413471222, -0.21515987813472748, 0.019245538860559464, -0.21491755545139313, 0.0804998129606247, 0.32256296277046204, 0.10820602625608444, -0.13684958219528198, 0.1559075266122818, -0.03806038945913315, 0.04325302317738533, 0.19932465255260468, 0.2557610273361206, 0.24068453907966614, 0.1765419989824295, -0.22218455374240875, -0.20571506023406982, 0.20283563435077667, 0.08885353803634644, -0.250409871339798, 0.21078312397003174, -0.24047057330608368, -0.02807975746691227, -0.10317608714103699, -0.06138207018375397, 0.13566924631595612, 0.06997810304164886, -0.17308929562568665, -0.22328293323516846, -0.3299204409122467, 0.09839940071105957, -0.16764165461063385, 0.19215530157089233, 0.2288307100534439, -0.2357056587934494, -0.1839333325624466, -0.03915151581168175, -0.37107402086257935, 0.04064040631055832, 0.37464603781700134, 0.10029388219118118, 0.15459077060222626, -0.5221799612045288, -0.05284067615866661, -0.229732945561409, -0.07224070280790329, 0.14436669647693634, 0.023458315059542656, 0.2902563512325287, 0.03517863526940346, -0.11073489487171173, 0.1676798313856125, 0.055721450597047806, -0.006960675586014986, -0.037494122982025146, 0.1060916930437088, 0.054600466042757034, 0.0857430249452591, 0.2273910492658615, 0.0935923233628273, -0.4638115465641022, 0.03604551777243614, 0.07256662845611572, 0.3091484010219574, -0.09508410841226578, -0.24661405384540558, 0.2943646013736725, 0.14958330988883972, 0.12119847536087036, -0.3867471218109131, 0.09873601794242859, 0.21411758661270142, -0.014415433630347252, 0.10344294458627701, -0.0643647238612175, 0.5404046177864075, -0.27183839678764343, 0.34530770778656006, -0.20873063802719116, -0.27968162298202515, -0.17717291414737701, 0.2972804307937622, 0.15789684653282166, 0.5511215925216675, -0.2854502499103546, -0.006714836228638887, -0.04961927607655525, -0.29200905561447144, 0.32474634051322937, 0.029205258935689926, -0.009777162224054337, 0.21990376710891724, 0.1879619061946869, 0.2110166698694229, 0.4366576671600342, 0.03778359666466713, 0.08060423284769058, -0.43242618441581726, -0.5594078302383423, -0.444255530834198, -0.3864552974700928, 0.64136803150177, 0.4093047082424164, -0.35745200514793396, -0.09222891181707382, 0.02371291071176529, 0.02262880839407444, -0.05240644887089729, 0.021222582086920738, -0.10674069821834564, -0.036828480660915375, -0.15781481564044952, -0.07527325302362442, -0.14723718166351318, 0.03406795114278793, -0.062031786888837814, -0.04380347579717636, 0.017506299540400505, -0.032423678785562515, -0.022936774417757988, 0.0003770570328924805, 0.09927442669868469, 0.09085243940353394, 0.028424452990293503, -0.00016897932800929993, -0.0320046991109848, 0.03435579314827919, 0.01759730838239193, 0.009494292549788952, 0.04216071218252182, 0.04435926303267479, 0.013634663075208664, 0.01230674795806408, -0.12988485395908356, 0.01019034069031477, 0.0870521292090416, 0.15961506962776184, 0.40571630001068115, -0.1887366771697998, -0.13858717679977417, -0.30738696455955505, -0.14487873017787933, 0.27184268832206726, 0.026424109935760498, 0.12448113411664963, -0.009745427407324314, -0.0008869934245012701, 0.05202266946434975, 0.2113591581583023, -0.23109933733940125, -0.19899310171604156, -0.11323460191488266, -0.02297697402536869, -0.21489344537258148, 0.01336166262626648, 0.33176445960998535, -0.045360274612903595, 0.24951615929603577, 0.18699316680431366, -0.05203421413898468, -0.07274707406759262, -0.3078515827655792, 0.05305131897330284, -0.23885676264762878, 0.23926876485347748, -0.0014235934941098094, -0.04821300134062767, -0.15828542411327362, 0.3503180146217346, -0.10039647668600082, -0.06372679769992828, 0.08782161772251129, -0.4063166379928589, -0.015290576964616776, 0.0743957906961441, -0.3008703291416168, -0.07425391674041748, -0.07375337183475494, -0.4354135990142822, 0.166280135512352, 0.18072956800460815, -0.13282372057437897, 0.24125097692012787, -0.09979549050331116, -0.03608540818095207, 0.29790374636650085, -0.08602948486804962, -0.14751917123794556, -0.026855194941163063, 0.024684086441993713, -0.2645938992500305, 0.19084331393241882, 0.15281164646148682, 0.11998232454061508, 0.08881775289773941, -0.42675870656967163, -0.18521694839000702, -0.02910357341170311, 0.07178689539432526, -0.2719758450984955, 0.16033115983009338, 0.144628643989563, 0.017466120421886444, -0.0036617375444620848, 0.10230159759521484, 0.2526395916938782, 0.38739463686943054, -0.2697513997554779, -0.0011192866368219256, 0.02002892829477787, -0.44771814346313477, 0.3101460039615631, -0.21840085089206696, -0.2596929371356964, -0.2768462598323822, 0.4156450033187866, -0.09836051613092422, -0.5731605291366577, -0.06332555413246155, -0.19159790873527527, -0.3524450361728668, -0.2637110650539398, 0.05041422322392464, -0.33558008074760437, 0.18928483128547668, 0.04455885291099548, -0.05985068902373314, 0.2684212327003479, -0.4845293164253235, -0.17370858788490295, -0.377747118473053, -0.19268493354320526, -0.061693817377090454, -0.4335342049598694, 0.03932591900229454, -0.13447435200214386, 0.18078041076660156, -0.061857230961322784, 0.10160757601261139, 0.308164119720459, -0.39892643690109253, -0.03983570635318756, 0.17580513656139374, 0.40872183442115784, -0.2390483021736145, 0.1407650113105774, -0.3898218870162964, 0.45739006996154785, -0.09123661369085312, 0.46497780084609985, 0.0729723572731018, -0.46687284111976624, 0.29013586044311523, -0.41945338249206543, 0.1332118958234787, 0.2409432828426361, -0.40909191966056824, 0.3688211739063263, 0.2896850109100342, 0.04388045519590378, -0.6378926634788513, 0.8135419487953186, -0.14229057729244232, -0.21502408385276794, -0.04728256165981293, 0.16317754983901978, 0.16749046742916107, -0.013728992082178593, -0.002708373125642538, 0.0506708025932312, -0.15937605500221252, 0.16309058666229248, -0.04802967607975006, -0.186804860830307, -0.04583323746919632, 0.11978325247764587, -0.15260985493659973, 0.051735199987888336, 0.029511021450161934, 0.1950187087059021, 0.2683442234992981, 0.14372314512729645, -0.08491986244916916, 0.10816031694412231, 0.09831562638282776, 0.07039056718349457, -0.12591883540153503, 0.08297275006771088, 0.16332726180553436, 0.1015370637178421, -0.0659850463271141, 0.24901621043682098, 0.1130405142903328, -0.08756337314844131, -0.0799185186624527, 0.018233289942145348, 0.2789839804172516, 0.009995012544095516, -0.12370460480451584, -0.2586791217327118, 0.36291128396987915, 0.1437787115573883, -0.014313910156488419, -0.19125162065029144, 0.0900823250412941, -0.15771125257015228, -0.1339014172554016, -0.12637823820114136, 0.3208959400653839, 0.027559546753764153, -0.15330290794372559, -0.18016402423381805, 0.4056706130504608, -0.29778292775154114, 0.2043360471725464, 0.08753874897956848, 0.10239238291978836, 0.07380302250385284, 0.15189382433891296, -0.09318108856678009, 0.1709498167037964, 0.25893673300743103, 0.1300242394208908, -0.08367656171321869, 0.11413529515266418, 0.22497065365314484, 0.10336107760667801, 0.3905761241912842, -0.11670488119125366, 0.24059706926345825, -0.3599552512168884, 0.38575851917266846, -0.08944612741470337, 0.2098802626132965, -0.01298610307276249, -0.021420329809188843, 0.01934141479432583, 0.42390549182891846, -0.3587411940097809, 0.37500736117362976, -0.23993001878261566, -0.0829513892531395, 0.22978831827640533, -0.14757168292999268, -0.2630029618740082, 0.10426011681556702, 0.26980841159820557, 0.056269749999046326, 0.2230939269065857, -0.018868496641516685, -0.29700514674186707, -0.29023170471191406, -0.28190380334854126, 0.10705837607383728, 0.052942387759685516, 0.14725153148174286, 0.19478310644626617, 0.2747328579425812, -0.5346153974533081, -0.10697708278894424, 0.07871228456497192, 0.5642438530921936, -0.42868950963020325, -0.05846649035811424, -0.26082777976989746, 0.20144246518611908, -0.08805135637521744, -0.8052113652229309, -0.6705871224403381, 0.6281863451004028, 0.10079098492860794, -0.43735915422439575, 0.7012673616409302, 0.21418549120426178, 0.13045407831668854, -0.03967750817537308, 0.04900062456727028, 0.0621710941195488, -0.0717901661992073, -0.020229993388056755, 0.018589956685900688, 0.011677691712975502, 0.024641407653689384, 0.045385610312223434, -0.052439313381910324, 0.06610659509897232, -0.02555370330810547, 0.1283845603466034, 0.07499787211418152, -0.026327304542064667, 0.03605952858924866, 0.13048145174980164, 0.16255347430706024, -0.0036260271444916725, -0.006036093924194574, -0.021553469821810722, -0.03615190088748932, 0.016978895291686058, -0.1599433422088623, -0.0753002017736435, 0.04234746843576431, -0.06848602741956711, -0.04991466552019119, -0.028590336441993713, -0.03551202639937401, 0.18120956420898438, -0.26044344902038574, 0.1289396435022354, 0.15440891683101654, 0.3737868368625641, 0.0206516832113266, 0.3085050582885742, -0.04165160655975342, 0.010020274668931961, -0.2850005328655243, -0.32475289702415466, 0.5239561796188354, -0.2426947057247162, -0.1080312430858612, 0.25388652086257935, -0.0789664164185524, 0.07560808956623077, 0.031263962388038635, -0.0037359981797635555, 0.1937824934720993, -0.14350855350494385, 0.4012300372123718, 0.1770719438791275, 0.08264004439115524, 0.12703831493854523, -0.3010377585887909, -0.6091977953910828, -0.1774810552597046, -0.12491324543952942, 0.0038510363083332777, -0.1416337490081787, 0.17583177983760834, -0.06032811105251312, 0.24444352090358734, -0.0682467445731163, 0.04342777281999588, 0.11261522769927979, 0.0596931055188179, 0.3643935024738312, -0.3806690275669098, -0.004759220406413078, 0.15227669477462769, 0.2655237317085266, -0.40080526471138, -0.27022290229797363, -0.07894498854875565, 0.3292163014411926, -0.09892924129962921, -0.21520304679870605, -0.18935155868530273, 0.14707417786121368, -0.21284744143486023, -0.005172748118638992, 0.06154495105147362, -0.05625457689166069, -0.0488496758043766, 0.21841755509376526, -0.21464616060256958, -0.08602727949619293, 0.33727797865867615, -0.12114950269460678, 0.10429858416318893, -0.012113709934055805, 0.08197382837533951, 0.02960139885544777, -0.09343617409467697, -0.11122391372919083, -0.10657436400651932, -0.27930885553359985, 0.0032942111138254404, 0.07745109498500824, 0.181608647108078, -0.11496095359325409, 0.2590354382991791, 0.17243652045726776, -0.05387074127793312, 0.26042115688323975, -0.5474681258201599, 0.21617169678211212, 0.11416798084974289, -0.802377462387085, -0.09721938520669937, 0.4758487343788147, -0.30370649695396423, 1.0138572454452515, -0.08285330981016159, -0.6976754069328308, 0.20602184534072876, 0.07510063797235489, -0.3510839343070984, -0.31651148200035095, 0.6629377007484436, -0.2223554104566574, -0.24524666368961334, -0.221019446849823, 0.025098450481891632, 0.3124931752681732, 0.5509428381919861, -0.08559031039476395, -0.10231595486402512, -0.03451265022158623, 0.33548030257225037, 0.640548050403595, 0.16696034371852875, -0.15863101184368134, -0.054735954850912094, -0.2982654571533203, -0.12061167508363724, 0.03889313340187073, 0.40296581387519836, 0.026415586471557617, -0.06832406669855118, 0.5767196416854858, -0.06440794467926025, 0.09678942710161209, 0.17925043404102325, -0.47063538432121277, -0.21449236571788788, 0.32343751192092896, 0.14001496136188507, -0.20926375687122345, 0.5052761435508728, -0.23959700763225555, 0.11257270723581314, -0.5436679124832153, -0.5525707602500916, 0.29302141070365906, -0.1001354455947876, -0.005081408657133579, 0.41570156812667847, -0.38627657294273376, 0.12756694853305817, 0.126176118850708, 0.06292124092578888, -0.17615368962287903, -0.1602487415075302, 0.11887925118207932, -0.2305430918931961, -0.061518799513578415, 0.16087888181209564, -0.10950200259685516, 0.15906374156475067, -0.23202426731586456, -0.35920578241348267, 0.07240961492061615, -0.018359467387199402, -0.025163231417536736, -0.03620172664523125, 0.010313937440514565, -0.047544337809085846, 0.0757085308432579, -0.26044100522994995, -0.07160131633281708, 0.013227012008428574, 0.19242121279239655, 0.07617631554603577, 0.21258188784122467, 0.12777552008628845, -0.12101522088050842, -0.09399884939193726, 0.20240984857082367, 0.07278627157211304, 0.16051878035068512, -0.006068785674870014, 0.04462337866425514, 0.00042970385402441025, -0.009832074865698814, 0.030160043388605118, -0.23866680264472961, 0.14241907000541687, -0.22678938508033752, 0.16137826442718506, 0.023100707679986954, -0.2528689503669739, 0.09520364552736282, -0.09250325709581375, 0.009068434126675129, -0.18986202776432037, 0.007482088170945644, -0.23435065150260925, 0.1879369616508484, 0.10394642502069473, -0.0549255795776844, 0.019996045157313347, 0.1590438336133957, -0.11089064180850983, -0.01579529419541359, 0.1846015751361847, 0.1012292355298996, -0.16749079525470734, -0.026096591725945473, 0.21861663460731506, -0.05216902494430542, 0.03732311353087425, -0.3208872973918915, 0.11026535928249359, -0.19658437371253967, 0.008556975051760674, 0.5310602188110352, 0.06110873073339462, 0.31180253624916077, 0.23006504774093628, 0.1795954704284668, -0.15027205646038055, -0.18387874960899353, -0.20302170515060425, 0.2047451287508011, -0.27579909563064575, 0.23371227085590363, 0.003878394840285182, -0.37659981846809387, -0.1548084020614624, -0.2328745573759079, -0.12839177250862122, 0.4446031451225281, 0.2485915571451187, 0.33437052369117737, -0.136211559176445, 0.000507045304402709, 0.028773527592420578, 0.4402576684951782, -0.04433402419090271, 0.12652483582496643, 0.07660616934299469, -0.2847033143043518, 0.3328286409378052, 0.011391855776309967, -0.40420955419540405, -0.4567398428916931, 0.41841521859169006, 0.3938957452774048, 0.44911637902259827, 0.11118160933256149, -0.02360183745622635, 0.017040317878127098, -0.03300409018993378, 0.22797004878520966, -0.15838903188705444, 0.07234368473291397, -0.04615744575858116, 0.018302572891116142, 0.0045330035500228405, -0.014350305311381817, 0.05900193005800247, 0.05525694042444229, -0.08315114676952362, 0.007191825192421675, 0.07453768700361252, 0.02831254154443741, 0.030548324808478355, -0.07530185580253601, 0.05530799925327301, -0.0027639265172183514, 0.04069779813289642, 0.05359611660242081, -0.02693118341267109, 0.09480638056993484, 0.17802292108535767, -0.015887700021266937, -0.03158406913280487, 0.05485403537750244, 0.07928373664617538, 0.004609352443367243, 0.16123910248279572, -0.06064954400062561, 0.0014490789035335183, 0.11621229350566864, -0.019715432077646255, -0.059115421026945114, 0.002380652353167534, 0.3137166202068329, 0.0691184252500534, -0.3787201941013336, 0.13344350457191467, 0.24602966010570526, -0.07778408378362656, 0.023051265627145767, -0.034291382879018784, 0.008196886628866196, -0.0979529619216919, -0.12207131832838058, 0.2726760506629944, 0.20123811066150665, 0.22206729650497437, -0.1225079745054245, 0.00605133967474103, -0.29083916544914246, 0.026286860927939415, -0.0137184988707304, -0.1779090017080307, 0.06468000262975693, 0.3727574646472931, 0.1441248506307602, 0.3808988034725189, -0.1383250206708908, 0.2269446700811386, -0.1979953497648239, -0.03805357590317726, 0.030830398201942444, 0.06100087985396385, -0.07367990911006927, 0.017993982881307602, 0.0016101690707728267, -0.12572872638702393, 0.06194732338190079, 0.08862979710102081, 0.006546375807374716, -0.46026185154914856, -0.1448151022195816, -0.11184386163949966, 0.029541978612542152, -0.24074088037014008, 0.154391810297966, 0.052173830568790436, 0.28059080243110657, 0.3823608160018921, -0.1644139438867569, -0.019790036603808403, 0.2942027747631073, 0.08040609955787659, 0.26346394419670105, 0.029588589444756508, 0.017060693353414536, 0.029651731252670288, -0.11535078287124634, 0.2195134460926056, 0.1956758350133896, -0.39002126455307007, -0.27808430790901184, 0.4186522364616394, -0.1255975216627121, -0.04327911138534546, -0.30371469259262085, -0.03081124648451805, 0.3268429636955261, 0.05103520676493645, 0.04759005084633827, -0.014573628082871437, 0.3049202561378479, 0.03377505764365196, 0.3123772442340851, -0.15104417502880096, -0.23027895390987396, 0.045268140733242035, 0.32323578000068665, -0.6003124117851257, -0.2173711359500885, -0.12528404593467712, 0.1566469669342041, 0.13089974224567413, 0.37895917892456055, 0.32191550731658936, 0.3278264105319977, 0.0758991464972496, -0.04242383688688278, 0.4693707525730133, 0.127729594707489, -0.09416142106056213, -0.3237837553024292, -0.18397082388401031, -0.006810074206441641, -0.19902187585830688, -0.07591117918491364, 0.3648676574230194, 0.4718206226825714, -0.44612017273902893, -0.2346290498971939, -0.24111756682395935, -0.23893888294696808, 0.025314366444945335, 0.14697527885437012, 0.08481478691101074, -0.049596212804317474, -0.29141196608543396, 0.055730853229761124, -0.022882206365466118, 0.21657849848270416, -0.0678241103887558, -0.1459912806749344, -0.24465404450893402, 0.47010838985443115, 0.09625793248414993, -0.4677233397960663, 0.10889875888824463, 0.3291858434677124, -0.11135589331388474, -0.23168642818927765, 0.040598779916763306, 0.33751556277275085, -0.16563908755779266, -0.12936806678771973, -0.07978254556655884, -0.16626803576946259, -0.53293776512146, 0.40448781847953796, 0.43157923221588135, 0.16701485216617584, 0.08726901561021805, 0.02476091869175434, 0.3530319631099701, -0.5075405240058899, -0.294730544090271, 0.022425025701522827, 0.0898001492023468, 0.14356614649295807, 0.11736521124839783, 0.34779036045074463, 0.08759001642465591, -0.02114914171397686, 0.11885654181241989, -0.23720712959766388, 0.10581377893686295, 0.0836295634508133, 0.31029602885246277, 0.040944185107946396, -0.1718972772359848, -0.13901858031749725, -0.19803419709205627, 0.039392534643411636, 0.033807698637247086, 0.1448843628168106, 0.03929383307695389, 0.12942877411842346, 0.35623887181282043, -0.10073886066675186, -0.010459115728735924, 0.05149461701512337, -0.36998268961906433, 0.01463053748011589, 0.18042948842048645, 0.003360140137374401, 0.04656597226858139, -0.011073053814470768, -0.12742926180362701, 0.05420566350221634, 0.0899757593870163, -0.2364189773797989, -0.08816568553447723, 0.1556093841791153, -0.21994689106941223, -0.12560498714447021, 0.09576798975467682, 0.017858097329735756, -0.008958060294389725, 0.05397121608257294, -0.009684479795396328, -0.16410110890865326, -0.2620178759098053, -0.12802155315876007, -0.07083282619714737, 0.06017971783876419, 0.2270311713218689, 0.00029818020993843675, 0.2919687032699585, -0.02966402843594551, 0.0002601662708912045, 0.040566492825746536, 0.2726525068283081, -0.014182948507368565, -0.013098634779453278, 0.10521787405014038, 0.25628840923309326, 0.1592622548341751, 0.037375979125499725, 0.26390746235847473, 0.2131020426750183, 0.35639017820358276, -0.19725829362869263, -0.15069952607154846, -0.05380121245980263, 0.02615843340754509, -0.18555766344070435, 0.05379914864897728, 0.270197331905365, -0.2798939347267151, 0.3722710609436035, -0.33213162422180176, 0.2091309130191803, -0.11884588748216629, 0.8712014555931091, 0.06292102485895157, -0.03551775589585304, 0.4533151686191559, -0.19285812973976135, -0.10261530429124832, -0.13622769713401794, -0.36602678894996643, -0.25263336300849915, 0.38503244519233704, -0.12487606704235077, 0.018575845286250114, -0.16104386746883392, -0.30865269899368286, 0.5676949620246887, 0.19110657274723053, -0.2851090729236603, 0.9220476150512695, 0.06344424933195114, -0.05923151597380638, 0.007529492024332285, 0.15489675104618073, -0.11050308495759964, 0.07552537322044373, -0.08036176860332489, -0.2220444530248642, -0.05677459388971329, -0.6287457942962646, 0.13944610953330994, 0.2508380115032196, 0.014595945365726948, -0.038420774042606354, -0.04774412140250206, 0.12375781685113907, -0.054982300847768784, -0.058761946856975555, 0.036739129573106766, 0.07500535249710083, 0.04727136716246605, 0.07147570699453354, -0.02588985487818718, 0.014125595800578594, -0.11536893248558044, 0.06664551794528961, 0.013920526951551437, 0.01078174076974392, -0.04670867696404457, 0.0746280699968338, 0.13918857276439667, 0.021974217146635056, -0.07817360758781433, 0.06748993694782257, 0.0028729084879159927, 0.04225790873169899, -0.08907868713140488, 0.026028558611869812, 0.06283322721719742, -0.05261865630745888, 0.013666963204741478, -0.06571998447179794, -0.041450001299381256, 0.06832829862833023, 0.20522916316986084, -0.3864632248878479, 0.013530673459172249, -0.3404514789581299, 0.2181672751903534, 0.24997712671756744, -0.19002951681613922, -0.3265528976917267, 0.007089816965162754, 0.45966577529907227, 0.3004353642463684, -0.055087629705667496, 0.254940003156662, 0.16589558124542236, -0.036621466279029846, -0.23390063643455505, -0.12443912029266357, 0.16375280916690826, 0.24993237853050232, 0.051729150116443634, -0.12637148797512054, -0.16497959196567535, 0.3629148602485657, 0.07069097459316254, 0.05056252330541611, -0.4348761737346649, -0.09569423645734787, 0.29382437467575073, 0.1818011999130249, 0.27519068121910095, 0.16193194687366486, -0.3208760917186737, -0.08443491160869598, 0.23293842375278473, -0.12826871871948242, -0.018192915245890617, 0.32163479924201965, 0.2579364478588104, -0.1681777983903885, -0.14428983628749847, -0.3655388355255127, 0.23987334966659546, -0.13534346222877502, -0.02962891012430191, 0.16062071919441223, -0.14315396547317505, -0.04202226921916008, 0.07958471029996872, 0.1332933008670807, 0.057074181735515594, 0.13349023461341858, 0.49396809935569763, 0.09844271838665009, 0.03848152235150337, -0.012554105371236801, 0.01692444458603859, -0.1762736439704895, -0.4983426630496979, -0.4662604331970215, 0.08469702303409576, 0.14241187274456024, -0.008618108928203583, 0.10162555426359177, -0.17866867780685425, 0.2127242088317871, 0.005865521263331175, 0.16959542036056519, -0.19946283102035522, -0.09481653571128845, 0.038474250584840775, -0.02821814827620983, 0.0348992682993412, 0.23950731754302979, -0.20767296850681305, -0.1586977243423462, 0.11259402334690094, 0.052655257284641266, 0.005624933633953333, 0.06363210082054138, 0.09685828536748886, -0.12276043742895126, -0.5870436429977417, -0.45010000467300415, -0.4121876358985901, 0.5939317345619202, -0.4285881519317627, 0.05585541948676109, 0.14388254284858704, -0.367766410112381, 0.8576706647872925, -0.5894874930381775, 0.17434129118919373, 0.08322277665138245, 0.06162331998348236, -0.3933987021446228, 0.2984161972999573, 0.033635277301073074, 0.4094336926937103, -0.17992502450942993, -0.14899484813213348, 0.37640947103500366, 0.19082818925380707, 0.28477922081947327, -0.3819430470466614, -0.2490026205778122, -0.20441323518753052, 0.16192243993282318, 0.07521356642246246, -0.41284361481666565, -0.18206849694252014, -0.06471778452396393, 0.16704143583774567, 0.05407090485095978, -0.13249436020851135, 0.12800592184066772, 0.2987922728061676, 0.17445650696754456, -0.06844168156385422, 0.15689003467559814, 0.24526658654212952, -0.10931425541639328, 0.2444925159215927, -0.25315138697624207, -0.25714513659477234, 0.41657015681266785, -0.22483710944652557, 0.17408280074596405, 0.4007440209388733, 0.25762709975242615, -0.1578955352306366, -0.06368507444858551, 0.09587043523788452, -0.05129615589976311, -0.19582682847976685, -0.30640020966529846, 0.21753138303756714, -0.05612809583544731, -0.1466442346572876, 0.13156066834926605, 0.16779373586177826, 0.30327317118644714, -0.005713837221264839, -0.12821169197559357, 0.0442739836871624, 0.14643652737140656, 0.019481437280774117, 0.09789356589317322, 4.786245699506253e-05, -0.08064364641904831, 0.10924963653087616, -0.007821342907845974, -0.15870565176010132, -0.22592270374298096, 0.28928568959236145, -0.14336341619491577, 0.020292416214942932, -0.1338743269443512, 0.4213303029537201, -0.1282455325126648, -0.01167641207575798, -0.2948053181171417, 0.03376755490899086, -0.07529118657112122, 0.0038821985945105553, 0.028103971853852272, -0.02470819652080536, -0.10804075747728348, -0.06594245135784149, 0.1756879985332489, 0.17151987552642822, 0.03244941309094429, -0.06283887475728989, 0.15751172602176666, -0.20443491637706757, 0.160517156124115, 0.002264623297378421, -0.1227211281657219, 0.0053762272000312805, -0.034869853407144547, -0.29600000381469727, 0.13579124212265015, -0.23000773787498474, 0.12882302701473236, 0.14202168583869934, 0.0015722399111837149, 0.07216820865869522, 0.04684514179825783, 0.1512424796819687, -0.15307852625846863, 0.05637235939502716, -0.012104224413633347, -0.16374821960926056, 0.17970339953899384, 0.35500282049179077, 0.26256757974624634, -0.4422328472137451, -0.40899771451950073, -0.03524775803089142, 0.1702999472618103, -0.20219679176807404, -0.04977277293801308, 0.4797787666320801, 0.056719399988651276, 0.11505618691444397, 0.3699256181716919, 0.2685217559337616, -0.3151800036430359, 0.4638184607028961, 0.07104577124118805, 0.6126787066459656, 0.3052145838737488, 0.29536277055740356, -0.44224852323532104, 0.3027441203594208, -0.14311634004116058, -0.1581984907388687, 0.10807859897613525, -0.5392984747886658, 0.023250970989465714, 0.7641676068305969, -0.2253095805644989, -0.020351877436041832, -0.0808187797665596, -0.275145947933197, 0.05730198323726654, -0.0338607132434845, 0.04990651085972786, 0.10545393079519272, -0.20409230887889862, -0.5130395293235779, 0.14726419746875763, 0.4418564736843109, -0.5857470035552979, -0.11683972924947739, -0.21805866062641144, -0.13595961034297943, -0.3456130027770996, 0.4883425533771515, -0.017727147787809372, 0.08505988121032715, -0.015245409682393074, -0.05370490252971649, 0.026842758059501648, 0.014054378494620323, -0.02925211191177368, 0.046063363552093506, 0.04670132324099541, -0.025415679439902306, -0.0062447842210531235, 0.04910622909665108, -0.028051011264324188, 0.058189887553453445, -0.026026932522654533, 0.03401709347963333, -0.04853738471865654, -0.0031776265241205692, 0.22342777252197266, 0.012450640089809895, -0.09013164043426514, -0.06995638459920883, -0.024816446006298065, -0.05245323106646538, -0.0674811601638794, 0.030602609738707542, -0.0473085418343544, -0.09217517822980881, -0.101336769759655, 0.03644061088562012, -0.06813265383243561, -0.11318667978048325, -0.2399672120809555, 0.186763733625412, 0.39395761489868164, 0.18343910574913025, 0.07259630411863327, -0.050197288393974304, 0.3265931308269501, -0.3064729571342468, -0.21874742209911346, 0.15941695868968964, 0.20231306552886963, 0.2618770897388458, -0.24209140241146088, 0.3526483178138733, 0.09248729795217514, -0.172316312789917, 0.23174498975276947, -0.09833028167486191, 0.010476908646523952, -0.049163203686475754, 0.014742792584002018, 0.22830437123775482, 0.39426425099372864, 0.12703749537467957, -0.14706985652446747, 0.4468323886394501, -0.14053021371364594, -0.4121577739715576, 0.17574332654476166, -0.12139566242694855, -0.09741708636283875, 0.23213502764701843, 0.0528864711523056, 0.5559647679328918, 0.04206497594714165, 0.33566856384277344, -0.388273686170578, -0.004521576222032309, -0.19404980540275574, -0.09207871556282043, -0.073152095079422, -0.30991634726524353, 0.34254246950149536, -0.1341528296470642, -0.01779775880277157, -0.15979088842868805, 0.43473806977272034, -0.09142434597015381, 0.12474581599235535, 0.19778093695640564, -0.04812684655189514, 0.03560739755630493, 0.21088343858718872, -0.2105523943901062, -0.25042128562927246, 0.583189070224762, -0.18652400374412537, -0.12620672583580017, 0.04281037673354149, 0.21763144433498383, 0.2595449686050415, -0.26426491141319275, 0.03953009098768234, 0.0783395916223526, -0.009794977493584156, 0.09683617949485779, -0.03972131386399269, 0.1520463526248932, -0.1699102520942688, 0.19548270106315613, -0.129999577999115, 0.3004545569419861, 0.1713191419839859, -0.1329336166381836, -0.24793098866939545, -0.0075814975425601006, 0.1996699869632721, 0.5521660447120667, -0.2220367193222046, -2.004075288772583, 0.20890195667743683, 0.4500683546066284, 0.4852031469345093, -0.5705244541168213, -0.19528314471244812, 0.0872957855463028, 0.7874352931976318, -0.09155752509832382, 0.046046916395425797, -0.4400041997432709, 0.03798361495137215, -0.5770713686943054, 0.04645996168255806, 0.06770593672990799, 0.04775532707571983, -0.4139452874660492, -0.4989074468612671, -0.030031269416213036, 0.20527522265911102, -0.12856274843215942, 0.5187082290649414, 0.046433284878730774, 0.2651696801185608, 0.03779750317335129, 0.10609765350818634, 0.07559619098901749, 0.1815531849861145, -0.07642208784818649, 0.1430710405111313, 0.16901159286499023, 0.5684543251991272, 0.2193298488855362, -0.2405649721622467, -0.08582256734371185, -0.07320315390825272, -0.29438063502311707, 0.07662234455347061, 0.7614811062812805, 0.6702965497970581, -0.35082560777664185, -0.198398619890213, 0.11611802130937576, 0.45906850695610046, -0.13338816165924072, 0.30909571051597595, 0.14577743411064148, 0.1313481479883194, 0.04189906641840935, -0.13967882096767426, -0.08183350414037704, -0.08007030189037323, -0.009532419964671135, 0.26215359568595886, -0.02899816259741783, -0.09419625252485275, 0.044138353317976, -0.10437781363725662, 0.11666584014892578, -0.03820835426449776, -0.0055081951431930065, -0.05717094987630844, -0.3005671799182892, 0.08475633710622787, -0.016570312902331352, 0.05346654728055, 0.08737749606370926, -0.0786014124751091, -0.5243980884552002, 0.03130602836608887, -0.27501606941223145, 0.06944499909877777, 0.04679805785417557, 0.051012780517339706, 0.19869685173034668, -0.11250071227550507, -0.12004115432500839, 0.05572782829403877, 0.08656353503465652, 0.011432001367211342, 0.17070800065994263, 0.023700060322880745, 0.12091948091983795, 0.1851334422826767, 0.1774786412715912, 0.15850968658924103, -0.3698325753211975, -0.06752355396747589, 0.16115067899227142, 0.038801409304142, 0.191493958234787, -0.544724702835083, 0.06454426795244217, 0.08944341540336609, -0.17618784308433533, -0.17740745842456818, 0.14753718674182892, -0.0954849123954773, 0.010469509288668633, 0.3514394462108612, -0.14567674696445465, -0.07403706014156342, -0.11629614979028702, 0.14056213200092316, 0.12267463654279709, 0.012948299758136272, -0.27452173829078674, 0.39978018403053284, 0.2204432487487793, -0.1307247281074524, -0.30862388014793396, 0.41018936038017273, 0.16578441858291626, -0.04119356349110603, -0.03224277123808861, -0.03884938359260559, 0.10446950793266296, 0.009454353712499142, 0.34706467390060425, -0.1237993985414505, 0.042153049260377884, 0.07098612189292908, 0.07472382485866547, -0.10032777488231659, -0.3607300817966461, -0.43970799446105957, 0.025955889374017715, 0.20827676355838776, -0.08159535378217697, 0.5282822251319885, -0.15558362007141113, -0.03236682340502739, -0.42497414350509644, -0.1070004254579544, -0.5590252876281738, -0.19856032729148865, 0.4698774516582489, -0.2625909149646759, -0.14378923177719116, 0.12741948664188385, -0.2620200216770172, 0.6075801849365234, -0.09244931489229202, 0.46018534898757935, 0.09779313951730728, 0.3777303099632263, 0.18641316890716553, -0.4183387756347656, -0.03016166388988495, 0.35652974247932434, 0.07129738479852676, 0.10838015377521515, -0.0537947416305542, -0.3641546666622162, 0.46219250559806824, 0.2270858883857727, 0.3722064197063446, 0.29185760021209717, -0.17487449944019318, -0.05475090071558952, -0.08467018604278564, -0.02866164781153202, 0.11216344684362411, 0.04234601557254791, -0.08590471744537354, -0.09202738106250763, -0.03033270873129368, 0.08977175503969193, -0.023193325847387314, -0.05156118422746658, -0.11851154267787933, -0.0689600482583046, -0.03899072855710983, -0.03736233711242676, 0.05302676185965538, 0.06874600797891617, 0.005719908978790045, 0.09032103419303894, 0.040050700306892395, -0.012297176755964756, -0.007006926462054253, -0.00880016852170229, -0.023578515276312828, 0.20554938912391663, -0.09635419398546219, -0.027850450947880745, 0.03928240016102791, 0.03463728353381157, 0.05297568812966347, 0.10147632658481598, 0.15379169583320618, 0.021702926605939865, 0.5094836354255676, 0.15608608722686768, -0.14687150716781616, -0.34857210516929626, -0.2963133752346039, 0.12083574384450912, -0.06047062575817108, -0.13974961638450623, 0.21816271543502808, 0.08654655516147614, -0.1360214650630951, 0.2938065230846405, -0.3292769491672516, 0.04318201169371605, -0.08163422346115112, -0.06106918677687645, -0.009211922995746136, 0.20065264403820038, 0.3476124703884125, -0.29873305559158325, -0.2630608379840851, 0.01846858486533165, 0.13455495238304138, -0.14474743604660034, 0.04488520696759224, -0.03927198424935341, -0.12501990795135498, -0.13586381077766418, -0.18861253559589386, 0.30893954634666443, -0.23695333302021027, 0.09670108556747437, 0.11814981698989868, -0.12599848210811615, -0.47448721528053284, 0.1569714993238449, -0.3776216506958008, 0.20499305427074432, -0.08762303739786148, 0.11171235889196396, -0.21310102939605713, -0.09401049464941025, 0.2698178291320801, -0.12048118561506271, -0.058415789157152176, -0.12840957939624786, 0.15768830478191376, -0.0032333771232515574, 0.2755328416824341, 0.21040591597557068, 0.18548373878002167, -0.047888096421957016, -0.20203176140785217, -0.5061015486717224, -0.32359692454338074, 0.2437875121831894, -0.27923473715782166, 0.02720450423657894, 0.18301424384117126, -0.251801073551178, 0.4174630343914032, -0.056211650371551514, 0.08373356610536575, -0.16509824991226196, 0.08260367810726166, 0.1374342441558838, 0.30568215250968933, -0.04704243689775467, -0.13216054439544678, -0.4050593376159668, 0.30908629298210144, -0.15460419654846191, -0.22411195933818817, 0.08757529407739639, -0.06338999420404434, 0.10416977107524872, -0.1159415990114212, -0.056750014424324036, -1.0038843154907227, 0.19063329696655273, -0.12929506599903107, 0.008534076623618603, -0.1839643269777298, 0.1525828242301941, 0.12196718156337738, -0.7841847538948059, 0.6606649160385132, -0.05330778658390045, 0.09808579087257385, -0.07684703171253204, 0.1566677987575531, 0.10282507538795471, -0.39616659283638, -0.02063160389661789, 0.20318828523159027, 0.19894279539585114, 0.10976334661245346, -0.08825038373470306, -0.037084538489580154, 0.025293199345469475, -0.014623353257775307, 0.17184606194496155, -0.20609106123447418, -0.14204952120780945, 0.20906536281108856, -0.16749806702136993, 0.24363158643245697, 0.03999725356698036, -0.10700686275959015, 0.5061674118041992, -0.4991767406463623, -0.36450865864753723, 0.4573574960231781, -0.1058148667216301, -0.37378761172294617, -0.08945062011480331, 0.1517282873392105, -0.041361138224601746, 0.19856929779052734, 0.31450578570365906, -0.18182159960269928, 0.24397188425064087, -0.1901908963918686, 0.21145805716514587, 0.17267265915870667, 0.28251349925994873, 0.03266921266913414, -0.03226471692323685, -0.09581909328699112, 0.2428024560213089, 0.07077369093894958, -0.06280969828367233, 0.011052340269088745, 0.038532864302396774, 0.35440346598625183, -0.0365934893488884, 0.35841313004493713, -0.18360334634780884, 0.2459259331226349, -0.32216253876686096, 0.005260786972939968, 0.16314184665679932, -0.14531075954437256, 0.03865211084485054, 0.12988202273845673, 0.3064396381378174, -0.04526827856898308, 0.21942895650863647, -0.06659559160470963, -0.17444181442260742, -0.09537447243928909, 0.009435828775167465, 0.005293018184602261, -0.13585329055786133, 0.09044554084539413, -0.14009694755077362, -0.167592853307724, 0.08321143686771393, -0.3104744553565979, 0.14671751856803894, -0.024669228121638298, 0.2516874670982361, 0.10254112631082535, -0.09085537493228912, -0.42489609122276306, -0.3659571409225464, 0.05868011713027954, -0.12029555439949036, 0.05257663130760193, -0.12142264097929001, 0.10122614353895187, -0.3240249752998352, 0.36022770404815674, -0.13195978105068207, 0.04422101005911827, -0.15552613139152527, -0.06693345308303833, -0.12443765252828598, -0.028028495609760284, -0.27877846360206604, 0.01898311823606491, 0.004635386634618044, 0.07106836140155792, -0.0416351780295372, 0.24282677471637726, 0.31826040148735046, 0.05942942202091217, -0.1488543599843979, 0.06054993346333504, 0.1673269122838974, 0.196614608168602, 0.3202359676361084, -0.08041375130414963, 0.35593023896217346, 0.3464411795139313, 0.0734858289361, 0.05453699082136154, 0.3741316795349121, -0.26183784008026123, 0.03939017653465271, -0.3895134925842285, -0.5785306096076965, 0.11985881626605988, -0.22655229270458221, 0.3401853144168854, 0.13963937759399414, -0.030858099460601807, 0.11642388254404068, 0.11998509615659714, 0.06550706923007965, 0.18618007004261017, -0.11563920974731445, 0.04223433881998062, 0.03011806309223175, 0.1392790824174881, -0.3536907136440277, -0.22307492792606354, 0.23040062189102173, 0.017416156828403473, -0.11877430230379105, 0.1448988914489746, -0.3701341152191162, 0.05642722547054291, -0.258364200592041, 0.0826372280716896, -0.4052311182022095, 0.10054699331521988, 0.2182314097881317, 0.4386175870895386, 0.1662311553955078, -0.23817092180252075, -0.19508683681488037, -0.32081493735313416, -0.5508179664611816, -0.14947912096977234, 0.00844781007617712, 0.08170020580291748, 0.008821974508464336, 0.0016288106562569737, 0.003904173616319895, 0.09399578720331192, -0.0249173566699028, -0.06532283127307892, 0.035174403339624405, -0.018458349630236626, 0.02151528187096119, 0.033860161900520325, -0.019695855677127838, 0.04445717856287956, 0.0037785957101732492, 0.025856992229819298, 0.0551350936293602, 0.06525518745183945, -0.058628734201192856, 0.03142094239592552, 0.08023226261138916, -0.03734610602259636, 0.02556864731013775, -0.0507219024002552, 0.016232702881097794, -0.08349139988422394, 0.5222757458686829, 0.039554137736558914, 0.029237791895866394, 0.08988099545240402, 0.058980368077754974, 0.1394217312335968, -0.08950489014387131, -0.07235272973775864, -0.10028122365474701, -0.029911333695054054, 0.4961331784725189, 0.022136161103844643, 0.09385155141353607, -0.09083599597215652, -0.2872348129749298, -0.05124691128730774, 0.18777121603488922, 0.191647469997406, 0.250831663608551, 0.0017197530250996351, -0.12088096141815186, 0.1434115767478943, 0.20166577398777008, 0.02425854094326496, -0.1507110744714737, 0.11388552933931351, -0.36188504099845886, 0.09565824270248413, 0.30460262298583984, 0.08833638578653336, -0.3558720052242279, 0.07743342220783234, -0.1650535613298416, 0.45495322346687317, -0.04521825164556503, -0.16904227435588837, -0.11666277050971985, 0.11581620573997498, 0.0930846557021141, -0.10712055116891861, -0.014888319186866283, 0.23969538509845734, -0.030800169333815575, -0.23658563196659088, -0.23765991628170013, 0.015545549802482128, -0.025617603212594986, 0.2414645403623581, 0.31358447670936584, 0.011731856502592564, 0.06399931758642197, -0.03443723917007446, -0.25053632259368896, 0.15002740919589996, 0.07684318721294403, -0.18180197477340698, -0.20252341032028198, 0.2189568281173706, 0.41036054491996765, -0.19723694026470184, -0.38974347710609436, 0.0786144956946373, -0.21695750951766968, 0.026239896193146706, -0.0985034629702568, 0.23663513362407684, 0.025020552799105644, -0.016223711892962456, 0.06728238612413406, -0.07470662146806717, -0.18870799243450165, 0.27151942253112793, 0.013138426467776299, 0.06452155858278275, 0.06431813538074493, 0.23956787586212158, 0.3408765196800232, 0.09970781207084656, 0.3944666087627411, 0.07791388779878616, 0.2126127928495407, 0.1459435075521469, -0.03412972390651703, -0.21548476815223694, -0.3857311010360718, -0.7163171172142029, 0.02107367292046547, -0.08857984840869904, 0.1797999143600464, -0.36565083265304565, 0.04076503589749336, 0.10969727486371994, 0.28657296299934387, -0.2792401909828186, -0.646758496761322, 0.5963138341903687, 0.016560107469558716, -0.17548637092113495, 0.5105143785476685, -0.47862693667411804, -0.13192282617092133, 0.3997076153755188, -0.049980781972408295, 0.36196643114089966, 0.19010958075523376, 0.0011857574572786689, 0.38650384545326233, 0.3136761784553528, 0.008099506609141827, 0.006676346063613892, -0.4801326394081116, 0.1736534684896469, -0.1234637126326561, 0.34616127610206604, 0.34194621443748474, -0.3331645429134369, 0.4570426344871521, -0.36869993805885315, 0.3730472922325134, 0.19808384776115417, 0.11645839363336563, 0.010510580614209175, -0.06180710718035698, -0.06520847231149673, -0.21009179949760437, -0.2556177079677582, -0.3374585509300232, -0.37373462319374084, -0.2597954571247101, -0.051067885011434555, 0.01727711409330368, -0.34191861748695374, 0.08529031276702881, -0.22837023437023163, -0.010310999117791653, 0.2833246886730194, 0.2314528077840805, 0.2694486379623413, -0.04241127520799637, 0.1507713794708252, 0.054795391857624054, -0.19380320608615875, 0.5645291805267334, -0.16327479481697083, -0.3143857717514038, -0.1679232269525528, -0.11735022813081741, -0.18230152130126953, -0.002238623797893524, 0.3375476896762848, 0.05517903342843056, -0.023430820554494858, -0.17987360060214996, 0.0820111483335495, -0.02001901902258396, -0.03652919456362724, 0.09560099244117737, -0.005698613356798887, 0.2387736588716507, -0.11670108139514923, 0.02450079843401909, -0.2538101375102997, -0.07890642434358597, -0.024869121611118317, 0.0762532502412796, 0.09991178661584854, 0.07773467898368835, 0.08073645085096359, 0.37249553203582764, -0.049990613013505936, -0.06833865493535995, 0.0925711914896965, 0.017555586993694305, -0.019681960344314575, 0.36820268630981445, -0.006268267519772053, -0.07130389660596848, 0.3457084894180298, 0.2059997171163559, -0.056902915239334106, -0.35657092928886414, 0.38368889689445496, 0.12482143938541412, 0.03370945155620575, -0.21619565784931183, -0.1285318285226822, 0.015658363699913025, 0.09877762943506241, -0.14735734462738037, -0.19430933892726898, 0.11068809777498245, 0.2548760175704956, 0.2060653269290924, 0.09705248475074768, -0.09178013354539871, 0.3165113031864166, 0.07157490402460098, 0.08462004363536835, -0.13057978451251984, 0.2540864944458008, -0.10458336025476456, 0.21510732173919678, -0.174089714884758, -0.056863535195589066, 0.4899113178253174, -0.3475734293460846, -0.15414294600486755, -0.0660504400730133, 0.12279816716909409, 0.0935807153582573, 0.17307233810424805, 0.3788931369781494, -0.19456128776073456, -0.253695547580719, 0.015259922482073307, 0.2467307150363922, -0.11646101623773575, -0.20826195180416107, 0.039818648248910904, -0.3625326454639435, 0.6150243878364563, 0.38482871651649475, 0.19796866178512573, 0.3440607786178589, -0.09997610002756119, 0.451307088136673, 0.19365452229976654, -0.3101488947868347, -0.6426631212234497, -0.16022904217243195, -0.04720868542790413, 0.17255738377571106, -0.16126905381679535, -1.1534088850021362, 0.37542176246643066, 0.030984310433268547, -0.02870917320251465, 0.4954983592033386, -0.08176908642053604, -0.7338371276855469, 0.5067219138145447, -0.19157575070858002, 0.3648224472999573, -0.13379314541816711, -0.3375547230243683, -0.07709386944770813, 0.0022552390582859516, -0.0028953468427062035, 0.07376864552497864, 0.048734866082668304, 0.05051916465163231, 0.0372803770005703, 0.05618591979146004, 0.008432291448116302, -0.07555780559778214, -0.018264448270201683, -0.03251446411013603, 0.09037668257951736, -0.0008707298547960818, -0.05405416339635849, -0.048475198447704315, -0.005272845737636089, 0.0026320917531847954, 0.09982103854417801, 0.16949856281280518, -0.031890206038951874, -0.039656348526477814, 0.04639284312725067, -0.04305947571992874, -0.08886046707630157, -0.025476064532995224, 0.08165400475263596, 0.024245616048574448, -0.039546314626932144, 0.025886306539177895, 0.025700462982058525, 0.003891252214089036, 0.05588304251432419, 0.08818501979112625, 0.37415939569473267, -0.07240187376737595, -0.10194966197013855, -0.1990886926651001, 0.05468383803963661, -0.5898014307022095, -0.14344562590122223, -0.09975117444992065, 0.04387364536523819, -0.4661816358566284, 0.028648683801293373, -0.07630611956119537, 0.09903251379728317, -0.11366399377584457, -0.09604736417531967, 0.6220923066139221, 0.02361510507762432, -0.24044682085514069, 0.09286607801914215, 0.12410755455493927, -0.28221189975738525, 0.19668328762054443, -0.0634072795510292, -0.32779550552368164, 0.013367035426199436, -0.10227733850479126, -0.20762573182582855, 0.27213719487190247, -0.23961910605430603, -0.26604604721069336, -0.13958817720413208, 0.06661339849233627, -0.14644871652126312, 0.19947649538516998, -0.2394770234823227, 0.339121013879776, 0.258326917886734, -0.36342182755470276, -0.27293387055397034, -0.052194442600011826, 0.1584795117378235, -0.14046333730220795, -0.21618711948394775, 0.070356585085392, -0.06591416895389557, 0.03473071753978729, -0.17398211359977722, -0.13801684975624084, -0.13722464442253113, -0.06758414953947067, 0.06311151385307312, 0.14581458270549774, -0.3606134355068207, 0.1116240918636322, 0.023650391027331352, 0.05337398871779442, -0.19156435132026672, 0.011280794627964497, 0.36799243092536926, -0.041376423090696335, -0.12428566813468933, -0.36597955226898193, 0.1938842087984085, -0.2661360800266266, 0.35594311356544495, -0.12475646287202835, -0.13614396750926971, -0.17708733677864075, 0.03949775546789169, -0.1764875054359436, 0.40792956948280334, 0.2027319073677063, -0.15037573873996735, -0.11087944358587265, 0.1693045049905777, -0.04202791303396225, -0.10213632136583328, -0.3736664354801178, 0.771615743637085, -0.8982500433921814, -0.07683533430099487, -0.6654808521270752, -0.33295556902885437, -0.3894129693508148, -0.3863336443901062, -0.18361404538154602, 0.1791689395904541, -0.2932368516921997, -0.047319285571575165, 0.0493728443980217, 0.6410911679267883, -0.18128539621829987, 0.026634471490979195, 0.35469377040863037, 0.15488490462303162, -0.02343353070318699, -0.10982581973075867, 0.29011645913124084, 0.1892014592885971, 0.19639979302883148, -0.05554141476750374, -0.2515842318534851, 0.1949019879102707, -0.10265287756919861, -0.22726935148239136, 0.3211459219455719, 0.33243587613105774, -0.09675759822130203, -0.1732187420129776, -0.08997408300638199, 0.14807935059070587, 0.4093189835548401, -0.30086132884025574, -0.1511734277009964, 0.17294856905937195, 0.4310281574726105, -0.2359318882226944, 0.5787180662155151, 0.1006760224699974, 0.18642476201057434, -0.09420797973871231, 0.01549243088811636, -0.17928875982761383, -0.4903121888637543, -0.14114610850811005, -0.18107275664806366, -0.10127361863851547, -0.21195703744888306, 0.15050210058689117, 0.23693431913852692, -0.06389061361551285, 0.2753306031227112, -0.2716078460216522, -0.028803514316678047, 0.26992204785346985, 0.0039296536706388, 0.011364365927875042, 0.05254599079489708, -0.15252509713172913, 0.24771130084991455, 0.05421833693981171, -0.2475743591785431, 0.07867930829524994, 0.21916308999061584, 0.06994137167930603, 0.004423070698976517, -0.19061647355556488, 0.16825802624225616, 0.01454892847687006, -0.10875319689512253, 0.10792266577482224, 0.27603307366371155, 0.015210517682135105, 0.039070673286914825, -0.0019159822259098291, 0.07097730785608292, 0.2362494170665741, -0.19476665556430817, -0.143758162856102, -0.03823357820510864, 0.03585171699523926, 0.26414328813552856, -0.09309186786413193, -0.49594804644584656, -0.31921663880348206, -0.0008361291838809848, -0.12924447655677795, -0.1800888031721115, -0.15980678796768188, -0.17820991575717926, 0.04272620007395744, 0.25656598806381226, -0.07027864456176758, 0.005575621500611305, 0.15968115627765656, -0.12380259484052658, -0.07204592972993851, 0.06385266780853271, -0.3115856945514679, 0.1245509535074234, -0.26260456442832947, -0.03926106542348862, 0.20606303215026855, 0.0827610045671463, 0.19950558245182037, 0.24353426694869995, 0.08125008642673492, 0.07191082835197449, 0.2594481110572815, 0.128606379032135, -0.15954168140888214, -0.3339309096336365, 0.14780330657958984, -0.14254996180534363, -0.22766360640525818, 0.41265398263931274, 0.09078848361968994, 0.22447744011878967, 0.047703005373477936, -0.07545948028564453, 0.22291199862957, 0.17298611998558044, 0.2903093993663788, 0.15955330431461334, -0.5447383522987366, -0.004080612678080797, -0.17475390434265137, -0.08457787334918976, -0.02554096095263958, 0.4827333390712738, -0.1400555968284607, -0.07629204541444778, 0.04425783455371857, -0.33121079206466675, -0.31376561522483826, -0.40650656819343567, 0.0045669288374483585, 0.38397082686424255, -0.37769046425819397, 0.11296436935663223, 0.4794254004955292, 0.18672113120555878, -0.08054617047309875, -0.17371341586112976, 0.38601210713386536, 0.48238638043403625, -0.17035597562789917, -0.6862758994102478, 0.5449479818344116, 0.09265335649251938, -0.036609966307878494, 0.03797545284032822, -0.37293967604637146, -0.3595946729183197, 0.2583438456058502, 0.21841208636760712, -0.6212149262428284, -0.11545825004577637, -0.1491260528564453, -0.09024153649806976, -0.034552522003650665, -0.02143155038356781, -0.05159531533718109, -0.003196223173290491, -0.005692033562809229, -0.05354275554418564, 0.08415647596120834, 0.031329598277807236, 0.11298367381095886, 0.044868674129247665, -0.0145565215498209, -0.09880300611257553, -0.006118175107985735, -0.03525610640645027, 0.047521449625492096, 0.10444103926420212, -0.07427600026130676, -0.020793074741959572, -0.0069390879943966866, 0.08900400251150131, -0.051460545510053635, 0.07453327625989914, -0.05838038772344589, -0.013865021988749504, -0.012364031746983528, 0.005025268066674471, 0.027776530012488365, -0.0410197377204895, 0.5053961873054504, 0.11464476585388184, 0.02155354991555214, -0.12116507440805435, 0.22670231759548187, 0.2839559316635132, -0.10447761416435242, 0.18434622883796692, 0.33761945366859436, -0.3727024495601654, -0.017416270449757576, -0.2893887758255005, -0.31939321756362915, 0.14848263561725616, -0.012189987115561962, 0.24447979032993317, -0.025397131219506264, 0.2201768010854721, 0.11379597336053848, -0.18478749692440033, -0.4782947897911072, -0.11414308845996857, 0.2627968490123749, -0.104766845703125, 0.12955300509929657, 0.13850677013397217, -0.08140884339809418, -0.04444802552461624, 0.3561403751373291, 0.2774740159511566, 0.018072040751576424, -0.02267211303114891, -0.13010171055793762, -0.44098106026649475, 0.2154695838689804, 0.13430361449718475, 0.19114330410957336, 0.10926413536071777, -0.2280929982662201, -0.1594334989786148, 0.3975990414619446, -0.3791775107383728, 0.28279757499694824, -0.21444877982139587, 0.29661276936531067, -0.08104626089334488, -0.018112078309059143, 0.004092984367161989, -0.03620973601937294, 0.17467957735061646, 0.055843133479356766, 0.33116859197616577, -0.0014271752443164587, -0.20212171971797943, 0.30869749188423157, 0.2714320421218872, 0.008782988414168358, -0.3863741457462311, -0.25616681575775146, 0.15060044825077057, -0.13889670372009277, -0.24095547199249268, -0.11370430141687393, -0.11278517544269562, -0.32579874992370605, 0.35160523653030396, 0.26736947894096375, -0.13331258296966553, -0.5996272563934326, 0.19428761303424835, -0.2548830509185791, -0.4388086199760437, 0.24051298201084137, 0.4117935299873352, -0.11560191214084625, 0.10411340743303299, 0.12371174991130829, 0.23812532424926758, 0.06953117251396179, 0.13296300172805786, -0.39653506875038147, -0.39106905460357666, -0.24516533315181732, -0.2146328091621399, -0.0007297012489289045, -0.47737404704093933, 0.441584974527359, -0.4887758195400238, 0.3773518204689026, 0.4649181365966797, -0.004718685057014227, -0.36050790548324585, 0.27875223755836487, 0.30585598945617676, 0.13262313604354858, -0.3969709575176239, 0.076833575963974, 0.1390635371208191, 0.29624027013778687, 0.1817954182624817, -0.20768015086650848, 0.10440775007009506, -0.026868022978305817, -0.16156817972660065, -0.2242439240217209, 0.13099725544452667, 0.059651605784893036, -0.1975753903388977, 0.18584281206130981, 0.11855391412973404, -0.05358041450381279, -0.2827305197715759, 0.39071398973464966, 0.41804152727127075, 0.04876617714762688, 0.0669558122754097, -0.01855863630771637, -0.14913947880268097, 0.11916906386613846, -0.25709840655326843, -0.2424120008945465, 0.2158920019865036, 0.5868270993232727, -0.24282166361808777, -0.1458985060453415, 0.281383752822876, -0.3742680847644806, -0.6825706958770752, 0.5123166441917419, 0.40004265308380127, 0.192085400223732, -0.015963654965162277, 0.04417906329035759, 0.034419991075992584, 0.01294553279876709, 0.0938226506114006, -0.14042644202709198, -0.008755159564316273, -0.19849245250225067, -0.03707725927233696, 0.09477873146533966, 0.028086405247449875, 0.18195076286792755, 0.03880338743329048, -0.05139734596014023, 0.10356844216585159, -0.29498159885406494, 0.0012439111014828086, -0.20059899985790253, 0.1346357762813568, 0.007432971149682999, 0.029599590227007866, -0.044825125485658646, -0.16894124448299408, -0.021795937791466713, 0.13258792459964752, 0.17149671912193298, 0.21256856620311737, 0.14853744208812714, 0.18191076815128326, 0.1693476289510727, 0.07998130470514297, 0.040829211473464966, 0.11050859838724136, 0.1740809679031372, 0.06377770751714706, 0.1911008656024933, -0.32040083408355713, -0.22600270807743073, -0.11686735600233078, 0.17005933821201324, 0.34951645135879517, -0.03866221383213997, 0.10369252413511276, -0.3189963698387146, -0.17295828461647034, -0.05914062634110451, -0.3204081058502197, 0.11004289984703064, -0.116291344165802, -0.09153895825147629, 0.2981680929660797, -0.2571394443511963, -0.029428444802761078, 0.20616476237773895, 0.04779813066124916, -0.12753017246723175, -0.08323775231838226, 0.20707200467586517, -0.04173726215958595, -0.1255878508090973, -0.00565330171957612, 0.29670941829681396, 0.08994482457637787, -0.061923254281282425, 0.06611251085996628, 0.4923183023929596, -0.18072493374347687, -0.007383969612419605, -0.13155342638492584, -0.10372723639011383, -0.3378070294857025, 0.1468774527311325, -0.24754993617534637, -0.2765945792198181, -0.31695249676704407, 0.31129202246665955, 0.43569421768188477, 0.18101519346237183, 0.15648691356182098, 0.03700464218854904, -0.2182622104883194, 0.4260105788707733, -0.15755586326122284, 0.1680612713098526, 0.26531869173049927, 0.061325520277023315, -0.37894052267074585, 0.16092906892299652, -0.28443238139152527, 0.24941115081310272, 0.09505559504032135, -0.2096848040819168, -0.2529599070549011, 0.280049204826355, -0.2824661135673523, 0.010085578076541424, 0.22888843715190887, -0.34307873249053955, -0.20018933713436127, -0.4858720004558563, 0.20471614599227905, 0.03798264265060425, -0.7157832980155945, -0.06979276984930038, 0.6485353708267212, -0.2244788259267807, 0.46883922815322876, -0.33970406651496887, -0.05982980877161026, -0.013718964532017708, 0.030848771333694458, 0.09259187430143356, 0.03150929883122444, 0.04700984060764313, 0.03981932997703552, -0.019673161208629608, -0.022797709330916405, -0.03154520317912102, 0.019057556986808777, -0.008753646165132523, -0.05890355259180069, 0.07626955956220627, 0.00389794260263443, -0.03611971065402031, -0.05514931306242943, 0.0002449758758302778, 0.006780510302633047, 0.04506323114037514, -0.010710438713431358, -0.13559338450431824, 0.005645128898322582, -0.07730305939912796, 0.13986533880233765, 0.058623723685741425, 0.009762099012732506, 0.009562771767377853, 0.04082215204834938, 0.10103660076856613, -0.009366882033646107, -0.0032738312147557735, -0.0558619499206543, 0.05200241878628731, 0.23897813260555267, 0.09218738973140717, -0.19340184330940247, 0.0906895101070404, 0.6343862414360046, -0.10377465188503265, -0.2839184105396271, -0.28036078810691833, 0.05194443091750145, 0.1913646012544632, -0.16642117500305176, 0.014005318284034729, -0.1541701704263687, -0.4499119520187378, 0.07011903822422028, -0.14966556429862976, 0.07095260173082352, 0.2855863869190216, 0.1897997409105301, 0.1917693316936493, -0.06794954836368561, -0.27402955293655396, 0.18873684108257294, 0.12161634117364883, 0.32616662979125977, 0.2229258269071579, 0.01422887109220028, 0.015005211345851421, -0.16332334280014038, 0.15212592482566833, 0.2183115929365158, -0.027968591079115868, 0.06902388483285904, 0.034866269677877426, -0.24000705778598785, 0.26482173800468445, -0.08251997083425522, -0.22228944301605225, -0.19271115958690643, 0.2749411463737488, 0.22603844106197357, -0.10192631185054779, -0.030583737418055534, -0.24143356084823608, 0.2894706428050995, -0.0017743807984516025, -0.03533729538321495, -0.3188779950141907, -0.26697874069213867, -0.1589762270450592, 0.053752824664115906, -0.16630388796329498, 0.3078918755054474, -0.18381796777248383, 0.3385222256183624, -0.19935080409049988, 0.2863974869251251, 0.16773667931556702, 0.23814396560192108, 0.091094009578228, 0.07392618060112, -0.10485472530126572, -0.09010405838489532, 0.16438977420330048, -0.575731635093689, -0.12621061503887177, -0.586721658706665, -0.1647453010082245, 0.2787252962589264, 0.08427679538726807, 0.11544984579086304, -0.33044669032096863, -0.2348472625017166, 0.2768037021160126, 0.032057758420705795, 0.39670872688293457, 0.2583160996437073, -0.20198838412761688, -0.2693388760089874, 0.32739415764808655, -0.15177004039287567, -0.152366504073143, -0.4606623351573944, 0.2772780656814575, -0.3258626163005829, 0.6072549223899841, 0.11702542006969452, -0.3510088324546814, -0.05719495564699173, -0.5637801885604858, 0.3876713812351227, 0.4259236454963684, -0.4832022488117218, -0.30086663365364075, -0.270860493183136, 0.9044676423072815, -0.493070125579834, 0.5450142025947571, -0.06723452359437943, 0.08318516612052917, 0.1474955677986145, 0.18826666474342346, -0.10771000385284424, -0.03227539360523224, 0.35740306973457336, -0.026910781860351562, -0.2643098831176758, -0.011539388447999954, -0.22517861425876617, -0.1320686638355255, -0.5910724401473999, 0.3227550685405731, 0.46994665265083313, 0.5485009551048279, -0.15544924139976501, 0.1268274486064911, -0.15308913588523865, 0.07052387297153473, -0.050107814371585846, 0.2213243693113327, 0.2443980872631073, 0.11467695236206055, -0.08268314599990845, 0.05940995737910271, -0.19373005628585815, -0.16352307796478271, 0.018993303179740906, -0.0365222729742527, -0.1652059108018875, 0.13206271827220917, -0.0010954341851174831, -0.11683842539787292, -0.1842530518770218, -0.0954873114824295, 0.41370245814323425, -0.061242710798978806, 0.10234449058771133, -0.06638140231370926, -0.015886779874563217, 0.0005914648645557463, 0.010072113014757633, 0.20795734226703644, -0.2533190846443176, -0.09731125086545944, -0.027841895818710327, 0.10412603616714478, 0.1237194687128067, -0.37273740768432617, 0.03179566189646721, 0.1983955204486847, -0.03361016511917114, 0.10141746699810028, -0.07774219661951065, 0.12173035740852356, 0.09133760631084442, -0.13271543383598328, -0.25705763697624207, 0.26109540462493896, 0.1280852109193802, -0.017469320446252823, 0.006260475609451532, 0.09051738679409027, 0.06785645335912704, 0.04643789306282997, 0.43961408734321594, -0.014162755571305752, -0.046482257544994354, 0.12303200364112854, -0.183912456035614, 0.20464693009853363, -0.16983561217784882, -0.019963644444942474, -0.23677226901054382, 0.015888279303908348, 0.30029118061065674, -0.054424695670604706, -0.13936424255371094, -0.08852158486843109, -0.07805880904197693, 0.18099617958068848, 0.08359117060899734, 0.1751994490623474, 0.3177213966846466, -0.11113502830266953, 0.11210359632968903, 0.1965644657611847, 0.29262736439704895, -0.10981210321187973, -0.08192899823188782, -0.2315625697374344, -0.21469715237617493, 0.667337954044342, 0.26973772048950195, -0.2639125883579254, -0.19387899339199066, 0.09880031645298004, 0.1081056073307991, 0.18810483813285828, 0.38534197211265564, -0.14364413917064667, -0.2230619490146637, 0.20718123018741608, -0.17729926109313965, 0.15385571122169495, 0.07408725470304489, -0.10112818330526352, -0.11790339648723602, 0.10622871667146683, 0.567992627620697, -0.25228798389434814, 0.02925935573875904, 0.46597543358802795, -0.08617241680622101, -0.027660347521305084, -0.051639020442962646, -0.4772021472454071, -0.26736980676651, 0.05090776085853577, -0.4034876227378845, 0.25611114501953125, -0.5977748036384583, 0.17459234595298767, 0.579478919506073, -0.27849501371383667, 0.005458057392388582, -0.149105966091156, 0.4934549331665039, -0.7481518983840942, 0.08020514249801636, 0.37181878089904785, 0.025201933458447456, 0.17369689047336578, -0.06199363246560097, 0.35642337799072266, -0.12243358790874481, -0.04308342561125755, -0.07135754078626633, -0.009824087843298912, -0.08815991133451462, 0.05268629640340805, -0.07116475701332092, -0.04216216132044792, -0.08386505395174026, 0.013849216513335705, -0.009669283404946327, -0.008545002900063992, -0.02593241259455681, -0.06190066039562225, -0.08885184675455093, -0.06886952370405197, 0.003234440227970481, -0.08774832636117935, 0.08163120597600937, 0.049424219876527786, 0.07738082855939865, 0.01640048809349537, -0.06856108456850052, 0.051118914037942886, -0.004289248492568731, -0.09981115162372589, 0.15642733871936798, 0.0120842969045043, -0.008130728267133236, 0.1104525476694107, -0.06978797912597656, 0.04759069159626961, -0.057060737162828445, 0.004294977057725191, -0.22107023000717163, 0.1356072872877121, -0.2587816119194031, -0.2061292976140976, 0.01007947325706482, -0.12380720674991608, 0.16875436902046204, -0.30614978075027466, -0.3948550820350647, -0.20940259099006653, -0.09203456342220306, 0.17137648165225983, -0.17265617847442627, -0.11530712246894836, 0.06271595507860184, -0.1520180106163025, -0.22660191357135773, 0.19442537426948547, -0.19268456101417542, 0.08834832161664963, -0.1882331371307373, -0.010425632819533348, -0.06555942445993423, -0.07969538867473602, -0.1902039498090744, 0.009503624401986599, -0.08152590692043304, 0.17583328485488892, -0.19351601600646973, -0.06011936068534851, 0.11057889461517334, -0.12592913210391998, 0.029088497161865234, 0.1253873109817505, -0.15840281546115875, 0.007615843787789345, 0.3395726978778839, -0.10830319672822952, -0.26917994022369385, -0.12519124150276184, -0.22668230533599854, -0.31975990533828735, 0.04422539100050926, -0.06640292704105377, 0.31594136357307434, 0.08313538134098053, -0.186127170920372, -0.11476583778858185, -0.08490905910730362, 0.05481482669711113, -0.19831913709640503, 0.2502308189868927, 0.0338691808283329, -0.19071470201015472, 0.2098395973443985, 0.006741187535226345, -0.06710132956504822, -0.2396896928548813, -0.14042212069034576, -0.095018669962883, 0.06373162567615509, -0.025860827416181564, -0.18281234800815582, 0.1339021474123001, -0.0076423631981015205, -0.07315000891685486, 0.09601867198944092, -0.18422439694404602, 0.10733854025602341, -0.6897099614143372, 0.1267377883195877, -0.10261230170726776, 0.34197506308555603, -0.3530409038066864, -0.16897079348564148, 0.21367457509040833, 0.14074024558067322, -0.20062978565692902, 0.3524634540081024, 0.5728978514671326, 0.0042565977200865746, -0.0461653396487236, 0.18908745050430298, 0.3048173189163208, 0.1579257994890213, 0.17644540965557098, 0.15214011073112488, 0.18123255670070648, 0.21964873373508453, -0.06426506489515305, -0.056726112961769104, -0.2180560678243637, 0.07337875664234161, -0.11829154938459396, -0.2022261768579483, 0.06016964092850685, 0.1103387176990509, 0.5416030883789062, 0.32059988379478455, -0.09347256273031235, -0.07261183112859726, -0.3113134205341339, 0.7358675003051758, 0.09993292391300201, -0.08182418346405029, 0.07848568260669708, 0.15068012475967407, -0.04165935143828392, 0.2506965100765228, 0.24001197516918182, -0.021615885198116302, 0.3781629502773285, -0.04490507021546364, 0.3166147470474243, 0.035263217985630035, 0.401533842086792, 0.13497981429100037, -0.07588644325733185, 0.12329579144716263, 0.16378648579120636, -0.16974441707134247, -0.018383927643299103, -0.0010021462803706527, -0.129007026553154, 0.03880608081817627, -0.15133187174797058, 0.14646323025226593, 0.2476729452610016, 0.23897768557071686, 0.0458199679851532, -0.04668831825256348, 0.08768099546432495, 0.04806382581591606, 0.10526102781295776, -0.017778906971216202, 0.012816349044442177, 0.09050820022821426, 0.03641042113304138, -0.007828444242477417, -0.11930526047945023, 0.037967924028635025, 0.22157378494739532, -0.051109977066516876, 0.002963446779176593, 0.027033722028136253, -0.0839262530207634, -0.14583805203437805, 0.1630745381116867, -0.1043911948800087, 0.08534294366836548, 0.043118808418512344, -0.09566843509674072, 0.03707904368638992, -0.17091475427150726, -0.05354110896587372, -0.11528671532869339, 0.04039676487445831, -0.0034942335914820433, 0.17309556901454926, -0.1387862116098404, -0.32194986939430237, 0.07154667377471924, 0.0438360720872879, 0.049271710216999054, -0.06499753892421722, -0.04838719964027405, -0.24344629049301147, 0.0681224912405014, 0.08309867233037949, 0.012170077301561832, -0.03018573671579361, 0.0007107701385393739, -0.1406082808971405, 0.08546638488769531, -0.03882036358118057, 0.10888301581144333, -0.19007152318954468, -0.27784860134124756, -0.1659032106399536, 0.06374675035476685, 0.07653241604566574, -0.37977564334869385, -0.013799738138914108, -0.9863889813423157, 0.34555163979530334, 0.36667221784591675, -0.41880929470062256, -1.0358270406723022, 0.2826095521450043, 0.2735373377799988, -0.40381133556365967, 0.14519678056240082, -0.04880519211292267, -0.0070096650160849094, 0.07220099121332169, -0.322816401720047, -0.45366984605789185, 0.40684038400650024, 0.07198579609394073, -0.09753457456827164, -0.12423007190227509, 0.06310001015663147, -0.06048322096467018, 0.1633407026529312, 0.2054707109928131, 0.16379548609256744, 0.23716512322425842, 0.04622869938611984, 0.12813448905944824, -0.2453252226114273, 0.32947754859924316, -0.30608314275741577, 0.4212809205055237, 0.14191946387290955, 0.13177841901779175, 0.12964613735675812, 0.2149231880903244, -0.3285282850265503, -0.2514464557170868, 0.24266771972179413, 0.3081391155719757, -0.1712368130683899, -0.3438118100166321, 0.026519229635596275, 0.39140525460243225, -0.5656419992446899, 0.04501275345683098, -0.02308458648622036, 0.001922814641147852, 0.09826180338859558, 0.12418404966592789, 0.03774285688996315, 0.47978007793426514, -0.09927631914615631, -0.2497941553592682, 0.5253002643585205, -0.435436874628067, -0.14041665196418762, 0.002689890330657363, 0.04007947817444801, 0.018046865239739418, 0.05745261162519455, -0.06365513801574707, 0.04897221177816391, 0.038656339049339294, -0.020757177844643593, -0.009343492798507214, 0.0016739183338358998, -0.04711153730750084, -0.14215080440044403, -0.0038989924360066652, 0.023731529712677002, 0.004430163186043501, 0.0649251937866211, -0.03324362635612488, 0.021609315648674965, -0.01888672076165676, 0.09237387031316757, 0.06145978346467018, 0.1747441440820694, -0.07504517585039139, -0.06875447928905487, -0.8082965612411499, 0.12109173834323883, 0.034016188234090805, 0.2212645262479782, 0.05427166819572449, 0.02015179768204689, -0.06454451382160187, 0.1895199418067932, 0.16305400431156158, -0.013936152681708336, -0.5244671702384949, -0.11075770854949951, -0.040655191987752914, -0.04538050666451454, -0.8253388404846191, -0.029726656153798103, -0.15685580670833588, 0.16686470806598663, 0.03191215917468071, 0.07295835763216019, 0.052248433232307434, 0.08683507889509201, 0.030807534232735634, 0.03635319694876671, -0.17284224927425385, 0.2814996540546417, 0.25288254022598267, -0.30439189076423645, -0.07017877697944641, 0.1922176480293274, -0.053358353674411774, 0.23618194460868835, 0.11603977531194687, -0.19411103427410126, 0.23076224327087402, -0.07552579045295715, -0.06214681640267372, 0.003722074907273054, 0.14774425327777863, 0.13938771188259125, 0.04394123703241348, 0.22107769548892975, 0.1586560606956482, -0.08715203404426575, 0.07985500246286392, -0.22699561715126038, -0.030748846009373665, 0.3592436611652374, 0.17169304192066193, 0.03369063884019852, -0.13673196732997894, -0.0725090280175209, 0.08865924179553986, 0.05011826381087303, 0.0741289034485817, -0.015585383400321007, 0.053917426615953445, -0.04634086415171623, 0.049486078321933746, 0.2579072415828705, 0.20762264728546143, 0.20076866447925568, 0.041134484112262726, -0.050941143184900284, -0.003750468371436, -0.18925221264362335, 0.12687113881111145, -0.006692595314234495, -0.1586643010377884, -0.03331783041357994, -0.10185183584690094, 0.11272786557674408, 0.23343689739704132, -0.04229312762618065, 0.1788540780544281, 0.14599207043647766, 0.011885637417435646, 0.050915446132421494, 0.0827445313334465, 0.22766312956809998, -0.16593004763126373, -0.29056239128112793, 0.07898348569869995, 0.2167544662952423, 0.31092870235443115, 0.17740927636623383, -0.305329829454422, -2.5341296195983887, -0.014998549595475197, -0.4162040054798126, 0.2820291221141815, 0.05175459012389183, -0.24004943668842316, -0.07368585467338562, 0.07367994636297226, 0.3048352599143982, -0.7453781962394714, 0.3284473121166229, -0.06205548718571663, 0.3515702784061432, 0.1390046626329422, -0.17883357405662537, -0.1369009166955948, -0.31104400753974915, 0.017171358689665794, -0.016488807275891304, 0.6678569316864014, 0.14520351588726044, -0.4164624810218811, -0.23321308195590973, -0.41167688369750977, 0.07126159220933914, 0.1512017697095871, -0.031471382826566696, -0.5572627186775208, 0.10663660615682602, -0.07080113887786865, 0.02994532696902752, 0.46653881669044495, -0.2750089466571808, 0.3846171200275421, 0.3539622128009796, 0.47843924164772034, -0.2601255178451538, -0.5132257342338562, 0.1545799821615219, -0.08498582988977432, 0.004996597301214933, 0.24043583869934082, 0.11719564348459244, 0.06945798546075821, -0.2728743553161621, 0.4469490349292755, 0.1238466426730156, -0.11373943835496902, 0.020587299019098282, 0.2252621054649353, -0.04159766063094139, 0.5062326788902283, 0.024913668632507324, -0.02662098966538906, -0.02986939065158367, 0.17980101704597473, -0.06218985840678215, -0.12310915440320969, 0.223700612783432, 0.1652255803346634, -0.3512619435787201, 0.10169625282287598, -0.07308237254619598, 0.1336268186569214, 0.08728931844234467, 0.01356805581599474, 0.015568786300718784, -0.209169402718544, 0.2008262723684311, -0.09300347417593002, 0.11906613409519196, 0.06757037341594696, 0.05567403510212898, 0.16722501814365387, 0.10304002463817596, 0.042753711342811584, -0.14256694912910461, 0.01228094007819891, 0.00952534843236208, 0.1654500961303711, 0.08448013663291931, -0.0404568612575531, 0.06199781224131584, -0.16521002352237701, -0.0578056164085865, 0.1309966892004013, -0.054555512964725494, -0.4409481883049011, 0.1091357171535492, 0.08728962391614914, -0.0936020165681839, 0.10159818083047867, 0.010742171667516232, 0.2571775019168854, 0.02269173040986061, -0.008354920893907547, -0.07343775779008865, -0.3960611820220947, -0.309874564409256, -0.3322838246822357, 0.22220906615257263, -0.3495495319366455, 0.1980373114347458, -0.028553253039717674, 0.16409257054328918, -0.23156294226646423, 0.07388579845428467, 0.36358943581581116, 0.05489864572882652, -0.16030827164649963, 0.04603005200624466, 0.248634934425354, 0.4304885268211365, 0.16375277936458588, 0.17776870727539062, -0.1344323307275772, -0.5970858931541443, 0.19045084714889526, 0.2574406862258911, -0.03319076821208, 0.22277918457984924, -0.18048162758350372, 0.3081967532634735, -0.1959465742111206, 0.44597357511520386, 0.15488751232624054, -0.05200287327170372, 0.06017541512846947, -0.16999660432338715, 0.20482702553272247, 0.33533933758735657, 0.042998604476451874, -0.12649887800216675, 0.04625300318002701, 0.32243937253952026, -0.2598437964916229, 0.07670482993125916, 0.185156911611557, 0.019571399316191673, -0.5290215015411377, -0.12786342203617096, -0.2918248474597931, -0.09393240511417389, -0.3429722189903259, -0.11762427538633347, 0.4288899898529053, -0.2526324987411499, -0.6219326257705688, -0.5649791955947876, -0.5585134625434875, -0.0338977575302124, 0.5532253980636597, -0.12442714720964432, 0.6913301944732666, 0.3524029850959778, 0.6109499335289001, -0.34670665860176086, -0.10383773595094681, -0.15931889414787292, -0.02933419868350029, 0.00908354390412569, 0.0016290711937472224, -0.027546633034944534, -0.057333026081323624, -0.015312024392187595, -0.06374605000019073, 0.07819602638483047, -0.0722159594297409, -0.03720325231552124, -0.026763953268527985, 0.041317570954561234, -0.11249928921461105, 0.03040860779583454, 0.0018972490215674043, 0.02586241438984871, 0.06523041427135468, 0.07153762131929398, 0.08487265557050705, -0.0407056026160717, 0.008196602575480938, 0.03117774799466133, -0.02695421315729618, -0.004744258243590593, 0.16241735219955444, 0.03760460019111633, -0.12068551778793335, 0.044555239379405975, -0.11049500107765198, 0.00016340102592948824, 0.021099183708429337, -0.00017155644309241325, 0.20941326022148132, 0.013484010472893715, -0.697242796421051, -0.19173744320869446, 0.15293428301811218, -0.09463433921337128, -0.4483233392238617, -0.055806417018175125, -0.1517903208732605, 0.09347879886627197, -0.29802724719047546, -0.010426151566207409, 0.21044695377349854, -0.0334661602973938, -0.21505001187324524, -0.1698547899723053, 0.15890967845916748, -0.054735831916332245, 0.5001956820487976, -0.17752720415592194, -0.2253180891275406, 0.03445637971162796, 0.09980811923742294, 0.06351891160011292, -0.15678898990154266, -0.2560981810092926, -0.13266818225383759, -0.09823998808860779, 0.1580825001001358, -0.16004306077957153, 0.09992270171642303, -0.21931760013103485, -0.26228857040405273, 0.28738757967948914, -0.14313748478889465, 0.178107351064682, -0.10979471355676651, -0.1119280606508255, -0.31529533863067627, 0.06795935332775116, 0.1381736844778061, -0.20997123420238495, -0.041683048009872437, -0.16379861533641815, 0.3596532642841339, 0.033063583076000214, 0.13485583662986755, -0.11529562622308731, -0.29937097430229187, -0.22999829053878784, 0.3175024688243866, 0.018009869381785393, 0.12446344643831253, 0.1243041455745697, -0.023885224014520645, 0.013829226605594158, 0.004428684711456299, -0.12839718163013458, 0.28589287400245667, -0.01549861766397953, -0.17682375013828278, -0.18482857942581177, -0.19959965348243713, -0.2427288144826889, 0.24806928634643555, 0.07414058595895767, 0.12137924134731293, -0.14942742884159088, -0.18745054304599762, -0.1398182213306427, 0.1338861882686615, -0.17615079879760742, 0.4503198266029358, 0.09158328920602798, -0.5563850998878479, 0.4787711203098297, 0.1767510175704956, -0.24528241157531738, -0.13501957058906555, 0.44691604375839233, -0.5271766781806946, 0.6279410123825073, 0.7850010991096497, 0.00821560900658369, -0.43663936853408813, 0.03858884796500206, -0.08850140124559402, 0.04331697151064873, 0.2713033854961395, -0.024329496547579765, 0.45564910769462585, -0.4314679503440857, 0.19612440466880798, 0.1606200784444809, -0.392108291387558, -0.12379631400108337, 0.5024191737174988, 0.33969277143478394, -0.13570396602153778, 0.015454787760972977, 0.47164860367774963, -0.06204385682940483, -0.00664092181250453, -0.2087475210428238, -0.10816850513219833, -0.4143916070461273, 0.09909743070602417, 0.19017115235328674, 0.26616039872169495, -0.058232758194208145, -0.07943142205476761, 0.28577831387519836, 0.1931944340467453, -0.21963411569595337, 0.43151524662971497, -0.4579870104789734, -0.023672962561249733, 0.3580645024776459, 0.20608149468898773, -0.34170278906822205, -0.1282312422990799, -0.1071632131934166, 0.5692418217658997, -0.02454463019967079, 0.038398876786231995, 0.3049165904521942, 0.29108181595802307, -0.20365343987941742, 0.14798502624034882, 0.1873360425233841, -0.10384682565927505, -0.00917461235076189, -0.06818564236164093, 0.04475318267941475, 0.04732748493552208, -0.05964455381035805, -0.08923819661140442, 0.2635009288787842, -0.08644687384366989, -0.02304135076701641, -0.039934318512678146, -0.1178724467754364, -0.2517396807670593, 0.15835675597190857, -0.275228351354599, 0.18774884939193726, -0.05175796151161194, -0.023850465193390846, -0.13548269867897034, -0.07047127187252045, -0.03989813104271889, 0.04470084235072136, 0.025851942598819733, 0.015375605784356594, 0.014360859990119934, 0.21091455221176147, 0.031161746010184288, 0.3182419538497925, 0.10372115671634674, 0.0046979645267128944, -0.06404237449169159, 0.2906140387058258, -0.026860089972615242, -0.06501979380846024, -0.03912745416164398, 0.06527470797300339, 0.21998533606529236, 0.004211896099150181, 0.182332843542099, -0.2634641230106354, 0.08978860825300217, 0.22628645598888397, 0.2898324728012085, 